0,05
-0,23
-0,26
0,02
0,15
-0,09
-0,01
-0,25
0,24
-0,09
0,26
0,08001451
-0,1899855
0,09001452
0,2200146
-0,2899855
-0,08998553
-0,0199855
0,05999996
-0,22
-0,07000003
0,1100031
0,01000314
0,1000031
-0,1699969
-0,2399969
-0,01999684
0,01000314
0,29
0,07000004
0,01000004
0,1
0,04000004
-0,09999996
-0,19
0,19
0,08000004
-0,15
-0,28
-0,25
-0,21
0,08000004
0,16
2,640012E-08
0,26
-0,3
-0,08999997
0,17
0,2500001
-0,17
0,06000002
-0,06999998
0,05000002
0,06000002
0,13
0,24
0,05000002
-0,06999998
-0,12
0,09000003
0,22
0,28
-0,24
-0,13
0,19
-0,15
-0,27
0,21
-0,02000001
-0,28
-0,08000001
-0,25
-0,04
0,01
0,29
0,15
0,25
-0,29
0,14
-0,17
0,15
0,11
0,05
0,15
-0,3
-0,22
-0,26
0,28
0,060001
-0,1299988
-0,1599983
-0,1499918
0,2600078
-0,06999172
-0,1799919
-0,1999918
0,02000835
-0,01999165
0,1000083
0,1
0,27
1,080249E-12
-0,12
0,22
0,21
0,01
0,26
-0,26
0,06001453
0,2800145
0,2800145
0,03001455
0,09001454
-0,2499854
0,2300146
-0,1899854
-0,07998545
-0,09998545
-0,14
0,1100032
-0,1899969
-0,249997
-0,159997
-0,199997
0,1800031
-0,2299969
-0,2199969
-0,2799971
-0,11
0,18
-0,18
-0,03999996
-0,09999996
-0,26
-0,14
-0,1499999
-0,07999992
0,1300001
0,2400001
-0,01999993
-0,1899999
-0,3
-0,08999998
0,08000002
-0,12
0,1
0,06000002
0,21
-0,009999975
-0,3
0,18
-0,19
-0,18
0,29
-0,01999998
0,22
-0,15
-0,23
-0,26
0,13
-0,06999998
0,23
0,15
0,17
0,15
0,01999999
-0,17
0,03999999
0,19
0,07999999
0,19
0,07999999
-0,04000004
0,17
-0,01000004
-0,19
0,13
0,05999997
0,22
-0,23
0,009999968
-0,14
0,02999997
-0,12
-0,3
-0,2899989
-0,1599988
-0,0899987
0,05000867
-0,0599915
0,2900081
-0,1599916
0,09000854
-0,1999771
-0,2499771
-0,1299771
-0,1599771
0,0300231
0,2200229
0,16
-0,03
-0,29
-0,28
0,21
-0,19
-0,21
0,15
-0,06
-0,009985469
-0,1299854
-0,2199854
0,09001447
-0,1499855
0,2600145
-0,1799854
-0,2399854
-0,09998545
-0,02998538
0,1700001
0,1300031
-0,1299969
0,2200031
0,2800029
-0,04999684
0,08000321
0,04000322
0,290003
-0,1499969
0,11
-0,1799999
0,2600001
-0,2099999
0,1300001
-0,2499999
0,1000001
-0,00999996
-0,16
0,11
-0,24
0,2
-0,14
0,19
0,21
-0,12
-0,15
-0,1
0,28
0,13
0,28
0,29
0,27
0,17
0,16
-0,22
-0,02000001
0,03999999
-0,27
0,06999999
-0,18
0,05999999
-0,2
-0,01000001
0,12
-0,13
-0,1
0,28
0,25
-0,2
-0,15
0,12
0,21
0,07999999
-0,1
0,26
-0,03
-0,03
-0,3
0,09
-0,21
-0,13
0,05999997
-0,14
-0,1299997
0,1200003
-0,1499997
-0,2099982
-0,06999442
0,05000559
0,0600085
-0,2499917
-0,03997689
0,07002305
-0,009976791
2,323067E-05
0,1000231
0,1700229
-0,2299771
0,04002304
0,2800225
-0,14
-0,05
0,18
-0,03
-0,15
-0,22
-0,12
-0,03
0,19
0,1100145
-0,2899855
0,03001456
-0,06998545
-0,02998541
0,2500145
-0,2999855
0,2300146
-0,1899854
-0,2999855
-0,2899999
-0,1899969
0,05000318
-0,09999686
0,03000317
-0,2099969
-0,1499969
-0,1699969
-0,2099969
0,2000031
-0,14
0,1000001
-0,09999993
-0,03999993
0,1100001
0,2200001
0,2200001
0,17
0,19
-0,29
0,02999999
0,26
0,11
0,02999999
0,23
0,04999999
0,009999991
-0,27
-0,21
0,02999999
-0,01000001
0,16
0,04999999
-0,24
0,01999999
0,16
0,11
-0,25
-0,15
-0,13
0,29
0,24
-0,21
0,05999999
0,02999999
-0,29
0,09999999
-0,23
0,11
0,04999999
-0,28
-0,17
-0,26
-0,21
-0,04000001
-0,25
-0,01000001
-0,29
-0,04000001
0,27
0,07999996
-0,18
-0,27
0,05000004
-0,0999988
-0,00999878
-0,259999
-0,1699982
0,2300055
0,2500052
-0,1999917
0,1700083
0,02002318
0,01002321
-0,2899774
0,09002308
0,1700229
-0,2599774
-0,2999775
0,2200229
0,2500225
-0,06
-0,09
0,04
0,01
-0,14
0,12
-0,04
0,1
-0,03
-0,1399855
0,1000145
0,08001453
-0,1299854
0,09001455
0,1700146
0,2000146
0,03001459
-0,1399854
-0,2699855
0,2600001
-0,03999674
-0,1699969
0,1600031
-0,05999684
-0,1499969
0,1000032
0,03000326
-0,2299969
0,1700031
-0,1299999
-0,05999993
-0,3
0,04000002
-0,28
-0,17
0,21
-0,02000001
-0,26
-0,26
0,17
0,07999999
0,02999999
-0,04000001
0,07999999
-1,507712E-08
-0,22
-0,15
0,22
-0,16
0,18
-0,16
0,18
0,27
0,25
-0,02000001
-0,2
0,03999999
-0,2
-0,15
0,04999999
-0,21
-0,12
0,22
-0,21
0,21
0,09999999
-0,26
-0,16
-0,05000001
0,26
-0,08000001
-0,01000001
-0,19
-0,14
-0,12
0,23
0,16
-0,22
0,24
-0,239999
-0,04999897
0,100001
0,230001
0,2900017
-0,2699947
0,06000559
-0,269992
0,08000845
0,0400085
-0,2699919
-0,1399916
-0,1199769
0,180023
-0,01997682
0,08002307
-0,0999769
0,1000231
-0,1299771
0,1600229
0,2000229
-0,26
-0,3
-0,04
-0,12
-0,05
0,14
0,06
0,11
0,07
0,04001454
-0,05998544
-0,03998544
-0,1399854
-0,2199854
-0,1999854
-0,01998541
-0,05998542
0,2300146
-0,2499854
-0,1499999
0,06000324
-0,03999684
0,09000321
-0,07999674
0,09000325
-0,269997
0,1000032
0,1300031
0,07000321
0,2800001
-0,17
-0,009999976
-0,09000001
-0,27
-0,2800001
-0,06000004
-0,17
0,03999995
0,02999995
-0,12
0,2899999
-0,08000004
-0,3000001
-0,3000001
0,08999996
0,19
-0,2800001
0,08999996
-0,12
-0,2
0,25
0,16
-0,1800001
-8,955848E-08
-0,17
0,06999997
-0,09000003
-0,26
0,07999997
-0,08000003
-0,26
0,23
-0,27
0,09000001
-0,09
0,25
-0,25
-0,18
-0,24
0,15
-0,16
0,2
-0,11
0,16
-0,14
-0,16
-0,04999985
0,09000015
0,1300001
0,200001
-0,2899983
-0,2999983
-0,05999823
-0,0299982
-0,2799947
-0,03999437
-0,1399917
0,2000083
0,2000083
-0,0599914
-0,2699919
-0,209977
0,2600226
-0,189977
-0,159977
-0,239977
-0,1199769
-0,08997694
0,08002307
0,1300229
0,14
0,19
0,03
0,03
0,25
-0,25
-0,04
-0,05
-0,16
0,2800145
-0,1799854
0,1100145
-0,09998545
0,1800146
-0,09998545
-0,2699855
-0,01998534
0,06001466
0,06001466
0,2400001
0,08000327
-0,1599969
-0,07999675
0,1100032
0,1100032
-0,2499968
0,2300031
-0,2199969
0,02000316
-0,21
0,2599999
-0,2700001
-0,3000001
0,2899999
-0,24
-0,19
-0,04000004
0,2099999
0,009999954
0,2699999
0,2899999
0,2099999
0,04999992
0,2099999
-0,1800001
-0,08000008
0,18
-0,23
0,2
-0,2
0,06999997
0,12
0,15
0,14
-0,25
-0,01000003
-0,03000003
0,22
0,22
0,2
-0,19
-0,13
0,23
-0,26
-0,28
-0,21
0,09999997
-0,09000003
0,12
-0,22
0,06
0,07000004
-0,2599999
0,08000018
0,2400001
0,1600002
0,08000018
1,828295E-07
-0,01999982
-0,1199991
-0,1399983
0,1600055
-0,1199944
-0,0899915
0,02000859
-0,1699916
-0,1299916
-0,1399916
0,2300084
0,06000866
0,1400085
0,04002319
0,2900226
0,1100231
0,160023
0,1100231
0,2800224
0,01002238
0,1800222
-0,2799782
0,11
-0,04
-0,05
0,11
0,03
-0,3
0,07
-0,24
0,19
-0,1199855
0,2100146
0,2700145
-0,06998545
0,03001459
0,03001459
-0,05998538
0,2900145
0,01001473
0,02001786
0,1900032
0,2100032
-0,06999682
-0,02999674
-0,2499968
-0,05999683
-0,2799971
0,07000312
-0,06999688
0,220003
-0,17
0,18
-0,23
0,11
-0,04000008
0,06999991
0,1899999
-0,1000001
0,06999992
0,17
0,009999951
0,04999995
-0,2
-0,03
0,04
0,15
0,17
-0,2
-0,05
-0,23
-0,09
0,12
-0,04
0,28
0,29
-0,19
-0,13
0,29
-0,11
-0,14
0,01
-0,08
-0,16
-0,16
0,06
6,086682E-10
0,13
-0,15
0,2700001
0,2600001
0,1400001
-0,27
-0,08999994
0,1300002
-0,2999999
-0,17
0,09999999
0,26
0,2200006
-0,09999938
0,06000535
0,2100055
-0,1799916
-0,1399916
8,631873E-06
8,63139E-06
-0,0899915
-0,2199916
0,1100085
-0,1599916
-0,1099914
0,2000085
-0,2899774
-0,09997684
-0,139977
-0,2099739
-0,08997374
0,2600253
0,2100253
-0,2599753
-0,2899753
0,01000004
-0,17
-0,01
-0,08
-0,13
-0,1
0,13
0,27
0,16
0,01001455
-0,08998545
-0,2399854
0,2900145
0,09001459
0,09001464
-0,1999854
0,2700146
0,1400147
-0,2499823
-0,2199968
0,04000328
0,0300032
0,1300031
0,07000316
0,2300031
-0,2799971
-0,2899971
-0,03999688
0,210003
0,21
0,1399999
-0,2600001
0,1799999
-0,1200001
-0,2500001
0,07999992
0,12
0,23
-0,18
-0,21
0,08
-0,19
0,25
0,13
0,27
0,14
-0,28
0,1
0,07
0,28
-0,07
-0,19
0,15
0,26
-0,03
0,27
-0,01
0,22
-0,01
-0,15
-0,11
-0,14
-0,24
0,24
0,1700001
-0,1399999
-0,1299999
0,1000001
0,04000007
-0,3
-0,02999994
-0,2599999
0,01000016
0,2600001
-0,009999348
-0,06999941
0,08000174
-0,2999984
0,09000169
-0,2099945
-0,2999948
-0,09999154
0,1900083
0,2200083
-0,01999141
0,02000859
-0,1199915
0,2200083
0,2100084
-0,2299915
-0,2199915
0,200023
-0,05997364
0,2700255
0,190026
-0,08997379
-0,2599747
-0,2999753
0,2600246
0,1100254
-0,03999997
-0,09
-0,24
0,06
0,01
-0,12
0,1
0,19
-0,03999998
-0,2699855
-0,1099854
-0,009985409
-0,1799854
-0,1099854
-0,1599853
0,2900146
-0,02998528
-0,1699853
-0,03998218
-0,1599968
0,270003
-0,0499968
0,1900031
-0,02999683
0,210003
0,06000314
0,09999999
0,02999998
-0,24
-0,22
-0,1200001
0,07999992
-0,2700001
0,2799999
0,1199999
0,07999992
-0,16
-0,18
-0,09
-0,21
0,21
-0,01
-0,05
0,17
0,17
0,09
0,07
-0,26
0,12
0,2
0,24
0,21
0,03
0,11
0,13
-0,3
0,01
0,08
0,15
0,24
0,08
-0,24
0,13
-0,12
0,1500001
0,1100001
-0,04999993
-0,1599999
0,06000007
0,05000016
0,1400001
-0,16
0,2100008
-0,1299989
-0,07999825
-0,0199982
-0,2999947
-0,2799947
0,09000843
-0,1799917
0,290008
0,0600085
0,2000083
-0,1499917
-0,1699916
-0,02999141
-0,2599919
-0,07999151
-0,1499916
0,1200086
-0,2299915
0,05002319
-0,02997361
-0,02997361
2,642025E-05
0,150026
0,1500256
-0,229975
-0,2899756
-0,239975
-0,17
-0,08
-0,03
-0,24
-0,25
0,09
0,29
-0,15
-0,12
-0,1599854
-0,2999855
-0,009985409
0,2800145
0,02001467
0,2500146
-0,2799854
-0,1499853
-0,02998531
-0,2599825
-0,1199967
0,06000328
-0,2699971
0,2900029
0,2400031
-0,01999688
-0,219997
0,17
-0,06000005
0,17
0,06999995
0,1299999
0,2199999
-0,3
0,02999997
0,29
0,05999997
-0,22
0,13
-0,2
0,03
-0,03
0,18
-0,27
-0,3
0,11
0,08
0,07
0,25
0,02
-0,02
-0,01
-0,12
-0,28
0,13
9,413896E-14
-0,21
-0,07
0,03
0,08
0,26
0,22
0,05000007
-0,01999994
0,1100001
7,426035E-08
-0,2199998
-0,02000004
-0,05000002
0,01999996
-0,12
0,2300003
0,01000095
-0,1399955
8,595878E-06
0,2000083
0,1700083
0,290008
0,280008
-0,1799917
0,2000083
0,01000858
0,2200083
0,2200083
-0,1199916
-0,2199917
-0,04999149
0,2000083
-0,1399916
-0,2799919
0,1900085
-0,1699915
0,05002318
-0,249974
-0,169974
0,1100262
0,210026
-0,09997419
-0,07997772
2,241132E-05
0,03002235
-0,21
-0,19
-0,08
-0,17
0,04
0,27
-0,29
0,01001455
0,2200146
0,1200145
-0,2099854
-0,05998538
-0,09998537
0,1700146
-0,0599853
-0,2999854
0,1200147
-0,2099853
0,03001778
-0,249997
-0,1299969
-0,1899969
-0,07999688
0,1200031
-0,249997
-0,1199969
-0,04000005
-0,2700001
0,19
0,2899999
-0,03000003
0,06999997
-0,02000003
0,08999997
0,11
-0,1
-0,01000003
0,08999997
0,14
-0,2
-0,07
-0,12
-0,06
-0,11
0,1
0,18
-0,15
-0,12
0,18
0,11
-0,21
-0,2
0,19
-0,06
-0,15
0,27
0,18
0,09
-0,2299999
-0,1499999
0,01000007
0,2800001
0,1200002
0,23
-0,15
0,01999996
0,2600001
0,1
-0,24
-0,2599993
7,71431E-06
-0,2699926
-0,04999148
-0,07999152
0,1100085
0,290008
0,1700083
-0,269992
-0,279992
-0,1299917
-0,2699921
-0,2199917
-0,1599916
-0,2199916
0,1900084
-0,1399915
0,1800085
-0,2599956
-0,06999532
0,1300084
0,01000874
0,200023
0,01002641
-0,01997371
0,09002616
-0,04997377
0,06002592
2,242982E-05
-0,2599783
-0,2199778
0,22
0,04
-0,19
0,14
-0,19
-0,25
0,14
-0,03998544
0,1200145
-0,1399855
-0,1999854
0,1500146
0,06001467
0,2000147
-0,1799853
-0,06998534
0,1300177
0,04001776
-0,2699826
0,2800028
0,130003
0,210003
-0,129997
-0,06999691
0,03000309
0,09000309
0,009999948
0,2599999
0,12
-0,14
-0,08000003
-0,13
0,28
0,24
-0,06000003
-0,02000003
0,26
-3,788121E-08
0,26
0,14
0,01
-0,09
-0,09
-0,23
0,03
0,16
-0,17
0,11
-0,15
-0,14
0,11
-0,28
-0,04
-0,25
-0,06
-0,3
-0,1399999
0,1800001
-0,2000001
0,009999866
0,02999987
0,1799999
0,14
-0,04000002
0,23
0,22
0,1600007
0,1200035
-0,04999639
0,1300043
-0,03999148
-0,1699917
0,07000848
-0,1099916
-0,03999155
-0,07999158
8,526664E-06
-0,1999917
0,1900083
0,1700084
-0,03999141
0,2000084
0,1000085
-0,03999431
0,04000553
-0,09999437
0,2000084
0,2300046
-0,009995189
-0,05999145
-0,1799885
-0,219974
-0,1099738
-0,04997377
-0,199974
0,130026
0,07002584
0,2500218
-0,1699777
0,1000224
0,29
0,01
-0,15
0,02
0,19
-0,01999998
-0,04999998
-0,2399854
0,08001447
-0,2799856
1,469319E-05
-0,2399854
0,2800146
-0,06998534
-0,2499854
0,1300146
-0,2299823
-0,1199823
0,2200176
0,02000308
-0,2799971
0,2300031
-0,179997
-0,2899971
0,01000309
-0,1199969
0,23
-0,19
-0,21
0,12
0,15
0,03999997
0,26
-0,21
0,17
0,24
0,03999997
-0,22
0,06
-0,25
0,25
0,13
-0,16
-0,03
0,23
-0,25
-0,2
0,25
-0,1
-0,04
0,06
-0,1099999
-0,27
0,1000001
0,08000006
-0,2400001
-0,1200001
-0,1600001
-0,2999999
0,009999963
0,03999998
-0,17
0,2700001
0,2500007
-0,1399993
0,2500007
-0,1999991
0,1800037
0,06000764
-0,1999917
-0,2099917
0,280008
0,1100084
0,1600083
0,07000843
-0,1199916
0,08000858
0,1400084
-0,2299916
-0,03999145
-0,2199923
0,2700074
0,2100077
0,1200057
-0,2399983
-0,03999827
0,01000479
-0,1499954
4,834657E-06
0,1000085
0,05001172
-0,1099738
-0,219974
-0,2599746
2,568755E-05
0,1100255
0,150025
-0,1199777
-0,1999808
0,2800188
0,25
-0,09
-0,11
-0,21
-0,13
0,07000002
0,07000002
-0,1399854
-0,2699856
-0,09998549
-0,01998533
0,04001465
-0,2399854
0,04001464
-0,06998539
0,07001459
-0,07999683
-0,1499968
0,1900031
0,2000031
-0,06999689
0,240003
-0,129997
0,2500029
0,05
0,19
0,2
0,06
-0,15
0,25
0,01999997
-0,1
0,03999997
-0,21
-3,786488E-08
0,17
0,07999997
0,11
-0,06
-0,02
0,18
-0,16
-0,18
-0,2
-0,18
-0,29
-0,17
0,03
0,11
0,23
-0,11
7,355789E-08
-0,01999994
-0,09999994
0,04000007
-0,2999999
-0,2699999
-0,06000002
0,03999998
-0,03000004
0,1700003
-0,2999996
-0,2899996
-0,2299991
0,1700037
-0,2199917
-0,299992
0,270008
-0,269992
0,06000846
0,280008
0,1100084
0,2000083
-0,09999157
-0,289992
-0,2199917
0,1200085
-0,2299917
0,1200085
0,03000857
0,06000771
-0,1399991
0,2500007
-0,0899982
0,0600017
-0,2799984
0,2100046
-0,1699954
0,04000472
-0,009991321
0,1300114
-0,159974
-0,2399739
0,2700254
0,1100255
0,1800254
-0,169975
-0,2599783
-0,07998066
-0,2599811
-0,29
-0,15
7,51485E-10
-0,26
0,25
0,07000002
0,09000003
-0,2199854
-0,1199855
-0,03998542
-0,1199854
0,2600145
0,1100146
-0,2899855
0,2100146
0,01001466
-0,2599971
0,0900032
0,01000323
0,1500031
-0,1399969
0,160003
-0,06999692
0,04000309
0,22
0,14
0,04
0,23
0,08999997
-0,17
0,25
0,07999997
0,14
0,07999997
0,009999966
-0,09000003
0,16
0,2
-0,04
0,28
-0,08
0,12
0,25
-0,22
-0,19
0,17
0,02
-0,25
-0,25
-0,21
0,14
0,03000006
0,03000016
0,07
0,17
-0,15
0,2100001
0,2600002
-0,1799999
-0,1999999
-0,269996
0,1500069
-0,01999206
-0,2499917
8,602852E-06
0,1000085
-0,1899917
-0,269992
-0,009991468
8,538383E-06
0,1500083
-0,1699916
-0,1799917
0,02000861
-0,06999151
0,03000861
0,2000082
-0,1499923
-0,06999506
-0,259999
-0,189999
-0,009998899
0,180001
1,897841E-06
-0,00999826
-0,07999828
-0,2499954
-0,2399954
0,2000046
-0,1399916
-0,009988226
0,190026
0,08002623
-0,139974
0,2500248
0,06002577
-0,1599757
0,2000215
0,0700185
1,846193E-05
0,05
-0,01
0,06
0,05
-0,06
1,321331E-08
-0,09999998
-0,2999855
-0,1699855
-0,1699854
-0,0499854
0,0600146
0,03001466
-0,2299854
0,2800145
0,04001462
0,2700029
0,280003
0,0600032
-0,2199969
0,05000311
-0,2599971
-0,179997
-0,1699969
-0,29
0,25
0,05
0,26
0,05999997
0,17
-0,11
-0,3
0,06999997
0,22
-0,02000003
0,11
0,23
-0,18
-0,25
0,28
-0,29
-0,26
0,23
0,06
0,21
0,22
-0,14
0,01
-0,1300001
-0,0900001
0,0799999
-0,1400001
-0,17
-0,01000004
0,2500001
-3,141943E-08
-0,1299997
-0,06999587
0,04000701
-0,009992987
0,2500074
-0,05999235
-0,05999148
-0,03999148
0,2400083
-0,05999153
0,290008
0,1000084
0,08000842
-0,1399916
0,1100086
0,1500084
0,2200083
0,07000849
-0,2399923
0,01000508
-0,1899992
0,05000089
-0,08999911
-0,2199991
0,08000107
-0,2599991
0,08000104
-0,1599983
-0,2199983
-0,2799984
0,1600046
-0,2299954
0,2600044
0,2700081
-0,05998832
2,639112E-05
0,08002623
0,0600262
-0,2699752
0,0700257
0,09002445
-0,03997843
0,1200185
-0,03998154
0,23
0,05
0,22
-0,29
0,1
0,23
-0,06999998
0,06001463
-0,0799855
-0,05998547
-0,1099854
0,1100146
-0,2899855
-0,04998222
0,2000177
0,2100176
0,1500031
-0,2099969
-0,1299969
0,210003
0,08000315
0,210003
0,130003
0,1000031
0,21
-0,2
-0,24
-0,14
0,03999997
-0,01000003
0,21
0,14
0,23
0,25
-0,15
-0,28
-0,19
0,07
0,04
-0,15
0,09
-0,21
0,14
0,02
0,08
0,1299999
-0,0200002
-0,1700001
0,1500001
-0,18
0,21
-2,988898E-08
-0,22
0,2000032
0,1800037
-0,2899963
0,2200037
-0,1899925
-0,2099925
-0,009992287
0,1600075
-0,2399925
-0,279992
0,2300085
0,03000871
0,04000864
0,1700084
-0,2399916
-0,2099916
0,1700083
0,09000849
-0,2199923
0,05000503
-0,2799955
-0,1799952
-0,01999507
-0,2399992
-0,1899992
-0,2799993
-0,2199999
0,1200002
0,2300002
0,01000022
-0,08999526
0,07000466
-0,09999533
0,05000472
-0,2699956
-0,2399954
-0,1699916
-0,1999886
-0,2999746
-0,02997373
-0,2599747
-0,009974353
0,02002582
-0,2299757
0,2100214
0,2900182
-0,2599818
0,26
-0,08
-0,27
0,27
0,02000002
0,13
0,25
-0,2399854
0,08001449
-0,1099855
0,2500145
0,1000146
-0,2099854
-0,2899826
0,1700177
0,2300176
0,05000315
0,1000032
-0,1499968
-0,1799969
0,280003
0,1400031
0,29
0,25
0,07
0,09
0,1
4,496968E-10
0,02999997
0,09999997
-0,1
-0,15
-0,19
0,27
-0,18
-0,11
0,19
0,03
0,19
0,24
-0,05
-0,01
-0,06000017
0,1599999
-0,1200001
-0,01000003
0,2
-0,04000001
-0,13
0,05999998
0,2600004
-0,02999911
0,05000088
0,1600037
-0,2399925
-0,1899925
-0,06999239
-0,2299925
-0,09999152
0,2300083
-0,279992
-0,04999136
0,0300087
0,2700081
0,290008
0,1000085
-0,009991366
-0,1899917
0,1900083
-0,0299914
-0,2699924
-0,2799929
0,2000046
-0,08999912
0,1700008
-0,009999106
-0,11
-0,18
0,07000001
-0,2299999
0,1800002
-0,1599998
-0,1699998
0,2700045
0,1300046
0,2300046
0,09000468
-0,05999145
0,2100084
-0,2999775
0,2600254
0,1200262
-0,179974
0,2600252
0,2100253
0,2900248
0,2500238
-0,02997843
0,1700184
0,08001844
-0,3
0,08
0,07
0,19
0,02000002
0,2300001
0,06000005
-0,1599854
0,2900144
0,07001449
0,2200146
-0,1999854
1,467696E-05
-0,1699824
-0,2599826
0,1800176
-0,1799969
0,06000326
-0,1599968
-0,2499969
-0,2999971
-0,2599971
-0,1
0,18
-4,436421E-10
-0,1
0,2
0,24
-0,01000003
0,17
0,02999997
0,22
-0,06000003
0,28
-0,24
-0,2
0,07
-0,07
-0,06
0,2
-0,14
-0,05999991
-0,05000002
-0,16
-0,22
0,16
-0,1799993
0,2800007
0,2200007
-0,2799956
0,1700075
-0,1099924
-0,1799925
0,1100076
0,07000761
0,2600074
-0,1199924
0,1800075
-0,1099916
-0,1799917
-0,269992
0,1100086
0,1500083
-0,1899917
-0,2699921
0,2900079
0,1500082
0,01000854
-0,2299918
0,2300076
-0,1899992
0,1800008
-0,1799992
-0,05999912
0,1900008
0,06000088
0,09
-0,25
0,1
0,1400001
-0,2199998
0,2100002
-0,2799998
-0,0399952
0,2900044
-0,1599954
0,09000468
0,1300084
-0,09999149
-0,1999771
0,220026
0,180026
-0,2599746
-0,1899742
0,1600252
0,05002563
0,09002444
-0,1699824
-0,1999854
-0,2199854
-0,3
0,1
0,21
0,28
0,21
0,28
-0,24
0,1800146
0,2200145
-0,2899856
-0,1399854
-0,1799854
-0,2299854
0,04001768
-0,2699826
-0,1899823
0,09000318
-0,1199967
-0,1899968
0,1900031
-0,09999686
-0,2799971
-0,2
0,26
-0,29
-0,08
0,14
-0,3
0,06999997
-0,16
0,26
-0,05000003
0,25
0,009999967
0,14
-0,02000003
-0,3
-0,27
0,05000009
-0,2999999
-0,23
0,2
0,2
-0,11
0,23
0,1
0,1000047
-0,009992343
-0,2199925
0,05000762
0,2500074
-0,0899924
-0,2899926
-0,0899924
0,1800075
0,2700081
-0,009991201
0,2400085
0,2600079
-0,01999139
-0,1599917
-0,2399917
-0,1899917
0,08000848
-0,2599948
0,2100016
-0,1299986
0,06000151
0,2000014
0,05000091
-0,1899992
0,05000088
0,1200009
-0,1999992
0,1200009
-0,00999911
-0,18
0,21
-0,27
-0,08999989
0,1100002
-0,1599998
0,2200002
-0,2899956
-0,1199953
0,05000479
-0,05999522
0,03000867
0,1200085
0,1600229
0,2800255
-0,239974
-0,229974
-0,2399743
0,1600251
-0,2999781
0,09002157
-0,1799824
-0,1599999
-0,2799999
-0,07
-0,26
0,09
0,02000002
-0,06000003
-0,09998544
0,08001456
0,2000146
0,08001449
-0,1099855
0,1500146
0,0700177
0,2000176
0,05001768
0,1700177
0,2900174
-0,1599969
-0,2099968
-0,1099968
-0,009996862
-0,02999686
0,130003
0,23
-0,27
0,06
-0,25
-0,02
0,05
-0,06000003
0,11
0,19
0,29
0,06999997
-0,29
0,28
0,06999998
0,05
-0,1100001
0,06999995
0,2800001
0,2600001
0,0300038
0,2500037
-0,06999528
-0,2999954
-0,09999241
-0,1499925
0,01000766
-0,1099924
0,1700075
0,1500075
-0,009992287
0,2200075
0,1500077
0,05000783
0,09000865
-0,1999915
0,0600087
0,2600079
-0,1099915
0,2100083
-0,2699948
-0,0399982
0,2600012
-0,009998417
0,1500014
-0,2999993
0,1900008
0,07000088
-0,1999992
-0,05999912
0,2500007
0,02000089
-0,08999912
0,02000089
0,2300008
0,18
1,461157E-08
-0,28
-0,1499999
0,1900008
0,2600008
-0,1499994
0,07000459
0,2500044
-0,09999526
-0,2299954
0,2100084
-0,03999145
-0,1199769
-0,03997374
0,2900254
-0,06997389
-0,1199741
-0,2399748
0,2300224
-0,2399785
0,2800174
0,2300001
-0,1499999
-0,1
-0,05
0,24
-0,21
-0,07999995
0,2000145
0,2700144
1,453885E-05
-0,1799855
0,1100145
0,2100146
0,1000177
0,0300177
0,1000176
-0,009982244
0,2400177
0,1700031
0,1900032
-0,299997
-0,2099969
0,08000313
-0,2199969
-0,07
-0,12
0,13
-0,05
0,02
-0,17
-0,15
0,08999997
0,16
0,2000001
0,06000006
0,1700001
0,2500001
-0,06000004
-0,2799999
-0,2499994
-0,1599994
-0,2499994
-0,07999913
0,06000471
0,0900076
0,1400075
-0,03999238
0,1500075
-0,04999235
0,1200076
0,1900075
-0,1899925
-0,2499924
-0,1299924
0,2700081
0,1400085
0,0600087
-0,1899917
-0,279992
0,05000854
-0,03999436
0,2700052
-0,1199953
0,1400046
-0,1499992
0,02000093
0,2400008
-0,2899993
-0,2699993
0,1500008
0,1400008
-0,2499992
0,2100008
0,1200009
0,04
0,25
0,16
-0,29
-0,00999999
0,09000002
0,22
0,2800001
0,2900008
0,1900008
-0,05999936
-0,2699956
0,04000469
-0,009995123
0,2200046
0,2200084
-0,1999916
0,1300229
-0,08997381
-0,02997371
0,09002612
-0,1299743
0,1600251
0,08002259
-0,08997843
-0,2399824
0,1900001
-0,05999992
0,12
0,1
0,28
0,14
-0,1099999
-0,0799855
0,1200145
-0,2899855
0,2800145
0,05001464
0,1200146
-0,0699823
0,1200177
-0,02998225
0,2700174
-0,009982236
-0,09999681
-0,1899968
0,270003
-0,04999686
-0,22
-0,2
0,04
-0,3
0,13
-0,05999999
-0,28
-0,1299999
-0,2199999
-0,2299999
0,09000014
-0,07999986
0,19
-0,02999998
-0,1499993
-0,1099994
0,2000007
0,09000068
0,1400045
-0,1899955
0,1600047
0,2100047
0,2400075
0,05000765
-0,2899926
0,2800074
0,1400075
-0,1899925
-0,1099922
-0,1299924
-0,1199922
-0,1999924
-0,2199917
-0,06999152
-0,1399917
0,01000863
-0,2499918
0,2700037
-0,2899991
0,2500009
-0,1099991
-0,05999912
0,2200008
0,2000008
0,2500007
-0,09999912
0,03000088
-0,1499992
-0,1799992
0,07
0,08
0,1
-0,03
0,15
0,08
-0,13
-0,14
0,29
0,29
0,1400001
0,09000081
0,2100008
0,2700007
0,2100045
0,1800046
-0,009995124
-0,1699954
-0,04999135
-0,1899916
0,1400229
-0,159974
0,2300254
0,08002573
0,1800253
0,2200253
-0,07997743
0,2800211
-0,2699826
0,09000005
0,1000001
-0,04999996
-0,01
0,2899999
0,12
0,09000006
0,0800145
0,1200145
-0,0799854
0,1500146
0,2900145
-0,1499854
-0,2399824
0,2700174
-0,1399823
-0,1499969
-0,01999673
-0,02999672
-0,289997
-0,2799971
-0,03999686
-0,2399999
-0,2299999
-0,2599999
-0,0299999
-0,0699999
0,1400001
-0,2899999
0,08000013
0,2300001
-0,1399993
-0,1199993
-0,1799993
-0,1099994
-0,1199955
-0,1199955
-0,1999955
0,2100047
-0,1499953
-0,1899953
-0,2099925
0,1600075
0,2000075
0,1000076
-0,1799925
-0,01999232
-0,2199925
0,2500073
-0,07999245
0,03000773
-0,06999239
0,2500073
0,2700067
-0,2899926
-0,1699923
0,0400041
-0,1299961
-0,05999909
0,01000094
-0,1199991
0,2400008
0,07000088
-0,2599993
-0,01999912
-0,01999912
0,1000009
-0,2799993
0,1600008
0,08000088
0,2700007
-0,25
0,07
-0,19
0,19
0,22
0,09
-0,14
-0,04
0,22
0,28
-0,1499999
0,180001
0,090001
-0,2499992
4,716601E-06
-0,08999532
-0,08999527
-0,1999954
-0,2399885
0,1400114
-0,2999746
0,150026
-0,09997443
0,2600249
-0,1299748
0,02002559
0,1100226
-0,08997844
-0,1799824
0,01000003
-0,03999997
-0,08999997
-0,14
-0,06000001
-0,02999999
0,16
0,1300145
-0,2299855
-0,2099854
0,03001466
-0,1299854
0,2100146
0,02001772
0,02001775
-0,2699826
-0,2499969
0,270003
0,290003
0,280003
-0,2399968
-0,1099968
0,2200007
0,1000007
0,2400007
0,2600006
-0,09999925
-0,1399993
-0,1599993
0,0200046
-0,1099954
0,2800043
0,2400045
-0,1599955
-0,0899955
0,02000765
0,2400075
0,02000765
-0,1499925
0,0700076
0,1400075
0,08000761
-0,1699925
-0,2999927
0,02000762
-0,03999241
-0,2099925
-0,1699925
0,1700075
0,2300075
-0,1799917
0,0400041
0,120004
-0,06999596
-0,2499961
-0,1899992
0,03000093
0,1000009
-0,07999912
-0,02999912
-0,2299992
-0,009999119
-0,009999119
0,05000088
0,2000008
0,05000088
-0,06999912
0,07
-0,19
0,29
-0,21
0,03
0,12
-0,09
-0,17
-0,02
-0,24
0,21
-0,23
-0,02999998
0,17
-0,2399999
-0,009998934
-0,099999
-0,1099991
0,1400046
-0,1499954
0,01000488
-0,2199954
-0,2099885
0,290011
-0,169974
-0,209974
0,1700254
2,59331E-05
-0,1499748
-0,2199747
0,07002263
-0,1999785
0,2700174
-0,27
0,02000003
-0,29
0,18
0,14
0,08000001
0,21
-0,0999855
-0,2099855
0,0700146
-0,2499854
0,1200177
0,02001777
0,2400177
0,1000177
-0,2999826
-0,2999971
-0,2199968
-0,1499969
-0,2499968
-0,1099968
0,2100032
-0,01999927
-0,2899993
-0,2999993
0,2500007
-0,0699954
0,2500044
0,2100047
0,2700046
-0,1099953
-0,01999531
0,1100047
-0,1999925
-0,06999243
-0,1599925
-0,2499925
0,1000076
0,05000766
0,1100076
0,2300075
0,2400075
-0,08999246
8,529319E-06
-0,2599919
-0,1299916
0,1000086
-0,1599917
-0,2299955
-0,009995206
-0,1499955
-0,2999963
-0,08999911
-0,2599993
0,07000089
-0,1799992
-0,2699993
-0,2999993
0,1700008
0,1900008
-0,1499992
0,2600007
-0,009999119
-0,1899992
-0,1299992
0,06000088
-0,2999993
-0,08
5,670887E-09
-0,05
0,25
-0,11
0,02
0,04
-0,18
-0,06
-0,009999987
0,27
0,27
0,13
-0,16
-0,2199999
0,170001
-0,079999
0,1200009
-0,1099953
-0,2299954
0,06000479
0,0200048
-0,1899885
-0,1999885
-0,2599745
0,230026
0,1600254
-0,04997419
0,2600244
-0,04997467
-0,2099777
-0,1699816
-0,02998547
-0,14
-0,12
0,14
0,12
0,03000003
0,26
-0,02999995
0,1600145
0,2200145
-0,1699854
0,1200146
-0,2399823
-0,2799825
-0,2599825
0,04001782
-0,2399822
-0,2199962
-0,2399961
-0,009996006
0,2800036
-0,009996117
-0,05999616
0,2000008
-0,1199992
-0,1599992
0,2000008
-0,04999549
0,1500074
-0,2099925
-0,1499925
0,2900073
-0,09999244
0,1400075
7,680585E-06
-0,03999238
0,2600073
-0,05999235
-0,2499925
0,1800075
0,1600075
0,2100074
-0,09999256
0,1400075
-0,1099915
-0,00999137
-0,2599927
-0,2799927
0,1800077
-0,1899962
-0,1099989
0,170001
-0,1199989
0,1000009
-0,1599992
0,2800007
0,2200008
-0,02999912
-0,04999913
-0,02999912
0,1300008
8,861188E-07
0,1100009
0,07000088
0,06000087
-0,1599992
-0,08999912
-0,08999912
0,02
0,07
0,08
0,11
-0,27
-0,12
0,13
-0,24
-0,21
0,1
0,01000002
0,19
-0,21
0,18
0,07000013
0,03000105
0,190001
-0,01999902
0,1000047
0,0900047
-0,009995116
0,01000483
0,04001178
-0,01998818
0,2900255
0,07002617
-0,2499747
-0,1499746
-0,2099749
0,1200253
-0,2299777
-0,2599818
-0,2299855
0,13
3,555451E-08
-0,19
0,03
0,07000003
0,14
-0,3
0,2700144
-0,2199855
0,1900147
-0,1899853
0,2600181
0,0500184
-0,1299817
0,2500181
0,2300183
-0,2299962
0,1800039
-0,2199961
0,04000392
0,1200008
0,2100046
-0,2999956
-0,2799956
-0,2099955
0,1100047
-0,04999529
-0,1699925
-0,02999239
0,2700073
-0,03999238
0,02000765
-0,03999238
0,1100076
-0,03999238
-0,1299925
-0,03999244
-0,2999927
-0,1899926
0,1400069
0,09000789
0,1200079
-0,0899922
0,120004
-0,06999604
0,02000405
-0,06999604
-0,09999605
-0,2099963
-0,07999911
-0,2899993
0,2400008
0,2900007
8,861182E-07
-0,04999913
0,2100008
-0,009999119
-0,2199992
-0,06999912
0,2500007
-0,1199991
0,1600008
8,857035E-07
-0,1999992
-0,08
0,09
5,57634E-09
0,24
0,2
0,07
-0,04
-0,23
0,06
-0,06
0,24
-0,3
1,00699E-08
-0,13
0,0900001
0,07000012
-0,1199999
-0,2499998
-0,269999
-0,259999
0,250001
0,02000478
0,02000479
0,2500045
-0,1499954
0,05001178
0,1800115
-0,129974
0,06002625
-0,1499747
-0,04997427
0,2200251
-0,1899749
-0,1999777
-0,09998158
0,1300145
-0,28
-0,009999963
-0,009999963
0,02000004
0,25
0,2400001
-0,1299999
0,05001462
0,06001525
-0,05998465
-0,09998475
-0,1799817
-0,01998155
0,1600183
0,07001839
-0,1799817
0,1300076
-0,04999214
-0,1499922
0,1900077
-0,2399954
0,04000469
0,08000488
-0,1499953
0,1900075
-0,2099925
0,01000771
-0,0999924
0,2800073
-0,2899927
0,1800074
-0,1099925
0,2600072
0,2500074
0,0500078
0,1900076
0,06000776
0,01000779
-0,2199924
-0,2899926
-0,1499961
0,2700038
-0,1199962
0,2000037
-0,1499992
0,05000088
0,1900008
0,2000008
0,07000089
-0,1799992
-0,2099992
0,1600008
0,2500007
0,01000088
0,07000088
-0,02999912
0,2000008
-0,1599992
0,1300008
0,1600008
-0,08
0,27
0,06
0,05
0,06
-0,29
-0,15
0,02
-0,2
0,18
0,06
-0,18
-0,14
-0,16
0,03
-0,22
-0,15
0,17
-0,2999999
-0,1699999
-0,09999988
0,1100002
0,120001
0,160001
0,2100009
-0,2799956
-0,05999526
-0,04999518
-0,1199953
-0,2199885
0,280011
-0,07997378
0,170026
-0,07997451
0,08002564
-0,1199747
-0,0999747
0,1300223
-0,1599816
-0,1699855
-0,09999997
-0,14
0,09
0,19
0,05000008
0,2700008
-0,009999211
0,1000153
0,2700152
-0,01998461
-0,1899847
-0,279982
-0,1599816
-0,009977603
-0,03997763
0,1100225
-0,1599893
0,2000108
0,1300108
0,04001093
0,06000782
0,2000075
-0,1599925
-0,2799926
0,2000075
-0,1599925
-0,05999235
0,2400075
0,05000701
-0,1499932
0,1800068
0,02000692
0,03000686
0,1600076
0,2200076
-0,2699963
-0,2899962
0,2300039
-0,1999964
0,2300037
0,02000385
0,1300008
-0,02999911
0,1900008
0,2600007
0,2600007
-0,2199992
-0,1299992
0,2500007
0,2600007
-0,2699993
-0,009999119
0,2900007
0,1000009
0,06000087
8,84102E-07
-0,2899993
0,07000088
0,2800007
-0,08999912
0,03
0,05
-0,25
0,12
0,09
0,08
-0,009999996
-0,03
0,07
-0,08
0,1
-0,1
0,1
0,2
-0,29
0,23
-0,07999999
-0,05999999
-0,2499999
0,2300001
-0,2499999
-0,2399998
0,280001
0,090001
-0,1899991
-0,1199953
0,0300048
0,2300047
-0,2099954
-0,07998834
-0,279989
-0,0599737
0,2400259
0,1800253
-0,09997444
0,2600245
0,0800253
0,1500223
-0,2099816
-0,1299855
-0,03000002
0,09999995
0,1
0,03000013
-0,1399998
0,1300008
0,1900007
-0,2099847
0,08001538
0,1300154
-0,2199846
0,06001855
0,01001863
-0,2499749
-0,1499749
-0,02997466
0,07001075
-0,04998913
1,097054E-05
-0,09998927
-0,2499925
0,05000765
-0,1199925
-0,1599926
-0,0999925
-0,1399926
-0,04999244
0,2200074
6,953291E-06
-0,2599927
-0,1499924
0,06000773
-0,1599925
0,1700075
-0,03999218
-0,04999892
-0,04999889
-0,05999889
-0,06999911
-0,01999911
-0,009999109
-0,06999911
-0,1499992
-0,03999912
-0,1599992
-0,04999913
0,2200008
0,1900008
0,02000088
0,2200008
-0,1099991
-0,1799992
-0,1499992
0,1900008
-0,19
0,21
-0,09
-0,05
-0,17
-0,3
-0,13
0,26
0,08
0,03
-0,03
0,01
-0,08
0,13
0,08
0,2
-0,29
-0,18
-0,28
-0,29
0,2
0,12
-0,09999999
0,22
-0,2999999
0,2400001
-0,06999988
0,0600002
-0,109999
0,070001
0,1500009
-0,2799956
-0,08999538
-0,04999523
0,06000475
0,05001172
-0,269989
-0,2999745
-0,1899741
-0,06997459
-0,1899746
0,0300254
0,1500251
0,1100225
0,2800182
0,1200145
-0,27
-0,21
-0,19
0,1100007
0,2100007
-0,2299992
-0,1999991
-0,1699846
0,2800217
-0,009974579
2,544069E-05
-0,009974622
-0,05997451
-0,1199747
0,06002533
0,1000252
0,07001062
-0,2899897
0,1800106
-0,05998931
-0,2099926
0,2600073
-0,2299932
-0,2699933
0,1600068
-0,2899933
-0,2999934
0,08000685
0,2000068
-0,1299924
0,2600073
0,08000778
0,2300038
-0,1199989
0,210001
-0,1699992
-0,05999912
0,07000089
0,1500008
0,07000089
0,2200008
-0,2199992
-0,02999912
-0,2399992
-0,2599993
0,03000088
0,05000088
0,2300008
0,1600008
8,846756E-07
0,2600007
0,1300008
0,2300008
0,03000089
0,03
-0,24
-0,29
-0,22
0,25
0,2
-0,23
0,01
-0,08
0,1
0,02
0,21
0,06
-0,24
-0,04
-0,07
-0,15
0,29
-0,15
-0,2
0,02000001
-0,3
-0,01999998
-0,29
0,2800001
-0,1699999
-0,04999989
-0,2399999
0,2200008
-0,09999916
-0,08999906
-0,1699955
0,1500045
-0,1099953
0,1400046
0,1500115
-0,1899885
-0,139974
0,1200261
0,2500248
2,574195E-05
-0,08997472
0,1500251
0,1700223
0,03001843
-0,1799855
0,27
-0,02000006
-0,03000001
-0,06999996
-0,1599999
0,2600045
-0,01999522
0,1200193
-0,2899781
0,0200256
0,0700253
-0,2999753
-0,2099748
0,1200253
-0,0599747
-0,2999753
0,08000994
-0,2799904
-0,1199899
-0,10999
-0,2399932
-0,1299932
-0,0799922
0,1000078
-0,1899923
0,2900074
-0,1399961
-0,09999596
0,1000039
-0,1899962
-0,1499962
0,1100039
-0,02999622
0,1600008
-0,1499992
0,2700007
0,09000089
-0,009999119
-0,2499992
-0,05999912
0,1500008
-0,2699993
-0,1299992
-0,1799992
-0,2299992
-0,1899992
-0,2299992
-0,2999993
8,846756E-07
-0,009999119
0,12
0,13
-0,02
-0,17
-0,24
0,1
-0,24
0,16
-0,19
-0,15
0,1
-0,23
-0,29
0,2
-0,13
0,26
0,02
-0,07
-0,04
-0,03
-0,1
-0,21
0,26
0,23
0,04
-0,27
0,29
-0,21
0,0300001
-0,2999999
0,2100001
-0,1499999
0,1900008
-0,1899991
-0,01999901
0,01000478
-0,1799955
-0,1599954
0,09000468
0,05001172
0,2000115
0,230026
-0,129974
0,2000253
0,1400254
0,07002535
-0,2899754
-0,03997751
0,2400184
-0,1899855
0,07999998
0,14
0,03999999
-0,2699963
-0,209996
0,02002177
0,1600216
0,0500216
0,09002151
-0,2699759
0,1000246
0,2600241
-0,1799755
-0,1899755
-0,06997547
-0,0599754
-0,1199901
0,2000099
-0,08999313
0,1500076
0,1400077
-0,1199961
0,1300038
0,2000038
0,06000401
-0,02999594
0,2200039
-0,239999
-0,2199992
0,2600006
-0,2899993
0,02000086
-0,1499992
-0,07999914
-0,08999915
-0,2299992
0,1100009
0,1500008
-0,2899993
0,2600007
0,1500008
0,06000087
0,04000087
0,06000087
0,2400008
0,2400008
0,1000009
-0,25
-0,03
-0,1
-0,11
-0,2
-0,25
-0,21
-0,03
-0,1
-0,3
0,13
-0,03
0,11
0,1
0,1
-0,04
0,12
-0,29
-0,22
0,11
0,2
0,2
-0,14
0,12
0,02
0,18
-0,04999999
0,29
-0,23
0,13
-0,23
0,2600003
0,1200003
0,1600003
0,1600003
0,09000085
0,1800009
0,07000095
0,2000046
-0,02999523
-0,2499954
0,2500044
-0,289989
-0,2399885
0,2700255
-0,1199737
-0,09997438
-0,1499746
-0,2599754
-0,1999748
0,2200223
0,05001842
0,1600145
-0,18
0,2
-0,15
-0,1999971
0,07000303
0,1600216
-0,0799783
0,1000216
-0,2099785
-0,09997533
0,06002469
0,2300245
0,1700245
0,1400245
0,2400099
0,2400099
-0,2899905
0,07001001
-0,259997
-0,1999963
0,1100038
0,06000383
0,2500008
0,180001
-0,209999
0,150001
-0,159999
-0,0199989
-0,2099992
0,2500007
0,2600006
0,2000008
0,01000085
-0,2099992
-0,009999152
0,2600006
8,845859E-07
-0,01999912
-0,1899992
0,2100008
-0,01999912
0,1700008
0,2600007
0,05000088
-0,04999913
-0,1699992
-0,1999992
0,03
-0,05
-0,09
-0,27
0,02
0,18
-0,06
-0,25
0,06
0,24
-0,04
-0,29
0,22
0,02
0,24
5,580578E-09
-0,16
-0,07
0,15
-0,09
0,07
-0,16
0,28
-0,07
0,03
-0,04
-0,17
0,12
0,24
0,1
-0,09999996
-0,06999969
0,2600003
0,05000031
0,1000003
-0,269999
0,1700009
0,2100009
-0,05999529
-0,2799956
-0,2299954
-0,2599955
0,2300115
-0,289989
-0,2599745
-0,03997361
-0,1199744
-0,1199744
0,04002542
-0,1399748
0,1100225
-0,1899816
0,09001449
0,21
0,01999994
-0,12
-0,02999976
0,2800003
2,157323E-05
-0,2499786
0,05002156
0,1200215
-0,1899747
0,2600248
0,0400255
-0,2799753
-0,2499748
-0,1299894
0,2100106
0,2100077
0,1200079
-0,07999911
0,2900008
0,1200009
-0,159999
0,03000093
-0,08999912
0,2600007
-0,1199991
-0,2399992
-0,2299992
0,2400008
-0,2299992
0,07000086
0,2800007
-0,2199992
0,1400008
-0,2599993
-0,2799993
-0,08999912
0,05000088
0,1900008
-0,08999912
-0,12
-0,03
-0,05
0,23
0,27
-0,03
-0,29
-0,09
-0,29
-0,03
0,13
0,04
-0,12
-0,18
0,26
0,07
0,29
0,27
4,699408E-09
0,09
-0,07
0,27
0,1
0,04
0,03
0,27
-0,04
-0,12
-0,3
-0,16
6,701188E-09
-0,15
0,23
-0,29
0,11
-0,16
0,18
0,09000004
-0,05999969
-0,009999672
-0,1399997
0,1400003
-0,2499991
-0,02999907
-0,05999905
-0,2699956
0,09000464
0,2600045
0,1700046
-0,02998823
-0,269989
-0,05997382
-0,2499742
-0,2099748
0,2700246
-0,09997465
0,1600251
0,2100223
-0,1099816
0,2900144
-0,3
0,13
-0,09000001
0,1699999
0,26
-0,0199844
0,1000156
-0,1399814
0,01001881
0,1100187
0,1800186
-0,1099813
0,03001868
-0,2899817
-0,07999595
0,08000404
0,2200038
-0,1699961
-0,2099992
8,915277E-07
-0,1199992
8,347698E-07
8,341769E-07
0,02000084
-0,1999992
-0,2499992
-0,2099992
0,1300008
-0,2599993
-0,09999915
-0,01999915
0,2700007
-0,1099992
-0,05999915
-0,01999915
0,03000085
-0,07
-0,12
5,458206E-10
0,26
-0,08
-0,08
-0,06
-0,25
0,09
0,14
0,21
-0,27
0,17
-0,12
-0,02
0,03
0,11
0,19
0,11
-4,090693E-11
-0,18
0,18
0,06
0,21
-0,12
0,27
-0,18
-0,2
-0,17
0,2
-0,3
-0,22
0,03
0,19
-0,15
0,03
0,13
-0,17
-0,23
0,25
-0,25
-0,04999997
0,2300003
-0,03999969
-0,1599997
-0,2399996
0,260001
0,1500009
0,2200009
0,2400046
-0,1399955
-0,009995159
0,1300046
0,280011
-0,09998834
0,05002618
0,110026
0,0800254
0,07002535
-0,05997457
-0,1999748
-0,1599777
0,2100184
0,1800146
0,13
0,1199999
-1,412596E-08
0,2700001
-0,2699999
0,2400153
0,1900153
-0,01998141
0,1100185
0,1500184
-0,05998146
0,1700184
0,2400183
-0,2099817
0,06000387
-0,1799992
-0,2899994
-0,03999917
-0,1299992
-0,1099992
0,04000083
8,276605E-07
-0,05999917
0,04000083
-0,009999166
0,09000083
0,2100008
-0,2599994
0,05000085
0,1300008
0,1400008
0,2000008
0,04000084
-0,2499992
0,1200008
0,01000085
0,05
0,28
0,12
0,27
-0,26
0,18
0,17
0,28
0,03
0,03
0,1
0,02
-0,28
-0,05
-0,07
0,13
0,26
0,02
-0,16
-0,17
-0,12
0,25
-0,02
-0,07
-0,27
0,15
0,22
0,28
-0,3
0,04
-0,17
0,19
-0,04
-0,26
0,06
-0,28
0,14
-0,09999999
-0,16
0,15
0,12
-0,03999997
-0,2899997
0,2500003
0,2800003
-0,1099996
-0,279999
-0,2099991
-0,099999
-0,2999955
0,2300046
-0,2899926
0,2000077
-0,009988185
-0,1699885
0,1000261
2,613223E-05
-0,1199747
0,2400251
-0,1099746
0,2500246
0,1900223
0,2700182
0,2900144
-0,1
0,2099999
-0,25
0,2700008
0,1900009
-0,09998445
0,2900152
0,06001875
-0,1199813
-0,01998125
0,01001874
0,2100184
0,2300184
0,02001866
-0,04999599
0,1400008
0,1300007
0,1300008
0,08000083
-0,2999994
0,1000008
-0,1899992
0,2800006
0,2700006
0,2000008
0,2500006
0,02000079
-0,04999921
-0,04999916
0,24
0,19
0,23
-0,01000004
-0,28
0,04999997
-0,23
-0,17
-0,26
-0,11
0,29
-0,29
-0,13
0,13
-0,08
0,28
-0,08
0,16
0,28
0,23
-0,2
0,06
-0,18
-0,2
0,26
-0,11
-0,22
0,22
-0,23
-0,24
0,23
0,17
0,04
-0,2
-0,07
0,08
0,07
-0,09
0,21
0,26
-0,13
5,303003E-09
0,08000001
-0,06999999
0,08000001
0,28
-0,07999998
-0,01999996
0,06000003
0,2900003
-0,01999967
-0,2099997
0,04000032
0,02000096
-0,1499991
-0,129999
0,0700047
0,1300046
0,02000794
0,1200078
-0,03998828
-0,1499885
-0,2399741
0,2700251
-0,04997462
-0,1799749
-0,03997457
-0,2399748
-0,1099775
0,1300184
-0,09998547
-0,3
0,2399999
-0,29
0,06000012
0,1000001
0,2800153
0,1900155
0,01001876
0,2800182
0,2600181
0,1000186
-0,1499815
-0,2299816
0,08001857
0,1400038
-0,1699992
-0,2799994
0,2500006
-0,2499992
-0,2899994
0,2400008
0,1900008
-0,22
-0,01000006
-0,2900001
-0,07000006
0,09999991
0,2699999
-0,04000009
0,01999991
-0,14
-0,22
0,23
0,08999997
-0,03000003
-0,16
0,02
0,25
0,05
-0,11
0,17
-0,19
0,04
0,16
0,16
-0,3
0,28
-0,11
0,11
0,28
-0,06
-0,2
-0,17
0,11
-0,05
-0,2
0,15
0,02
0,04
-0,14
-0,13
0,22
-0,26
-0,05
0,09
0,01
-0,08
-0,02
-0,2
5,968406E-09
0,11
-0,24
-0,09999999
0,15
-0,16
0,12
-0,16
-0,07999996
0,1300003
-0,2899997
-0,04999969
-0,08999965
-0,1399991
-0,01999905
-0,229999
-0,2499954
0,2400046
-0,1899923
-0,1599923
-0,1399885
-0,01998827
-0,2999747
-0,08997409
-0,1199747
-0,2799754
0,2500246
-0,2299779
-0,2199807
-0,2299816
-0,1599854
0,07000002
-6,857206E-08
-0,22
-0,1999999
-0,1299999
-0,1199844
0,2000155
-0,01998125
-0,02998125
0,1200186
0,2600181
-0,06998141
0,1800185
0,02001861
0,2100039
0,2500007
0,06000088
0,05000088
-0,1199991
0,03000088
0,07000083
-0,1999992
-0,16
0,23
-0,2900001
0,09999994
0,1399999
-0,2900001
0,1299999
-0,1100001
0,04999992
-0,2400001
-0,1500001
-0,02000008
-0,07
0,25
-0,17
-0,25
-0,19
0,19
-0,15
-0,04
0,13
0,02
-0,1
-0,25
-0,19
0,19
-0,03
-0,24
-0,12
0,01
0,2
0,03
0,07
-0,03
-0,14
-0,16
-0,22
0,06
0,03
0,19
0,14
-0,22
-0,24
0,19
-0,22
-0,1
-0,22
0,25
0,12
6,260308E-09
-0,05999999
-0,009999986
-0,12
-0,2
-0,03999997
0,12
0,02000033
0,2600003
-0,009999672
0,2500004
0,03000095
0,06000095
-0,2999989
-0,2699955
-0,1399954
0,1100078
0,2000076
0,2600109
0,0900116
0,2800253
0,2600251
0,05002538
-0,1499749
-0,04997458
0,1100221
0,04001929
-0,04998161
0,01001455
0,26
0,2
0,09999999
0,01000014
-0,06999987
0,1700177
-0,2299823
-0,09998219
-0,1499823
-0,03998224
-0,2999826
0,03001774
0,1100177
-0,1899824
-0,2399969
0,08
-0,14
-0,22
-0,22
-0,27
0,02999999
-0,04
-0,01000005
-0,19
-0,14
0,14
0,03999991
0,1799999
-0,1600001
0,2199999
-0,01000009
0,2099999
-0,1400001
-0,2900001
-0,3000001
0,07999994
-0,16
-0,29
-0,18
-0,18
0,26
0,25
-0,04
-0,06
0,25
-0,25
-0,14
0,15
-0,02
0,06
-0,21
0,03
-0,04
-0,08
0,27
6,66548E-09
-0,09
-0,02
-0,15
0,09
-0,17
-0,12
-0,24
-0,08
0,27
-0,22
-0,13
0,1
-0,19
-0,02
-0,06
-0,16
0,25
0,25
-0,24
0,07999995
-0,3
-0,2500001
-0,1399997
-0,1899997
-0,02999967
0,1800004
-0,09999906
0,07000089
0,1200009
0,2500045
-0,04999531
0,2400076
-0,2599927
-0,009988242
-0,1299886
0,1500259
0,1600257
0,03002541
0,2800245
0,07002534
0,190022
-0,2699812
-0,0399816
0,1700146
0,18
0,05999994
0,02999999
-0,2999854
-0,1899853
0,2400177
0,08001781
1,790294E-05
-0,1499823
-0,1099822
-0,009982177
-0,1499823
-0,1799823
-0,2699826
-0,1799969
-0,05999998
0,28
-0,01999999
0,09000003
-0,28
0,13
-0,08
0,06
0,11
-0,2
0,08999994
-0,02000009
-0,09000009
0,2599999
-0,02000009
0,1799999
0,2699999
0,07999991
-0,02000009
-0,07000006
0,2099999
-0,1500001
-0,1100001
-0,05000006
0,18
-0,13
0,2399999
0,09
0,14
-0,3
-0,29
0,02
0,12
-0,09
0,04
0,09
-0,1
-0,07
-0,06
-0,27
-0,05
-0,3000001
0,2099999
0,1899999
0,01999995
-0,05000006
-0,1400001
0,03999994
0,1599999
-4,019127E-08
0,01999995
0,05999994
0,1299999
0,09999996
-0,1
-0,21
0,07999996
-0,2800001
0,21
0,15
0,18
0,12
0,21
0,1100003
-0,2199992
-0,2399992
0,1600009
-0,2999991
-0,07999917
0,1800009
-0,01999524
0,03001927
-0,1599778
-0,05997764
0,2700109
0,2000114
-0,06997399
2,607414E-05
0,2300252
-0,07997463
-0,2999755
-0,09997787
0,2300192
-0,1699816
-0,02998544
-0,05999998
0,18
-0,28
-0,2999854
-0,05998525
-0,2899825
-0,1199822
0,01001787
0,09001781
-0,1499823
0,1300177
-0,2199823
-0,1999823
0,1000146
-0,04999988
0,09000013
-0,1499999
-0,1899999
0,2700001
-0,2799999
0,2800001
-0,07999987
-0,1099999
0,1200001
7,638082E-08
0,1500001
-0,2299999
-0,2099999
-0,009999976
0,14
-0,01999998
0,19
0,06999999
-0,17
0,14
-0,12
0,14
-0,3000001
0,27
0,16
-0,2
-0,2800001
0,04999994
-0,21
-0,16
0,1099999
-0,17
0,19
-0,03
0,12
0,14
-0,21
0,25
-0,19
-0,01999997
-0,28
-0,01000001
-0,11
-0,01000001
0,08999996
0,23
-0,22
-0,2800001
0,240003
0,170003
0,230003
3,137953E-06
0,2600029
0,2600029
-0,229997
0,2500029
-0,149997
-0,169997
-0,199997
0,210003
0,2600029
0,170003
-0,209997
-0,01999662
0,1800039
0,02001865
-0,1199846
0,1200153
0,1600154
0,2900154
-0,1099809
0,2400191
-0,03997764
0,1400222
0,1100261
0,180026
-0,04997451
2,543726E-05
-0,1199746
0,2300252
-0,2899755
0,2900215
0,1000193
-0,07998161
-0,08998547
-0,2
-0,14
0,22
-0,1099853
0,1700147
-0,009982132
0,2500175
0,1400177
-0,1099822
0,02001781
-0,1499823
-0,09998228
0,2100177
0,1100146
-0,2299853
0,05001466
-0,03998534
-0,1499853
0,2500001
-0,01999986
0,2900001
-0,2599999
-0,1899999
-0,1499999
-0,1199999
7,597556E-08
0,1400001
0,2400001
-0,13
0,2
0,2599999
-0,23
0,16
-0,23
0,06999998
-0,15
-0,05000002
-0,0800001
0,2899999
-0,01000009
-0,0700001
-0,2100001
-0,2400001
-0,1800001
-0,04000011
-0,02000011
0,03999994
0,1799999
-0,1900001
-0,1300001
0,04999994
0,1399999
0,140003
0,240003
-0,08999691
-0,239997
-0,2599971
0,07000309
-0,2999972
-0,129997
0,150003
-0,2999972
-0,02999689
-0,009996879
0,05000311
-0,219997
0,03000311
0,130003
-0,2599827
0,2100176
-0,2099824
-0,2699827
-0,1399824
-0,04998235
-0,2599826
0,1900176
0,2700174
0,2900173
0,1800178
0,1900185
0,2600182
0,2500183
0,1300185
0,2900182
-0,1499815
-0,1799809
-0,07998087
0,2200222
0,1500222
0,01002628
-0,199974
0,1800253
-0,0899747
0,1100254
0,1400252
-0,07997466
0,1200221
0,07001927
0,07001839
-0,1199855
0,25
0,2
0,14
-0,1099822
-0,2199822
0,01001785
-0,02998216
-0,1099822
0,2000177
0,02001781
-0,2199823
-0,2499823
0,1800177
-0,1999823
-0,08998229
0,1900177
-0,1299823
-0,02998224
-0,1599969
-0,0799968
0,1500031
0,1100032
0,280003
0,03000322
0,1100032
-0,09999683
0,1200032
0,04000317
0,1100032
0,1200032
-0,2299969
-0,1099968
-0,08999687
3,189042E-06
0,2400031
-0,2499969
-0,1999969
-0,06999686
0,2100031
0,1300031
0,1400031
-0,2799971
-0,2799971
-0,1699969
-0,07999686
-0,2599971
0,2900029
-0,1999969
-0,09999686
0,2400031
-0,2599971
-0,1599969
-0,06999686
-0,1599969
0,02000317
-0,1599969
0,2100031
-0,1899969
0,08000319
0,1700031
0,1900031
0,2300031
0,07000314
-0,2299969
-0,05999684
0,1900031
0,1300031
-0,1299969
-0,1399824
-0,1499824
0,09001766
0,2400176
0,0500177
1,773871E-05
0,07001767
0,1300176
0,08001766
0,1500176
-0,1999821
0,0600186
-0,09998146
0,01001856
-0,1699815
0,1700184
0,07001851
0,2200191
0,2500188
-0,2399778
0,2800217
0,09002604
-0,1599741
0,2800248
0,1400252
-0,2599753
0,2400252
0,2100251
-0,05997782
0,2400192
0,1800184
0,03001456
-0,08999998
0,1099999
0,24
-0,2499823
-0,1499823
-0,2099823
0,08001778
0,2300177
0,07001781
0,1900177
0,0500178
-0,2399823
-0,2899826
-0,2799826
-0,03998226
-0,1299823
0,09001771
0,2000177
1,778874E-05
0,01001777
0,2300177
0,06001774
-0,1099823
0,06001774
-0,2899826
0,1000177
-0,1999824
0,01001773
0,05001771
0,1600176
-0,1199968
0,1400031
0,2600029
0,0700032
-0,1499969
0,08000319
0,06000315
-0,2199969
0,01000318
-0,02999683
-0,1699969
-0,2799971
-0,009996821
-0,2099969
-0,2599971
-0,2299969
0,2700029
0,1200031
0,07000314
0,06000315
-0,1899969
0,03000317
-0,06999686
-0,1299969
0,09000314
0,1400031
-0,07999686
-0,1299824
-0,2699827
0,04001768
0,2900173
-0,2299824
-0,1199823
0,2000176
1,77253E-05
0,2000176
-0,2099824
-0,06998235
0,1600176
0,1700176
0,1100177
1,773909E-05
-0,1099823
-0,2699827
-0,1299824
0,2000176
-0,2299824
-0,1999824
0,02001801
0,2300185
0,1200186
-0,01998141
0,2400185
0,2800182
0,04001858
0,1400191
-0,08998088
0,08002226
0,2700217
0,0100262
-0,1399741
-0,1099745
-0,2499748
0,2700247
-0,02997449
-0,2399749
0,140022
0,08001927
0,08001839
-0,1699854
0,27
0,03999998
0,25
0,200003
0,250003
0,1100178
-0,1599823
-0,09998224
-0,2999825
0,1900177
0,06001775
-0,1899824
0,1500177
-0,2099823
0,2100177
0,01001776
-0,1699823
-0,1099823
-0,1399823
0,1600177
-0,009982217
0,01001778
-0,04998224
-0,1499823
1,776775E-05
-0,0799823
-0,04998227
-0,08998231
0,05001771
-0,1999824
-0,2399824
-0,01998227
0,02001776
-0,1199823
0,2500174
-0,2199823
0,03001775
-0,2599826
-0,2799826
0,2300177
-0,009982285
-0,2999827
0,08001765
-0,2199824
0,2400176
-0,2499824
0,0300177
0,2500173
-0,2499824
0,2600173
0,2300176
-0,05998231
-0,07998235
0,2100176
0,1400176
-0,03998232
-0,2099824
0,09001765
-0,1099823
0,0300177
-0,1399824
0,2300176
0,1400176
0,1900176
0,1200176
-0,2199824
0,09001767
-0,0399823
-0,1599824
0,1300176
0,2800174
-0,2099824
-0,1299824
-0,07998234
-0,1299824
-0,0199823
0,2200176
-0,1399824
-0,09998207
-0,04998142
0,1800185
-0,009981393
-0,1399815
0,09001846
-0,1299815
0,1200191
-0,2499809
0,1000223
0,04002234
-0,009973752
0,2900254
0,2300253
0,1400251
-0,01997449
0,07002541
0,05002541
-0,149978
0,1900192
-0,0399816
0,1600146
-0,05000002
-0,24
0,11
-0,0799968
0,280003
0,1400031
-0,2299969
-0,299997
0,04000326
-0,1499823
0,04001775
0,2200176
-0,1199823
0,2300176
0,1500176
0,1600176
0,07001768
-0,2499824
0,02001773
-0,2999826
-0,2799826
0,2800174
0,2200177
0,1500177
0,1300176
-0,2599826
-0,05998229
0,1800176
0,1500176
0,1100177
-0,1799824
-0,2799826
0,2000176
0,04001773
0,2900174
0,1100177
0,1800177
0,2300176
0,1000177
0,02001774
0,04001773
-0,2499824
-0,2399824
-0,1199823
0,2400176
-0,2399824
0,0400177
0,2100176
0,1300176
0,2100176
0,2800174
-0,1999824
-0,1299824
-0,0499823
0,1400176
-0,02998228
-0,1599824
0,2600174
0,08001764
0,2300176
-0,09998236
-0,1099823
-0,1599823
0,2200177
-0,2799826
0,02001774
-0,2799826
0,1400177
0,2300146
-0,2699855
0,2700145
0,1300146
-0,04998539
0,2900145
-0,04998539
0,2600145
0,2100146
0,03001462
0,2000149
0,0600155
1,55672E-05
0,02001546
-0,259999
0,2300009
0,1200009
-0,2799956
0,1500084
-0,05998828
0,1900114
0,02001165
-0,02998834
0,2200253
-0,1599749
0,1700252
-0,1899748
-0,1499749
0,200022
-0,1699808
-0,1499816
-0,07998546
-0,26
0,19
0,27
0,09
0,2300001
-0,1499969
0,1400031
-0,1299969
0,2900029
0,1700031
0,05000314
0,1100031
-0,249997
-0,2799971
-0,07999691
0,170003
-0,1599824
-0,08998241
-0,1999824
-0,2999827
0,1600175
0,0700176
0,2500173
-0,08998241
0,0600176
-0,2499825
-0,009982398
0,07001757
0,1700175
-0,1999825
-0,2399825
0,07001757
-0,1299825
-0,0199824
0,01001765
0,1100177
0,05001774
-0,05998226
-0,2999826
-0,02998225
-0,1299823
-0,02998223
-0,05998224
-0,2899825
0,2600175
0,1500177
0,1600177
-0,1799823
-0,05998224
-0,05998224
-0,2899825
-0,009982198
-0,2699825
-0,1499823
0,05001774
-0,02998225
0,2400177
0,06001459
-0,2699855
0,1800146
0,1500146
-0,2299854
-0,009985396
0,1900146
0,1100146
0,2700146
-0,06998537
0,07001463
1,466351E-05
0,1100146
-0,1799854
0,1900146
-0,09998535
0,1200001
0,1200001
-0,1199999
-0,1799999
0,2300001
-0,05999959
0,200001
-0,119999
-0,139999
-0,169999
-0,06999914
-0,2199991
0,06000474
0,03000863
-0,289989
0,2200114
-0,2599891
0,1600114
0,2800248
-0,08997469
-0,1799748
0,1100254
-0,1999749
0,2800215
0,04001927
-0,09998161
0,2900144
-0,07999996
-0,21
0,12
0,12
-0,1799999
-0,1899999
-0,2099999
-0,08999992
0,02000008
-0,1399999
-0,16
-0,3
-0,18
-0,18
-0,00999998
-0,00999998
0,2400146
-0,2399854
0,1100145
-0,2499854
-0,06998547
-0,08998547
0,1400145
-0,04998548
0,2400145
-0,1699855
-0,01998548
-0,2199855
-0,2999856
0,02001452
-0,0999855
0,0800145
0,03001452
-0,05998547
-0,01998548
-0,2099855
0,04001452
1,451986E-05
-0,1999855
0,2700145
-0,02998548
-0,1799855
-0,01998548
0,06001452
0,1900145
0,1600145
0,1600145
-0,2099855
0,1200145
-0,1799855
-0,1399855
0,2200145
0,2300145
-0,1599855
0,05001448
-0,2999856
-0,0499855
-0,1399855
0,1700145
0,2800144
0,1300145
-0,2999856
-0,09998553
-0,2999856
0,2600145
0,06001455
-0,02998545
0,1700146
0,1400146
-0,09998548
0,2400146
-0,06998543
0,2500145
0,13
0,07000005
-0,19
0,22
-0,22
0,05000033
-0,219999
-0,02999894
-0,1099991
-0,04999907
0,1800009
-0,1399991
-0,0299952
0,1400084
-0,1199883
0,1900114
-0,02998834
0,1400114
-0,1199745
0,1200253
-0,1799748
-0,1699748
-0,03997463
0,210022
-0,01998072
0,09001839
-0,1699854
-0,12
0,28
-0,05999996
-0,08
-0,1299999
0,2200001
0,2700001
-0,2099999
0,06000008
-0,06999992
-0,23
-0,14
0,1
0,09
0,01
-0,06
0,05
0,02
0,14
-0,02
0,21
-0,21
0,28
-0,14
0,05999997
0,05999997
0,11
0,13
-1,282091E-08
-0,19
-0,0999855
-0,05998547
-0,01998548
-0,0799855
0,1900145
-0,01998548
0,2400145
-0,2699856
1,452223E-05
-0,0699855
1,452382E-05
0,05001453
0,1100145
-0,03998547
-0,1099855
-0,02998548
0,0800145
-0,2699856
0,1000145
0,1900145
0,2100145
-0,1199855
0,1300145
-0,1899855
-0,0899855
-0,2099855
-0,2999856
-0,2199855
0,1500145
0,1100145
-0,1899854
-0,16
0,09000002
-0,04999998
-0,27
0,13
0,17
-0,12
0,19
-0,28
1,71566E-08
0,01000004
-0,29
-0,09999996
0,27
-0,14
-0,02999996
0,01000004
0,2700003
-0,2099991
0,2800009
0,08000085
-0,2799991
0,1000008
-0,09999908
-0,2899956
0,1000085
-0,1299885
-0,2999891
0,1000116
-0,01998834
0,1600253
-0,1199747
0,1900252
-0,1799748
-0,1399749
0,2500215
-0,1499846
-0,07998546
0,06001456
0,09000004
-0,11
-0,17
0,07
-0,1099999
-0,1099999
-0,1399999
-0,07999992
-0,1699999
-0,2499999
0,11
-0,01999996
-0,2
0,06
0,12
0,02
-0,19
0,28
-0,25
-0,29
-0,28
-0,009999997
-0,13
-0,21
0,03999997
0,13
-0,17
-0,18
-0,22
0,11
-0,09000003
-0,18
-0,21
-0,1
-0,01000003
0,07999997
-0,06000003
-0,05000003
-0,09000003
-0,3
0,14
-0,12
-0,26
0,24
0,28
0,29
0,04999997
0,11
-0,24
0,08999997
-0,26
0,26
-0,2
-0,09000003
0,02999997
-0,21
-0,28
-0,26
-0,28
0,04999997
-0,25
-0,26
-0,16
0,02
0,14
-0,009999996
-0,11
0,2
-0,23
-0,26
-0,22
0,16
0,07000004
-0,26
-0,14
0,14
-0,04999997
-0,07999996
-0,1999997
0,040001
-0,2199991
0,02000088
-0,2499991
-0,01999913
0,06000096
-0,05999525
-0,2899919
0,1700115
0,1700114
-0,1099884
0,06001161
-0,1099745
-0,0799747
0,1500252
0,2400252
0,1000253
-0,2699785
0,01001544
-0,1999854
-0,01998544
0,1
0,15
0,04000004
-0,28
0,01000009
-0,1199999
-0,1099999
-0,2499999
-0,2599999
0,1800001
0,14
0,09000004
0,24
-0,02
-0,03
0,03
0,28
0,15
0,25
-0,11
-0,02
0,01
-0,28
0,18
-0,03000003
0,18
-0,07000003
0,21
-0,2
0,05999997
0,09999997
0,23
-0,19
0,11
0,24
-0,07
0,27
-0,28
0,27
-0,12
-0,26
0,26
0,12
0,28
0,04999997
0,26
-0,05000003
0,24
-0,12
-0,09000003
0,11
-0,12
0,05999997
0,2
-0,3
-0,22
0,12
0,16
0,03999997
0,12
0,24
-0,02000003
0,25
-0,02000003
-0,22
0,2
-0,03
-0,18
0,03000001
-0,26
0,05000003
0,26
0,17
0,07000004
-0,15
0,01000004
0,18
-0,26
-0,1699997
1,078983E-06
-0,06999909
-0,009999093
0,03000088
0,1800009
0,2400009
-0,07999533
-0,1299916
-0,08998834
0,1100116
0,1500259
0,1000261
-0,1899747
-0,02997458
-0,1499748
-0,06997461
0,06002537
-0,2899785
-0,1599846
0,2000146
0,1400146
-0,009999967
-0,17
-0,09999996
-0,16
0,15
0,15
9,063336E-08
0,2800001
0,05000008
-0,009999912
-0,11
0,07000004
0,02
-0,26
-0,11
-0,06
0,24
-0,24
0,04
0,15
0,02
-0,24
5,146275E-09
0,17
-0,07
-0,07
-0,02
0,02
-0,16
0,09
5,536735E-09
0,04
-0,16
-0,02
-0,29
-0,2
-0,21
-0,12
-0,28
-0,22
0,21
-0,11
0,15
-0,18
-0,05
-0,28
0,08
-0,07
0,26
0,28
0,11
0,24
0,08999997
-0,26
-0,18
-0,07000003
0,12
0,01999997
0,2
-0,08000003
-0,13
0,28
0,14
0,26
0,28
0,15
-0,07000003
-0,26
-0,28
-0,22
-0,15
0,05000003
-0,27
-0,03999997
0,23
-0,17
-0,09999996
-0,12
-0,07999969
-0,099999
0,1400009
-0,2599991
0,05000085
-0,1499991
0,270001
0,05000475
0,2400084
-0,2099885
-0,1499886
0,08002607
-0,0299738
0,06002555
-0,01997453
0,1000254
0,2000252
0,2300251
0,04002214
0,1900154
-0,1699854
0,1000145
0,09000005
0,04000004
-0,08999996
0,17
0,12
-0,25
0,2000001
-0,1699999
-0,1899999
0,2900001
-0,28
-0,05999996
-0,2
5,133885E-09
0,07
-0,17
-0,08
-0,02
0,28
-0,07
0,2
-0,16
0,19
-0,06
0,11
0,09
-0,23
-0,07
0,05
0,29
0,08
0,01
-0,26
0,11
0,11
-0,2
0,13
0,18
0,02
0,21
0,14
0,11
0,28
-0,14
0,05
-0,27
-0,05
0,27
-0,28
0,07
0,01
-0,25
0,2
0,2
0,19
-0,06000003
0,14
0,26
-0,25
-0,27
0,27
-0,03000003
0,07999997
-0,19
-0,1
0,009999967
-0,11
-0,02000002
0,18
-0,02999999
-0,009999963
0,03000004
0,25
-0,24
0,08000004
-0,21
-0,14
0,03000004
0,1800003
0,08000098
-0,1699991
-0,2099991
-0,09999916
0,2700009
-0,019999
0,0200048
0,1000085
-0,1599885
0,2100114
-0,1299741
-0,04997384
0,1600253
0,1200254
-0,009974496
0,2400252
-0,1399749
-0,2799785
0,1600154
0,25
-0,27
0,14
0,26
-0,21
0,05
-0,23
0,27
-0,2099999
0,1400001
-0,1899999
0,1000001
-0,22
-0,19
-0,23
-0,02999996
0,19
0,17
-0,23
0,1
0,12
0,18
0,21
-0,26
0,07
0,01
-0,29
0,13
0,21
-0,04
-0,18
-0,09
-0,24
-0,009999998
0,07
0,15
0,23
-0,14
-0,3
0,14
0,19
6,880034E-09
-0,08
0,26
-0,28
-0,19
-0,22
-0,16
0,08
-0,16
0,1
-0,24
-0,21
-0,08
-0,27
-0,24
-0,18
0,09
-0,11
0,07
0,03999997
-0,06000003
-0,24
0,13
0,009999964
0,19
0,02999997
0,07999997
0,02999997
-0,08000002
0,02999998
0,02000001
0,17
-0,06999999
0,2
-0,18
-0,04999997
0,24
-0,29
-0,04999997
-0,07999969
0,170001
-0,2599991
0,06000085
0,1500009
-0,2399991
-0,1799991
0,1400046
-0,04999142
1,185504E-05
0,02001169
-0,1599741
0,2600254
-0,0699745
-0,2099748
-0,04997454
-0,05997454
0,08002529
-0,05997786
-0,1699846
0,07000002
3,375478E-08
0,1
-0,15
0,1
-0,23
-0,12
0,15
0,01000008
0,2100001
0,1100001
-0,1299999
0,07000008
0,2400001
-0,16
0,17
-0,11
5,74585E-11
0,28
-0,05
0,06
0,19
-0,18
-0,28
0,2
-0,11
0,05
-0,06
-0,17
-0,05
0,17
0,16
3,553336E-09
0,18
0,17
0,22
-0,24
0,18
0,25
0,08
0,17
-0,03
-0,18
0,04
0,19
-0,16
0,07
-0,28
-0,22
-0,09
-0,25
0,24
0,1
0,29
0,06
0,18
-0,13
0,08
-0,05
-0,09
0,009999964
0,24
0,009999964
-0,24
-0,27
0,24
0,17
0,18
-0,24
-0,08000002
0,11
-3,620943E-09
0,04
-0,11
0,07000004
-0,21
0,07000004
0,08000004
-0,18
0,05000003
0,1200003
0,03000104
-0,1499991
0,2100009
-0,1099992
0,2300009
-0,2399991
4,879487E-06
-0,1799916
0,290011
0,04001161
-0,01997381
-0,06997392
0,03002557
-0,2399748
0,2200252
0,2500246
-0,2499749
2,214425E-05
0,2500152
-0,03999993
0,1800001
0,26
0,15
0,1
0,04
-0,11
-0,08999996
-0,08999992
-0,03999992
-0,1899999
0,09000009
-0,04999992
0,1900001
0,09000004
0,28
0,08
0,09
0,17
-0,2
0,18
-0,13
0,06
-0,23
0,17
-0,18
-0,23
-0,29
-0,18
0,15
-0,16
0,01
-0,23
-0,13
-0,21
0,23
0,07
-0,009999996
-0,19
0,14
0,04
0,14
-0,22
0,15
0,18
0,24
-0,27
0,03
0,24
-0,22
-0,17
-0,15
-0,12
-0,1
-0,24
-0,21
-0,19
0,19
0,28
-0,03
-0,03
-0,12
-0,22
0,06
-0,18
0,08999997
0,01999997
-0,23
0,09999997
0,15
-0,09000002
-0,22
-0,01999999
-0,27
0,05
-0,27
-0,22
0,21
-0,12
0,2200001
-0,2099996
0,03000104
-0,2299991
-0,2599991
0,01000091
0,2800009
-0,1699991
0,1600046
-0,1899916
0,290011
0,1200116
0,1700259
0,01002622
0,1300253
-0,1299748
-0,1399748
0,06002546
0,0100254
0,02002216
-0,2199846
-0,07999992
0,2500001
0,23
-0,22
0,16
-0,26
0,16
-0,16
0,14
-0,27
-0,3
-0,1099999
8,885442E-08
-0,2499999
-0,13
0,23
-0,2
-0,27
-0,25
-0,16
-0,04
0,15
0,26
0,1
-0,27
0,03
0,07
0,15
0,15
-0,11
-0,04
0,07
-0,11
-0,2
2,872468E-09
-0,17
0,1
0,28
-0,13
-0,04
-0,19
0,28
-0,29
-0,23
0,28
-0,08
-0,13
-0,04
-0,05
-0,07
-0,25
0,03
-0,04
-0,12
0,12
0,06
0,29
-0,18
-0,25
-0,17
-0,03
-0,29
-0,01
-0,05
0,06
-0,07
-0,3
-0,1
0,03999997
-0,26
-0,18
-0,18
0,15
0,09000001
-0,28
-0,02999999
0,14
0,18
0,11
0,1000001
-0,1499996
-0,199999
-0,1099991
-0,07999916
-0,1599991
0,2300009
-0,1899991
-0,2899956
-0,02999137
0,2400114
-0,1599886
-0,02997381
0,2300259
-0,2599752
0,2800246
-0,1999748
-0,009974501
0,06002537
2,214406E-05
0,05001544
-0,08999993
0,2700001
0,21
-0,08999996
-0,2
0,23
0,17
0,16
-0,15
-0,1499999
0,2200001
-0,1899999
8,887729E-08
-0,04999992
0,27
-0,13
0,12
-0,24
-0,19
0,13
-0,18
0,29
0,22
0,1
0,2
0,14
-0,11
0,11
0,1
0,22
0,27
-0,23
-0,13
-0,24
-0,12
-0,12
-0,11
0,28
-0,19
-0,09
-0,25
-0,06
0,15
-0,18
-0,28
-0,27
0,27
-0,03
-0,24
0,11
-0,02
-0,08
-0,05
0,17
-0,07
-0,08
-0,26
-0,19
0,009999998
-0,04
0,03
-0,24
-0,24
-0,07
-0,13
0,14
0,23
-0,06
-0,24
0,08
0,28
0,13
0,25
0,2
0,08000001
0,17
-0,17
0,1
0,08000001
0,1600001
0,1700004
0,2100009
0,04000093
0,2900009
-0,06999916
0,05000085
0,1200009
4,878616E-06
0,1200085
0,250011
-0,1599887
-0,2299742
-0,03997385
0,1500253
0,1700252
0,2800246
-0,1199746
-0,08997471
0,240022
-0,1199846
-0,2099999
0,02000008
-0,08999996
-0,02999996
0,13
0,14
-0,04
0,05
-0,22
0,06000008
-0,2199999
-0,06999992
0,02000008
0,1400001
0,08000004
0,12
0,02000004
-0,24
0,29
0,11
-0,29
-0,08
0,12
-0,2
-0,06
0,2
-0,14
-0,2
-0,28
0,09
-0,009999998
0,22
0,15
-0,1
0,07
-0,15
5,753288E-09
-0,24
-0,14
0,09
-0,22
-0,23
-0,09
-0,24
0,17
0,2
0,05
0,12
-0,24
-0,26
-0,04
-0,19
-0,09
-0,17
-0,14
0,17
0,2
-0,2
-0,27
0,22
-0,03
-0,14
0,02
-0,009999997
-0,24
-0,14
0,07
-0,18
-0,23
-0,06999997
-0,18
-0,05
0,2
-0,09999999
0,03
0,23
-0,29
0,05
-0,06999943
0,04000066
-0,1499991
0,04000099
-0,2699991
0,2700009
-0,1799991
-0,1299991
1,077957E-06
0,0200048
-0,269992
0,1900114
-0,05998843
-0,109974
-0,2699746
-0,06997451
-0,1799748
0,2200252
0,05002546
0,2100251
0,2900215
0,01001544
-0,1799999
-0,07999992
0,05000004
0,13
0,22
-0,29
-0,09
-0,29
0,09000005
-0,06999996
0,15
-0,1599999
0,1700001
-0,009999915
0,07000004
0,22
-0,18
0,04
-0,13
0,18
0,15
-0,25
-0,21
-0,13
0,28
0,23
-0,08
-0,04
-0,23
0,1
-0,12
-0,21
0,06
0,22
-0,09
0,22
0,29
-0,1
-0,25
-0,19
0,26
-0,02
0,23
0,1
-0,26
-0,2
0,009999998
0,04
0,15
-0,11
0,1
-0,29
0,04
-0,2
0,15
-0,23
-0,17
-0,13
0,15
0,29
0,09
0,24
0,23
0,28
-0,26
0,06
0,08000001
0,25
-0,23
0,14
0,23
0,21
-0,01999999
-0,25
0,22
-0,13
-0,19
-0,01999999
-0,1699995
0,1800006
-0,08999904
0,180001
0,1100009
0,1800009
-0,2999991
-0,1299991
0,04000096
-0,04999525
-0,2399917
-0,1699886
0,09001151
0,110026
0,04002615
-0,2399747
0,02002547
-0,2799754
0,04002546
0,2400251
0,05002214
-0,02998455
0,01000008
0,06000008
-0,03999996
-0,29
-0,04999996
0,18
0,02
-0,02
-0,12
-0,01999996
0,25
0,1400001
-0,2599999
0,2700001
0,07000008
0,21
-0,17
-0,25
0,28
0,17
-0,29
-0,17
0,18
0,24
-0,26
-0,19
-0,13
-0,08
0,03
0,19
0,12
-0,13
0,23
0,15
-0,14
0,15
-0,09
0,1
-0,08
-0,18
0,14
-0,25
-0,24
0,08
-0,13
0,25
0,07
0,07
-0,02
0,1
0,19
-0,01
0,26
0,17
-0,05
-0,12
0,17
0,02
0,26
-0,16
0,01
-0,21
0,24
-0,02
0,15
0,08
0,2
-0,12
0,1
0,22
-0,009999963
0,03000004
0,13
0,16
-0,27
0,26
-0,24
-0,2
0,06000059
-0,2099994
0,04000097
0,09000094
0,2400009
0,2200009
-0,2999991
-0,1699991
-0,08999908
-0,2399954
-0,09999156
0,2800109
0,2800109
0,1900259
0,1300259
-0,2199747
0,1000254
0,05002546
-0,1999748
0,0700253
0,220022
0,09001548
-0,2499999
-0,1099999
0,26
0,06000004
-0,19
-0,14
0,15
-0,2
0,14
-0,009999957
-0,19
0,07000008
0,2600001
0,1700001
0,09000009
0,21
-0,15
-0,28
-0,01999996
0,02
-0,13
0,14
0,27
0,12
0,23
0,1
0,19
0,05
-0,25
-0,02
0,15
-0,02
-0,13
0,27
-0,27
-0,15
0,13
-0,13
0,11
0,14
-0,03
-0,2
-0,08
0,21
0,17
-0,09
0,23
0,26
-0,02
0,19
-0,11
-0,22
-0,21
-0,11
-0,09
-0,09
-0,09
-0,16
0,12
5,555921E-11
-0,03
-0,2
-0,26
-0,14
0,13
0,12
-0,11
0,29
0,13
-0,05999997
-0,23
0,28
-0,09999999
0,13
-0,26
-0,24
-0,07999999
-0,24
0,2500005
0,02000069
0,1700009
0,2200009
-0,2399991
-0,1499991
-0,2199991
0,06000084
-0,1199991
0,2700045
0,05000851
0,1200116
0,2300107
-0,009974472
0,04002555
-0,1999747
-0,1299748
-0,1299748
-0,2499748
-0,2399749
-0,229978
-0,2599848
-0,2899999
0,2300001
-0,17
-0,26
0,11
-0,09
0,18
-0,05
-0,16
-0,16
0,29
-0,1499999
-0,1099999
-0,1999999
0,1300001
0,04000004
-0,27
0,19
-0,23
-0,23
-0,07
-0,08
-0,07
-0,29
0,01
0,08
-0,07
-0,21
-0,04
0,17
-0,3
-0,15
0,29
0,2
4,037086E-09
0,23
0,08
-0,28
0,04
0,17
0,18
0,22
0,12
-0,1
0,13
0,08
-0,21
-0,07
-0,03
0,12
-0,16
-0,14
0,28
0,29
0,1
0,09
1,60561E-11
-0,18
0,02
-0,28
0,27
0,08
0,29
-0,03
-0,16
0,13
-0,15
-0,01999999
0,1
0,19
0,25
-0,3
-0,16
-0,11
-0,11
0,01
0,09000001
-0,27
-0,1199994
0,2200006
-0,01999899
0,2900009
0,1200009
0,1300009
0,03000087
0,1300009
-0,1299991
0,2900044
-0,1999917
0,2000113
-0,06998909
-0,0399745
-0,009974428
0,01002557
0,2000252
-0,2099748
0,2300252
-0,1499749
-0,239978
0,2900152
-0,07999992
0,1100001
0,13
0,07000005
0,17
-0,17
-0,29
0,09
0,1
-0,21
-0,3
-0,02999996
0,24
0,1000001
0,04000008
0,2700001
0,2600001
-0,15
0,23
9,96402E-10
-0,04
-0,15
-0,13
0,19
-0,04
-0,02
2,519743E-09
0,13
-0,009999996
-0,21
0,07
-0,06
0,26
-0,12
-0,009999998
0,17
-0,15
-0,26
0,26
-0,1
0,11
0,08
-0,11
-0,29
0,2
0,25
0,02
0,19
0,27
0,22
-0,17
0,07
-0,09
0,06
0,03
-0,23
-0,06
0,24
-0,2
-0,12
0,12
-0,12
-0,21
3,196772E-09
0,01
0,05
2,806695E-08
0,05000002
-0,2
0,16
0,11
0,21
-0,11
0,03000004
0,18
0,18
0,26
-0,14
0,2800005
7,051053E-07
0,2600009
0,1100009
0,1600009
0,07000086
0,2600009
-0,2999991
-0,269999
-0,09999535
0,1500083
-0,07998849
-0,07998909
-0,08997458
0,2400253
0,08002549
0,07002541
-0,06997461
-0,01997451
0,1800251
-0,009977805
-0,1599846
-0,04999992
0,2600001
0,08000004
-0,2
-0,2
-0,09
-0,12
0,17
0,18
0,15
-0,2
-0,22
0,26
0,09000009
-0,08999992
-0,3
0,02000008
0,02000004
0,04000004
0,01000004
0,02
-0,2
0,2
0,18
-0,06
-0,1
0,27
0,1
0,26
-0,06
-0,11
-0,22
0,16
0,13
-0,25
0,29
-0,28
0,05
-0,04
0,05
0,11
-0,14
0,02
0,29
-0,19
-0,16
-0,06
-0,16
-0,14
0,06
0,21
0,26
-0,16
0,28
0,12
-0,15
-0,24
0,2
0,16
0,2
-0,06
0,07
0,21
-0,07
-0,05
-0,28
-0,08999997
-0,17
0,04000002
-0,08999997
0,28
0,26
-0,25
0,29
0,19
-0,14
0,06999999
0,2000002
0,06000078
-0,2099992
0,2500008
0,1200009
-0,0699991
-0,1099991
0,03000089
-0,06999914
0,2300009
0,1800076
-0,2999891
0,2000113
0,2300107
-0,1799747
0,1900253
0,06002553
-0,1999748
-0,2599754
-0,05997454
-0,2199749
0,04002219
-0,2099846
0,2300001
-0,1899999
0,1
0,24
0,08000004
0,24
0,2
-0,15
-0,22
-0,04999996
0,07000005
-0,15
-0,16
0,07000005
0,2400001
0,1100001
-0,1699999
0,02000004
0,2
-0,28
-0,22
0,03
-0,18
0,14
-0,02
0,16
-0,23
-0,02
0,18
0,15
0,21
-0,009999998
-0,14
-0,03
-0,14
0,14
-0,28
-0,02
0,1
0,08
0,02
0,08
0,09
0,05
-0,18
0,08
0,27
-0,18
0,12
-0,02
0,2
0,22
-0,12
0,01
-0,3
-0,11
0,29
0,25
-0,04
0,22
0,17
-0,08
-0,04
-0,07
0,04
-0,22
0,29
0,17
-0,09999997
-0,21
0,09000004
0,14
0,21
-0,19
-4,400242E-09
-0,009999998
0,24
0,07000018
0,01000082
0,2000008
0,1800009
0,2400009
0,1600009
-0,1099991
0,2400009
0,2900009
-0,1999991
0,1400076
-0,03998843
0,2600109
0,1400107
-0,2399747
-0,2799752
0,1700253
0,2100252
-0,1999748
-0,1899748
-0,1499749
-0,2999784
-0,2599848
0,09000005
-0,2
0,21
0,02000004
0,19
-0,25
-0,3
-0,24
-0,29
4,319345E-10
-0,05
-0,07999995
-0,05999996
0,06000004
-0,2599999
0,2200001
0,05000008
-0,23
-0,01999996
0,05000004
0,27
-0,16
-0,1
-0,06
-0,06
0,02
0,12
-0,26
-0,1
-0,1
-0,13
0,08
0,06
-0,03
-0,19
0,07
-0,27
-0,17
-0,01
0,19
0,28
-0,27
0,13
0,25
0,009999998
-0,08
0,12
-0,04
0,13
0,28
0,04
-0,26
0,16
-0,05
-0,24
-0,06
0,2
-0,03
-0,23
-0,13
-0,08
0,26
0,16
0,11
-0,18
0,16
0,15
0,26
-0,05999998
-0,03999997
0,19
-0,07999996
0,07000004
0,09000004
0,06
0,23
0,009999981
-0,05999982
0,2200007
-0,2799992
0,2000009
-0,1399991
-0,0999991
-0,08999827
0,1600017
-0,1699983
0,2200018
-0,1999924
-0,0999885
0,1600113
0,1700106
0,06002535
-0,2499749
-0,1799749
-0,03997454
-0,2899754
-0,1299778
-0,2899784
0,130022
0,1500154
0,06000004
0,15
-0,29
-0,14
-0,21
-0,19
-0,03
-0,23
0,18
-0,17
0,23
-0,04999996
0,04000004
-0,25
-0,03999992
-0,2399999
0,05000008
-0,05999992
0,25
0,29
0,23
0,05000004
0,06
0,08
0,09
-0,18
-0,14
-0,06
-0,17
0,05
0,05
-0,009999998
0,11
-0,23
-0,05
-0,26
-0,15
-0,26
-0,18
0,04
0,15
0,14
-0,08
-0,23
0,23
-0,09
-0,28
-0,3
0,16
-0,11
-0,04
0,22
-0,24
0,13
0,21
-0,29
-0,22
-0,08
0,07
0,26
0,25
-0,28
0,24
-0,17
0,07
-0,07
0,14
-0,02999997
0,09000003
-0,08999997
0,21
0,01000004
-0,18
-0,09999996
-0,17
-0,22
-0,18
-0,009999814
0,1500008
-0,1299992
-0,1999991
-0,1399991
0,0800009
0,2300017
-0,2199983
0,1300017
-0,06999825
0,2700073
-0,1499742
-0,0599739
0,2600246
0,2200251
-0,02997464
-0,1499749
0,0900254
0,1300252
0,2000222
-0,2199779
-0,009977796
-0,009984503
0,07000005
0,05000004
-0,09999996
-0,05999996
-0,01999996
0,25
0,1
0,15
4,888948E-10
0,12
0,18
0,09
0,07000005
-0,11
0,1600001
0,08000008
-0,06999992
-0,3
-0,26
0,24
-0,3
0,16
-0,19
-0,16
-0,05
0,29
-0,26
0,26
0,11
3,688342E-09
-0,12
-0,27
0,29
-0,15
0,1
0,05
0,25
-0,16
-0,05
-0,17
-0,28
0,07
-0,03
0,02
0,05
-0,14
-0,16
-0,23
-0,01
-0,3
-0,11
0,2
-0,26
0,05
-0,01
0,21
-0,07
-0,24
0,28
-0,01
0,21
0,14
-0,27
0,29
-0,06
0,15
0,09000003
-0,07999997
0,09000003
-0,2
0,13
-0,21
0,05000003
0,21
0,21
-0,07999999
-0,12
0,08000018
0,09000077
-0,2099992
0,1400009
0,2600008
-0,03999907
0,1100017
-0,1999983
-0,02999822
0,2900016
-0,05999219
0,1500259
0,1900259
-0,1899749
0,1900251
-0,1499748
0,2500246
-0,07997461
-0,1199746
0,04002237
-0,02997768
-0,2199925
0,2000009
0,06000004
0,22
-0,02999996
-0,11
-0,14
-0,21
-0,16
-0,17
0,13
-0,24
0,02
0,15
-0,02999996
0,19
0,14
0,24
-0,1299999
-0,08999992
0,1900001
0,2600001
0,15
-0,15
0,06000004
0,2
0,29
0,24
0,24
0,09
-0,02
0,03
0,18
0,2
5,49948E-11
0,18
0,02
0,21
-0,02
-0,23
-0,05
-0,3
-0,17
0,15
0,1
0,08
-0,14
-0,04
-0,08
-0,05
-0,2
-0,02
-0,3
-0,18
0,08
-0,19
-0,26
-0,09
-0,14
0,07
-0,11
-0,08
-0,16
0,04
0,14
-0,2
-0,12
0,11
-0,16
0,08000003
-0,13
0,23
-0,04999997
-0,2
0,26
0,18
0,13
0,29
0,03999998
0,2700002
0,03000081
0,02000089
0,01000098
-0,009999025
-0,01999902
-0,2999984
0,02000178
0,06000174
-0,1799983
-0,1099923
0,1300258
-0,1999741
0,05002535
0,2100251
0,1700252
-0,2799754
0,1500252
0,08002544
-0,2899783
2,1498E-05
-0,0999932
0,05000008
-0,18
0,13
-0,23
-0,13
-0,28
0,19
-0,15
0,19
-0,02
-0,26
0,17
-0,12
-0,27
0,17
0,2
0,15
-0,2499999
0,1400001
0,08000008
0,1200001
-0,009999956
0,25
0,25
-0,24
-0,13
0,04
-0,07
0,24
-0,28
-0,26
0,28
-0,26
0,06
0,28
-0,1
0,18
-0,09
-0,2
0,27
0,12
-0,1
-0,08
0,21
0,08
-0,08
-0,14
0,17
0,29
-0,19
-0,3
0,03
-0,14
0,22
0,07
-0,24
-0,14
0,18
-0,3
-0,3
-0,02
-0,05
-0,09
0,17
-0,07
-0,24
0,13
0,11
-0,25
-0,03999998
-0,28
-0,06999996
0,24
0,17
0,25
-0,09
-0,24
-0,27
-0,1399998
0,1400008
-0,2899992
0,1700009
-0,06999913
0,1200009
-0,2799984
0,0100018
0,1200017
-0,1799983
0,2800073
0,2200259
-0,2699747
0,2900246
-0,09997471
-0,1999748
-0,01997462
-0,1299748
0,2900246
0,05002237
-0,02997853
0,02000679
0,09000005
0,04000004
0,11
0,03000004
-0,21
0,06000004
0,08
-0,02
0,26
-0,14
0,29
-0,17
0,02
-0,14
0,29
0,11
-0,29
0,08000004
0,1500001
0,2200001
-0,06999992
0,01000004
0,12
-0,17
-0,07999996
-0,28
-0,27
0,14
-0,12
0,07
-0,08
8,248618E-12
0,06
0,14
-0,26
-0,04
-0,25
0,2
0,03
-0,05
0,23
-0,17
-0,15
0,12
0,22
0,2
-0,03
-0,27
-0,19
0,17
-0,15
-0,1
0,2
0,05
-0,22
-0,23
0,21
-0,02
-0,2
-0,24
0,03
0,24
-0,2
-0,12
0,23
-0,009999992
0,07000001
0,17
-0,18
0,02000003
0,06000003
-0,19
-0,25
-0,11
0,29
-0,21
-0,14
-0,3
-0,09999982
0,02000084
0,05000088
0,2900008
0,02000095
1,041323E-06
-0,0799982
-0,2899983
0,1000018
-0,2899984
0,05000781
0,2600253
0,04002609
0,06002535
0,0900253
-0,03997461
0,2200252
0,2900246
-0,2699754
0,2600217
0,1900213
-0,06999324
-0,17
0,09000005
0,21
0,09000005
-0,19
-0,26
-0,15
5,745599E-11
0,05
0,29
0,21
0,21
-0,23
0,08
0,01
0,04000004
-0,08999996
0,09000005
0,2600001
0,2200001
0,1800001
0,06000008
-0,18
-0,15
0,27
0,29
0,01
0,08
-0,03
-0,3
-0,24
-0,1
-0,19
0,27
-0,12
0,25
-0,23
0,23
-0,11
-0,13
0,16
-0,21
-0,05
0,05
-0,25
0,13
-0,02
-0,29
0,25
-0,12
0,07
-0,07
0,29
0,26
0,04
0,07
-0,04
0,06
0,11
-0,18
0,03
0,06
-0,27
0,05
0,22
0,01000001
0,1
-0,2
-0,11
0,05000002
-0,03999997
-0,01999996
-0,09999996
0,08000004
-0,24
0,09000001
-0,2
0,05999998
-0,2099998
-0,1599992
9,601092E-07
-0,009999017
0,1300009
-0,2099991
-0,0799982
0,1200017
-0,09999828
-0,1599983
-0,07999226
0,110026
-0,01997386
0,01002536
-0,1899749
-0,2299748
0,1400252
-0,2099748
-0,2499748
0,1900222
0,1200214
0,04000678
-0,28
-0,12
0,11
-0,11
0,21
-0,22
-0,27
-0,1
0,2
0,24
-0,04
0,2
-0,03
-0,04
0,12
-0,27
0,23
0,24
-0,1699999
-0,1999999
-0,1999999
-0,04999992
0,18
0,08000004
-0,24
0,25
-0,14
-0,17
0,24
0,26
0,03
-0,09
0,23
0,05
-0,19
-0,18
0,18
-0,07
-0,13
-0,16
0,08
0,29
-0,07
-0,03
-0,16
0,08
-0,27
0,15
-0,06
0,11
-0,14
-0,19
0,06
0,02
-0,07
0,07
-0,01
-0,27
-0,17
0,26
0,21
0,2
-0,04
0,24
-0,09999999
-0,26
0,26
0,22
-0,16
-0,009999972
-0,15
-0,009999964
0,06000003
0,28
0,02000004
-0,2
-0,29
-0,1
-0,06999982
-0,01999916
0,2100008
0,01000098
0,1800009
-0,1799991
0,1000018
-0,07999825
0,1500048
-0,08999514
-0,1899924
0,04002609
0,120026
0,1500251
-0,1999748
-0,08997469
-0,07997468
0,1700252
0,02002549
-0,009977647
-0,2399788
-0,2099933
0,12
-0,19
4,640598E-08
0,25
-0,05
0,16
0,05
0,07
0,29
-0,17
0,05
-0,21
0,09
0,14
-0,26
-0,1
-0,28
-0,17
-0,16
0,28
-0,1099999
0,04000008
0,1100001
0,1000001
0,17
4,246407E-08
-0,11
-0,16
0,06
0,14
0,07
0,02
-0,17
-0,17
0,16
0,09
-0,3
0,23
0,17
0,23
0,16
-0,22
-0,09
0,27
0,29
0,02
-0,25
-0,05
-0,14
-0,29
0,15
-0,12
-0,15
-0,23
0,2
-0,23
3,086555E-09
0,2
-0,23
0,25
-0,03
-0,1
-0,3
-0,15
0,05
-0,28
0,25
-0,04999998
0,28
-0,04999998
-0,09999996
-0,21
-0,03999997
-0,09999996
-0,19
-0,2
-0,1699994
0,1300005
0,1000008
-0,1499992
-0,05999912
0,2300009
0,2800009
0,05000095
0,2900017
-0,1199982
-0,1399953
-0,2499953
-0,06999227
0,08002601
-0,2199741
-0,2099749
0,1500252
0,2100252
-0,04997458
-0,03997449
-0,2199748
-0,2399778
-0,07997867
0,2600064
0,06000004
0,1
-0,03999996
0,21
0,1
0,05
0,22
0,24
0,26
0,1
0,23
0,17
-0,2
0,22
3,025335E-09
0,04
-0,08999996
-0,05999996
-0,15
-0,14
0,1600001
0,1900001
-0,2799999
-0,09999992
-0,14
-0,2
-0,06999996
0,04000004
0,25
0,15
-0,28
-0,23
-0,1
0,13
0,08
0,14
-0,04
-0,23
0,24
-0,07
-0,04
-0,09
-0,21
0,12
0,14
-0,09
0,29
0,23
-0,09
0,21
-0,26
0,13
0,2
-0,24
-0,2
0,16
0,08
-0,24
0,04
3,258734E-09
-0,19
-0,13
0,29
-0,2
0,07000001
0,16
-0,03999998
-0,03999998
-0,16
0,16
-0,23
-0,16
3,302544E-08
0,21
0,19
-0,06
0,1000006
-0,1099994
0,05000078
0,2500007
-0,1899991
1,008027E-06
-0,1699991
-0,2599991
0,1000018
-0,1199982
-0,1399953
-0,1599953
0,03000785
0,2100258
-0,2499741
-0,1099747
0,02002538
-0,05997458
-0,1799748
-0,2099748
-0,07997461
0,2800217
-0,2599791
0,2700064
0,24
0,03000004
0,09000005
0,04000004
0,13
0,2
-0,18
0,28
-0,14
0,15
-0,24
-0,12
0,01
0,08
-0,12
0,11
-0,27
0,25
5,051756E-08
-0,12
5,012908E-08
-0,1799999
0,2200001
-0,07999992
0,11
0,18
0,11
-0,24
0,09000004
0,1
-0,28
0,11
-0,16
0,07
-0,29
0,08
0,21
0,09
-0,1
0,2
-0,24
-0,12
0,28
0,17
0,14
0,16
0,17
0,24
-0,25
0,01
-0,25
-0,04
-0,02
0,15
-0,03
0,11
0,1
-0,14
0,23
0,25
-0,22
-0,24
-0,11
0,05
0,13
-0,04999998
-0,26
0,24
0,07000003
0,1
0,2
-0,05999997
0,05000003
0,09000001
-0,18
-0,19
-0,1599994
-0,2499994
0,08000076
0,2400008
-0,2999992
0,1700009
-0,2999991
-0,2199991
0,05000184
0,06000179
-0,1799953
-0,01999506
-0,209993
-0,1099746
0,2800248
0,04002537
0,1600251
-0,05997458
0,1200254
0,2900217
0,2900217
-0,07997771
-0,2599791
-0,1099932
0,12
0,23
-0,14
-0,04999996
0,1
0,1
0,21
0,19
0,03
-0,15
-0,03
0,05
0,08
0,28
0,25
-0,1
-0,24
-0,2
-0,3
-0,23
-0,17
0,06000008
0,1400001
-0,1199999
0,1100001
-0,15
0,08000004
-0,2
0,27
-0,17
-0,18
0,22
-0,3
-0,11
-0,18
-0,24
0,01
0,04
-0,03
0,24
0,14
-0,08
0,25
0,23
0,21
-0,08
0,25
0,17
-0,01
-0,09
0,22
0,18
-0,09
0,27
-0,25
-0,24
-0,22
0,28
0,14
-0,05
-0,28
0,11
0,22
-0,11
-0,28
0,05000002
0,04000002
-0,11
0,16
0,18
0,19
0,02
0,13
-0,25
-0,08000001
0,2
0,1000006
0,2100005
-0,03999922
-0,1199992
-0,1099991
0,2000009
0,1000009
0,0500009
-0,08999825
-0,05999821
4,998046E-06
-0,279981
-0,1699785
-0,2499747
0,2700248
0,03002538
0,2000252
-0,2799753
0,2100252
-0,2699783
2,230123E-05
0,05002233
0,2000212
-0,1399933
0,18
0,06000004
-0,3
0,1
0,02
-0,1
-0,25
-0,15
0,05
-0,15
-0,05
-0,13
0,01
-0,05
-0,25
-0,18
-0,3
-0,13
0,28
0,08000004
-0,26
0,01000008
-0,2399999
0,1000001
0,2100001
-0,14
0,12
0,1
-0,16
-0,12
-0,11
-0,25
-0,3
-0,21
1,740689E-10
0,13
0,19
-0,3
-0,27
-0,3
-0,11
-0,16
-0,03
0,27
0,1
0,09
-0,29
-0,06
0,27
0,09
-0,27
-0,17
0,07
-0,18
-0,19
-0,14
3,085681E-09
-0,11
0,19
-0,15
0,07
-0,06
-0,29
-0,14
0,26
-0,09999997
-0,13
-0,07999997
0,24
-0,08999997
-0,07999996
-0,3
-0,17
0,27
-0,11
0,2
-0,2599995
-0,2199994
-0,2999993
-0,1899992
-0,1499992
-0,1299991
0,1300009
0,0400009
-0,1499983
-0,2399983
-0,02999215
0,1700221
0,2700212
-0,1599747
-0,1799747
2,539979E-05
-0,1999748
0,1700252
-0,07997463
0,2400222
-0,1699924
-0,1899924
-0,2899935
-0,09999314
-0,08999986
0,08000004
4,632145E-08
0,05
-0,13
-0,28
0,29
0,09
0,23
-0,09
-0,19
-0,09
-0,11
0,07
-0,3
-0,1
0,11
-0,03
-0,3
0,2
0,22
-0,009999957
-0,05999996
0,1000001
-0,2099999
0,2200001
0,1900001
-0,03999996
0,04000004
-0,05999996
0,07000004
0,22
-0,23
0,1
0,19
0,06
0,17
-0,22
-0,14
-0,17
-0,24
0,18
0,24
0,06
-0,28
0,21
-0,2
0,03
0,16
-0,28
-0,17
0,15
-0,2
-0,19
-0,03
0,21
-0,16
0,2
-0,04
-0,05
-0,17
0,02
-0,26
-0,02
0,14
-0,11
-0,16
0,09000003
0,17
-0,06999997
0,03000003
0,02
-0,2
0,17
0,13
-0,26
0,05000059
0,1800006
0,07000076
-0,1299992
0,1100009
-0,1399991
0,09000092
0,02000095
-0,1899983
0,2100017
0,1200077
0,2600217
-0,1799785
0,2700248
-0,07997454
0,2700247
0,1200254
0,2100252
-0,2999753
0,03002245
0,1300076
-0,03999225
0,2100068
0,1300068
0,07000014
4,588297E-08
0,15
-0,07
-0,01
0,1
0,05
-0,07000005
-0,03000005
-0,07000005
-0,14
-0,04000005
-0,1800001
-0,22
0,13
0,26
0,23
0,02
-0,14
0,23
0,06000004
-0,13
-0,02999996
0,1900001
-0,2899999
0,06000008
0,2000001
-0,1099999
0,17
-0,21
-0,09999996
-0,22
0,26
0,23
0,1
-0,2
1,801781E-10
-0,14
-0,27
-8,870728E-11
-0,14
-0,11
-0,02
0,18
0,11
0,26
0,14
0,03
-0,23
-0,27
0,1
-0,2
-0,2
0,28
-0,24
-0,11
-0,27
0,25
-0,09
0,22
0,2
-0,15
0,05
-0,13
-0,28
-0,22
-0,009999972
-0,12
-0,01999997
0,02999999
-0,04
0,06
-0,01
0,15
0,05999998
-0,13
0,1900005
0,08000056
-0,2199993
-0,2499993
0,2100008
-0,139999
-0,179999
0,1400009
-0,009995091
-0,2099953
0,2800072
0,2800217
0,1700216
-0,09997454
-0,2299747
0,04002542
0,2500247
-0,1999748
0,1000254
-0,2999783
0,1300076
-0,1999924
0,1500068
0,02000689
-0,03999987
-0,05
-0,25
0,03
0,07
-0,27
0,11
-0,06000005
-0,09000006
0,19
-4,958987E-08
-0,05000005
0,17
-0,14
-0,3
0,03
-0,28
0,21
0,18
0,23
-0,21
0,01000004
0,01000004
-0,23
-0,03999992
0,2100001
0,1100001
-0,1099999
-0,25
0,05000004
0,04000004
0,08000004
0,22
0,05
0,08
-0,05
-0,19
0,08
-0,23
-0,05
-0,02
0,04
0,06
0,28
0,2
0,11
0,17
0,08
-0,21
-0,23
0,28
0,22
-0,08
0,22
-0,07
0,25
0,24
0,28
-0,23
0,15
-0,08
-0,08
-0,11
0,15
-0,16
0,22
0,03000003
-0,19
0,08000003
0,04999999
-0,07999999
-0,06999999
0,14
-0,07999999
-0,05000002
0,04999998
0,2400005
0,0300006
-0,1299993
0,1400007
-0,2699992
-0,2799991
-0,2099991
0,2800009
0,07000478
0,1100048
-0,1499925
0,2900217
-0,1799784
0,1200255
0,01002561
-0,1799748
0,01002548
-0,08997458
-0,2799753
-0,2499778
-0,1599924
0,2100047
0,1300039
0,2800038
-0,2199999
0,06
-0,3
0,04
0,14
0,04
-0,22
-0,3000001
-0,03000005
0,17
-0,2900001
-0,09000006
0,1099999
-0,08
0,12
-0,1
-0,18
-0,09
-0,23
0,03
0,06
0,03000004
0,28
0,26
-0,27
-0,21
0,2200001
-0,07999992
-0,11
-0,11
-0,09999996
-0,28
0,19
-0,12
0,06
-0,03
-0,28
0,05
-0,17
-0,27
0,03
-0,15
0,02
-0,06
0,1
-0,2
0,01
-0,22
0,09
0,12
0,22
0,23
0,13
-0,21
-0,09
0,04
0,08
-0,26
3,311459E-09
0,04
0,12
0,15
0,1
-0,23
-0,04
0,29
0,01000003
-0,08
0,16
-0,16
-0,12
0,07000001
-0,23
-0,26
-0,3
-0,09000002
-0,2899995
0,03000063
-0,1399993
0,2300007
0,08000084
0,1400009
0,1300009
0,07000092
-0,02999513
-0,02999509
-0,1199885
0,09002604
0,2700249
-0,2899751
0,1900254
0,2700247
-0,2599782
0,08002225
-0,08997776
0,1700222
0,05000775
-0,05999515
0,2800038
0,100004
0,08000014
-0,21
-0,09
-0,06
-0,07
-0,16
0,15
0,08999995
-0,21
-0,3000001
0,02999995
-0,2600001
0,18
0,06999995
0,2599999
0,27
-0,28
-0,27
0,1
0,29
0,1
0,21
-0,05999996
0,15
-0,04999996
-0,09999996
0,03000008
-0,009999915
0,1300001
-0,1799999
0,16
0,06000004
0,05000004
0,05000004
-0,15
-0,02
-0,08
-0,11
-0,17
-0,18
0,11
0,09
1,634374E-10
0,26
-0,03
0,14
-0,21
-0,03
0,11
-0,07
0,14
0,01
0,14
0,28
-0,3
0,16
0,14
0,06
0,28
-0,27
0,11
-0,14
0,26
0,27
-0,16
0,27
-0,01000001
-0,18
-0,08
-0,02000001
0,05
0,13
0,19
-0,02
-0,13
-0,29
-0,08999943
-0,02999937
-0,1299993
0,1100007
-0,1999992
-0,2499991
0,1700009
-0,1099991
-0,02999513
-0,1599808
0,2200259
0,06002612
0,04002566
-0,01997437
0,1400254
0,1500252
-0,09997772
-0,2099779
2,225094E-05
-0,04997768
0,1300076
0,03000486
0,120004
3,972309E-06
-0,1499999
0,26
-0,25
-0,17
0,17
-0,29
0,12
-0,1500001
0,1099999
0,2799999
-0,05000005
-0,14
-0,1200001
-0,14
0,22
0,04999995
-0,02000005
0,05999995
-0,01000005
-0,3
-0,25
0,22
0,08
0,24
0,13
0,2
-0,07999995
0,09000005
0,2800001
0,2200001
-0,1199999
0,18
0,15
0,17
-0,03999996
-0,17
-0,3
0,04
0,02
-0,04
0,01
0,06
0,25
0,06
-0,28
-0,03
-0,04
-0,27
-0,14
0,24
0,26
-0,24
-0,27
0,12
-0,06
-0,08
-0,12
-0,19
-0,009999997
0,27
0,08
-0,28
-0,13
0,19
0,1
0,05999999
0,009999993
0,009999993
0,2
0,09
0,05
0,24
-0,26
-0,28
-0,02000002
-0,02000002
0,2700005
-0,2799994
0,2100007
-0,1499993
-0,06999921
-0,1099991
-0,06999908
-0,2699991
0,2500045
-0,1899807
0,1400259
-0,2699746
-0,07997435
-0,2699751
0,2400254
0,1900252
-0,2599782
0,04002223
0,1800075
-0,009992173
-0,1199923
-0,249999
0,2500001
-0,04999987
0,2600001
0,25
-0,18
0,07
-0,11
-0,28
-0,28
-0,2900001
-0,17
0,2599999
-0,05000006
-0,14
-0,1100001
-0,17
0,03999995
-0,1100001
0,08999995
-0,17
0,2399999
-0,02000005
0,22
-0,03
-0,22
0,17
0,14
0,15
0,2
-0,009999957
-0,1599999
0,2800001
-0,2099999
0,2100001
-0,2399999
-0,04999996
-0,11
-0,02999996
-0,24
0,15
0,14
0,22
-0,22
0,13
0,19
-0,04
0,08
0,07
1,085902E-09
0,2
-0,3
-0,02
0,2
-0,25
-0,19
-0,04
0,03
-0,02
0,17
-0,05
0,23
0,03
-0,18
0,03
0,17
-0,16
0,16
0,03
-0,2
0,24
0,24
-0,23
-0,17
0,23
-0,01
-0,29
-0,1
-0,21
0,0800006
0,1100006
-0,2199993
-0,2399993
-0,1499992
-0,2999991
-0,01999892
0,150001
-0,2199953
-0,259981
0,1000261
0,1000261
0,2100255
0,2000254
0,09002562
0,1000254
0,2200221
-0,1999779
0,1000077
0,05000778
0,2500072
0,04000101
0,1000001
-0,2499999
-0,02999991
0,05
0,25
0,22
-0,15
0,26
0,05999999
-0,21
-0,24
-0,06000005
0,2
-0,24
-0,14
0,16
-0,1200001
-0,19
-0,2600001
-0,2900001
-0,24
0,1199999
0,22
-5,447776E-08
-0,2800001
-0,27
-0,02
0,02000004
-0,29
-0,12
-0,08999996
0,1400001
-0,1699999
-0,27
-0,2899999
-0,27
0,08000008
0,09000009
-0,26
0,06000004
4,352826E-08
-0,19
-0,01999996
4,352852E-08
0,03
-0,03
-0,3
0,02
-0,06
-0,25
0,22
-0,02
8,557308E-10
0,24
-0,02
0,28
-0,18
0,27
0,03
0,21
-0,06
0,12
0,25
-0,12
0,18
-0,09000003
-0,19
0,16
-0,25
-0,18
-0,23
0,09
-0,23
-0,02
-5,565609E-09
0,25
-0,17
-0,07999998
0,2600006
0,0400006
-0,2699993
0,2500007
-0,2199991
0,250001
-0,04999896
0,220001
-0,1699953
-0,1199806
0,05002616
-0,2699746
0,2100255
0,1100256
-0,2499746
-0,1799748
-0,1899779
0,1800221
-0,1499925
-0,1999924
0,1200077
-0,1899991
-0,1399999
-0,1699999
-0,02999991
-0,19
0,28
-0,17
-0,09
-0,28
-0,06
0,01999999
0,14
0,2
-0,3
0,28
0,18
-0,01000005
0,02999994
-0,3000001
0,22
0,25
-0,23
0,22
-0,19
-0,2800001
-0,09000006
-0,04000005
0,02999995
0,2399999
-0,13
0,11
0,1
-0,27
0,1
0,1400001
-0,1199999
0,1900001
-0,02999992
0,2700001
0,2600001
-0,1799999
0,01000004
-0,19
0,24
-0,28
-0,12
-0,29
0,1
-0,24
-0,06
0,11
-0,15
-0,16
-0,13
0,16
-0,27
-0,07
-0,29
-0,05
0,19
0,02
0,09
-0,04000003
0,14
0,13
0,22
0,09999997
-0,21
-0,14
0,1
0,28
-0,28
0,04999999
-0,27
0,09000004
-0,06999992
0,26
0,28
-0,22
0,1300006
-0,09999936
0,1500008
-0,0399992
9,971311E-07
0,05000108
-0,03999893
-0,04999893
0,1600047
0,2300193
0,1000261
0,2400259
0,1700255
-0,2899751
-0,2299746
-0,05997457
0,02002226
-0,2499779
-0,03999235
-0,1999924
-0,1999924
0,08000097
0,2100001
-0,05999991
-0,03999991
-0,05
0,09
0,09
-0,2
0,08
-0,08
-0,23
-0,05000003
0,22
0,12
-0,01000004
0,16
-0,17
0,25
-0,22
-0,14
-0,03000006
0,2399999
-0,14
0,04999994
0,15
-0,2
-0,2900001
-0,03000005
0,08999995
-0,24
-0,12
-0,009999959
0,17
0,28
-0,2599999
-0,01999992
-0,08999992
-0,3
-0,2499999
0,2600001
0,1600001
-0,16
-0,23
4,373607E-08
0,02000004
-0,009999958
0,25
-0,12
0,08
0,07
-0,11
-0,21
-0,13
0,24
0,13
0,14
0,05
0,18
0,09999997
-0,16
0,07999997
-0,19
0,009999971
0,009999971
-0,26
0,07999997
0,06999997
0,24
0,07
-0,3
-0,05000001
-0,18
0,2
-0,18
2,655983E-08
-0,18
0,16
0,15
-0,28
-0,1399994
-0,1499994
0,1200008
0,1900008
-0,2899992
0,170004
-0,219996
-0,189996
0,2300047
-0,1499808
-0,09997392
0,2300259
0,03002579
-0,1099744
0,2000254
-0,1199746
0,04002225
0,1200221
0,06000765
-0,03999226
0,2400076
0,2100009
-0,2899999
0,1100001
0,0700001
-0,18
-0,24
-0,11
-0,25
-0,07
-3,52737E-09
0,27
0,19
0,15
-0,07000004
0,29
0,25
-0,08000001
-7,196692E-09
0,13
0,2599999
-0,04000005
0,14
0,07999994
-0,13
-0,23
0,2099999
0,22
-0,3000001
0,23
0,25
-0,01000005
-0,21
-0,11
-0,22
-0,05999996
-0,16
-0,29
-0,1899999
0,1800001
0,1000001
0,1900001
-0,2499999
-0,009999915
0,1500001
-0,07999992
-0,27
0,18
0,26
0,21
-0,07999996
-0,18
-0,18
0,23
-0,01
-0,03
-0,23
-0,08
-0,07
-3,582829E-08
-0,1
-0,17
-0,12
-0,18
-0,02000003
-0,3
0,17
-3,586399E-08
0,05999997
0,29
0,14
0,24
-0,2
0,1100001
-0,2799999
-0,23
-0,08999994
-0,16
0,22
0,24
-0,2699994
-0,2699994
0,2600007
-0,2099992
9,935947E-07
0,120005
-0,1399952
-0,1399952
0,1900047
0,1000194
-0,1299741
0,2100259
0,07002563
0,1100255
-0,01997754
-0,02997774
2,228073E-05
0,2200221
-0,2899928
0,1400076
0,05000771
0,02000098
-0,1899999
0,2700001
-0,2399999
-0,02
-0,29
0,01
0,2
-0,08
-0,24
0,23
-3,808697E-08
-0,01000003
-0,04000003
-0,14
-0,14
-0,21
0,12
0,15
0,14
0,009999945
0,1099999
0,2599999
0,1099999
0,23
-0,13
-0,01000006
-0,1800001
0,04999994
0,06999994
-0,02000006
-0,17
-0,22
-0,1100001
0,009999983
0,22
0,29
-0,28
-0,29
0,11
0,1400001
-0,03999992
-0,02999992
0,03000008
-0,05999995
-0,08999995
-0,23
-0,16
-0,19
-0,2
-0,09999995
-0,2
-0,15
-0,3
-0,27
0,21
-0,16
-0,15
-0,17
-0,2
0,02000001
-0,11
-0,16
0,15
0,08000001
0,1000001
-0,07999999
-0,2
0,25
-0,05999998
-0,13
-0,23
0,1000001
-0,26
0,29
-0,26
-0,16
-0,07999996
-0,13
0,01000067
-0,2099994
-0,1599992
-0,2899993
-0,04999911
-0,1399952
-0,1299952
0,2700191
-0,2299808
-0,1499808
0,09002606
0,07002605
0,1400255
0,1900254
0,2100223
-0,2199779
-0,04997775
-0,1799779
0,1100076
0,2400076
0,1300076
0,2900008
0,2700001
-0,1099999
0,1700001
0,23
-0,17
-0,01
-0,19
-0,29
0,28
0,06999997
0,21
0,27
0,11
-0,29
-0,13
-0,13
0,19
-0,02000004
-0,09000004
0,12
-0,16
0,24
-0,14
0,1599999
0,01999991
-0,1300001
0,1899999
0,2499999
0,02999991
0,2199999
0,01999991
-0,02000009
0,02999991
0,01999991
-0,1800001
0,25
-0,16
0,01999995
-0,2700001
0,17
0,15
-0,2500001
-0,14
-0,29
0,16
0,17
-0,23
0,19
0,21
-0,22
-0,07000001
-0,17
0,02999999
-0,29
0,14
-0,28
-0,27
-0,3
-0,1
0,25
0,09999999
-0,14
-0,02000001
-0,24
-0,25
-0,07000001
-0,07
-0,21
0,18
-0,08999995
-0,27
-0,14
-0,04999995
0,03000006
0,27
-0,22
0,08000004
-0,16
0,2900006
0,1500006
-0,2099992
0,2900007
-0,2599992
-0,0499949
-0,009994839
-0,1199805
0,2400192
0,02001943
0,1700259
-0,1999741
0,2200254
-0,1699747
-0,1799778
-0,2299779
-0,2299779
-0,009977851
0,07000762
-0,1999924
0,2600072
-0,07999902
-0,0699999
0,2800001
-0,2899999
-0,01
-0,26
-0,24
0,18
0,29
-0,27
0,04999997
-0,07000003
0,18
-0,3
0,03999997
0,16
0,09999997
-0,19
-0,28
0,05999997
0,16
-0,02000004
0,2
-0,09000004
0,07999996
-0,01000004
0,1999999
-0,2600001
-0,1300001
-0,05000009
-0,02000009
0,009999905
-0,02000009
-0,1300001
0,06999991
-0,08000009
-0,1900001
0,2799999
0,04999992
-0,1
-0,07000005
-6,207162E-08
0,2399999
-0,01000005
-0,1800001
0,16
-0,27
-0,18
0,06999999
-0,09000001
-0,04000001
-0,13
0,04999999
0,02999999
-0,21
0,24
0,01999999
0,05999999
-0,08000001
-0,3
-0,16
-0,29
-1,485188E-08
0,02999999
0,04999999
-0,26
0,25
0,01000003
-0,06999995
-0,18
0,04000004
0,12
0,06000004
0,1100001
-0,17
-0,15
0,03000006
-0,08999997
-0,21
0,2200005
-0,04999937
0,07000074
-0,03999923
0,2600008
0,2900046
-0,1999952
0,2600218
0,2400221
-0,2299779
0,1200261
0,1900259
0,04002562
0,05002553
0,0500224
-0,2399779
-0,08999231
-0,2999928
-0,09999238
0,2400076
-0,2299924
0,2000009
0,02000009
0,1800001
-0,04999991
0,16
0,14
0,1
0,23
-0,11
0,24
-0,1
-0,19
-0,03
-4,707605E-10
0,03999997
0,05999997
0,04999997
0,03999997
0,03999997
-0,06000003
-0,22
-0,3
-0,07000003
0,11
-0,08000003
-0,3
-0,24
-0,29
0,03999996
0,22
-0,15
-0,18
-0,03000009
-0,2900001
-0,2900001
0,2199999
0,1899999
-0,2900001
-0,2100001
-0,1600001
-1,084136E-07
-0,2800001
0,03999991
-0,1700001
-0,09000005
0,07999995
-0,24
-0,2600001
-0,3000001
-6,205444E-08
0,16
-0,04000001
0,16
-1,642148E-08
0,29
0,2
-0,21
-0,24
-0,28
0,16
0,06999999
0,09
-0,12
-0,02999998
0,08000003
-0,22
0,14
-0,03999997
-0,009999949
0,12
0,17
0,03000005
-0,04999996
-0,09999998
0,23
-0,25
-0,05000003
-0,21
-0,11
0,1400006
0,2300006
-0,2899992
-0,2899992
-0,2599991
-0,2499953
0,1900047
-0,03997767
0,2700254
-0,2899746
-0,1999741
0,1200261
0,1200256
0,2800248
-0,07997767
0,06002225
0,2100076
0,1300075
-0,2299933
0,05000683
-0,1699933
0,2400001
0,1000001
0,05000009
-0,1199999
0,13
-0,18
-0,3
-0,05
0,06
0,23
-0,06
-0,3
0,17
-0,12
0,22
0,05999997
0,06999997
-0,17
-0,09000003
0,19
0,11
0,16
-0,06000003
-0,12
0,29
-0,26
0,03999996
-0,28
0,13
-0,28
-0,08000004
-0,12
0,02999991
-0,2400001
0,1999999
-0,1700001
-0,04000008
0,1299999
-0,09000009
0,2299999
0,1799999
-0,3000001
-0,09000009
-0,2300001
0,16
0,12
0,25
0,09999996
-5,839917E-08
-0,3000001
-0,17
-1,576598E-08
0,15
0,16
0,009999994
-0,23
-0,15
-0,14
-0,11
0,07999999
0,06999999
0,28
0,12
0,03000002
0,01000003
-0,25
-0,03999997
0,1
-0,01999995
0,08000005
-0,21
0,24
0,22
-0,01999998
-0,3
0,11
-0,05000003
-0,13
0,02000003
-0,1399994
-0,2099994
0,2400006
0,02000066
0,1200006
0,1900038
0,2200039
0,03002149
0,1700259
0,05002614
0,1200261
0,2800254
-0,1999746
-0,05997447
0,1300222
-0,1499779
0,1900076
-0,1199924
0,1700067
0,06000683
0,1000068
-0,1499999
-0,1599999
-0,1899999
0,2100001
0,21
-0,11
0,08
-0,14
0,15
0,19
0,11
0,27
0,14
-0,28
-0,01
0,12
-0,04
0,29
0,14
0,08999997
0,01999997
0,08999997
-0,26
0,15
0,09999997
0,28
-4,04479E-08
-0,22
-0,18
-0,2
-0,07000003
0,06999997
0,11
0,21
-0,29
0,24
0,13
0,11
0,2099999
-1,083901E-07
-0,1600001
-0,1400001
-0,2900001
0,1499999
-0,2900001
-0,3000001
-0,04000008
-0,09000009
-0,17
0,01999994
-0,07000006
-0,12
-0,27
0,26
-0,22
0,06000002
-0,2
-0,03999998
-0,19
0,22
0,18
-0,009999972
-0,26
0,05000002
-0,03999998
-0,27
-0,14
0,22
-0,2900001
0,04999995
0,29
0,15
-0,22
-0,17
-0,04999999
-0,14
0,07000004
-0,11
0,14
0,09000002
0,02000004
-0,22
0,2400006
0,09000064
0,1700008
-0,2599991
0,04000086
0,1400046
0,1200193
-0,05997386
0,1400259
-0,1399747
2,549898E-05
0,2800218
0,1100222
0,1400076
-0,1799925
-0,03999616
-0,1099961
0,2700037
0,1300001
0,03000009
-0,0999999
0,0800001
0,03
0,08
-0,2
0,19
1,764336E-14
