0,12
0,24
0,17
0,1999995
-0,1200005
0,1399994
-0,02000068
0,2899994
-0,2300006
-0,2200006
0,1599994
0,2699994
0,1299994
-0,02000069
-0,1300006
-7,209569E-07
-0,08000012
0,01999987
-0,2499993
0,01000108
0,05000026
-0,03000298
-0,03000297
0,04999712
0,2199969
-0,07000299
0,159996
0,05999686
-0,2699999
-0,2
-0,03999966
0,06000034
-0,2399997
-0,1899997
-0,04996281
0,1800371
0,2800368
-0,1999629
-0,05996272
-0,05996272
0,1900372
-0,06996278
0,2100372
-0,009962662
0,1800372
-0,04996273
3,728672E-05
0,2000371
0,1500371
-0,149963
-0,2799649
0,2500351
-0,1299647
0,08999843
-0,1700015
-0,1600015
-0,04000156
-0,1900015
0,2699985
0,2399984
0,2799983
0,2099984
0,2499985
0,2699986
0,1199984
-0,2000014
0,1999986
0,01999805
-0,2800018
-0,01000197
0,00999803
-0,1900018
-0,2300018
0,09999805
0,109998
-0,1900019
0,059998
0,2699982
0,1699981
-0,040002
0,2299981
0,2499999
0,2099998
0,1799999
-0,2300002
-2,135215E-07
-0,1200002
-0,04000028
0,2697195
-0,2002836
-0,0902836
0,1691509
-0,1808491
-0,0008492893
-0,04084925
0,2791511
-0,03084909
0,2291511
0,159151
0,07000002
0,04
0,2699996
0,1799995
-0,1400005
0,1299995
0,1999994
0,1799994
0,05999935
0,2799994
-0,2800006
0,07999935
-0,01000072
-0,07000064
0,009999285
-0,3000006
-0,2800006
0,2900001
-0,2299996
0,1999996
-0,1800038
0,2099962
-0,06000347
0,03999653
0,2199963
-0,2300033
0,1399966
0,2799953
0,06999653
-0,1700001
0,1299999
0,1299998
0,1299998
-0,1899634
-0,1999634
0,2200349
0,2600347
-0,2299651
0,05003481
-0,2599653
-0,1399651
0,1200347
0,1200347
-0,01996525
0,2500346
0,02003475
0,2200348
-0,06996532
0,1100347
-0,00996525
-0,06996533
0,2800346
-0,09996533
-0,2799654
0,04003474
0,1500348
-0,1999652
-0,07996532
0,2500346
-0,2199652
0,2900346
0,2100351
-0,2000017
-0,08000179
-0,1500017
-0,1200018
0,2399983
-0,1300017
-0,1700017
0,07999818
-0,2600017
0,2499984
-0,07000175
-0,2800014
0,03999801
-2,012919E-06
-0,2100019
0,2499981
0,08999799
-0,110002
-0,1600019
-0,100002
-0,1300019
-0,2300019
0,1999981
0,139998
-0,0702855
0,0997145
0,05971448
-0,06085137
0,1191489
0,02914826
-0,1908514
-0,04085167
-0,2508512
-0,06085168
0,009150065
-0,1108492
-0,1708491
0,06915081
0,06999995
0,03999948
-0,2000005
-0,2700005
-0,0600006
-0,02000062
0,04999928
-0,1200007
-0,02000074
-0,2600006
0,05999928
-0,1600006
0,1299994
0,04999928
0,2399994
0,07999929
0,0399993
-0,2799999
0,02000039
0,009999817
0,2399963
-0,1600034
0,09999665
0,1899966
0,2599961
0,009996886
0,1399966
0,2599952
0,2699962
-0,21
0,2799998
0,2000366
0,1200365
-0,2899638
0,1200365
0,09003469
-0,1999652
-0,1699652
0,1300348
-0,07996538
-0,2099652
-0,2599654
-0,1799652
0,0200347
0,1800348
-0,0299653
0,1900348
0,05003469
0,0200347
-0,0299653
0,1900348
-0,0199653
0,1600348
0,1200346
0,1200346
-0,06996538
0,2300348
-0,08996538
-0,2399652
0,2300348
0,1300348
0,08003462
-0,08996538
-0,1199654
-0,2499653
0,1500347
0,02003467
0,1100346
0,2299979
-0,1600021
-0,03000226
-0,09000233
-0,1100023
-0,2000021
-0,08000233
0,1899979
-0,2900021
-0,2200021
-0,2900025
-0,01000256
0,1199975
-0,2100023
-0,07000261
-0,01028292
-0,1002829
-0,0002829303
-0,2702857
-0,3008464
-0,1108466
-0,1208517
0,1491486
0,1891486
-0,2408514
0,1991486
0,07914839
-0,0008517441
0,1291503
0,2291504
-0,03084984
-0,2808495
0,2399995
-0,2300005
0,1099995
-0,1200005
0,2899995
-0,02000062
-0,2200006
0,04999928
-0,1000007
0,2199994
-0,09000072
0,1499977
-0,1100025
0,06999747
-0,2000024
0,0399983
-0,1600014
0,2099978
0,2799942
0,04999465
0,1099945
0,01999505
-0,08000518
0,03999506
-0,02000478
0,07999497
-0,1600051
-0,01000589
0,02003163
0,210035
-0,249965
-0,2299652
0,1100347
0,2800346
0,04003476
0,04003476
-0,02996523
-0,2499652
3,472482E-05
0,2100348
-0,08996538
-0,0299653
0,09003463
-0,03996531
0,2700346
-0,2999655
-0,009965291
-0,0199653
0,09003463
-0,2599654
-0,1399652
0,2200348
0,2500345
0,2200348
-0,09996538
-0,07996538
0,1500348
-0,2399652
0,2000348
-0,09996538
-0,1599652
0,09003463
-0,2699655
-0,009965295
0,1600347
-0,1599653
-0,2599654
-0,0899654
-0,2699655
0,06003467
-0,2399653
-0,2199653
-0,09996542
-0,2400021
-0,1700021
-0,1600021
0,2199979
0,2499979
0,06999734
-0,03000255
-0,2200023
0,1499977
0,1899976
-0,03028299
0,03971704
-0,1702827
-0,1802858
0,1791536
0,0791534
-0,1908514
0,1791486
-0,1008516
-0,1608514
-0,2108514
0,06914839
0,1091484
-0,06085168
-0,2008513
0,08914848
0,1191485
0,2599995
-0,22
-0,05000059
-0,2800005
0,2699995
-0,2300005
0,01999938
0,1799978
0,07999747
-0,2400023
-2,590828E-06
0,1899976
-0,01000258
-0,08000253
-0,1800024
-0,02000172
0,1899986
0,05999777
0,2399944
0,02999504
-0,2800055
-0,1500051
0,1199949
0,2199949
0,169995
0,149995
0,2399949
-0,200006
-0,009968363
0,01003495
0,200035
0,1100347
-0,1399652
0,2400348
0,01003471
-0,2999655
-0,09996538
0,1700347
3,465333E-05
-0,03996537
0,1100346
-0,06996542
-0,1999653
0,02003464
0,1100346
0,2900345
0,2100347
0,2200347
0,2700345
-0,2199653
0,2100347
0,1700347
-0,1399653
-0,2399653
0,1000346
0,1000346
-0,04996531
0,03003469
-0,1599652
-0,1899652
-0,1699652
-0,08996538
-0,1099654
-0,2399652
-0,1399652
0,1800348
0,03003469
0,04003469
0,2000348
-0,1899652
-0,2199652
-0,2799655
-0,2499653
-0,0300022
0,2199979
0,07999773
-0,2500021
-0,200002
-0,1900021
0,1797176
0,2397175
-0,2902825
-0,1702829
-0,1002861
0,08915324
-0,2808464
-0,05085173
-0,2108514
-0,1708514
0,2091486
0,03914831
0,1591486
0,01914826
-0,1208516
-0,1708547
-0,1008549
-0,2708512
-0,2708511
-0,1508513
0,2191487
-0,04000056
-0,14
-0,2900001
0,1499999
-0,3000001
0,1899982
0,1199981
0,1799982
-0,1600018
-0,2900017
0,04999811
-0,1500018
-0,0900019
-0,04000185
-0,1300018
-0,1900015
-0,2300013
0,2899982
-0,03000513
-0,1600052
-0,07000516
-0,07000511
-0,100005
0,2899946
0,06999498
-0,09000503
-1,474348E-06
0,1700342
-0,1599651
0,0200347
0,05003469
-0,2899655
0,2400347
-0,1199654
-0,07996528
0,07003433
-0,2999656
-0,02996574
-0,1000025
0,1999977
-0,1000025
0,0599975
0,2499976
-0,1800024
-0,1500024
-0,1100026
-0,05000259
-0,2500023
-0,3000022
-0,2900022
-0,1800023
-0,2700022
0,06003436
-0,2899656
-0,01996379
-0,2799639
0,2600361
-0,2799639
-0,2199637
0,08003626
-0,1199637
0,2400363
0,03003623
0,1100361
-0,03996378
0,03003623
-0,09996343
-0,2699637
-0,2599637
0,09003657
-0,1899634
0,1000366
0,09003658
0,06003664
0,2400366
0,1700366
-0,02024371
-0,2202805
0,1297194
-0,1302806
0,2597146
-0,06028552
0,1697148
-0,1702852
-0,1108462
0,009153814
-0,05085162
0,2291486
0,1991487
-0,1108516
0,1091484
0,2791488
-0,1208549
0,1091451
0,009144967
-0,05085498
-0,2808548
-0,1708547
0,1491454
0,1091453
0,2799995
-0,08
-0,2900001
-0,09000007
0,1899999
0,009998136
-0,06000187
0,2899983
-0,2300018
0,09999811
0,03999811
0,1699982
-0,1200019
0,1999982
0,1099981
0,2399994
-0,2300006
-0,1100014
-0,09000481
0,2399953
-0,2200046
-0,03000421
-0,1800046
0,1400322
0,2700309
-0,1699688
-0,08996471
0,2700351
-0,2499646
-0,01996514
0,1400349
-0,1599651
-0,07996516
-0,2799652
-0,1099652
0,0400347
-0,08000208
-0,05000207
-0,06000207
0,1699981
-0,2300019
-0,04000206
0,1599981
-0,2100019
0,1499981
0,2399981
0,08999801
-0,03000201
0,2899982
0,069998
-0,120002
0,119998
0,2099981
0,2099981
0,02999981
0,009999809
-0,2100001
-0,1300001
-0,07000015
0,04999942
-0,1999637
-0,03996375
0,2300363
0,08003632
0,2600363
-0,09996357
-0,05996357
-0,1399636
0,01003642
-0,2299636
0,01003635
0,1100362
0,2497564
0,03975634
0,1697563
0,1097563
0,09975628
-0,280244
0,289756
-0,2702439
0,02971476
0,239154
0,279154
-0,02085111
-0,210851
-0,2908509
-0,08085123
0,009148797
-0,02085175
0,1691485
-0,06085176
-0,2508512
-0,2808548
0,1791454
0,06914526
0,1091453
0,01942834
-0,2305713
-0,1705713
-0,05057088
-0,009999975
-0,07
0,25
0,2199983
-0,2500016
0,06999817
0,1699983
-0,1300017
-0,2600016
0,2099982
0,1999982
-0,2300018
-0,1300018
-0,1100014
-0,2800012
-0,1400007
-0,02000033
-0,05000116
-0,01000427
0,2399956
0,2699952
0,2299955
0,1700323
0,1400323
0,1200317
-0,0499688
0,08003518
-0,2299648
0,2600352
-0,2499649
-0,2099649
0,03003488
0,180035
0,04003488
0,04003489
-0,2100018
0,2799983
-0,2500001
-0,08000007
0,009999929
-0,1600001
-0,26
-0,03
0,06
0,26
-0,13
0,17
0,12
0,16
-0,09
-0,17
-0,24
0,08
-0,11
-0,03
0,05
0,06
-0,19
-0,2
0,09
0,29
0,1
-0,08999999
0,28
0,12
-0,13
-0,1099999
0,1300368
0,1500368
0,2200368
-0,1199631
-0,07996313
-0,2802436
0,2697563
0,0897567
0,2297567
-0,04024289
-0,2002431
0,1697569
-0,06080387
0,06919304
0,249188
-0,100812
0,03915127
0,2191513
-0,2808488
0,2391512
-0,02084888
-0,2408506
0,2791494
0,02914491
0,1591451
0,2491451
0,1291453
0,01914515
0,03914521
0,1294287
-0,02057142
0,2394286
0,07942903
0,28
-0,26
0,27
0,24
-0,27
0,1999983
-0,2700016
0,1099982
0,09999819
0,03999818
-0,2100017
-0,05000141
-0,07000063
0,1499993
-0,2900006
-0,269999
-0,1099986
0,1600006
-0,249966
0,09003421
-0,07996579
0,200034
0,07003421
0,1600337
-0,1199669
0,01003301
-0,02996301
-0,109963
-0,05996312
-0,2599635
-0,2099633
0,27
-0,1500001
-0,2200001
-0,04000007
0,02999993
0,2799999
-0,04
0,009999999
-0,29
0,28
-0,17
0,18
0,02
0,18
-0,23
-0,08
-0,21
0,11
-0,01
-0,15
0,26
-0,07
-0,15
-0,15
-0,22
-0,04
-0,2
0,05
0,009999999
-0,07
0,14
-0,14
0,05
-0,06000008
-0,1800001
-0,2000001
-0,1500001
-0,1200001
-0,03000007
-0,2500001
0,22
-0,1502436
-0,2602436
0,09975675
-0,2102433
-0,2902466
-0,2602466
0,2797534
-0,1908073
-0,2108069
-0,1308118
0,07918814
0,2491882
0,1891879
-0,1708121
0,02914937
-0,3008505
0,2191494
-0,1208507
-0,2408545
0,1691457
0,2091453
0,2891442
0,06914474
-0,1608551
0,269428
-0,1705717
-0,2305701
0,05943035
0,27
-0,23
0,21
-0,17
-0,07
-0,08
0,11
-0,11
0,04
-0,24
-0,24
-0,07999959
-0,1799989
-0,05999881
-0,07999955
-0,2399995
-0,2500033
-0,08996581
0,160034
-0,189966
0,0800342
-0,209966
-0,07996579
-0,2999668
-0,09996698
-0,1299672
-0,2899633
-0,1499631
-0,03996313
-0,0399633
-0,1900001
0,1799999
0,2599999
-0,09000007
-0,1700001
-0,2900001
-0,04000007
-0,05
0,009999997
-0,04
0,009999997
-0,16
-0,04
0,15
-0,18
0,14
0,05
-0,03
0,07
0,01
-0,21
0,05
-0,03
0,26
0,28
0,18
0,15
0,2
0,22
-0,24
-0,09
-0,05
0,23
-0,23
0,2399999
-0,1300001
-0,05000009
0,1999999
-0,2000001
-0,1002804
0,09971964
0,09971983
0,1897198
-0,1102833
0,08971672
-0,07028336
0,1191559
0,05919272
0,1791878
0,05918768
0,1191881
0,02918808
0,07918814
0,2391882
-0,1308138
0,05918608
-0,09081388
0,2891861
-0,0708511
-0,05085108
-0,1408542
0,04914483
0,01914464
-0,05085545
-0,2508553
-0,2508553
-0,09057008
-0,1205694
0,2094337
0,2394337
-0,11
0,14
-0,13
-0,14
0,2
-0,02
0,15
-0,23
-0,13
0,04
-0,25
-0,2099996
-0,2899991
-0,1399989
-0,06999937
0,1700372
0,1700339
0,2800334
0,200034
-0,1199658
0,2500334
-0,04996594
-0,02996677
0,1400328
-0,2599669
-0,2599669
-0,2299632
-0,06000007
-0,1600001
0,02999993
-0,2800001
-0,06000007
0,15
0,24
-0,13
0,28
-0,14
-0,09
-0,27
0,18
0,2
-0,16
0,12
0,18
-0,1
-0,24
0,03
-0,14
-0,29
-0,13
-0,12
-0,07
-0,02
0,02
0,28
0,23
-0,14
0,02
-0,19
0,16
-0,09
-0,09000009
0,2299999
0,1399999
0,01999992
0,1097196
-0,06028019
-0,2302802
0,2797198
-0,05028019
-0,0002832664
-0,05028328
0,2397117
-0,280849
-0,0208492
0,1091508
0,1291509
0,08915084
-0,06081247
0,2691875
-0,0008124276
0,1991877
-0,08081191
0,259188
-0,1508136
0,07918622
0,2491864
-0,1808138
0,2491491
-0,07085087
0,1091458
0,1391451
-0,2008549
-0,1308518
-0,04085214
-0,02085226
-0,1005701
0,2794352
-0,1505614
0,07943866
0,12
-0,04
-0,12
0,05
0,16
0,22
-0,02
-0,05000001
-0,27
-0,1399996
-0,1999996
0,07000044
-0,229999
-0,1599989
-0,1499996
0,01003764
0,2800333
0,2700334
-0,01996552
0,2300338
0,1500338
-0,1899663
-0,179967
0,0400329
0,1400369
0,1500369
-0,1499632
0,05999993
0,05
-0,3
-0,09
0,15
-0,07
0,16
-0,16
-0,26
0,02
0,16
-0,21
-0,08
-0,2
-3,990937E-09
-0,21
0,08
-0,17
-0,26
0,07
0,26
-0,28
0,25
-0,01
-0,07
-0,01
-0,08
0,23
0,01
-0,17
0,13
0,2099999
-0,2900001
0,05999992
0,2099999
0,1897197
-0,2702802
0,2497198
-0,05028019
-0,1602802
-0,1002802
0,2897198
-0,2002802
0,279151
-0,190849
0,1691509
-0,250849
0,1291509
-0,1508491
-0,280849
0,02915073
-0,0908124
0,09918768
-0,2208124
-0,1108124
0,03918566
0,09918571
-0,0008139613
0,2691862
-0,1508143
-0,3002533
0,22971
0,1291493
0,2091459
0,1891451
0,2491452
-0,220851
0,1591503
-0,1208492
0,09943112
-0,2505645
0,1194394
0,1794393
0,19
-0,14
0,26
0,22
0,26
-0,13
0,05
-0,06999961
0,0900004
0,0700004
-0,009999601
0,09000038
-0,08996269
-0,1899628
0,2200372
-0,1299628
-0,1299661
-0,2099664
0,03003413
0,2800332
-0,2099663
-0,1699663
-0,02996693
-0,1499673
-0,1099631
-0,2099998
-0,1399999
0,09
-0,11
-0,06
0,04
0,26
0,21
0,02
0,2
0,21
-0,08
0,11
0,14
-0,18
-0,08
0,21
-0,09
-0,15
-0,16
-0,19
-0,03
0,13
-0,15
-0,02
-0,29
0,01
0,02
0,14
0,09
0,05999992
0,1799999
0,1099999
0,03000009
0,1600001
-0,29
0,26
-0,2702802
-0,1502802
-0,2702802
0,02971983
0,1797167
0,1897118
-0,0902883
-0,3002882
0,2391509
0,04915079
-0,0608492
-0,09084906
0,05915088
-0,130849
0,209151
-0,180849
-0,290849
-0,2308493
0,1191488
0,02918545
-0,07081443
0,1991907
-0,0808091
-0,2708092
-0,07081433
-0,2402533
0,2297468
-0,1708506
-0,2708542
0,1091459
-0,2208523
0,2691504
-0,1908492
-0,05084865
0,179431
-0,240564
-0,180561
0,1094391
-0,08
0,07
-0,08
-0,16
0,04
-0,04
-0,24
-0,1899996
-0,2199996
-0,08996285
0,1400371
0,05003724
0,09003734
-0,0499625
-0,2699632
-0,02996222
0,02003448
-0,1699664
0,2200337
0,2900332
-0,2099663
0,1200338
0,2599958
-0,230004
0,2700002
-0,1699999
-0,03999983
-0,04
-0,21
-0,2
-0,01
0,15
-0,3
-0,1
0,15
-0,26
-0,19
-0,22
-0,14
0,26
0,26
-0,18
0,27
0,01
-0,02
-0,03
-0,28
0,13
0,23
0,13
0,22
0,04999992
-0,1600001
-0,1800001
0,009999915
0,1000001
0,1100001
-0,1599999
-0,1302802
-0,0902802
0,2897198
0,08971981
-0,2902802
0,2797167
0,2197167
0,2897167
0,04971672
-0,1202883
0,09915092
0,289151
-0,140849
-0,06084912
0,2591511
0,2591511
-0,2808489
0,2591511
0,1391509
-0,06084929
0,07914886
-0,0005711069
-0,2005708
0,129466
0,01946571
-0,04080946
-0,1302483
0,2397517
0,009746318
0,1797433
0,1797435
-0,2608541
-0,07085207
0,2591473
0,2091477
0,2491508
0,2691504
-0,1308488
-0,1905685
0,2894359
0,08943908
-0,01056092
0,21
0,13
-0,28
0,24
-0,04
-0,01999958
0,0800004
-0,1199628
-0,2099628
0,0500372
0,2600368
-0,1299629
0,05003751
0,1700372
-0,1999628
-0,1499631
-0,2399664
0,04003397
0,1000339
0,2700332
-0,02000304
0,1699967
-3,872628E-06
0,04999609
0,05000017
-0,09999985
0,03000017
-0,29
0,28
0,15
0,15
0,14
0,15
-0,21
0,08
-0,03
0,1
0,07
0,29
0,19
-0,15
-0,18
0,08
-0,17
-0,22
-0,25
-0,1
-0,27
0,14
0,11
-0,2
0,05999992
-0,1100001
0,1099999
-0,3000001
-0,2602802
-0,1702802
-0,03028017
-0,1202802
-0,2402802
0,2397167
0,06971672
-0,1102833
-0,07028328
0,1897118
-0,1908491
0,01915077
-0,04084912
-0,220849
0,1191509
0,03915088
-0,02084915
0,04915088
0,199151
0,1091509
-0,150849
-0,220569
-0,140569
-0,03057101
-0,0005711178
0,2894294
-0,01000523
-0,140005
-0,1302485
0,04975103
-0,2102488
-0,06025389
-0,2702572
-0,2102565
0,02918283
-0,1608153
-0,1708523
-0,1108522
0,2291512
0,2491512
0,07915132
0,2294315
-0,1605636
-0,07056092
0,2594389
0,03000001
0,24
0,25
-0,28
-0,24
0,1100004
-0,289963
-0,01996288
0,290037
0,1400371
0,2500368
0,2600368
-0,2999632
0,1800372
-0,2399628
-0,04996273
-0,09996611
-0,2899669
0,1799969
0,09999701
0,1599968
-0,02000225
-0,1400032
0,03999687
-0,02999983
-0,08999985
-0,2099998
0,11
0,25
-0,27
-0,09
0,24
0,23
-3,987247E-09
0,26
-0,25
0,04
-0,17
-0,2
0,24
-0,23
0,26
-0,27
-0,06
0,08
-0,12
-0,17
0
0,17
-0,01
-0,12
0,2099999
-0,05028035
0,1197198
-0,2102802
-0,2602802
0,06971673
-0,1002833
0,03971672
0,1497167
0,009155927
-0,1108491
0,02915077
0,259151
-0,08084913
-0,290849
-0,270849
-0,01084914
0,219151
-0,3008489
0,209151
-0,2408491
0,2094311
0,2394311
0,0294308
0,199431
-0,06056605
0,2094341
0,2594374
-0,2102821
-0,2302852
0,08971456
0,2397148
-0,05024861
0,1397512
-0,0002490242
-0,02025381
-0,2002569
-0,09025405
0,2091853
-0,0308145
-0,1708524
0,08914778
-0,05084846
-0,08084859
0,1691511
-0,08056851
-0,2305638
-0,2805613
0,05943916
-0,16
0,13
0,07
0,16
0,08000001
-0,1899996
-0,299963
0,01003713
-0,2099628
-0,1199627
0,09003814
0,150038
-0,05996232
-0,05996232
0,07003751
0,2100002
-0,05000276
-0,2200031
-0,1900031
0,2199969
0,01999701
0,2299975
-0,2200032
-0,3000034
0,03
0,07
-0,03
-0,04
0,009999997
0,15
-0,02
-0,13
0,19
-0,11
0,24
-0,06
-0,29
-0,22
0,16
0,03
-0,01
0,27
-0,3
-0,28
-0,19
0,11
0,19
-0,16
0,1700001
0,0100001
-0,07999992
-0,1599999
0,2497198
-0,2102802
-0,2602802
-0,0902802
0,04971672
0,06915594
-0,170849
-0,290849
0,139151
0,03915088
0,289151
-0,0608492
0,199151
-0,08084905
0,2591511
-0,2608489
-0,01084914
-0,1708491
0,1891509
-0,1308491
-0,09056906
0,07943095
-0,08056906
0,0494359
0,2199981
-0,2500018
0,1799981
0,2097179
0,1697148
-0,1802853
0,0797141
-0,3002855
-0,08028565
-0,1702487
-0,08025191
0,0897448
-0,1502545
0,02918492
0,1791854
-0,0608149
0,2391849
0,1491513
0,1891513
0,2491511
0,2694346
0,05943986
-0,1805607
0,1894394
0,15
0,15
0,14
0,0400004
0,1100004
-0,2499997
0,2300372
-0,129963
0,1600371
-0,0199625
-0,009962379
-0,009962385
0,1800006
-0,07999968
-0,1699998
0,01000058
0,2499969
0,2899966
-0,2900034
0,05999717
0,2899964
-0,1400025
0,1899968
0,2599966
-0,06
-0,05
-0,08
0,06
0,18
-0,03
0,08
-0,15
0,23
0,28
-0,25
-0,28
-0,02
-0,26
-0,11
-0,13
-0,1
-0,25
0,22
0,16
-0,27
-0,1199998
0,05000016
0,02000017
0,009719841
-0,1202802
0,2897198
0,2797198
0,04971981
0,04971168
0,1897118
-0,02028833
0,2497118
0,169151
-0,210849
-0,150849
0,1191509
-0,140849
-0,02084923
-0,1108493
0,1991509
-0,1708491
0,05915071
0,1891509
-0,1408491
-0,1905689
-0,2705688
0,2094311
0,08943598
0,1294391
-0,1405627
0,2394373
-0,070002
-0,2800018
0,2299981
-0,2402821
0,1897148
0,1897148
-0,2502855
-0,0002910629
-0,03029077
0,09974612
0,09974809
-0,1202552
-0,2102545
0,05918492
-0,2408146
0,09918521
0,2491851
-0,2708491
0,0391515
-0,2708493
0,06943468
0,02943987
0,2494386
0,1894387
0,12
0,15
-0,14
-0,1099996
-0,1499996
-0,2199997
-0,1199628
0,210037
-0,1099628
0,250037
-0,2599632
0,2300372
0,2400006
-0,28
-0,04999955
0,2300003
-0,1900031
0,2699966
0,2099967
-0,200004
0,02999612
-0,1300032
0,0999967
0,0999967
-0,26
-0,08
0,25
0,05
-0,21
-0,18
-0,13
0,2
-0,24
-0,26
-0,07
-0,27
0,03
0,15
-0,15
-0,11
-0,09
0,19
0,2900001
-0,1699999
0,01000018
-0,1702802
0,1597198
0,2197198
0,0797198
0,1097198
0,2197167
0,08971673
0,1197167
0,1497118
-0,150849
-0,05084912
-0,250849
0,05915087
-0,1508491
0,2191509
-0,1808491
0,1191508
0,1191508
-0,2408491
0,06915078
-0,1605689
0,1594311
0,1994311
0,08943106
-0,09056894
-0,1005659
-0,04056593
0,1094391
0,009999756
0,1799981
0,1399981
-0,1200019
-0,04000195
-0,2200018
0,1997179
0,05971469
-0,2702851
0,2697146
-0,02029095
-0,1102907
0,06974611
-0,2202518
-0,09081598
0,1791847
0,2791836
0,2791837
0,2591842
-0,01081464
-0,08056842
-0,2405685
0,08943149
-0,2405654
0,2194396
0,04943874
-0,1305613
-0,02999999
0,26
-0,17
-0,1399997
-0,09996279
-0,03996285
0,2700368
-0,1999629
0,2700368
0,01003754
-0,2399628
0,08003693
-0,02999941
-0,06000274
-0,140003
-0,2200031
0,1399969
-0,1600031
0,1699967
-0,3000034
-0,2400032
-0,06000312
-0,2900036
0,0999967
-0,07
-0,07
0,26
-0,11
-0,05
-0,22
0,07
-0,05
0,2
0,21
-0,07
0,09
0,2
0,11
-0,23
0,23
0,09
0,2797197
-0,06028019
-0,1402802
0,2097198
-0,1002802
-0,01028326
-0,2502833
-0,2402833
0,2691559
0,239151
0,219151
-0,250849
0,04915088
-0,190849
-0,280849
0,239151
0,01915086
0,229151
0,2691511
-0,01084914
0,07915078
0,1394311
0,1794311
0,2394311
0,1094311
0,1694342
0,05943407
-0,2905657
0,05943407
-0,1200002
-0,2700001
-0,2400001
0,2299999
-0,100002
-0,2300019
-0,3000018
0,1499982
0,1799982
-0,270282
0,2397149
0,2097144
-0,1702856
-0,03029095
-0,1602887
0,1397113
-0,1002519
-0,1508159
0,09918476
-0,1008159
0,1491845
-0,1208152
0,1691851
-0,2005686
-0,06056823
-0,290569
-0,1705654
0,06000064
-0,08000055
-0,2000005
0,02000001
0,2300004
-0,2599996
-0,009999617
0,09003721
0,2100371
0,1600371
-0,1899628
-0,1499627
-0,2699631
-0,279963
-0,219963
0,1300002
0,1999969
-0,2800034
0,07999706
-0,05000282
-0,1300031
0,02999699
-0,2100032
-0,1000031
0,01999689
0,2499966
0,0999967
0,21
-0,3
-0,15
0,26
-0,01
-0,12
0,24
-0,06
-0,08
0,08
-1,489612E-11
-0,3
0,16
0,13
0,1797197
-0,08028036
0,2797198
-0,2202802
0,2897198
0,05971981
-0,1202802
0,05971981
0,03915592
0,269151
-0,230849
0,149151
0,04915088
0,249151
-0,280849
-0,170849
0,189151
0,2891509
0,2691509
-0,0708493
0,06943106
0,08943106
0,04943099
0,1894311
0,1194311
0,2594312
-0,2205639
0,06999687
0,16
-0,25
-0,1100001
-0,28
0,2099999
0,1099998
-0,01000206
-0,1900019
-0,2000019
-0,1900019
0,01999803
-0,120002
-0,08000197
-0,1602821
-0,05028518
-0,1302855
0,1797162
0,1397111
0,1297113
0,2797113
-0,08025119
-0,2108153
0,1791847
-0,0008158257
-0,2708159
-0,07081523
-0,2508154
-0,2205318
0,1694315
-0,2105637
-0,04056015
-0,2699999
-0,02000039
0,0999995
0,2
-0,00999957
0,0800004
-0,2499997
0,2300372
0,2300371
-0,03996276
0,2100373
-0,279963
0,08003733
-0,0399991
0,08000023
-0,3000001
-0,07000295
-0,1700031
-0,1300031
-0,3000034
0,2799966
-0,1700033
-0,2000032
-0,1500032
0,05999687
-0,14
0,18
0,28
-0,02
0,06
-0,1
-0,07
-0,29
0,15
-0,01
0,2
0,12
-0,06
0,26
0,09
0,1300001
0,1997199
0,1897198
0,01971983
0,009159026
-0,240841
-0,2008441
-0,2608441
-0,06084912
-0,08084908
0,1191509
0,249151
-0,01084912
-0,220849
-0,02084913
0,189151
-0,1208492
-0,06084928
-0,1708492
-0,1808492
0,1891508
-0,2405689
-0,05056902
-0,1305689
-0,2405639
-0,03000319
-0,29
0,22
0,26
0,18
-0,12
0,2799999
-0,1300001
0,06999801
-0,1300019
-0,2300019
-0,070002
0,079998
0,1399981
-1,994856E-06
-0,2400018
0,1399983
0,03971739
-0,2502837
0,2297162
-0,05028374
0,2397113
0,2297113
-0,1302887
0,09974881
0,01918469
-0,1308148
-0,1908155
0,1291846
0,1991846
0,0691852
-0,05053151
0,009431888
-0,05056337
-0,2605606
-0,2599998
-0,1300005
-0,2300005
0,06000002
-0,2699997
0,1400004
0,07000044
0,2100371
0,2000371
-0,09996282
-0,04996256
0,1000373
0,1000373
0,1300006
-0,25
-0,2599998
0,01999721
-0,1100029
-0,06000283
0,09999707
0,01999724
-0,2200033
0,0499967
-0,1400034
-0,1500034
-0,3
0,17
0,04
0,16
0,1
0,12
0,22
-0,18
0,09
-0,05028027
0,1897197
0,06971964
0,2697198
-0,2902802
-0,2102802
0,1697198
-0,2802802
-0,2802802
0,2597167
-0,1608441
0,219151
0,06915092
-0,02084913
0,06915092
0,159151
-0,260849
-0,250849
-0,230849
0,1391508
0,00915069
0,2591509
0,1091507
0,1991508
-0,09056894
-0,2705688
0,2594312
-0,2705639
-0,2605639
-0,2005609
0,06943917
0,0299999
-0,03000009
-0,3
-0,13
-0,1400001
-0,0400002
0,03999979
-0,1300001
-0,1500019
0,2199981
-1,971803E-06
-0,2400018
0,07999805
-0,2800018
-0,07000197
-0,07000196
-0,1100018
0,2597176
-0,3002838
0,04971606
0,05971625
0,1497113
-0,03028872
-0,2202886
-0,01028798
-0,2308519
0,1691854
0,05918465
0,2791841
-0,1808154
0,1391851
0,2694677
0,2094315
-0,1205635
0,0994397
-0,05999936
0,05999961
-0,2000005
-0,09
-0,1099997
-0,009962758
0,1800372
0,2100371
0,2100371
-0,2999632
0,1900372
-0,2799632
0,1700368
0,27
0,09000029
0,07000035
-0,2300031
-0,2600034
0,04999717
-0,2900035
0,1799968
-0,3000036
0,2099966
0,1799967
-0,2200034
0,09
0,28
-0,12
-0,28
-0,22
0,01971974
-0,1602803
-0,1102803
-0,09028036
0,2797197
0,1697198
-0,2202833
0,03971672
0,1097167
-0,2502833
0,1697167
0,2291559
0,04915592
-0,2308441
0,08915594
-0,250849
0,289151
0,07915092
-0,1108491
0,04915088
0,06915092
0,2291508
-0,1408492
-0,1308492
0,2191509
-0,07056894
0,1394311
-0,08056894
-0,1805689
0,08943415
0,009994848
-1,065652E-07
0,18
0,13
-0,03000009
0,03999992
0,1199999
-0,0400002
0,2899999
0,2099999
-0,02000022
0,01999796
-0,08000194
-0,01000196
-0,1700018
0,2399982
-0,05000195
0,1399982
-0,2200018
-0,2700016
0,09999815
-0,1000018
0,2797177
-0,03028392
0,009716026
0,08971627
0,2797114
-0,2802884
-0,01028879
0,03971123
-0,280853
0,1591845
-0,08081538
-0,2908159
0,0391848
-0,1308151
-0,2605324
0,2094681
0,0894732
-0,2605615
-0,08000042
0,02999975
0,08999944
-0,03000006
-0,2399997
-0,2499628
3,728958E-05
0,1600371
-0,2599632
0,2700368
0,280037
-0,299963
-0,169963
-0,2199997
0,2900002
-0,1999997
0,009997248
-0,09000294
-0,1800031
0,1799967
0,05999694
0,09999685
0,2599964
-0,06028357
0,1897164
0,1097197
-0,2102803
-0,1002803
0,2497197
0,2497197
0,1997197
0,02971965
-0,2602803
-0,2602803
0,1097196
-0,2302802
0,1091559
0,009155928
-0,1008441
-0,05084408
-0,2208441
-0,1808441
0,269151
0,01915087
0,05915087
-0,280849
0,02915087
-0,170849
-0,2808489
-0,070849
0,159151
0,1294312
0,08943111
0,2094312
-0,02056896
0,1094311
0,05943099
-0,1600081
0,07999185
-0,05000008
0,25
-0,21
0,2099999
-0,21
-0,23
-0,05000008
0,26
-0,2200001
-0,03000022
0,2099999
-0,01000025
-0,3000018
-0,3000018
0,1599982
0,09999806
-0,07000195
0,1299982
-0,07000197
0,1799982
0,1599983
-0,2200022
0,2599995
-0,1202809
0,00971607
-0,2202838
-0,2402837
0,2397113
-0,1802885
0,05971124
0,2897117
-0,000852065
-0,04085206
0,2191846
0,2491846
-0,0008151193
0,2791845
-0,09053169
0,1794681
-0,05052667
-0,2005613
-0,2500006
-0,05999952
0,1500003
-0,2000001
0,2400005
0,1600373
0,1200372
0,2200371
-0,1999629
-0,2599632
0,280037
-0,1699626
-0,03999943
0,2100003
-0,1300031
0,2899966
0,2099969
-0,1100029
-0,3000034
-0,3000036
0,009716628
0,1297165
0,01971645
-0,03028355
-0,09028357
-0,2802803
-0,2302803
-0,2602803
-0,1402803
0,1097196
-0,2808412
0,2391589
0,2791589
0,06915594
0,1091559
0,1291559
-0,200849
-0,230849
0,05915087
-0,08084908
-0,07084908
-0,290849
-0,290849
0,009150876
-0,290849
-0,1308489
-0,3008489
-0,2908489
0,07943111
0,009431032
-0,2305688
-0,2905688
0,1799919
-0,06000821
0,08999185
-0,08000815
0,22
-0,12
0,19
0,22
0,08999995
0,06999995
0,05999992
-0,0100001
-0,28
-0,27
-0,16
0,1799999
-0,2000001
0,02999805
0,1799982
0,1299982
0,1299982
0,07999805
0,05999805
-0,01000197
0,109998
-0,3000017
-0,04000183
-0,26
-0,2800004
-0,2400005
-0,04028085
0,1397162
0,03971611
-0,2902837
-0,2402887
0,03971132
0,2697115
-0,1102882
0,2091478
0,2191478
-0,1208153
0,1391846
0,1191848
0,1491849
-0,06053181
0,01946823
-0,01052672
0,2694385
-0,2800006
-0,1899996
0,2000003
-0,2600001
0,1200005
-0,0699627
-0,1299628
-0,2099629
0,1700371
-0,2099629
0,1000375
0,2100374
0,2200002
0,1500003
0,1999969
0,01999723
-0,1900031
0,2099969
0,2399969
-0,3000036
0,2697162
0,09971644
0,1997164
0,2097164
0,1197163
0,2597196
-0,05028035
0,2891588
0,2491589
0,2091559
-0,2608441
-0,2108441
0,009155927
-0,02084407
-0,290849
0,199151
-0,150849
-0,09084909
-0,280849
-0,190849
0,129151
0,259151
0,159151
0,1791511
0,07915094
0,289151
0,289151
0,02915069
0,2394311
-0,2100081
0,03999179
0,02999175
0,06999185
-0,02000009
-0,3
-0,08000005
-0,1000001
0,29
-0,08000005
0,15
0,27
-0,12
-0,16
0,26
-0,26
0,009999762
-0,1000002
-0,07000016
0,1299999
0,2899982
-0,1300018
0,1899982
0,1899982
0,1299982
-0,1300018
-0,3000017
0,2399983
-0,2800016
-0,1800018
0,12
0,2599995
0,2199995
-0,2502808
0,1497162
-0,1402838
0,009716267
0,009711115
-0,280288
-0,02028825
0,07971177
-0,010852
-0,1408522
0,2891841
-0,1308154
-0,1708154
-0,06081495
0,1194682
0,189468
0,1294729
-0,2305613
0,08999959
0,06000048
0,1900003
0,2399999
0,2200005
0,1400371
0,1300371
0,2400371
-0,1899625
0,2900372
-0,01996216
-0,1199624
0,1600002
0,08972013
0,1797166
-0,2502837
-0,1702834
-0,02028302
0,08971679
0,02971671
-0,3002838
-0,1202836
0,2497164
-0,2502833
-0,0002834598
-0,2902834
0,1897166
0,009155928
-0,01084912
0,219151
-0,130849
-0,260849
-0,1108491
-0,250849
-0,270849
-0,1008491
-0,270849
-0,200849
0,229151
0,009150876
0,169151
0,05943114
0,1994313
-0,02056897
-0,2005689
-0,1905689
-0,01056597
-0,1005659
-0,02056596
-0,220005
-0,19
-0,16
-0,21
-0,21
-0,23
-0,09000006
0,1099999
0,14
-0,06000008
0,2099999
0,25
-0,19
-0,05000008
-0,1100001
0,1199999
-0,07000016
0,2799999
0,109998
0,04999806
-0,02000195
-0,2900017
-0,2800018
0,04999806
-0,2300018
0,1499982
-0,07000186
-0,03000184
-0,04000182
0,2399983
-0,12
0,01999943
-0,02000057
-0,2702808
-0,1002839
0,09971611
-0,2702837
0,2397113
-0,2102881
0,2797118
0,1197118
0,08914794
-0,1108521
0,1591846
-0,2808159
0,05918467
0,04918491
-0,1905321
0,00946826
0,1594729
0,1594754
-0,1800005
0,1700004
0,1500003
-0,3000002
-0,2299995
-0,2199629
0,09003721
-0,2799631
-0,05996148
0,1300382
0,2397572
-0,1602429
0,1897199
-0,2502801
-0,1102832
-0,0402831
-0,2202834
-0,2602836
0,07971678
0,07971349
-0,01028665
0,1797132
0,1291524
0,2291558
0,1791559
0,1191559
-0,1408441
0,01915593
0,009150876
-0,210849
-0,180849
0,249151
0,09915092
-0,230849
-0,240849
0,139151
0,129151
-0,2805687
-0,1705688
0,01943121
-0,07056888
0,2194311
0,1394311
-0,1505658
0,179995
-0,05000512
-0,01000515
0,1099949
0,1199949
-0,210005
-0,03000009
-0,24
0,23
-0,23
-0,13
-0,06000008
-0,26
0,22
-0,1800001
-0,06000008
0,22
-0,24
-1,023895E-07
-0,1500001
-2,430093E-07
0,2799982
0,02999805
0,1099981
0,2899982
0,03999806
0,1299982
-0,2500018
0,2099982
-0,2500016
-0,1500017
0,06999815
-0,2700016
-0,02000002
-0,2600004
-0,07000361
-0,1800036
0,03999632
0,1897161
-0,09028389
0,1097161
-0,2402837
-0,2902886
0,02971191
0,199712
0,109712
0,09914794
0,1991478
0,1991845
0,1791845
0,09918463
-0,1308152
-0,09053198
-0,01053174
0,1394729
0,1894754
0,2099995
0,1700004
0,1200004
-0,2200001
-0,04999945
-0,08996283
-0,1602431
0,1797569
0,219758
0,0997581
-0,1002427
0,04975738
0,16972
0,17972
-0,1902834
-0,1302834
-0,1402834
-0,2208443
0,02915588
-0,07084738
0,2691522
-0,3008478
0,2091524
-0,1308442
0,2291559
0,229151
-0,160849
-0,270849
-0,05084912
0,269151
-0,1505688
0,03943114
0,1294312
-0,1505688
0,009431038
-0,05056894
0,2194313
0,1094312
0,2494313
-0,1105688
0,2194311
-0,1700081
0,09999185
-0,200005
-0,09000508
-0,26
-0,28
-0,28
0,05999992
-0,08000005
-0,3
-0,1800001
0,25
-0,09000006
0,22
0,2
0,25
-0,05000008
-0,16
0,01999991
-0,23
-0,19
-0,08
0,2399999
-0,06000013
0,1599982
0,2199982
0,01999805
-0,1300018
0,1599982
-0,05000194
0,04999806
-0,1800018
-0,1700017
0,009998164
0,1299983
-0,1100018
0,11
0,2499995
0,1899964
0,1999964
-0,1800036
-0,04028393
-0,2802838
0,2697164
-0,2802831
0,07971187
-0,08028814
-0,07028805
0,09971201
-0,01085196
-0,03085205
-0,0408521
-0,07085214
-0,1808155
0,1091849
0,1994672
0,1594671
0,149472
0,04947558
-0,1800005
5,661466E-07
0,1500005
0,1900001
0,2700005
-0,04996277
0,2897566
0,109757
0,189758
-0,220242
0,009757584
-0,1602429
-0,01027927
-0,05028246
0,1191529
0,2391527
0,1391527
-0,1108524
0,2691472
-0,08085255
-0,2308525
-0,0008526127
-0,2208524
0,05915087
-0,130849
0,269151
-0,220849
0,189151
-0,290849
0,189151
0,2194312
0,02943113
0,2594312
-0,1005687
0,05943115
-0,1005688
-0,03000807
0,06999185
-0,250008
0,00999485
-0,2700049
0,2699951
0,01999991
-0,1500001
-0,21
-0,16
0,28
-0,29
0,1099999
-0,13
0,27
0,0099999
0,19
-0,07000005
-0,03000009
0,1199999
-0,09000006
-0,22
0,01999991
0,29
-0,13
-0,2000001
0,09999989
0,2899999
-0,1500001
0,2699983
-0,1300018
-0,2200018
0,1799982
-0,09000195
-0,03000195
-0,2400017
-0,1600017
-0,05000183
-0,1200018
-0,2
0,2699996
0,2299995
-0,04000054
-0,2800035
0,2899964
-0,2400036
-0,2202839
0,1297162
0,2197163
-0,09028306
0,1397119
0,02971196
0,2197086
0,2397086
0,2791476
-0,1208521
-0,2608525
-0,2508495
-0,1608124
0,2291879
-0,1405328
0,01946717
0,2894714
-0,1805246
0,2599994
0,1900004
-0,1699995
-0,1099999
0,199757
0,1997569
-0,1302431
-0,07024302
-0,2602423
-0,1302451
0,139754
-0,03024566
0,1197173
-0,01028244
-0,3008525
-0,2008523
-0,2908524
0,2691474
-0,2308532
0,2291468
-0,1708524
0,1391476
-0,1508524
0,2294312
-0,07056881
-0,2205688
-0,2905687
-0,2205688
-0,1905688
-0,05056886
0,2294313
-0,05056885
0,2394313
-0,1605656
-0,2505656
-0,2005658
0,23
0,18
0,22
-0,28
-0,26
-0,1000001
-0,0100001
0,04999992
-0,2
-1,02728E-07
0,05999992
0,04999992
-0,25
-0,26
0,2099999
-0,12
-0,05000008
-0,24
0,28
-0,18
0,03
-0,11
0,25
0,11
0,18
-0,2200001
-0,1800001
0,07999807
-0,06000194
-0,1200019
0,02999805
-0,03000195
-0,06000194
0,1899982
-0,1400018
-0,1700017
-0,2500016
-0,26
0,19
0,22
-0,1500005
0,09999947
0,1299995
0,2199964
0,0199963
-0,04000367
-0,2702838
-0,2302838
0,03971628
0,03971696
-0,300288
0,1697119
-0,1502914
0,2297087
0,05914798
0,02914795
0,2191478
-0,2008491
-0,1708125
0,2491877
-0,2205328
0,199467
-0,200528
0,2094754
0,270036
-0,2099629
-0,1999995
-0,1499999
0,1697566
0,06975648
-0,1702462
-0,1002461
-0,1302451
-0,2408109
0,2591879
0,2291881
0,0591483
-0,2708521
-0,2108521
-0,09085203
-0,2508524
-0,2508526
-0,2708535
0,1891468
-0,1305721
0,1494279
-0,1905721
-0,000568862
-0,1705688
0,1194312
-0,1005688
0,2394313
0,1994313
0,2294343
0,1394342
-0,06056592
-0,01056596
0,209995
0,2399999
-0,07000005
-0,1500001
0,17
-0,1100001
0,26
-0,1000001
0,09999995
-1,02728E-07
-0,21
0,26
0,13
0,27
0,19
-0,3
0,22
0,2
-0,28
0,16
-0,09000006
0,03999992
-0,18
0,27
0,1
-0,28
-0,26
-0,13
-0,1100019
-0,01000195
-0,06000194
-0,08000194
0,01999805
-0,07000194
0,1499982
-0,2200018
0,1599982
-0,2500018
-0,13
0,15
-0,24
-0,01000001
0,06999998
-0,1600005
-0,2800004
0,03999941
-3,714329E-06
0,1499964
0,009996298
0,2297163
0,2797163
-0,2802835
0,1097161
0,06971105
-0,2202881
-0,1302913
0,1197087
-0,05085202
0,04914791
0,1491478
-0,1508491
0,08915079
-0,2908493
-0,1905328
-0,2405296
0,1694753
-0,0605244
-0,1099636
-0,1799629
0,1000006
-0,1599999
0,1600369
0,02003684
-0,1408068
0,09919328
0,2091941
0,2591888
0,2691879
0,2391883
-0,250852
0,009148564
-0,120852
0,1491479
-0,05085201
-0,0005718951
-0,09057292
0,09942709
0,2394279
-0,1605721
-0,02057218
-0,05056893
-0,1005689
-0,0005689606
0,01943104
-0,01000825
-0,03000825
-0,03000516
-0,04000512
-0,230005
-0,150005
-0,210005
-0,2
0,02999991
0,2
0,08999995
-0,19
-0,0100001
-0,06000008
0,27
-0,14
-0,1000001
0,15
0,0099999
-0,0100001
-0,17
0,27
0,23
0,04999992
0,1
0,15
-0,24
-0,01
-0,25
0,13
-0,16
0,23
-0,1400001
-0,3000001
0,1699982
-0,1800018
-0,06000194
-1,967215E-06
0,1899982
0,08999806
0,2499982
-0,09000195
0,1499983
0,2399983
0,16
-0,11
0,21
-0,1500005
0,2599995
0,2699996
-0,2300005
0,09999942
0,1899964
-0,3000036
-0,1200036
0,01971622
0,02971626
0,2197169
0,1597161
-0,08028895
-0,2102881
0,09970872
-0,2502916
0,1891478
0,05914791
0,1491478
0,2391509
-0,01084913
0,06915102
0,1394671
0,2194704
0,1994753
0,2494754
0,2200363
0,0300373
0,2200005
-0,1799999
0,2894728
0,1794729
-0,1005306
0,2294693
0,2094695
0,02946974
-0,2305681
0,04943201
0,02942879
-0,2705718
-0,1405715
0,1094286
-0,1605719
0,08942806
0,009427091
0,129427
-0,04057225
-0,0005689565
-0,150008
-0,1400049
0,249995
-0,1200051
-0,2900049
-0,06000512
-0,08000005
0,06999995
-0,19
-0,26
-0,13
0,15
0,27
-0,04000008
-0,04000008
-0,1000001
0,02999991
-0,26
-0,05000008
-0,0100001
-0,13
-0,24
0,27
-0,17
-0,28
0,1099999
0,08
0,18
-0,07
-0,25
-0,09
-0,24
-0,02
-0,08
-0,13
0,05999999
-0,13
0,1099981
0,1699982
0,2599982
0,009998042
-0,1700018
-0,09000194
-0,2700018
-0,1200019
0,1799982
-0,2400018
0,2
-0,15
0,24
-0,25
-0,03000001
-0,1200005
0,2699996
-0,1800005
-0,2100005
-0,1100006
0,1099963
-0,1500036
-0,1100037
0,1497163
0,02971626
-0,1602831
-0,2402838
0,1297113
-0,2002879
-0,1402913
0,04970878
-0,2208522
0,1891478
-0,2708525
0,2191507
-0,1408494
-0,01084886
0,2694666
-0,2605299
0,1494754
0,2294763
0,2500369
-0,1699629
0,05000057
0,1800001
0,0200318
-0,01996819
0,289469
0,2294693
0,1794687
-0,0005309504
-0,2105681
-0,2205681
-0,1305714
0,04942872
-0,05057128
-0,0205716
-0,2005722
0,2694275
0,2794268
-0,1600091
-0,1100083
-0,2200048
0,009995035
8,884975E-08
0,1099999
-0,05000008
0,2099999
-0,1800001
-0,2
0,18
-0,3
-0,23
-0,07000005
-0,05000008
0,15
-0,29
0,13
0,27
-0,3
0,15
-0,23
0,19
-0,09000006
0,15
-0,05000008
0,29
0,01999991
-0,03000009
-0,03
0,18
-0,12
-0,3
-0,25
0,009999998
0,04
0,16
0,11
-0,25
-0,24
-0,2300018
0,06999807
0,1599982
0,1299982
0,2899982
-1,965117E-06
-0,2800018
0,1499982
0,2199982
0,1899982
-0,07000003
0,14
-0,18
0,26
-0,17
-0,2400005
-0,01000057
0,1599995
0,1599995
-0,2600005
0,1199963
0,2199964
-0,07000365
0,1497169
-0,08028305
-0,0002821489
0,2897168
-0,2802879
0,2197121
0,1997087
0,2897084
-0,1108521
0,07914787
0,1991478
0,2291507
-0,2208494
-0,09084915
-0,240533
-0,09052967
-0,1505247
-0,07052366
-0,1599628
0,1000372
0,07000055
-0,2699999
-0,2599634
-0,2499632
-0,2705282
0,2194722
-0,06052801
-0,2605287
-0,3005653
0,2494349
-0,3005686
-0,06056821
-0,1605684
-0,1705695
-0,2905701
-0,1005648
-0,01056476
-3,97289E-06
-0,3000035
0,2200001
-0,29
0,2
-0,26
-0,24
-0,08000005
-0,27
-0,25
0,15
-0,07000005
-0,06000008
-1,027075E-07
0,1099999
-0,03000009
-0,1800001
0,16
0,1099999
-0,13
-0,06000008
0,26
-0,21
-0,02
0,16
0,28
-0,07
0,07
-0,04
0,08
0,24
-0,1
0,15
0,22
0,14
-0,07
-0,09
0,09
0,1599982
0,2899982
0,2799982
0,1299982
-0,3000018
0,1699982
0,07999806
0,09999806
0,04999806
-0,06000195
-0,11
0,26
-0,28
-0,03000002
-0,11
-0,27
-0,25
0,03999947
0,1999995
-0,06000058
-0,1600005
0,2099995
0,09999635
-0,0200037
0,2499964
-0,06028308
-0,2002831
-0,05028215
0,06971698
0,01971219
0,1597121
-0,1302913
-0,2402913
0,01914802
0,2891475
0,1091479
-0,1108492
0,09915062
0,2491508
-0,08053296
0,1994704
-0,250525
-0,07052366
0,2800369
-0,1199628
-0,009999376
0,05000015
-0,02996296
-0,2999634
0,1200381
0,1600379
-0,2099625
0,02003794
0,2700006
-0,04999901
0,2399975
-0,1100024
-0,01000218
0,1699964
0,04999641
0,05999719
-0,1800033
-0,2700036
-0,2800036
0,07999996
-0,29
0,2
-1,026864E-07
-0,03000009
0,06999995
0,13
-0,05000008
0,08999995
-0,03000009
0,03999992
-0,22
-0,02000009
0,1099999
-0,2
-0,04000008
0,18
0,13
-0,05
0,25
0,15
0,07
0,14
-0,21
-0,23
-0,26
-0,08
0,19
0,22
-0,11
0,16
0,07
-0,28
-0,1
-0,1
-0,14
0,08999807
-0,2500018
0,2899982
-0,08000194
0,2799982
-0,09000194
-1,965014E-06
-0,2500018
-0,08000194
-0,1400018
-0,04000002
0,07999998
-0,11
-0,09000003
0,17
0,22
0,1699995
-0,2200005
-0,1300005
-0,3000005
-0,1300005
0,1099994
-0,08000365
-0,08000365
-0,1500036
0,2397161
0,01971621
-0,110283
0,109717
0,2597121
-0,2402879
-0,2302914
-0,1002913
0,2291479
0,1691478
0,1291478
0,1391507
-0,2808505
0,2591498
-0,06053295
-0,2305296
0,08947541
0,1594763
0,2000372
0,08003719
0,1300373
-0,009963053
3,688425E-05
0,02003685
0,2300379
0,1900379
0,2300375
-0,2699628
-0,1099991
0,2900005
0,2799972
0,1199976
0,06999762
-0,2400036
-0,260004
0,1799971
-0,2000034
-0,07000334
-0,05000339
-0,2
-0,12
-0,13
-0,04000008
0,03999992
-0,27
-0,22
0,14
-0,1800001
0,22
0,23
0,06999995
0,2399999
0,0099999
0,14
0,01999991
-0,06
-0,28
0,16
0,17
-0,23
-0,18
-0,26
-0,29
0,24
0,19
-0,3
-0,23
0,26
0,21
0,05
0,26
-0,14
-0,1000018
0,09999818
-0,1100018
-0,04000194
-0,2700018
0,2599982
-0,01000196
0,1499982
-0,2500018
0,1099981
-0,2000018
-0,05000013
-0,09000013
-0,27
-0,2
0,23
0,03999998
0,08999999
0,16
-0,06000054
0,04999941
-0,1200006
0,2699995
-0,1600005
-0,1500005
0,009996294
0,1399969
-0,2800031
-0,300284
0,1797161
-0,100283
-0,1302832
0,269712
-0,09028798
0,03970878
0,2097086
-0,06085208
-0,2508526
-0,09085228
-0,2508496
-0,1308501
-0,2908501
-0,2905335
-0,000529595
0,2294753
0,04947639
0,02003731
0,1500372
0,2000373
-0,1599631
-0,07996333
-0,1799633
0,1900377
0,010038
0,1000374
-0,2899629
0,1299972
-0,2500032
-0,2000027
0,009997639
-0,1800027
-0,04000365
0,1399963
-0,1300029
-0,09000324
0,2299967
-0,03000339
-0,3
-0,01000009
-0,11
-0,02000009
-0,02000009
-0,12
0,1099999
-0,24
0,02999991
-0,13
-0,03
-0,1
0,1
0,28
0,28
-0,18
0,16
-0,05
-0,23
-0,03
-0,04
0,1
0,02
-0,23
-0,12
0,25
0,19
0,23
0,2
-0,14
0,14
-0,22
-0,3
-0,2300017
0,009998052
-0,1400018
0,009998043
0,1499982
0,2299982
0,2399982
-0,2200018
-0,06000194
-0,2400018
0,1399982
-0,14
0,14
-2,550246E-08
0,01999998
-0,17
-0,16
0,2699996
0,2099995
-0,1600005
-0,05000058
-0,2900005
-0,1000006
0,2599995
-0,1900005
-0,2100036
0,02999685
-0,02000315
0,1797161
-0,1402837
-0,1302829
0,02971724
-0,120288
-0,100288
0,01970883
-0,03029123
0,1191479
0,09914783
-0,2908525
0,01915076
-0,1708501
-0,1108499
-0,2905701
0,03947042
0,1794754
0,2094763
0,04003727
-0,05996271
-0,1399627
0,09003691
0,06003786
-0,1099623
0,2200369
0,2400369
0,04003717
-0,239963
-0,1900026
-0,1000025
-0,1100025
0,04999754
-0,1100025
-0,05000366
-0,1100037
-0,2200029
0,1899971
-0,2000029
0,2699964
-0,06000007
0,28
-0,25
0,01000001
0,03000001
0,26
-0,11
-0,3
-0,25
-0,3
0,16
-0,23
-0,11
0,05
-0,22
-0,18
-0,22
0,09
0,27
0,1
-0,07
0,15
-0,05
-0,15
-0,09
-0,09
-0,04
-0,18
0,18
0,29
0,22
0,1399983
0,07999807
0,2399982
-0,2100018
-0,04000194
-0,2000018
-0,2200018
-0,2700018
-0,07000194
0,02999805
0,2399982
-0,01000015
-0,2400001
-0,05000002
-0,17
0,29
0,29
-0,2
-0,17
-0,1900005
-0,01000058
0,2099995
-0,01000061
0,0299994
0,08999943
0,0199994
0,1999995
-0,2100036
-0,1900031
-0,01000315
-0,2402839
-0,1802837
-0,250283
-0,230283
-0,2902881
-0,01028789
-0,05029128
-0,04029128
0,1191479
-0,2908525
0,2891473
0,05915053
0,0391497
-0,2308499
-0,01056967
-0,1405295
-0,1105245
0,1994763
-0,2199629
-0,08996279
-0,03996266
-0,2899633
0,05003786
0,1800376
-0,069963
0,2300369
-0,2199631
-0,09996299
-2,320641E-06
0,2399973
-0,1000025
0,279997
0,2099973
0,2299963
-0,03000362
0,1199972
-0,07000285
0,2799969
-0,06000289
0,1400004
0,04000002
0,03000011
-0,01999999
-0,19
-0,18
0,22
-0,14
-0,07999998
-0,26
-0,07
-0,18
-0,3
-0,29
0,2
-0,28
-0,26
0,06
-0,13
0,14
-0,22
-0,09
-0,26
0,25
0,18
0,1
-0,3
0,15
0,11
0,09
0,17
0,2199983
-0,09000193
-0,04000194
-0,06000194
0,1599982
0,2299982
0,02999805
-0,07000194
0,04999806
-1,965241E-06
0,05999805
0,15
-0,14
-0,23
0,11
-0,1
0,27
-0,3
0,2
-0,07000053
-0,2500004
-0,2500005
-0,1600005
-0,1500005
-0,08000057
-0,0100006
0,06999943
0,09999637
-3,137256E-06
-0,1800031
-0,2302839
0,04971644
0,1197172
-0,130283
-0,0002879038
0,209712
0,03970872
0,06970876
-0,2708524
-0,2208523
-0,0008523185
-0,1808495
0,1191497
-0,1708499
0,01943032
0,04947057
0,1794755
0,1794764
-0,2399628
-0,09996279
-0,2699629
0,1400369
0,2000376
-0,1399624
0,1100371
0,160037
-0,229963
-0,199963
-0,2900034
-0,1300031
-0,1400029
0,2299964
0,2299964
-0,07000281
-0,08000281
-0,2900031
-0,2800031
0,2900005
0,06000051
0,2000005
0,1600005
-0,1099995
0,2700005
0,1100005
0,2200001
0,2200001
-0,06999989
-0,2999999
0,1300001
0,1700001
0,1100001
0,18
0,04000001
-0,2
-0,21
-0,07
0,14
-0,05
0,05
0,14
0,14
-0,07
0,06
0,16
0,22
0,07
-0,11
-0,12
0,2099983
0,00999819
0,01999819
0,1899982
-0,1800018
-0,1500018
0,03999806
0,1299982
0,1699982
-0,2200018
-0,06000194
0,1799999
-0,08000012
-0,24
-0,04000001
-0,17
0,04999999
-0,02000003
-0,12
0,1299995
-0,1600005
0,2899995
-0,1400005
0,05999942
-0,07000056
0,2199995
-0,2400005
-0,08000056
0,13
-0,2000031
0,189997
-0,1600029
0,02971627
-0,2502837
-0,2202829
-0,1802829
-0,160288
0,219712
0,04970882
-0,1202912
0,04914801
-0,05085216
0,04914763
0,04915053
-0,2908505
0,1591501
-0,09056892
0,06947135
0,259476
-0,08052357
-0,1999629
-0,05996273
-0,1199627
0,06003687
-0,2599636
0,2200368
-0,1599631
0,2600366
-0,04996606
-0,09996628
-0,2100032
-0,1900032
-0,3000035
0,05999609
-0,1100035
-0,200003
-0,1500029
-0,1300029
0,2799969
-0,1599995
0,2900005
0,1300005
0,2200005
-0,2999995
-0,2299995
0,1800005
-0,06999949
0,1000005
0,05000051
0,06000051
5,615697E-07
-0,01999947
-0,0499999
-0,09999989
0,2900001
-0,0499999
0,2500001
0,2700001
-0,2999999
-0,1399999
0,2700001
-0,1199999
-0,02999989
-0,1499999
-0,2199999
-0,0599999
-0,0499999
0,2800001
-0,1399999
0,2100001
0,009998313
-0,2700017
0,08999819
0,1199982
-0,07000183
-0,03000183
0,009998167
-0,1200018
-0,02000183
-0,1500017
-0,01000184
0,0300001
-0,0999999
0,1800001
0,1900001
0,1100001
0,1500001
0,1000001
0,07000009
0,2299996
-0,1600003
-0,1200004
-0,1400004
0,1099995
-0,1400004
0,1099996
-0,1500004
0,06999955
0,21
0,1199974
-0,0700032
-0,06000296
-0,06028306
0,1397168
-0,2502826
-0,04028236
0,1897124
0,1297124
0,2597088
0,009709328
0,2291483
0,06914783
-0,02085234
0,1391505
0,1691497
-0,06084986
0,2694308
0,08947136
-0,05052361
-0,03052349
0,0800372
0,1500372
-0,08996273
-0,07996313
0,06003707
-0,1699632
0,1700369
0,2700366
-0,04996606
0,1200337
-0,1900032
0,2399967
-0,04000304
0,149996
0,219996
-0,2600035
-0,2100029
0,04999711
0,1199972
-0,06999949
0,2200005
-0,2899995
0,1300005
-0,2499995
-0,2999995
0,07000051
0,1900005
0,01000056
0,2400005
0,2200005
0,1300005
0,06000051
-0,1799995
-0,05999949
-0,2699995
0,07000051
-0,2799995
-0,2899995
-0,2299995
0,2200005
0,09000051
0,2100005
-0,1299995
-0,1599995
-0,09999949
0,2900005
-0,1999999
0,1200001
0,2199983
0,1199983
-0,1600017
-0,09000182
0,2599983
-0,2900017
0,04999819
0,06999819
-0,2900016
-0,1400017
-0,08000181
0,29
-0,07
-0,1499999
-0,2699999
0,03000011
0,2900001
0,04000011
0,1200001
-0,2799999
0,1100001
-0,15
-0,2799999
-0,22
-0,02000005
0,2
0,13
-0,3
0,1400004
-0,009999469
0,1500005
-0,3000026
-0,04000314
-0,2300031
0,08971766
-0,1902825
0,07971759
-0,09028249
0,09971245
-0,2002876
0,1897091
-0,04029079
0,04914841
0,1591481
0,07914803
-0,2208491
-0,01084989
-0,06084986
0,1794311
0,1394714
-0,1605237
0,1494763
-0,1299629
-0,2199629
-0,2999629
0,07003689
0,1000372
-0,249963
0,230037
-0,239963
-0,1199662
0,04003388
0,2199968
0,01999716
0,00999702
-0,08000308
0,01999693
-0,1500033
0,04999714
0,2099971
0,2499971
0,07000045
0,2400004
0,0100005
-0,1699995
-0,1499995
0,09000056
-0,1399995
-0,009999399
-0,1099995
-0,09999946
-0,1099995
-0,1799995
-0,2999995
-0,1599995
0,2900005
0,1300005
-0,1199995
-0,2399995
-0,2799995
0,01000055
0,02000053
-0,02999947
0,04000051
0,2100005
-0,1599995
0,04000051
-0,2799995
-0,1599999
-0,1399999
0,04999829
-0,1700017
0,1899983
0,2699983
0,1799983
0,06999821
0,1999983
0,1499983
0,2399983
0,1499983
0,2699984
-0,05999998
0,05000002
0,03000017
0,1500001
0,2900001
-0,07999985
0,2200001
-0,1199999
0,009999617
0,08999964
-0,16
-0,2099999
0,01999999
-0,11
-0,08000002
-0,21
-0,1
0,0900005
0,2900005
0,1000005
0,05999742
-0,2900032
-0,1700031
0,1397175
-0,2302825
-0,0002821379
-0,1502826
-0,1902876
0,05971253
-0,2102909
0,2697087
-0,070852
-0,0908528
-0,250853
-0,2408499
0,2591499
0,2391502
0,1794311
0,2194714
0,2094763
0,1094764
0,1400371
0,1300371
0,0700373
-0,09996311
-0,2599632
-0,139963
0,07003707
-0,04996274
-0,02996598
3,398498E-05
-0,2500036
0,2499967
-0,2600035
-0,09000309
-0,07000308
-0,08000325
0,19
0,07000005
-0,009999936
-0,23
0,1100004
0,1100004
-0,07999955
0,1100004
0,2000005
0,1700004
-0,02999951
-0,1799996
-0,03999952
-0,1499996
0,01000052
0,1700004
-0,2299996
0,2900005
0,2100005
-0,1299995
0,06000057
-0,06999944
-0,2699995
-0,1699995
0,07000056
0,1500005
-0,2099995
0,08000056
0,2100005
-0,0199994
-0,1399995
0,1300005
0,1299988
0,03999863
-0,2600012
-0,1900013
-0,07000138
0,1399987
-0,3000012
-0,2800012
-0,09000139
0,2499987
-1,339064E-06
-0,1399995
0,1800005
-0,05999944
0,2900005
-0,1899995
0,2800005
-0,1199995
0,1800005
-0,2499999
-0,009999938
-0,2499999
0,16
-0,05000003
0,03999997
-0,15
-0,009999996
0,25
0,01000056
0,1300005
0,1900005
-0,08000257
0,009996853
0,1299968
-0,01028215
0,2097175
-0,2002825
-0,1002825
-0,07028756
-0,08028766
0,2797087
0,1797088
0,2591476
0,0991471
0,2291471
0,1591501
-0,05084996
-0,17085
0,1494311
0,2694711
0,08947638
0,02947651
0,0900372
-0,1899628
-0,1599628
0,08003679
0,1800371
0,09003706
0,06003724
-0,219963
-0,1599664
-0,259967
-2,815406E-06
0,06999692
-0,2400032
-0,2200042
0,1499958
-0,2600035
0,2500001
-0,23
-0,3
0,08000004
0,24
-0,04999995
-0,24
0,1
-0,2199996
-0,2499996
0,02000048
0,1700004
0,2000004
-0,1399996
-0,2099996
0,04000047
-0,2699996
-0,1399995
0,1200006
-0,09999944
-0,009999371
0,2000005
-0,2699995
0,01000063
0,1300005
-0,1499995
-0,2299995
0,2300005
-0,1299995
-0,1099994
0,03999875
0,1399988
-0,2900011
-0,1000014
-0,1300013
0,07999532
0,2699952
-0,2900048
0,07999532
-0,1600047
-0,2600048
0,03999711
-2,86266E-06
0,1199972
-0,2300029
0,1899971
-0,1300029
0,279997
0,2399971
0,259997
0,03999722
0,1899967
-0,05000329
-0,05000335
0,04999666
-0,2600035
-0,2700036
-0,01000331
0,2499966
0,07999668
-0,1300029
-0,1700027
-0,08000264
0,1799942
0,009993543
0,1699935
0,1497141
-0,01028547
0,2797138
0,009714466
0,0597092
-0,2802913
0,06970904
-0,020291
-0,1508522
0,2491472
-0,1008529
-0,1008499
-0,06084995
0,22915
0,2694309
-0,2105286
0,279476
-0,09052358
0,1500371
0,1400369
-0,1099632
0,06003679
0,1500371
-0,1799631
0,04003392
-0,029966
-0,2399664
0,2900329
0,2599963
0,2099967
-0,1900033
0,1099959
-0,1900042
-0,1100041
-0,2700008
0,1799992
0,2899992
-0,07000078
-0,1100008
0,009999308
-0,1800008
0,2699992
-0,2100008
0,09999923
0,1399992
0,1199992
-0,2500008
-0,2899999
0,1100004
-0,2199996
-0,1599996
-0,2899995
-0,2699996
0,1700004
-0,02999951
-0,2099996
0,1400004
0,1500004
0,2700005
-0,2099996
0,2600004
0,07000045
0,02000048
-0,06000286
0,1299953
0,07999522
-0,2100047
-0,2600049
0,1899952
-0,2100047
-0,2100047
0,04999521
-0,2900049
-0,1700048
0,01999522
-0,08000285
-0,03000284
-0,2500032
-0,02000284
0,209997
-0,09000286
-0,2600048
-0,1200047
0,1699949
0,05999402
-0,2000059
0,069994
-0,07000607
0,219994
0,239994
-0,2700062
-0,170006
-0,04000551
-0,2000055
0,04999449
0,0399973
-0,06000268
0,139994
0,2599937
-0,2500061
0,02971438
-0,2902866
-0,1902864
0,009713924
0,2797084
0,07970864
-0,3002917
0,1997084
-0,1608526
-0,2508534
0,1091467
0,08915006
-0,13085
-0,2508503
0,1694311
0,2094713
-0,1105236
0,1394763
0,1700371
0,02003696
-0,2899634
0,1600368
-0,1799629
0,2400369
-0,2499664
0,2600329
-0,2099664
0,2000335
0,06999687
0,2799963
0,2699965
0,1199967
-0,2200034
-0,08000313
-0,1199998
-0,09999982
0,2300001
0,1700001
0,1900001
0,28
-0,1999999
0,17
-0,22
0,16
-0,17
-0,06000072
0,2499992
-0,1000008
-0,08000076
0,1399992
-0,1600008
0,09999924
0,2699992
-0,07000077
-0,2600008
0,1699992
0,1899992
-0,1400008
-0,05000073
-0,2800008
-0,0200007
-0,2100008
-0,1800004
-0,1400037
-0,2300047
0,289995
-4,70134E-06
0,2499952
0,1699952
-0,0300047
0,269995
0,0199953
0,2499952
0,1899952
-0,08000482
-0,170003
0,06999709
-0,05000284
0,1099971
0,1099971
-0,3000033
0,1899952
-0,0300046
0,2299948
0,1299948
-0,1300052
0,1499948
0,1399948
-0,1300051
0,009994999
0,009994998
0,06999448
-0,09000501
0,1599949
-0,01000487
-0,2900036
0,03999684
0,2199937
0,07999388
-0,1700063
0,2297136
-0,3002867
0,01971398
0,2497136
0,1597086
0,1191479
0,1391478
-0,2308523
-0,2908527
0,1991475
-0,2108525
-0,07084915
0,03915004
0,13915
-0,2905691
0,08947135
0,1094764
-0,1105236
0,0200373
0,2000369
-0,1599632
0,1600368
0,07003797
-0,1399623
0,2600329
-0,09996628
-0,1999664
-0,2199665
-0,1100031
-0,09000313
0,08999702
0,1399967
0,1699967
-0,02000299
0,1700001
-0,3
-0,1299999
0,02000031
-0,2399999
-0,3
0,03000031
0,07000015
0,1300001
-0,02999969
-0,08999985
-0,2299999
-0,28
0,07000015
0,1500001
0,1900001
-0,1100031
-0,1500033
-0,1100031
0,1799967
0,2899964
-0,2300033
-0,08000312
-0,1500033
0,2899948
-0,04000483
0,01999522
0,05999516
0,179995
0,09999505
-0,190005
-0,05000496
0,05999504
-0,2400049
0,2599948
-0,2900052
-0,0800049
-0,2100049
-0,1700049
0,01999504
-0,1300051
0,06999501
-0,2700052
-0,200005
0,249995
0,179995
-0,120005
0,02999513
-0,07000551
-0,01000542
-0,2900057
-0,07000556
-0,05000549
0,2799943
-0,01000548
0,09999444
0,06999443
-0,2900053
0,01999508
0,09999496
-0,02000494
0,2599947
0,1799949
-0,2700082
-0,150008
0,2599918
-0,0002878125
0,2597117
0,09971198
0,1297136
-0,03029126
-0,2008524
-0,2908526
0,1691477
0,009147572
-0,09085245
-0,2608527
-0,1908492
-0,10085
-0,19085
-0,2205689
0,2894711
-0,1805237
-0,1205236
0,08003719
0,1700369
0,2900366
0,07003678
0,06003477
-0,1499656
-0,06996546
-0,08996557
0,06003456
0,03003454
-0,270003
-0,1000024
0,1799959
0,2899948
0,249995
0,2799946
-0,1300051
-0,09000508
0,2199949
0,08999492
-0,2800054
0,2099949
-0,08000508
0,07999492
-0,03000495
-0,2300051
0,05999501
-0,04000499
0,09999492
-0,09000508
0,009995054
-0,0100049
0,1299951
-4,742701E-06
-0,06000479
-0,03000475
0,2599948
0,2299951
-0,1100049
-0,05000479
-0,1100049
-0,2400049
0,02999526
-0,02000474
0,1299951
-0,2000049
0,02999525
-0,2600052
-0,1400049
-0,0800049
0,2299951
0,1599951
-0,2400049
0,02999524
-0,1400049
0,1699951
-0,0500048
-0,09000494
-0,210005
-0,01000478
0,08999506
0,2699948
0,09999507
-0,150005
-0,2900057
0,02999467
0,05999465
-0,1300055
0,0499946
-0,03000539
-0,2800057
-0,0600054
-0,2800057
-0,03000484
-0,100005
0,249995
-0,130005
0,229995
0,239995
-0,1400081
0,0299921
0,01999224
-0,2102881
-0,120288
-0,03028783
0,1497119
-0,07029311
-0,200854
-0,1608542
0,06914579
-0,2808544
0,03914754
0,1291475
0,1891508
0,14915
-0,08084992
-0,05056884
-0,1205287
-0,04052363
-0,2005237
0,04003726
-0,1499631
-0,009963211
0,1900368
-0,1099661
-0,009966108
0,1300344
0,09003443
-0,1799657
-0,09996562
-0,01000226
0,009997721
-0,03000407
0,2199959
0,2499959
-0,2400041
0,1699959
-0,0800041
0,1699959
-0,1500041
-0,2000041
-0,05000403
-0,2700044
0,2699957
-0,05000403
-0,030004
0,0999959
-0,1800041
0,1099959
0,2699948
-4,775718E-06
0,2799948
-0,04000483
0,129995
0,1199951
-0,130005
-0,2700052
-0,1000049
0,2799948
0,2799948
-0,2800052
0,129995
0,2699948
0,239995
-0,230005
-4,814371E-06
-0,230005
0,199995
0,239995
0,07999505
0,03999516
-0,2700052
0,009995203
-0,190005
0,2899948
-0,220005
-0,180005
0,009995214
-0,06000483
0,219995
0,179995
0,009995215
0,2699948
-0,150005
0,1899946
0,009994621
-0,2500057
0,1299945
-0,2000047
0,0699953
-0,2700049
-0,03000462
-0,07000476
0,1799953
-0,1700047
-0,04000463
-0,03000464
-0,2200047
0,1899953
0,2399922
-0,1100078
0,1999924
-0,1202877
-0,2802879
-0,08028764
-0,03028839
-0,04029356
-0,1508545
0,1391454
0,03914527
-0,2508548
0,009146179
0,2491463
-0,2508501
-0,20085
0,009150174
0,1594311
0,1194713
-0,2599631
0,06003726
-0,04996274
-0,0699631
0,1000368
-0,1399632
0,05003394
-0,2299665
0,09003364
0,1300335
0,270033
0,02003369
0,09999497
-0,2600053
0,119995
-0,01000485
0,01999515
0,2699949
-0,1700049
0,2399951
0,2199951
-0,08000506
-0,2600052
0,1899951
0,2899949
0,04999514
0,01999515
0,01999599
0,009995988
-0,1300041
0,07999589
0,1199959
0,0999959
0,1499959
-0,2600043
-0,1700041
-0,01000402
0,2599956
-0,2000041
-0,2900043
-0,03000403
-0,1500041
0,1699959
0,1299959
-0,1300041
-0,1800041
0,2299959
-0,2900043
0,1899959
-0,04000404
0,02999597
-0,1800046
-0,1200046
0,2099946
0,1899946
0,1099946
0,01999458
0,0499946
-0,06000208
-0,2600019
0,139998
-0,2800019
0,04999792
-0,09000213
-0,2500019
-0,150002
0,209998
0,249998
0,289998
-0,01000216
0,289998
0,05999786
0,169998
-0,190002
-0,03000222
0,06999774
0,04999785
-0,1000022
0,01999783
0,1699979
0,1199978
0,009994715
0,1299956
-0,2500043
0,1397156
-0,05028445
-0,06028436
0,1897148
0,2597099
-0,07085125
0,1091453
0,2391446
0,009144382
-0,2508555
-0,1408554
-0,06085228
0,08914854
-0,04084963
0,07943118
-0,2905289
-0,09996285
0,2800369
-0,2899631
-0,1099631
-0,0399632
0,2600366
-0,0499664
-0,2399666
-0,05996627
-0,1899665
-0,2499682
-0,1899682
-0,2700053
0,06999496
-0,0900052
-0,180005
-0,1100051
-5,067729E-06
0,06999494
0,08999494
0,209995
-0,2800052
0,2899948
0,05999492
0,179995
-0,2500052
-0,2500052
0,1099949
0,2399949
-0,2800052
0,2799948
-0,210005
0,1199949
-5,112035E-06
-0,04000509
0,1399949
-5,107583E-06
-0,07000509
0,08999491
0,169995
-0,3000052
-0,1200051
-0,05000562
0,1399945
-0,1300055
-0,01000567
0,2099945
0,2299945
0,1399945
-0,2700056
-0,2500056
-0,2200021
0,1899979
0,2799979
-0,2000021
-0,1200023
0,2899979
-0,06000208
0,009997894
-0,1000021
0,209998
0,129998
-0,190002
-0,09000213
-0,180002
0,2599981
-0,01000211
0,01999965
-0,2000003
0,06999962
0,1199996
0,2499997
0,2099996
0,1899996
0,08999955
0,01999957
0,05999964
-0,1600021
-0,1100022
-0,1200022
-0,1600021
-0,1900051
0,2699957
0,2099956
0,2597156
0,1897156
-0,1002845
0,1297148
-0,1102903
-0,2208511
0,1491454
-0,2508555
0,2091445
-0,1208556
0,2491446
-0,1308521
-0,2408514
-0,2708499
0,009431194
-0,1005287
-0,2999631
-0,1199628
0,1300371
-0,2399631
-0,08996322
-0,2099632
-0,1299632
0,2900365
-0,1099662
0,07003362
0,1100336
0,1400335
-0,2500053
-0,170005
-0,2400052
0,09999492
0,149995
-0,1000051
-0,05000507
-0,08000507
0,05999492
0,159995
-0,170005
-0,2800052
0,219995
0,06999493
-0,2600052
0,0299949
0,229995
-0,08000509
-0,04000509
0,0299949
0,1199949
0,2799948
-0,1200051
0,2499949
-0,02000179
0,2099983
-0,0100018
0,1599983
0,01999821
-0,1000018
-0,0700023
0,1099977
-0,03000233
-0,3000021
0,2899979
0,0699977
-0,1900021
-0,1500022
0,00999765
0,1599979
0,07999951
-0,2200006
0,1299994
-0,1700006
-0,2500006
0,1099995
-0,1700004
0,1299996
-0,2500004
0,1299996
-0,2400004
0,2699996
-0,1900004
-0,2200004
-0,2900005
-0,2400005
0,2499995
-0,1900005
-0,1800005
0,2399995
0,1999995
0,07999939
0,1999995
-0,1400005
-0,08000056
0,009999609
0,03999964
0,2099997
0,0799996
-0,04000344
-0,09000261
0,06999739
0,1997173
0,08971548
0,2397154
0,03971465
-0,1502904
-0,2608511
0,1891453
0,1691446
0,06914436
0,1591449
0,1091448
0,1791479
-0,1708514
-0,04084968
-0,01056885
-0,1105287
0,2900368
0,2200371
0,1200372
-0,2999633
-0,2699634
0,06003679
0,2600366
-0,2999635
-0,1199666
-0,02996665
0,2100332
0,03003329
-0,2400053
-0,08000537
-0,2600056
0,07999492
-0,08000507
-0,02000508
-0,240005
0,01999492
-0,170005
-0,03000508
0,209995
0,209995
-0,09000508
-0,05000508
-0,130005
-0,2700052
0,2699948
-0,2900052
-0,2800052
0,2599948
-0,2900052
-0,1500051
0,2199949
0,149995
0,1399983
-0,09000179
0,03999822
-0,1600018
0,1199975
0,2399977
-0,1500023
0,1699977
-0,1700023
-0,1400023
0,09999754
-0,1500023
0,1199975
-0,2800022
-0,04000247
0,1499977
-0,1100006
0,2699994
-0,2500006
0,0199993
-0,3000006
0,2099994
0,08999936
0,06999935
-0,1100007
0,2299994
-0,2800006
-0,1300006
-0,05000073
0,2399994
0,01999919
0,2099993
-0,01000083
-0,1200008
0,2399993
-0,2900007
0,2399993
0,2199993
0,1999993
-0,1100008
-0,1900007
-0,2700005
0,06999939
-0,2500004
0,1399996
-0,2900034
-0,0900026
0,2399974
0,03971738
-0,1302844
0,06971533
-0,2602854
-0,2102904
-0,1008513
0,1491453
0,2191446
0,1091444
0,2591448
0,2391449
0,1891478
0,2091486
0,2791501
-0,08056887
-0,1205287
0,130037
0,1900371
0,1500371
-0,06996313
-0,2299632
-0,04996321
0,2100368
-0,02996314
-0,2299632
0,1600367
-0,09996329
0,2600363
-0,1700001
0,03999994
0,2299999
-0,12
0,01000009
-0,2299999
0,1200002
-0,2299999
-0,1299998
-0,02999983
0,1100002
-0,2099998
0,03000017
-0,2799999
-0,1099999
0,2700002
0,2800002
-0,2999999
-0,02999985
-0,1799999
0,1100001
-0,1099999
-0,08999986
0,2500001
-0,1499999
0,2700002
0,1699979
-0,2100022
-0,05000235
-0,2000022
0,2699979
-0,07000246
0,2899977
0,1799977
0,08999749
-0,2300023
-0,2700023
0,05999748
-0,1300006
0,1299994
-0,1500006
-0,1600005
-0,2900005
-0,1400005
-0,2300005
0,0599994
0,1899995
-0,2500005
-0,2400005
0,2299994
-0,01000069
-0,2400006
-0,1200007
-0,2300006
-0,1500006
0,2399994
-0,1700006
0,2699994
-0,2800006
0,03999985
-0,1000002
0,02999986
0,1199999
-0,2300001
-0,01000012
-0,12
-0,2099999
0,1500002
-0,07999981
-0,1800029
0,2299979
-0,09000205
0,1297178
0,1297178
0,2697176
-0,04028309
-0,1302883
-0,2608491
0,1791475
0,08914676
-0,2208533
0,1191471
-0,2708531
0,01915001
0,09915085
0,2091508
-0,2605692
0,2094713
0,02003716
0,1500371
0,2400371
-0,2399631
0,03003678
0,1300368
-0,06996315
0,1200368
0,02003686
0,2400367
0,1600367
0,1800367
-0,04000005
-0,2600002
0,1199999
0,2299999
-0,3000003
-0,23
-0,08
0,04
-0,2
0,18
0,06
-0,22
-0,22
-0,08
-0,05
0,06999999
-1,556687E-08
-0,2
-0,04000001
0,07999998
-0,16
-0,12
-0,18
0,06999999
-0,13
0,17
0,1799982
-0,3000017
-0,1000024
-0,1600023
0,2399977
-0,08000251
-0,1300023
-0,3000023
-0,1700023
-0,2600023
0,2899994
-0,2100006
0,009999251
0,02999939
-0,02000061
-0,01000006
0,09999993
0,1399999
-0,2200001
0,1499999
0,27
-0,1900001
-0,1300001
0,1499999
-0,1900006
-0,08000065
-0,02000067
-0,2200006
0,02999933
-0,2300006
0,2099994
-0,2500006
0,05999935
-0,1800001
-0,1200001
-0,08000013
-0,1600001
0,2599999
0,2399999
-0,16
0,2
-0,2199998
-0,2099998
-0,09000289
0,07999798
-0,09000202
0,07971787
0,2197178
-0,2102823
0,1497168
0,06970827
-0,02085249
-0,01085248
0,009146677
0,1991466
0,0691471
0,1191471
0,03915
-0,2708495
0,009150888
0,2294311
-0,2105287
-0,03996282
-0,2499633
-0,1799633
0,2400369
0,02003678
-0,1099632
-0,1599632
-0,2399632
-0,1499632
0,1400367
0,1900367
0,2300367
0,2499999
0,1799999
-0,2900002
0,2499999
-0,2300002
0,2
0,14
0,06
0,29
0,18
-7,533619E-10
-0,08
0,06
-0,26
-0,08
0,11
0,08999999
0,08999999
0,22
-0,08000001
-0,1
0,11
0,11
-0,27
-0,2100017
0,1299983
0,1799982
-0,1200019
0,06999812
-0,2700018
-0,010002
0,2199981
0,079998
0,04999801
0,05999982
-0,2900002
0,04999982
0,1599998
-0,03000019
-0,1700001
0,1699999
-0,1300001
-0,2000001
0,06999993
0,04999993
0,19
-0,1200001
-0,02000012
0,2699994
0,02999933
-0,04000065
0,04999935
0,2099994
-0,03000067
0,02999933
-0,1600006
-0,2300006
0,2799999
0,1599999
-0,06000013
-0,2900001
-0,05000013
0,2799999
0,2499999
-0,1200001
0,07000002
0,14
-0,2899998
-0,01999974
-0,1000029
-0,2400021
0,2299979
-0,1802822
0,08971787
0,03971779
-0,2802834
0,009708336
-0,2608528
-0,02085249
-0,1108533
-0,05085341
-0,1008529
-0,09085291
-0,2608502
0,05915084
0,2391542
-0,2905656
-0,1905287
-0,2899631
-0,0799632
0,2400367
0,06003688
-0,2999634
-0,2699634
-0,1899632
-0,08996315
-0,1199631
-0,1599632
-0,1099633
0,2700364
-0,2500002
-0,1300001
-0,3000003
0,05999991
-0,04000009
0,03
-0,07
-0,19
0,22
-1,249192E-10
0,12
-0,28
-0,01
-0,03
0,28
0,09999999
-0,26
0,24
-0,11
-0,06000001
0,05999999
0,02999999
0,29
-0,25
-0,04000187
-0,01000186
0,2199982
-0,2100018
-0,02000187
-0,1700019
0,1299981
-0,1300019
0,1499981
-2,01363E-06
-0,1700002
-0,2200001
-0,1000002
0,1399999
0,06999982
-0,2700001
0,009999943
0,1899999
-0,1200001
-5,426879E-08
0,08999994
0,2099999
-0,23
0,01999994
-0,2600005
-6,70583E-07
-0,1300006
-0,06000065
0,2499994
0,2399994
-0,09000065
0,01999933
-0,1300006
0,2399999
-0,2000001
0,2599999
0,09999987
-0,1600001
0,13
0,09000003
0,16
-0,04999995
-0,13
0,2900009
-0,169999
0,1999979
-0,100002
-0,100002
-0,1402822
-0,1502822
0,2297177
0,1697168
-0,1602917
-0,02085244
-0,04085248
0,04914669
-0,08085331
-0,1108529
-0,2608531
0,2691498
0,2491508
-0,1108458
-0,08052876
0,1994713
-0,2099629
0,1100368
0,2000367
-0,04996312
0,04003679
0,1100368
-0,06996318
-0,1299632
-0,2499632
0,08003684
0,1400367
-0,1699633
0,02999996
-0,2200001
-0,1100001
-0,1700002
-0,2000002
0,2599998
-0,23
0,09
-0,29
0,04
-0,13
0,19
-0,02
0,04
0,03
-0,1
-0,21
0,16
0,13
-0,03000001
-0,27
-0,03000001
0,1899983
0,01999813
-0,3000017
0,2499982
0,1499982
0,04999801
0,2199981
0,05999801
0,109998
0,05999801
0,1399999
-0,1800002
-0,2900002
-0,1600001
-0,3000002
0,1999999
0,1699999
0,2899999
-0,1900001
0,1199999
0,1899999
0,03999994
-0,07000006
-0,2900001
0,2599999
0,2899999
-0,2300005
-0,2800005
-0,2300005
-0,1200006
0,2399995
-0,1400005
-0,2100005
-0,2400005
-0,1200006
0,16
-0,17
-0,16
-0,19
0,01999999
0,1700002
-0,04999983
0,2200001
0,1000002
-0,2599998
-0,149999
0,03000121
-0,110002
-0,110002
-0,120002
0,2897178
0,1397178
-0,1502823
-0,09028313
0,07970833
-0,1608533
-0,2108533
0,2791465
0,2791465
0,1591471
-0,03085292
0,1891501
-0,02084915
-0,08084587
0,1194712
-0,03052866
-0,2799631
0,2500365
0,2600364
-0,1699631
0,06003679
0,02003679
0,1800368
0,09003685
0,2500366
-0,06996316
0,1200367
0,1200367
0,2599998
0,1099999
-0,04000009
0,1799999
0,1199999
0,1899998
-0,11
-0,21
-0,29
0,18
-0,03
-0,27
0,07
-0,15
-0,14
-0,06000001
-0,26
0,27
0,26
-9,796064E-09
0,2799984
0,05999818
-0,1700017
0,06999817
-0,08000188
-0,2500018
0,109998
-0,030002
0,2599982
0,04999801
-0,04000199
-0,1600019
0,01999981
-0,04000019
-0,2900002
-0,13
-0,1
0,09
-0,24
0,09
-0,27
0,02999999
-0,04000001
-0,17
-0,02
0,23
0,05999999
-0,09000001
-0,1400005
-0,07000053
0,03999942
0,2699995
-0,04000058
-0,1800005
0,1399995
-0,1000001
-0,03000006
0,18
-0,05000006
0,06999999
-0,23
0,21
-0,1799999
-0,04999983
-0,07999985
-0,1799997
3,997892E-07
-0,189999
-0,1699989
0,279998
-0,260002
-0,06000181
0,2097179
-0,1302821
-0,04028216
-0,05028303
-0,2002917
0,2891465
-0,2108533
-0,01085333
-0,01085334
-0,1108529
-0,2008529
0,02915005
-0,2908494
-0,02084585
0,1694712
-0,1005287
0,110037
0,1100368
0,1900367
0,01003689
-0,1599632
-0,009963213
0,02003683
-0,1899632
-0,09996315
-0,2999634
0,2100368
-0,1499632
-0,08000011
-0,05000006
-0,2200001
-0,1300001
-0,1200001
-0,2100001
-0,24
-0,21
0,15
-0,11
-0,21
-0,02
0,08
0,25
-0,23
0,17
0,11
0,08
-0,06
0,24
-0,05000181
-0,2100017
-0,01000181
0,009998189
-0,2100017
0,01999806
-0,2000018
-0,09000194
0,1499982
-0,1600018
-0,2600001
-0,2000001
-0,2200001
0,2399999
-0,2400001
-0,26
-0,19
0,23
-0,16
0,21
-0,08000001
0,08
0,05
-0,08
0,01999999
-0,1
0,2199995
-0,1200005
-0,08000053
0,1399995
-6,008599E-07
0,1099994
0,04999942
0,2699995
0,1899995
-0,17
0,25
0,06999999
-0,22
0,16
0,29
0,14
-0,05999983
0,01000016
-0,1499999
0,2900003
-0,09999968
0,140001
0,1800011
-0,270002
0,05999819
0,179998
-0,06028209
0,02971796
0,009717973
0,1597169
0,03970842
-0,2308532
0,2791466
0,1791467
0,0891467
0,2091471
0,2891469
-0,3008502
0,1391508
-0,08084588
0,03947116
-0,2005287
-0,2599632
0,2300367
-0,2199633
0,03003689
0,14
-0,01999997
0,2100368
0,07003685
-0,1599632
-0,2599634
-0,2299632
0,0200368
0,2899998
-0,2200001
-8,03167E-08
-0,1100001
-0,2200001
0,1199999
-0,13
-0,28
-0,05
-0,27
0,08
0,18
0,08
-0,11
-0,24
-0,22
0,15
-0,07
0,16
0,22
-0,05000181
-0,2100017
0,08999819
0,2399982
0,2399982
-0,2800018
-0,2700018
0,2599982
0,1099981
0,2299982
0,01999987
-1,637761E-07
0,2899999
-0,05000013
0,1799999
0,00999999
-0,1
0,09999999
0,22
-0,29
-0,25
0,009999999
0,15
-0,29
-0,16
-0,1
0,2399995
-0,06000053
-0,09000053
0,1299995
0,2199995
0,1999995
-0,1300005
-0,1500005
-0,2300005
0,2
-0,02000005
0,05
-0,06
-0,25
0,07999999
-0,09000001
-0,09999985
0,01000016
1,746444E-07
-0,2199997
0,1800003
-0,179999
0,01000129
0,03999819
0,169998
-0,260002
0,009717973
0,1497176
0,1597176
0,2297167
-0,06029158
0,07914682
0,09914677
0,02914666
-0,2208533
0,07914715
0,03914711
0,2791498
-0,2908494
0,1091541
-0,1805288
0,1394713
-0,119963
0,2800364
-0,2699636
0,1500369
-0,15
0,16
-0,06996318
0,1400368
-0,1899632
-0,1699632
3,688842E-05
-0,2499632
0,00999996
0,1099999
0,2299999
0,1599999
0,2599998
0,1699999
-0,1100001
0,01999993
-0,02
-0,17
-0,05
0,19
0,25
0,21
0,27
0,29
0,17
-0,09
-1,81108E-06
0,1899983
0,2499983
-0,2600017
0,2399982
0,01999806
0,009998044
-0,2900017
0,1899982
0,1399982
-0,09000012
-0,2800001
0,1199999
-0,2000001
-0,2200001
0,03999999
-0,28
-0,04000001
0,15
0,17
-0,28
-0,17
-0,09000001
0,1
-0,14
-0,26
0,01999999
-0,17
0,1999995
-0,06000053
0,1899995
-0,07000058
0,2699995
0,1899995
0,1299995
0,09999942
-0,2000005
-0,03000005
0,16
-0,1
-0,15
0,24
0,28
0,05
-0,1999999
-0,04999983
0,01000017
-0,1599997
0,1100003
-0,09999888
0,1800011
-1,767356E-06
-0,160002
0,289998
-0,1102822
-0,1402824
-0,02028226
-0,1502833
0,1697084
0,1991468
0,2891465
-0,1208532
-0,1908533
-0,05085289
0,2391471
0,2791498
-0,2508129
0,2291909
-0,03052882
-0,03052872
-0,05996295
0,05003673
0,09003668
-0,05996311
0,01000002
-0,22
-0,1499632
0,1600368
3,688683E-05
0,2100368
0,03003686
-0,1299632
0,01999997
-0,01000004
0,04999992
-0,1100001
-0,2100001
0,2699998
-7,80008E-08
-0,04000009
-0,18
0,24
0,09
0,26
-0,1
0,27
0,12
0,02
0,1
-0,18
-0,1100018
0,06999818
0,1699983
-0,1700018
0,2599982
-0,1700018
0,1999982
0,1899982
-0,03000194
-0,2000018
-0,2900001
0,1099999
0,1399999
0,26
-0,13
0,12
0,15
0,11
0,19
0,04999999
0,18
-0,22
-0,07
-0,29
-0,15
-0,01
0,2599995
0,1299995
-0,2700005
0,03999947
-0,05000058
0,1199994
-0,2400005
-0,1200006
0,009999393
0,2499995
-4,234904E-08
-0,1100001
0,01999995
-0,08000001
-0,01000001
-0,11
-0,01000001
-0,11
-0,04999983
1,707238E-07
-0,2099998
0,1200003
0,09000032
0,08000112
-0,1899989
-0,300002
0,129998
-0,260002
-0,07028216
-0,2002824
-0,1602824
0,1597167
0,2697082
-0,03085322
-0,1308532
-0,2308528
0,1491472
0,2191472
0,1491472
-0,12085
0,04918759
-0,0408091
-0,06052881
-0,09052878
-0,189963
-0,03996327
-0,2199633
-0,02996317
-0,24
-0,01999997
0,09003682
-0,2599634
0,05003686
0,1400368
-0,1099631
-0,1699632
-0,26
-0,04999996
-0,07000013
-0,06000008
0,2899998
-0,2900002
0,2399998
-0,09000014
0,1
0,14
-0,09
-0,25
-0,25
-0,09
0,04
0,05999999
0,02999819
-0,2400017
0,2499983
0,1199982
-0,1200018
-0,1300018
-0,03000194
0,1399982
0,2099982
-0,1400018
0,2799999
0,2399999
0,009999853
-0,2000001
-0,2000001
-0,17
-0,23
-0,27
-0,28
-0,1
-0,01000001
-0,1
-0,12
0,03
0,02
-0,27
0,09999999
-0,03000001
-0,2500004
-0,2700005
-0,08000053
0,1399995
0,2399995
-0,2800005
-5,934728E-07
-0,0200006
0,1799995
0,05999942
0,25
0,16
0,27
0,07999999
0,01999999
0,13
-0,27
-0,3
0,1900001
1,693079E-07
0,03000016
-0,229999
0,280001
-0,289999
-0,1099988
-0,170002
-0,240002
-0,180002
0,1797169
-0,08028314
-0,2002832
-0,1602833
0,05970839
0,2891466
0,07914677
0,1791472
0,2391472
-0,1708528
0,289147
-0,02084996
0,08918766
0,1091909
-0,05052881
-0,0005287632
-0,219963
-0,1399633
-0,08000008
0,2
0,18
0,05000002
-0,009963172
0,01003686
-0,1699632
-0,1999632
0,2300368
0,2800366
-0,26
-0,09999997
-0,05000008
0,09999987
0,2499999
-0,1300001
0,09999987
-0,05000009
-0,05000009
0,1
-0,21
0,28
0,29
0,13
0,19
0,2
-0,3000017
-0,1000018
0,1999983
0,2199982
0,1199981
-0,03000194
0,2199982
-0,2800018
0,2099982
-0,1400018
-0,06000013
-0,1800001
0,2299999
0,08999999
-0,29
-0,04000001
-0,24
0,09999999
0,14
0,02999999
0,17
-0,12
0,01999999
-0,08
-0,3
0,29
-0,26
-0,02000055
-0,2400005
-0,06000053
0,1999995
-0,2600005
0,1599995
0,07999942
0,009999398
0,2199995
-0,1100001
-0,2900001
-0,1500001
0,05999999
-0,02000001
-0,08000001
0,19
0,09
0,22
-0,02000001
0,01000017
0,1600001
0,08000015
0,130001
0,210001
-0,1099989
0,290001
-0,150002
-0,280002
0,1099981
0,1697169
-0,02028302
0,209716
0,119716
-0,08029241
-0,0708532
0,2591465
-0,04085287
-0,05085283
-0,1108528
-0,04085204
-0,1508492
-0,2308124
-0,2208091
-0,2405288
-0,260529
-0,05996295
-0,2299633
-0,2600002
-0,04999995
-0,01000004
0,23
3,68345E-05
0,02003685
-0,02996315
-0,1199631
0,2000368
-0,0799632
0,0200368
0,01003681
-0,25
-6,563812E-08
0,05999991
0,1899998
-0,2600002
0,2099998
-0,2000002
0,02
-0,16
-0,25
-0,04
-0,07
-0,16
0,02
-0,2900016
-0,1400018
0,07999807
-1,950543E-06
0,05999807
0,1699982
0,2399982
0,2099982
-0,1900001
0,06999988
-0,1800001
0,2399999
0,2699999
-0,12
-0,15
-0,26
0,02999999
0,02999999
0,23
0,23
-0,16
0,26
0,08
-0,12
-0,27
-0,15
0,24
0,2199995
0,2299995
0,2899995
0,2799995
-0,2400005
0,07999942
0,2699995
0,009999398
-0,2000005
0,08999994
-0,1000001
0,16
0,15
0,06999999
-0,17
-0,11
0,28
0,05999999
-0,21
0,2300002
0,2100001
-0,1299998
-0,209999
0,01000124
0,2300011
-0,009998701
-0,1000019
-0,1200019
-0,250002
0,06971702
-0,1002831
-0,04028391
-0,09028401
0,2197076
-0,2808534
0,2791466
-0,1908528
0,08914722
-0,2408528
-0,1508153
-0,3008129
0,1691876
-0,2608093
-0,05052881
-0,1805292
0,1700366
-0,2199632
-0,14
-0,3
0,05999993
0,1
0,1100368
0,2300368
-0,07996316
-0,2799634
0,04003687
0,1300368
-0,0299632
-0,2599634
0,06000003
-0,1200001
0,07999986
-0,05000009
0,01999993
-0,1100001
0,2399998
-0,05
0,22
0,05
-0,15
-0,22
-0,1100018
-1,811359E-06
0,2399983
0,2199982
-0,2600017
-0,1800018
0,1399982
-0,1100019
-0,2400018
-0,09000194
-0,2600001
-0,1300001
-0,02000013
0,2699999
0,07999988
0,01999999
0,29
0,2
-0,03000001
-0,16
0,13
0,03999999
-0,01000001
0,27
-0,09
-0,09
0,01
-0,25
-0,12
-0,08000053
-0,1500005
0,09999947
0,1399995
-0,0200006
-0,1000006
-0,2000005
0,2899995
-0,0100006
0,27
-0,09000006
0,2899999
-0,22
0,28
-0,15
-0,16
-0,1
0,27
0,04
0,1000003
-0,08999969
-0,04999963
-0,279999
-0,2299989
-0,289999
-0,05999874
0,149998
-0,290002
0,259998
-0,0002828882
0,1297168
0,109716
0,07971592
-0,3002926
0,1391468
-0,2408532
-0,07085282
0,0291472
0,289147
0,06918478
-0,03081233
0,01918767
-0,01080914
0,2194712
-0,2505293
-0,1599634
0,04003682
0,05000005
-0,17
0,1299999
-0,3
-0,06999996
0,2600366
-0,04996317
0,2700366
0,2600366
-0,1799632
0,0300368
0,1200368
-0,26
0,03999992
-0,2100001
-0,2700002
0,2799998
-0,1700002
0,09999987
-0,1000001
-0,2200001
-0,16
-0,2100017
0,1999983
0,1699983
0,2699983
0,2699983
-0,1800018
0,1899982
0,2599982
-0,2000018
-0,2800018
0,1599982
0,1899982
-0,2100001
0,1699999
-0,1700001
-0,01000002
-0,1
0,14
-0,17
-0,27
0,18
0,24
0,2
0,2
0,25
-0,28
-0,12
-0,01
0,01
0,07999999
-0,05
0,2299995
-0,04000053
-0,09000053
-0,2600005
0,2199995
-0,1700005
-0,04000058
0,2899999
-0,1800001
-0,23
-0,3000001
-0,28
-8,250617E-09
0,25
-0,16
-0,05
-0,09000001
0,2000002
-0,01999984
0,2300003
0,2600003
-0,2299997
-0,2499989
-0,03999875
-0,1499989
-0,299999
0,269998
-0,280002
0,239998
0,2397169
-0,1102832
-0,06028398
0,009715971
0,06970759
0,2291468
-0,0708532
0,1791472
0,1291472
-0,1008528
-0,1408153
0,2291876
0,1391876
-0,2908093
0,2494712
0,1794709
0,2100366
-0,1099999
0,24
0,1100001
0,06999993
0,27
0,09000005
-0,2699634
0,1400368
-0,01996314
0,1600368
-0,08996315
0,2500366
0,1900368
0,22
-0,1400001
-0,06000008
-0,2500002
-0,1200001
0,1699999
0,04999991
-8,025916E-08
0,2299999
-0,28
0,1999983
0,05999819
0,07999818
-0,01000195
-0,1900018
0,2899982
-0,1900018
-0,2400018
-0,2100018
0,06999806
-0,07000194
0,1099981
-0,2800001
-0,1
-0,14
0,27
0,09999999
-0,09000001
0,16
-0,22
-0,24
-0,28
0,22
0,23
-0,02
-0,3
-0,01
0,09
0,13
-0,2300005
-0,1800005
-0,09000053
-0,05000058
0,2099995
0,1999995
-0,3000005
-0,1200006
-0,2100005
0,2099999
0,14
-0,13
0,09999994
-0,19
-0,13
-0,04
-0,2
-0,17
-0,27
0,1800002
-0,09999985
-0,2299997
-0,1599997
0,1300003
0,1500011
0,260001
0,1800011
0,1300011
0,149998
-0,2900021
-0,1900021
-0,0002828882
0,009716914
-0,08028399
-0,2802841
-0,05029244
-0,2908534
-0,1508532
-0,2008528
-0,0008527872
-0,150853
0,07918464
-0,0008123145
-0,0108123
-0,2908093
0,1994712
-0,0505292
0,2000366
0,05000005
-0,04000004
-0,13
0,1599999
-0,04
0,21
-0,07996318
0,2900366
0,2800366
0,07003685
0,09003685
0,2500366
-0,2899634
-0,14
0,03000001
-0,22
0,09999987
-0,1600001
0,1499999
-0,1300001
-0,2200001
0,2199998
-0,06000009
0,2499983
-0,2800018
0,01999806
0,01999806
0,1199981
0,05999807
0,1399982
0,1099981
0,2499982
-1,962229E-06
0,2699999
-0,22
-0,12
0,14
-0,06000001
-0,27
0,09999999
-0,3
-0,28
-0,03000001
-0,06000001
0,05999999
-0,15
-0,02
0,28
-0,26
-0,08
0,1899995
0,1699995
-0,2600004
-0,2300005
0,1099995
0,1299995
-0,2800005
-0,08000058
0,1399995
0,2399999
-0,1200001
0,08999995
-0,07000005
-0,17
0,25
0,14
-0,06
-0,27
-0,22
-0,15
-0,06
-0,1499999
-0,1899998
-0,2499997
-0,1299997
-0,2399997
-0,05999875
0,290001
-0,1099988
0,1600011
-0,270002
0,02999804
0,07999779
-0,1602833
0,2497168
0,239716
0,1997159
-0,08029245
-0,1508532
-0,05085323
-0,1508528
-0,08085281
0,09918383
-0,2108154
-0,09081235
-0,09081237
0,08919087
-0,1705288
-0,0105291
0,2100367
0,21
-0,06000004
0,1999999
0,1799999
0,28
0,03
0,05003683
0,2900366
0,2000368
0,05003687
-0,1199631
-0,2799634
-0,2799634
0,2700366
0,2
0,15
-0,2900002
-0,2200001
-0,1200001
-0,3000003
0,2399998
-0,2900019
0,1799981
0,1199982
0,2899982
-0,2800018
0,04999807
-0,2800018
0,1299982
0,2599982
-0,03000194
-0,1900001
-1,541553E-07
-0,03000013
0,25
0,07999998
0,12
0,19
-0,14
-0,09000001
-0,12
0,2
0,01999999
0,09999999
-0,23
-0,17
-0,11
0,12
-0,12
0,06
-0,1100005
-5,593996E-07
0,2499995
-0,02000056
0,2599995
0,1999995
0,05999942
-0,2200005
0,1799995
0,25
0,27
0,02999995
-0,14
0,24
-0,22
-0,24
0,009999992
0,05
-0,28
-0,18
-0,28
-0,1899998
0,2200001
0,260001
0,1100011
-0,259999
-0,009998701
-0,2299989
0,04000128
0,1600011
0,1199981
0,2299979
0,1299977
-0,2302833
0,05971686
0,2597124
-0,1402875
-0,2902926
0,009146806
-0,2608534
-0,290853
0,03914716
-0,3008166
-0,1008153
-0,06081242
0,1491875
0,03919086
0,0694712
0,0194342
-0,3
0,1100001
0,14
0,08999994
-0,2400001
0,04
-0,22
0,08003681
0,2800366
0,1600368
0,2200368
-0,08996315
-0,01996314
0,03003686
-0,2799634
-0,17
-0,26
0,2
-0,2200001
-0,1200001
-0,1900001
0,1999999
-0,01000189
-0,260002
0,269998
-0,200002
-0,03000194
-0,2000018
0,009998054
0,01999805
0,2599982
-1,962231E-06
0,2099999
0,04999987
0,02999987
-0,26
0,28
-0,17
0,06999999
0,01999999
-0,03000001
-0,13
-0,13
-0,16
0,07999999
0,13
0,02
-0,29
0,27
-0,23
-0,11
0,2399995
-0,05000053
-0,1100005
-0,1000005
-0,2000005
-0,1900005
0,09999943
0,1199994
0,2599995
-0,24
0,27
-0,24
-0,05000005
0,2
-0,08000001
-0,01000001
0,23
0,29
0,28
-0,16
0,2
-0,1799999
0,06000017
0,200001
0,230001
0,02000122
-0,1499989
-0,04999874
-0,1599989
0,07000118
-0,04000181
-0,1800021
-0,06000217
-0,1802841
-0,2902841
-0,2602877
0,00971259
-0,1502924
-0,07085279
0,2191472
-0,120816
0,009183981
0,1091839
-0,04081528
-0,0008124534
-0,1908125
0,2191909
-0,0605288
-0,1405657
-0,17
0,09000006
-0,2900001
0,29
0,22
-0,01
0,11
0,1900368
-0,009963172
-0,03996314
0,07003684
0,2600366
-0,1599632
-0,01996314
-0,1199632
0,1
0,14
0,12
-0,1800002
0,1799999
-0,1300001
0,2799998
0,06999805
0,05999798
-0,250002
0,259998
-0,1100019
0,009998045
-0,2000018
-0,1000019
0,1199981
0,09999806
0,1999999
-0,21
-0,3
0,27
-0,06000001
-0,18
0,00999999
0,13
-0,11
-0,15
-0,28
0,19
0,15
0,26
-0,27
-0,27
-0,08
0,1499995
0,1499995
-0,01000057
0,08999947
0,05999947
0,2799996
-0,1500005
-0,2800005
-0,05000058
0,2399999
0,2599999
-0,21
-0,2
0,08999995
-0,21
0,13
0,26
-0,24
-0,25
-0,03000001
-0,1
-0,14
0,00999999
-0,1999999
-0,01999984
-0,01999878
-0,289999
0,250001
0,1700011
0,2000011
-0,2199989
0,2200011
-0,140002
-0,2100029
-0,06000295
0,03971595
-0,1702841
-0,2902877
-0,1602875
-0,2002924
0,1391472
0,2491472
0,2891836
-0,120816
0,03918393
0,03918472
-0,2108124
0,05918755
0,2291909
-0,2505291
0,1794343
0,2
0,27
0,04999996
-0,29
-0,01
-0,17
-0,12
-0,2
-0,23
0,2700366
-0,09996316
-0,1599632
0,04003687
0,1600368
-0,2599634
0,2300001
-0,3
-0,16
0,03999992
-8,42001E-08
0,2499981
0,2199981
0,2499981
0,1199979
-0,05000202
-0,140002
-0,1700018
0,04999807
0,2399982
-0,1200019
-0,05000013
-0,2900001
0,1099999
-0,29
-0,12
0,24
0,09999999
-0,23
0,25
-0,1
0,24
0,2
-0,24
-0,17
-0,06
0,1
-0,06
0,01
-7,713759E-09
0,09999948
-0,2200005
-0,08000053
-0,1200005
0,04999947
0,2299995
0,2699995
-0,2800005
0,2299995
0,04999994
-0,1800001
0,2899999
0,13
-0,14
0,19
0,01999999
-0,12
0,01999999
0,01999999
-0,03000001
-0,21
-0,18
0,23
-0,1099999
-0,1699999
0,06000121
-0,249999
0,160001
0,1200012
-0,1299989
0,1500011
0,2100011
0,1099981
-0,250003
-0,1700031
-0,2102841
-0,2802841
0,1197126
-0,2402875
-0,2202924
-0,1008528
0,2191472
0,1691847
0,009184661
0,1191847
-0,1008153
-0,1908091
0,03919094
-0,1408094
0,1094709
-0,2405657
-0,23
0,22
-0,2600001
-0,09
-0,02
-0,15
-0,28
-0,25
0,29
0,1700368
-0,1899632
-0,09996315
0,05003687
0,2000368
-0,09996316
-0,1299999
0,08000003
-0,28
0,09
-0,01
0,0499981
-0,04000202
-0,07000208
-0,240002
-0,140002
-0,05000202
-0,09000207
0,05999798
0,2299999
-0,05000013
0,009999853
-0,01000002
-0,29
-0,19
0,06999999
0,29
0,06999999
0,13
0,15
0,24
0,29
0,06999999
-0,23
-0,09
-0,22
0,02
-0,19
0,11
-0,09000001
-0,2800004
0,01999944
0,009999434
0,05999947
-0,1900005
-6,004944E-07
0,1099994
-0,02000005
0,27
-0,2600001
-0,2800001
0,2399999
-0,04000005
-0,19
0,04
-0,14
0,12
-0,12
-0,07000001
-0,18
-0,1
0,09999999
0,24
-0,1399999
0,1500002
-0,009998766
0,280001
-0,1099989
-0,279999
0,270001
0,1400011
-0,1599989
0,08999813
-0,1600029
0,1999969
0,2197159
0,2897159
0,2197125
0,1897125
0,1097076
0,259147
0,009147217
0,08918488
0,08918475
0,1291846
0,2891842
0,02919089
-0,05080905
0,02919053
-0,2605659
-0,0405658
-0,17
0,1699999
-0,01000006
-0,3
-0,08
0,08
-0,16
0,21
0,12
0,02003682
-0,07996316
-0,04996315
-0,2999634
-0,1099631
0,1800368
-0,1599632
-0,1899632
-0,09
0,11
-0,1300001
0,199998
-0,01000203
0,1199979
-0,150002
0,189998
-0,300002
-0,150002
0,02999799
0,1499999
0,2499999
0,01999987
0,16
0,28
0,009999981
0,00999999
-0,04000001
-0,2
-0,17
-0,03000001
-0,17
0,14
-0,29
-0,24
-0,21
0,04
-0,24
0,09
-0,11
0,24
0,1499995
-0,08000053
-0,2700005
0,2099995
0,1699995
0,05999942
0,1299995
-0,2500001
-0,17
-0,19
-0,09000006
-0,07000005
0,1099999
-0,25
0,17
0,29
0,05
-0,04
-0,02000001
0,18
-0,09000001
-0,2699999
0,2700002
0,2400003
-0,01999963
0,02000126
0,1900011
-0,07999885
0,02000129
0,1100012
0,1200012
-0,08999881
0,249998
0,07999714
-0,3000031
0,02971596
-0,02028404
0,2397126
-0,1902875
0,2497076
0,1691472
-0,09081604
0,2691845
-0,2808158
-0,2408154
0,1991846
-0,2708093
0,249191
-0,1108095
-0,2105657
0,2794343
0,09999996
-0,2
-2,073498E-09
0,02
0,12
-0,06
-0,21
-0,08
-0,16
0,1600368
-0,08996317
0,02003685
0,01003686
-0,009963126
-0,2999634
-0,01996314
-0,2799634
-0,25
-0,1700017
0,009998051
0,1099981
-0,150002
0,02999798
-0,290002
-0,300002
-0,250002
0,249998
0,179998
0,07999974
-0,01000002
0,23
-0,27
-0,07000001
0,12
-0,28
-0,19
-0,06000001
-0,25
-0,12
-0,21
-0,12
0,02
0,26
-0,22
-0,04
0,18
-0,04
0,01999945
-0,2400005
-0,08000053
-0,2900004
0,1999995
-0,2500005
0,07999942
-0,1300005
-0,06000058
0,05999994
-0,01000005
0,01999995
0,05999995
-0,02
-0,09
0,14
0,15
0,23
-0,13
-0,21
0,18
-0,03000001
0,18
-0,2699999
0,2600001
0,1700003
-0,2599997
-0,1799989
-0,2099989
-0,1199988
-0,04999874
0,05000126
-0,1799989
0,0900012
-0,08000188
0,1099971
-0,1400031
-0,03028404
-0,2702841
0,2697123
0,1397125
-0,0502925
0,06914712
0,03918377
0,2491846
0,02918463
0,1091847
0,09918465
0,2591907
0,1691542
-0,1908462
-0,1605658
-0,2205658
0,08999996
0,07
-0,25
-0,13
-0,12
-0,25
-0,28
-0,29
-0,05
-0,22
-0,2399999
-0,1999632
0,2300368
-0,1099631
0,2600366
-0,2499632
0,09003685
-0,01996317
-0,1299649
0,1899982
-0,1100019
-0,06000203
-0,07000208
0,199998
-0,160002
-0,220002
-0,08000025
-0,2500004
-0,06000021
-0,15
-0,09000002
-0,24
-0,2
-0,03000001
0,01999999
-0,28
-0,13
-0,06000001
0,27
-0,08
-0,3
0,26
-0,12
-0,14
-3,336069E-10
-0,07
-0,29
-0,1600005
0,1399995
0,03999947
-0,1400005
-0,1100006
0,2399995
-0,05000058
0,1799995
-0,16
-0,17
-0,1500001
-0,2800001
-0,21
0,12
0,27
0,07
-0,2
0,16
0,29
-0,3
-0,04
0,16
0,24
0,1800002
-0,1499999
1,234254E-06
0,240001
0,1800011
-0,06999884
-0,2499989
-0,2399989
-0,1099988
0,200001
-0,239999
-0,2200021
-0,1000029
0,1899969
0,2797159
-0,2802841
-0,1802875
0,1497125
0,07974428
-0,1308161
0,1791837
-0,2808158
-0,08081537
0,1691846
0,09918466
-0,2708093
-0,1108458
-0,2208462
-0,01056591
-0,0005659009
-0,07000005
0,04
-0,03
0,2
0,16
-0,29
0,18
0,29
0,06
-0,05
-0,21
-0,2299632
0,2500366
-0,1899631
-0,2799633
0,04003696
0,06003515
0,1700351
-0,189965
0,1399982
0,1699982
-0,160002
0,179998
-0,01000204
-0,240002
0,149998
0,2199998
0,1199999
-0,1600001
0,14
-0,27
0,26
0,05999999
0,18
-0,03000001
0,01999999
0,11
-1,140916E-08
-0,27
0,26
-0,17
-0,17
-0,22
-0,18
-0,22
0,11
-0,2400005
-0,2000005
0,1399995
-0,2500004
-0,03000056
0,0199994
0,2699995
0,1499995
0,1299995
-0,22
0,16
0,2799999
0,14
-0,3000001
-0,21
-0,25
0,14
0,21
-0,08000001
-0,18
-1,149392E-08
-0,24
0,13
-8,580587E-09
0,2300002
-0,2399998
0,130001
-0,159999
1,282092E-06
0,03000128
-0,2399989
0,05000127
-0,09999882
-0,05999889
0,08000104
0,1099978
0,2699969
-0,2200031
-0,130284
0,009716003
0,2897074
0,2097076
-0,2502561
-0,1108161
0,1491838
0,1191847
0,1491846
-0,2808158
0,1691846
-0,2308091
-0,0108458
-0,1408462
0,199154
0,259154
-0,2002803
-0,3
-0,04
-0,16
-0,18
-0,1
0,18
0,13
-0,16
-0,21
-0,28
-0,1999632
0,07003679
-0,1099631
-0,08996306
-0,02996304
-0,2199648
0,05003503
0,03003489
0,1999982
-0,1800018
0,08999807
-0,2900017
-0,06000202
0,149998
-0,200002
-0,1000003
0,1099999
-0,0400001
-0,08000014
-0,2600002
0,19
0,15
-0,06000001
-0,16
0,07999999
-0,15
0,13
0,26
0,27
0,13
-0,14
0,06
0,25
-0,14
0,04
-0,2500004
-0,04000053
0,09999947
-0,1000006
0,2899995
0,2299995
0,1199994
0,2899995
0,1299995
0,009999954
0,2799999
-0,2900001
-0,02
-0,28
-0,3
-0,23
-0,14
0,22
-0,26
-0,18
-0,05
-0,17
-0,25
0,13
-0,1799999
-0,05999983
0,09000111
0,06000121
-0,2299989
0,260001
-0,269999
-0,2499989
-0,2199989
-0,199999
-0,249999
0,2399977
-0,3000038
-0,2400038
-0,08028404
-0,1902841
-0,2402925
0,1497079
0,09974468
0,1191839
0,08918384
-0,1708154
-0,1608154
0,2391846
0,2691842
0,04919086
-0,3008456
0,139154
0,199154
-0,270846
-0,2102803
0,21
-0,1
0,27
-0,22
0,04
-0,16
-0,24
0,2200004
0,1700004
-0,01999956
0,2300005
0,2300373
-0,1199627
0,2700367
-0,2499631
-0,2299648
-0,2099649
-0,00996511
0,230035
-0,2400018
0,08999807
0,01999807
-0,08000207
-0,270002
0,279998
-0,2100002
0,1399998
0,08999986
0,009999912
0,2499998
-0,1100001
-0,16
-0,26
-0,3
-0,17
0,03999999
-0,28
0,28
0,17
0,26
-0,3
0,23
0,23
-0,16
0,16
-0,1100005
0,2599995
0,2699996
0,2099995
-0,0200006
0,1999995
-0,1600005
0,2699995
0,2699995
-0,01000004
-0,12
0,27
0,24
-0,21
-0,05
-0,01
-0,04
-0,1
0,21
-0,21
0,07999999
0,19
-0,13
0,13
0,01000016
-0,2599998
-0,1899989
0,1100011
0,260001
-0,2399989
0,1600011
0,09000119
-0,2299989
-0,129999
0,09000109
-0,1700023
0,1699961
0,1799961
-0,2700039
-0,2500039
-0,2599758
-0,1299751
-0,2402554
0,009183902
0,2391838
0,05918462
-0,2208154
0,1891846
-0,08085212
-0,03084583
0,03915417
0,01915381
-0,290846
-0,250846
-0,2202803
-0,01
0,08
-0,17
-0,1
-0,07
0,08000039
0,03000042
-0,2999996
0,2100004
0,1200004
0,0900005
0,1900005
0,06000052
-0,009964484
-0,1899645
0,110035
0,08003501
-0,1299649
0,1500351
-0,2599651
-0,09996512
0,1199981
0,1599982
0,1899998
0,2399998
0,2599998
-0,08000015
-0,1200001
-0,01000009
0,009999912
-0,1600002
0,06999999
-0,28
-0,21
-0,21
0,04999999
0,04
-0,03
0,09
-0,04
-1,147013E-10
-0,13
-0,15
0,1799995
-0,1600005
0,1599995
0,009999434
-0,1100005
-0,1900005
0,1499995
0,2499995
-0,1600005
-0,14
-0,3000001
0,17
0,16
0,21
-0,07
-0,05
-0,03
-0,14
-0,15
-4,717969E-09
-0,11
-0,02000001
-0,29
0,1700002
-0,02999984
-0,1099999
0,05000017
-0,2299999
-0,1999989
0,08000115
-0,1099988
0,04000126
-0,269999
-0,0299987
0,280001
0,04000118
-0,219999
-0,0600022
-0,280004
-0,2400039
0,1299962
0,05999605
0,290024
-0,08997513
-0,2902558
-0,09081617
-0,07081616
0,1291846
-0,2008154
-0,2808158
-0,1908522
-0,200846
-0,1508461
0,1591589
0,2491589
-0,1008411
-0,1802803
0,28
-0,27
0,29
0,06
0,08
0,1500004
0,0600004
0,2700004
-0,0399996
0,1300004
-0,1099995
0,2300005
0,1800004
-0,1299645
-0,2799647
-0,1699649
-0,2199649
0,1700351
0,1300351
-0,01996501
0,100035
0,160035
-0,2500017
0,2599999
0,21
0,2599998
-0,2300002
-0,0400001
-0,2200002
-0,1100001
-0,1300002
0,01999992
0,07999986
-0,09000001
-0,21
-0,1
-0,28
-2,446327E-09
-0,25
0,2
-0,07
-0,06
0,05
0,07999948
-0,2600004
0,1999995
-0,08000058
0,1499995
-0,2100005
0,2599995
-0,2400005
0,2899995
-0,1800001
0,2099999
0,01999995
-0,18
0,28
-0,27
0,14
0,12
0,07
-0,21
0,18
-0,23
-0,04
0,16
-0,1499999
-0,03999983
-0,2299999
0,1100001
-0,1999999
0,08000115
0,1100012
0,2300011
-0,2499989
-0,1399989
-0,1899989
-0,02999864
0,220001
-0,29
0,03999695
-0,08000395
-0,1300039
-0,1800039
-0,1799673
-0,1305364
-0,1105359
0,1591838
0,1891838
0,2691833
-0,08081534
0,2891842
0,1491481
-0,08085192
-0,1808461
-0,1708461
0,05915885
-0,03084106
-0,1908411
-0,1302803
0,04
0,25
0,08
-0,03
0,15
-0,02999958
-0,1299996
-0,1099996
0,1500004
-0,1399996
-0,2899996
4,523104E-07
-0,1999996
0,1199986
-0,2199645
-0,1499645
0,2200355
0,05003503
0,2400351
-0,2099649
-0,02996501
-0,01996511
0,06999823
-0,2
-0,12
-0,2000002
0,2199998
-0,1100001
0,09999987
0,2099998
0,08999986
0,1299998
-0,1500002
0,04999999
-0,04
0,08
0,14
0,19
-0,03
0,14
-0,3
-0,3000005
-0,2900004
0,02999944
0,2499995
0,2199995
0,1899995
-0,2700005
-0,1700005
0,2599995
-0,09000006
-0,2900001
0,02999995
-0,2800001
0,19
-0,24
-0,13
-0,02
-0,22
0,04
0,05
0,27
0,08
0,23
0,05999999
-0,12
-0,1599998
0,04000017
-0,1399999
-0,009998984
0,01000102
-0,279999
-0,2199989
-0,2099989
-0,2199989
-0,03999873
-0,0299987
-0,269999
-0,159999
-0,03999968
-0,09000313
0,189996
-0,2499672
0,1400329
3,329051E-05
0,07946409
-0,2105359
-0,1708162
0,1491846
-0,1008153
-0,1008154
-0,1408154
0,09914816
0,2191481
-0,2108461
-0,280846
-0,08084111
-0,2308411
0,2691589
0,06971972
0,07
-0,15
0,16
0,14
-0,05
-0,12
0,22
-0,06999961
0,2300004
-0,06999961
0,0900004
-0,1599996
-0,1699997
0,1199985
-0,1700013
0,1499987
0,2200355
0,2300355
-0,0699646
0,270035
-0,2199649
-0,2899634
0,1800369
0,2600366
-0,2199632
-0,1599632
-0,09
-0,1500002
-0,3000003
-0,2400002
-0,2600002
-0,1100001
-0,2400002
0,0599999
0,19
-0,24
-0,28
-0,09
-0,12
-0,19
0,15
0,1599995
-0,1100005
-0,08000053
0,09999947
-0,2400005
-0,2800005
0,2799995
0,08999943
-0,07000057
-0,21
-0,02000005
0,14
0,2899999
-0,02000005
0,06
-0,04
0,2
0,05
-0,2
0,27
0,06999999
-0,07000001
0,16
-0,11
-0,11
-0,2299999
0,06000017
0,2300002
-0,2299991
0,1300009
0,01000129
0,05000128
-0,1899989
-0,1899989
-0,07999885
0,110001
-0,04999891
-0,1499991
-0,29
-0,1800032
-0,07000397
0,06003283
0,06003292
0,2600329
0,0494641
0,0494641
-0,2308162
-0,2208154
-0,1808154
0,08914795
-0,1908519
0,149148
-0,220852
-0,1608461
-0,2208461
-0,08028033
0,01971974
-0,2702803
-0,09028028
0,29
-0,05
-0,25
0,01
0,1
0,08
0,23
0,02
0,17
-0,2399996
0,2400003
-0,3000014
0,04999847
0,02999849
0,2799987
0,03999858
-0,3000013
0,1599987
0,2000355
0,1300355
0,1400356
-0,2999633
-0,01996307
0,1000369
-0,02996307
0,01003684
0,1500368
-0,04000008
0,2599998
-0,2700002
0,2899998
-0,2200002
-0,08000012
0,2399998
-0,2800002
0,1599998
-0,1300001
-0,2600002
0,26
-0,13
0,11
-0,2800004
-0,1100005
-0,2900004
-0,1300005
0,08999947
0,05999942
-0,1800005
-0,2000005
0,09999943
-0,22
0,05999994
0,1199999
-0,1100001
0,07
0,29
0,27
-0,05
-0,26
-0,22
0,23
-0,04
0,05
0,14
-0,24
0,16
0,08000015
0,1000002
0,01000017
-0,189999
-0,1399989
0,250001
0,1900011
0,02000129
-0,289999
0,1100011
0,100001
-0,03999891
-0,07999977
0,1799994
0,239996
0,03003277
-0,1399674
-0,1399672
0,2500329
-0,07053588
-0,0505359
-0,2808166
-0,1308153
-0,2708524
0,1891479
0,2191481
-0,3008525
0,1791476
-0,06084619
-0,1508461
-0,03028035
0,04971974
0,2397197
0,009719742
-0,3
0,25
0,1
0,28
-0,07
-0,18
0,16
-0,2
-0,13
0,25
-0,1200001
-1,536472E-06
-0,2700014
-0,1500014
-0,1700013
-0,1100014
-0,2100013
-0,1100014
0,1900354
0,1300355
-0,09996449
0,05003736
-0,06996268
-0,02996263
-0,0799627
-0,05996316
0,2500366
-0,29
-0,2300001
0,1599998
-0,1600001
-0,2600002
0,009999922
0,1999999
0,1699999
0,2799998
0,2199998
-0,1200001
0,2199998
0,1199993
0,05999938
-0,1500005
0,1499995
-0,09000053
0,1499995
-0,1200006
0,1899995
0,1499995
0,03999994
-0,2600001
-0,2500001
-0,23
0,16
-0,19
-0,2
-0,05
0,02
-0,17
0,06
0,29
-0,14
0,14
-0,28
0,009999996
0,11
-0,17
0,2800001
-0,1799999
-0,02999984
-0,159999
-0,02999873
0,2100011
-0,03999874
-0,2399989
-0,2399989
-0,2499989
0,2000009
-0,2899992
0,1200001
-0,270001
0,04999603
-0,1999674
-0,02996683
-0,2799671
0,1000332
-0,2405359
-0,1205358
-0,1008161
0,08918472
-0,08085192
-0,04085203
0,08914806
0,1091476
0,2291476
-0,05084619
0,2191539
-0,1802803
-0,1702803
0,08971973
0,009719742
-0,1
0,06
-0,13
-0,1
0,07
-0,16
0,1
0,1
-0,2600001
-0,2500001
0,04999987
0,009998051
0,009998051
0,02999848
-0,07000153
-0,2400013
-0,1300013
-0,3000013
0,1999988
0,05003549
0,2500354
0,08003732
0,02003738
-0,2499627
0,1800373
0,1800373
-0,2099628
0,03003682
0,1000368
-0,1599632
0,2200366
0,06003669
-0,08996336
-0,1999634
0,1199999
0,2799998
0,2199998
-0,2400006
-0,05000061
-0,04000061
-0,05000062
0,07999934
-0,1500006
0,03999938
0,1699995
0,2399995
-0,2300005
-0,2200005
-0,01000005
-0,1100001
0,03999995
-0,1800001
-0,07000005
-0,2600001
0,06
0,1199999
-0,2600001
-0,1800001
0,009999931
0,1899999
-0,2600001
-0,2300001
0,2899999
0,1999999
-0,1800001
0,2799999
-0,2099999
-0,09999987
0,2000002
-0,04999875
-0,1599989
-0,1999989
0,05000119
-0,06999896
-0,2099991
-0,139999
-0,07999909
0,2700372
-0,1199633
0,2300358
0,1000331
-0,2899672
-0,2699672
-0,08996669
0,09003331
0,09946419
-0,1805359
-0,1408162
0,03918477
-0,3008521
0,2391479
0,09914796
0,04914755
0,04914756
-0,08084613
-0,1208461
0,07971967
-0,05028027
-0,08028027
0,1797197
0,14
0,17
-0,13
-0,26
-0,26
-0,06
0,07
0,29
0,2499999
-0,1100019
-0,1100019
-0,2400018
0,2399982
0,07999847
-0,2200014
-0,2800014
-0,2700014
0,07999859
-0,2000012
0,01000057
0,1500005
0,2300373
0,1500373
0,1900373
3,74167E-05
0,04003736
0,05003735
0,2900367
-0,2899634
0,2100368
0,07003669
0,2600364
0,05003669
-0,009963299
-0,2199634
0,2200366
0,1400366
0,2900359
-0,1399639
-0,1500006
-0,2700007
-0,1800006
-0,09000067
-0,1600006
0,09999947
0,1699995
0,15
0,2599999
-0,03000006
-0,1000001
-0,16
-0,3000001
-0,1500001
0,2
-0,28
0,2099999
-0,2800001
-0,03000006
0,02999994
-6,482819E-08
0,1799999
0,07999993
0,2799999
-0,26
0,12
-0,07000002
1,917935E-07
-0,05999983
-0,009999773
-0,1399989
-0,1199988
-0,259999
-0,08996221
0,2400377
-0,019962
0,02003802
0,01003788
0,0100378
-0,2099634
0,1300358
0,1800331
0,08003313
0,01003328
0,10003
0,06003001
0,06946418
0,1094642
0,1491471
-0,03085199
-0,140852
0,199148
-0,140852
-0,04085245
0,1591476
-0,03084622
-0,05084619
-0,1602803
-0,1302803
0,01971974
-0,1302803
-0,14
-0,09
-0,03
-0,2
-0,28
-0,2
0,07999989
-0,1000001
-0,09000012
-0,01000196
-0,1000019
0,009998043
-0,1200019
0,1999982
0,1199981
-0,2100014
-0,2400013
-0,1300013
-0,03000137
-0,2499995
0,1100005
0,1500005
0,2700371
-0,1799628
-0,04996271
-0,2899629
0,07003732
0,05003735
-0,02996262
-0,2699629
-0,1199628
-0,1599632
0,2800366
0,2100367
-0,0399633
-0,0399633
-0,1899634
-0,09996388
0,08003611
-0,03996385
0,2800359
-0,09996387
-0,06996387
0,2700359
0,2600358
-0,1100008
0,2699997
0,04999981
-0,2600001
-0,1300001
-0,1200001
0,2600365
0,1900367
-0,04000005
0,04999996
-4,493223E-08
-0,06000004
-0,16
0,15
-0,3
0,02000001
-0,28
0,22
-0,12
-0,1999998
-0,2499998
0,02003775
-0,03996228
-0,05996224
-0,1499623
0,2800373
0,1500377
0,08003781
-0,2899626
-0,2399623
-0,08996214
-0,07996188
0,2900377
-0,1399629
-0,2399637
-0,2699671
-0,2799671
0,01003324
-0,1999701
0,1400299
-0,0805726
-0,05057253
0,009147244
-0,140852
0,249148
-0,2808526
0,2691474
0,04914755
0,07914765
0,2291539
0,259154
-0,03028035
-0,2502803
0,1597197
0,2097197
0,16
0,01
-0,19
0,18
-0,11
0,02
-0,1300001
0,1799982
-0,1000019
-0,1600018
-0,2200018
-0,06000194
0,2799982
0,07999808
0,2599982
-1,946228E-06
-1,814181E-06
0,12
0,03
0,1800004
0,1000004
-0,2999995
-0,1999995
-0,01999945
-0,1799995
-0,2899995
-0,2099627
-0,2999629
-0,2199627
-0,2099627
0,2300373
-0,1299627
-0,1799628
-0,05996273
-0,1099628
0,02003629
0,2000361
0,1300361
0,2100361
-0,1799639
-0,2599641
0,06003612
-0,1899639
-0,2799642
0,1600361
0,08003653
0,2900362
0,2700363
0,1200365
-0,07996346
-0,04996342
0,1500365
0,01003664
0,2800363
-0,1999634
0,1600366
-0,09996337
0,1300366
0,06003679
-0,1299634
-0,06996297
-0,129963
0,09003705
-0,199963
-0,0999628
0,2100372
-0,1899621
0,03003817
-0,1199619
-0,06996171
0,1000383
0,1700382
0,2100382
-0,08996174
0,1400381
-0,2699622
0,1900381
-0,2199619
0,1100372
0,04003644
-0,2899671
-0,1799669
-0,1299669
0,1500299
0,1399933
-0,2205725
0,1494275
-0,1608528
-0,1608524
0,02914746
-0,1908524
-0,2308491
-0,240849
0,02915086
0,1791539
0,1591539
0,2697197
-0,3002803
0,1097197
0,2497197
-0,04
-0,04
0,08
-0,12
0,12
0,08
0,2299999
-0,2000018
-0,1700018
-0,2300018
0,2699983
-0,1800018
-0,2900017
-0,2800018
-0,1500018
-0,2000019
0,2899983
0,2399999
-0,04000007
-0,1800001
-0,2500001
0,2600003
-0,1199996
0,1500004
-0,1899996
0,02000048
0,1000005
-0,1199995
0,02000054
0,2700005
-0,2399995
0,1800005
-0,0399627
0,1600372
-0,2299628
0,05003678
0,03003677
0,2900366
-0,2799634
-0,2399634
-0,1599634
0,05003664
-0,2899637
-0,2399634
0,05003664
0,2900367
-0,2399629
-0,2599632
-0,1299629
0,08003709
0,1600371
-0,2799632
0,03003726
-0,01996274
0,1900371
3,729765E-05
-0,2299629
0,2300371
-0,2399629
-0,2099629
0,2700368
0,05003722
0,08003714
-0,1399629
-0,2999631
-0,2099627
0,150038
-0,1599618
0,2500378
0,1000383
0,07003832
-0,2999622
0,2100382
-0,09996167
0,2700379
3,857877E-05
0,250037
-0,1799627
-0,2099628
-0,1799637
-0,03996681
0,05999648
-0,3000035
0,2399932
-0,2000068
-0,2705727
-0,160573
0,2791466
0,2591474
0,05914747
-0,02085254
0,08915087
0,219151
0,229151
-0,2208461
0,08915387
0,2697197
0,1397197
-0,2502803
-0,04028027
-0,17
0,21
-0,22
0,07
-0,3
0,1499982
-0,1900018
-0,1700018
-1,964143E-06
-0,1100019
0,03999806
0,2499982
0,1399982
0,2399981
0,1199981
-0,1000019
0,03999811
0,1299999
-0,2500001
0,27
0,2399999
0,1699999
-0,1200001
-0,1200001
-0,1900001
0,2700004
-0,2199996
0,2700005
-0,1899995
-0,1199995
0,03000054
-0,1999995
-0,2399995
0,1200005
0,29
0,05
-0,03
-0,06996325
0,2300368
-0,05996322
0,2200368
-0,2899635
-0,02996334
0,07003709
-0,2799633
0,0300372
0,2500367
0,2800367
-0,1999629
0,1800371
-0,2499629
-0,1699629
0,09003715
-0,2199629
0,02003726
-0,04996279
0,03003726
0,2000371
-0,03996278
-0,2699632
0,07003721
-0,1699628
-0,2899631
-0,1799628
0,1600373
-0,06996264
0,1800381
-0,2899621
0,2400382
-0,2299618
0,2200382
-0,1999618
0,2000382
0,1000382
-0,2499619
0,2300382
-0,1099993
0,1000007
-0,1399995
0,06999969
-0,2800035
-0,2000035
0,1699915
-0,07001171
-0,1700121
-0,100573
0,009426964
0,2691466
-0,2008525
0,02914746
-0,2808526
0,06915087
0,2691511
0,189151
0,1691539
0,07915387
0,2897197
-0,1502803
0,2097197
0,07971972
0,14
0,23
-0,27
-0,27
0,25
0,2399982
-0,08000194
0,2899982
-0,2800018
0,07999806
-0,2500018
0,2199981
0,03999799
0,1799981
-0,2900017
-0,04000008
-0,04000008
0,07999992
0,2899999
-0,04000007
0,2199999
0,2099999
0,1999999
-0,1000001
-0,2500001
-0,15
-0,17
-0,29
0,22
-0,03999954
0,2300005
-0,2599995
0,1900005
0,07000051
0,23
-0,22
-0,23
0,1300368
-0,02996323
-0,1199633
0,2700365
0,02003672
0,2400367
0,02003727
-0,02996273
-0,2099628
-0,279963
-0,2099629
0,1800371
-0,08996281
-0,1899629
-0,08996281
-0,1399629
-0,05996274
0,1500371
0,2300371
-0,2699631
0,1200372
0,2800369
0,1000372
0,1100372
-0,08996283
-0,2399629
0,06003726
0,1400373
-0,289963
-0,2799623
0,2600378
0,2500378
0,2200383
-0,1099616
0,1300383
-0,1999617
0,1000383
-0,01996158
-0,09996171
0,2600006
-0,1199993
0,2300005
0,2499997
-0,1800038
-0,2600037
-0,1800088
-0,0005729382
-0,1605729
0,01942696
0,179427
-0,06085331
0,2191475
0,2891474
-0,2508526
-0,0608492
0,149151
0,1691511
0,06915392
0,05915388
-0,05028027
-0,1202803
0,1697197
-0,04028027
-0,24
-0,24
-0,16
0,26
-0,28
-0,02
-0,2000001
0,05999807
0,2599982
-0,06000194
0,2699983
0,1399981
0,1899982
-0,2800001
-0,03000008
0,06999993
-0,2100001
0,04999992
-0,09000008
-0,1800001
-0,1700001
0,07999994
-0,2600001
0,2499999
0,1699999
0,2399999
0,28
-0,07999995
-0,28
0,2200004
0,2400004
0,07000046
0,01000051
-0,03999948
0,19
-0,24
0,19
-0,14
-0,01999999
0,16
-0,09000007
-0,19
-0,02000003
-0,02996272
-0,279963
-0,09996278
0,05003725
0,1200371
-0,1099629
-0,2999631
-0,0299627
0,1900371
0,2700369
0,04003726
-0,1799629
-0,0199627
-0,2799631
-0,1199628
-0,2199629
-0,2199629
3,732658E-05
0,1800371
0,03003724
-0,2599632
-0,009962354
-0,1099625
-0,1699619
-0,07996173
-0,1699619
-0,08999837
0,1700015
0,2200016
-0,2299984
0,04000159
0,2000014
-0,2899986
-0,2099995
0,06000055
0,2200005
-0,04000036
-0,1200038
-0,1500038
-0,2700088
-0,2805696
-0,05056973
-0,2505732
0,08942702
0,2591465
-0,1608524
-0,1008524
-0,2708526
-0,0008492225
-0,230849
-0,100849
-0,150846
0,02915387
0,07971972
-0,06028027
0,2697197
0,1197197
-0,23
-0,17
-0,02
0,28
-0,17
0,04
0,1199999
-0,08000194
0,1399982
-0,1900018
-0,1200019
-0,05000194
-0,04000181
0,1099999
0,1899999
-0,1500001
0,1399999
0,009999924
0,08999993
-0,06000008
0,09999993
-0,1400001
-0,2200001
0,2199999
-0,1300001
-0,1400001
0,1499999
0,1699999
-0,1100001
-0,1300001
-0,06999996
0,15
0,09000005
-0,2099995
-0,1099995
-0,25
0,16
-0,25
0,18
0,2
-0,08000001
-0,1399995
-0,1799995
-0,2699996
-0,2899995
0,0800373
-0,2599629
-0,04996268
3,742216E-05
0,2900371
0,1800371
-0,2399629
0,1500371
0,0200373
-0,2799631
0,2000004
-0,2599997
0,06000043
0,1000004
0,2600002
0,1800003
0,2500002
-0,2699998
-0,02999947
0,1700002
0,03000031
0,1600011
-0,1399989
-0,07999878
0,1300011
-0,01999866
0,09000126
0,1200012
0,1800009
-0,2799991
-0,06999899
-0,2599999
-0,2599999
0,2
0,0899992
-0,1900008
-0,1100008
-0,1400008
-0,1100008
-0,02000386
-0,140573
-0,3005732
-0,240573
-0,2305722
-0,02057228
-0,3008526
-0,2008491
-0,06084912
0,219156
-0,2908411
-0,03084106
-0,1702803
0,1497197
-0,1502803
-0,02028026
0,22
0,18
-0,27
0,17
0,01
