0,06
0,13
0,11
-0,2
-0,15
0,2
0,22
-0,22
0,06000001
-0,01999998
-0,05999998
0,1
-0,15
-0,03999998
0,01000002
-0,21
0,1
-0,11
-0,13
0,01000003
-0,24
2,501817E-08
0,03000004
-0,26
-0,27
-0,05
0,09999999
0,02996018
0,0299604
0,2199735
0,1099735
0,1399736
0,2399614
0,2899881
-0,1499998
0,1900002
-0,04999979
0,2000002
-0,1799998
-0,2199998
0,1600002
-0,1499998
0,04000023
0,01000026
-0,04999977
0,0900002
2,477507E-07
0,1700002
-0,2899998
-0,2299998
-0,08999981
-0,2199998
-0,0399996
-0,1599997
0,08001194
-0,2399882
-0,1999882
0,07001178
-0,2399882
0,1900118
-0,209988
-0,119988
0,04001203
0,130012
0,170012
0,100012
0,160012
-0,139988
-0,199988
0,110012
0,140012
0,190012
-0,2399881
-0,2199882
0,1400118
0,2000118
0,2500119
-0,2899881
0,08001182
-0,05998817
0,2400118
0,2200122
0,02001231
-0,0399862
0,01001387
0,02001393
-0,1299862
0,09001393
-0,08998608
-0,2095325
0,08063643
0,1706365
0,1406349
-0,0793651
0,2906469
-0,02942907
0,1005586
0,2005588
0,1305588
0,15
0,23
-0,16
0,06000001
-0,1099895
-0,06998951
0,0100105
-0,2899892
-0,130001
-0,0100011
0,169999
-0,200001
-0,22
0,28
0,11
0,25
-0,14
0,16
-0,2200003
-0,1800003
-0,1600003
-0,08000027
-0,2400003
0,2499997
-0,2900002
-0,2800269
0,2599604
-0,2500396
0,1399606
-0,2100394
-0,1400278
-0,2100397
-0,2600396
-0,1300398
0,2300486
0,01004867
0,1000485
-0,1399248
-0,1699248
-0,2699247
0,2900872
0,01008727
-0,2999128
-0,1999129
0,03008745
0,2800874
8,751079E-05
0,1800874
-0,2799135
-0,02991364
0,1200862
0,1100862
0,02008636
0,08008624
-0,009913659
-0,07991378
0,1700863
-0,1099138
0,04008627
-0,1399137
-0,03991372
-0,03991372
-0,1299137
-0,2199139
-0,1799134
0,07008654
-0,2399134
0,2000873
-0,2499127
-0,1999127
-0,1499105
-0,2999106
0,03008979
-0,2599105
-0,1799105
0,1300895
-0,07991038
0,2600895
-0,08991055
-0,2699107
0,02008962
-0,2199106
-0,2799107
-0,1399106
-0,02991031
0,05008958
0,07054464
-0,03938474
0,1806238
0,0006493052
0,1306488
-0,09935129
0,1106487
0,2606483
0,0706498
0,03064992
-0,1693502
0,2106479
0,2706476
0,2606476
0,2200123
0,09
0,129999
0,209999
-0,1799894
0,1200105
-0,2199894
-0,01998949
-0,05000111
0,149999
-0,3000009
0,209999
0,2799991
0,009998926
0,129999
-0,130001
-0,07000111
-0,3000009
0,1099986
0,06999861
-0,3000011
0,09999864
-0,2800011
0,03997195
-0,04004119
0,239959
-0,1200407
0,05995931
-0,03004041
0,08994751
-0,01004076
-4,073987E-05
0,2799595
-0,06004084
-0,1899254
0,2300746
-0,04992543
-0,1899254
-0,2599252
0,1500746
-0,03991348
-0,2199135
-0,2999133
-0,2799133
8,687662E-05
0,2200867
-0,07991331
-0,2099133
-0,1699133
-0,1099133
-0,2099133
-0,1799126
-0,1999125
-0,1099126
0,2600876
-0,1899125
0,07008743
-0,2199125
-0,05991247
-0,1199106
-0,06991064
0,02008953
-0,2899107
0,1600891
-0,1399105
-0,009910152
0,2200895
0,03008981
-0,09991035
0,2000895
0,2200895
-0,1799105
0,2600895
0,2600895
-0,1999105
0,2100895
0,09008963
0,2900895
-0,2699107
0,04008949
0,01008968
-0,2099106
-0,06991048
-0,2294555
0,0005448806
-0,1394555
-0,1094304
0,09064021
-0,01935097
0,2906485
-0,1493512
-0,1393512
0,1606487
0,1506488
-0,0793502
0,2406498
-0,2293502
-0,1593502
0,1606498
-0,2993507
-0,2999859
0,189999
0,1900106
-0,07998951
-0,03998763
0,2600124
-0,1399894
-0,1599894
-0,2199894
-0,2599892
0,02001054
0,07001052
-0,2499894
0,2000106
0,1700106
-0,1699894
-0,2199897
0,2300103
-0,1499897
0,2900106
-0,2099896
-0,1799897
-0,2499145
-0,08994088
0,05004641
0,06004639
-0,0399533
-0,1999533
0,0400467
-0,1399653
0,1400347
-0,04996525
-0,1699653
-0,279965
0,03007511
0,110075
-0,09992485
-0,2999247
0,1000752
0,03007535
-0,2999128
-0,2499129
8,735382E-05
-0,0699129
-0,0299127
0,07008711
-0,1999111
0,250089
0,280089
-0,2199109
0,1500891
-0,1699102
0,2800897
0,1700898
0,2000898
0,1700898
0,1300898
-0,0299099
0,1700898
0,2000898
9,019463E-05
-0,2499103
0,1000899
0,2200898
-0,0999101
-0,2399102
-0,05991001
-0,2799103
-0,1399104
-0,2499104
0,2300896
-0,2199104
-0,1699104
0,1200897
0,2900895
-0,2599105
0,1200897
0,1200897
0,2400896
0,2700895
-0,04991042
8,978937E-05
-0,1799106
-0,04945531
0,0006154738
0,0006241347
-0,03935107
-0,03935138
-0,1793513
0,1606488
0,2806484
0,2206488
-0,1693512
0,2006488
-0,2793507
0,2406498
-0,04935015
0,0706498
-0,2793507
-0,09935021
-0,1699858
-0,2199894
0,09001049
0,2300106
-0,1599876
0,07001241
-0,2999893
-0,1399894
0,1700106
0,1600106
-0,2499894
-0,2899892
0,03001051
0,1900106
-0,0499895
-0,2999892
0,2300103
-0,1599896
-0,07998974
0,1900859
0,0900858
0,2800863
0,200086
5,945129E-05
-0,2399538
-0,2899534
0,2400467
-0,07995333
0,0900467
-0,2599649
0,09003475
-0,2599649
0,0900621
0,0300623
0,1400753
-0,1399247
0,2000753
-0,1099247
-0,189924
0,220076
8,828229E-05
-0,199912
0,08008797
-0,04991192
0,110088
0,2600881
-0,1199101
-0,06991012
-0,04991002
-0,2799103
-0,2899103
-0,1999102
-0,1499102
-0,1699102
0,1000899
-0,1599102
-0,1199101
-0,2099102
0,1600898
-0,1699102
0,1300898
0,0700899
0,06008998
0,1300898
-0,2299102
-0,2999103
-0,0799101
0,2900897
-0,2499103
-0,2199102
-0,2099102
0,04008999
-0,2699105
-0,0099101
-0,1099103
-0,009910095
-0,0999103
-0,05991024
0,1900896
-0,1999104
0,1200897
9,000034E-05
0,2700894
0,07054465
-0,269385
-0,01937597
0,180649
-0,0393513
0,2306487
-0,009351105
0,2806484
0,1106487
0,0206488
0,2806484
-0,2093502
0,2206498
0,04064985
0,2406498
-0,1293502
0,1006498
0,04001427
-0,11
-0,1299876
-0,1399876
0,2200131
-0,02998683
-0,2299868
0,1500132
0,2400124
-0,1899876
0,2300124
0,2300124
-0,09998756
0,06001208
1,210997E-05
-0,1799878
0,09001216
0,2800874
0,1000873
0,08008792
-0,1799121
0,260088
-0,2399253
0,05004888
-0,209951
-0,01995054
-0,2899623
-0,2599623
-0,09996232
-0,03996226
0,2400376
-0,04996224
-0,2399222
-0,2199222
0,05007803
-0,06992204
-0,1799222
0,1000899
0,1500898
0,05008998
-0,09991029
-0,2699105
0,01008989
0,1100897
0,06008977
-0,2599105
-0,08991028
0,2600895
-0,02991013
0,2600895
-0,1799104
0,06008977
-0,1599104
0,09008972
-0,01990989
0,08008974
-0,1799104
0,1200897
-0,2399104
-0,0599218
-0,0499218
-0,2799221
-0,0599218
-0,0299217
-0,139922
-0,0199217
0,1600778
-0,1899222
-0,2999223
-0,2299222
0,2900777
0,2900778
-0,1799221
-0,2599221
-0,1299221
-0,2199222
-0,05992207
-0,05992207
0,2900776
-0,2499222
-0,2294671
-0,2494671
0,07053282
-0,05946712
-0,1693967
-0,1193763
-0,1893519
-0,02935218
0,1006477
0,2706481
-0,1993514
0,0006486494
0,03064803
-0,08942603
-0,1994526
-0,1194527
0,09054729
-0,2594531
-0,05945241
-0,2194647
-0,1199981
-0,1999982
0,2500141
-0,09998571
0,2600141
-0,1699858
-0,06998571
-0,1999858
-0,08998571
-0,1099857
-0,1599868
0,1800132
0,1200132
-0,289987
-0,1399871
-0,0999871
-0,04998672
-0,2999116
-0,1699116
0,2800887
-0,1399114
-0,1199113
7,56642E-05
-0,269951
0,2600492
-0,009950507
-0,04996223
0,2100376
0,2400376
0,2900377
-0,009961641
-0,1099619
0,2900778
0,2100778
0,1600778
0,2600778
-0,2099221
-0,1399102
-0,02990991
0,2900897
0,2400896
-0,2899105
-0,2399104
-0,08991031
0,1200897
-0,07991029
0,1800896
0,01008987
-0,2599105
0,1900896
0,2200896
0,08009081
0,2000906
-0,03990908
0,2100908
0,2900905
0,09009086
0,2200906
-0,06990915
-0,02992057
0,180079
0,02007943
-0,149921
-0,08992076
0,200079
0,240079
0,1800788
0,2000788
-0,1499212
-0,099921
-0,1899212
-0,2199218
0,02007811
-0,169924
-0,259924
-0,1499241
-0,1899242
-0,2099242
-0,09992413
0,04007594
0,100531
0,2306015
0,1606014
-0,2593739
-0,2293745
0,2006458
-0,00935418
0,03064499
-0,2993543
0,160646
-0,1293522
-0,1293779
0,2306221
-0,2994535
-0,189453
-0,07945315
0,150547
0,1505211
0,01052134
0,1805078
0,03
0,27
-0,1399974
0,1400026
0,08000269
0,1300026
-0,2399858
0,06001427
-0,07998569
0,05001429
0,1700142
1,428436E-05
0,01001427
0,1800139
0,1600139
0,2500139
0,1500143
-0,1899855
-0,1699855
0,2900896
-0,04991004
-0,1499101
0,2000768
-0,01994959
-0,2799616
0,2400384
-0,1599613
0,010039
-0,2799613
0,1100388
3,948799E-05
-0,03996069
0,07007904
0,02007879
-0,2899333
0,120079
0,06007907
-0,2799214
-0,03999611
-0,06999614
0,1400037
0,2200037
-0,1899963
-0,0499961
0,2800035
0,1600037
0,1500037
-0,2499963
-0,1699965
-0,1399965
0,06000366
0,04000366
0,01000374
0,01000372
-0,06999636
-0,1199964
-0,2299965
0,1800035
0,1100036
0,1300035
-0,01999629
0,04000199
0,04000199
0,1000019
-0,2599982
-0,0899981
0,2200014
0,2900014
0,1700014
-0,2699986
-0,1199986
0,1300007
0,1400003
0,2000005
-0,1499996
0,03000052
-0,2699995
-0,05999944
-0,009928809
-0,1399291
-0,219474
-0,2094739
-0,1194664
0,1605705
-0,2594301
0,2605699
0,2405703
-0,23943
-0,2194274
0,1205724
0,05057353
0,180547
-0,0994532
0,1205468
0,2405469
-0,2094647
-0,1294647
0,01049889
-0,09950087
0,07049914
0,23
0,1500007
-0,1299993
-0,1999993
0,2700024
0,2300026
0,1900026
0,1100027
-0,1499974
0,1900026
-0,1599974
0,1300026
-0,1099973
-0,04999762
0,05000264
-0,1199974
-0,1399972
0,1800029
0,05000314
-0,2199217
-0,02993456
0,1600651
0,2000651
-0,2599613
-0,01997266
2,69224E-05
-0,07997326
-0,2799734
0,2500264
-0,2400486
-0,1500351
0,01996512
-0,2600086
0,2199914
-0,08000853
-0,0799966
0,2200033
-0,2299967
0,1800033
-0,1899967
-0,2299973
-0,1699973
0,2000027
-0,1199972
-0,01999717
0,2200027
-0,009997159
0,2500025
-0,2299973
0,05000282
0,2200008
-0,009999145
0,2500001
-0,1799999
-0,2099999
-0,2299999
0,2500001
-0,1799999
0,11
-0,03999995
0,01000006
0,1700001
0,1500001
-0,2099999
0,04000006
0,1200002
0,08000024
-0,03999972
-0,2799997
-0,1799998
-0,03999972
-0,2199997
0,2900003
-0,0599995
-0,2999996
-0,1699996
0,2504555
0,01045573
0,06052623
0,06052623
-0,2894717
-0,02947148
0,2405372
-0,09942964
-0,1694298
0,16057
0,07057239
0,2105726
0,1205724
-0,1494274
-0,02942648
0,09054682
-0,04945318
-0,0794648
0,09052201
-0,09947875
-0,01947878
0,1104857
0,140486
0,150486
-0,17
-0,28
0,2200007
0,2500007
-0,2099993
0,1400007
7,962791E-07
7,959958E-07
-0,1899993
0,2600007
-0,1799993
-0,06999924
0,06000076
-0,2499995
-0,04999925
-0,2699993
0,220001
-0,05999871
0,2600012
0,1800765
-0,2499367
0,1700367
0,1400367
0,1700369
0,1400252
0,1600248
0,1200248
0,07002479
0,1400246
0,09994946
0,1499631
-0,1600369
0,1699897
0,1999895
-0,08001047
0,2800014
0,04000156
0,2900014
-0,1899989
-0,009998846
-0,1499991
-0,2399999
0,09000012
0,1600001
-0,2799999
-0,2699999
-0,2699999
-0,09999988
0,2600001
0,06000011
-0,02999988
-0,27
0,1400001
0,26
0,1
-0,05
-0,13
-0,25
-0,2
-0,08
-0,29
0,22
0,16
0,009999998
-0,2
0,2700002
0,06000022
0,1500002
0,1200002
-0,03999977
-0,009999741
0,2200002
-0,1699998
-0,02954446
0,02045555
0,280526
-0,2194739
0,2805291
0,1405296
0,1105295
0,1305285
-0,07947166
0,100537
-0,2194294
-0,179429
0,1105705
-0,009427536
0,2005726
-0,2094264
0,2705465
0,1005468
-0,009453108
0,1905338
0,1805221
-0,01948121
-0,07948394
-0,1094846
-0,2195149
0,05048539
-0,2595146
-0,04
-0,12
0,07
-0,009999985
-0,24
0,05000002
0,1900007
-0,1299993
-0,06999923
0,1200008
-0,1299993
-0,1099992
-0,09999922
-0,01999953
0,09000071
0,08000087
-0,1799988
0,07000139
-0,1199986
-0,01992333
-0,01993649
0,1500366
0,050037
0,1500371
0,1500252
-0,2999751
-0,2799754
-0,0499761
0,2900371
-0,210038
0,08996227
0,2899622
-0,08001105
0,0900007
-0,1599995
-0,04999947
0,1400005
-0,1999996
-0,29
0,07000002
0,21
-0,18
-0,03999999
-0,02999999
0,08999999
-0,09000002
-0,22
-0,1
-0,21
0,19
-0,2
0,11
0,19
-0,24
0,06
0,1
0,12
0,22
0,14
-0,24
0,02
-0,06
-0,13
-0,16
-0,28
-0,13
0,26
0,1
-0,16
-0,17
0,2300008
-0,2899992
0,06007155
0,100526
0,06052933
-0,1494704
-0,1094705
-0,2294704
-0,2494704
-0,05947043
0,2105503
0,1105617
-0,1494294
-0,2094294
0,2805726
0,2705724
-0,1994274
-0,1394274
-0,2794269
0,03054685
0,1205336
0,2205221
-0,03947792
0,2505192
-0,2594838
-0,02948358
0,2405157
-0,1795148
-0,05948809
-0,07948814
-0,06
-0,03
-0,24
0,25
0,25
-0,21
-0,2499993
-0,2199993
-0,009999206
-0,08999924
-0,08999952
0,04000046
0,1600007
-0,1099991
-0,1599991
0,2000009
-0,2099988
-0,2199987
-0,1499986
-0,2499235
-0,2299367
0,1000367
0,07002491
0,1000252
2,522452E-05
-0,2899753
0,04002465
0,1000237
0,050037
-0,2100381
-0,100038
-0,2400379
0,1299887
0,1300004
0,2900004
-0,06999957
0,05000046
-0,1099996
-0,16
0,19
0,21
-0,29
0,16
0,11
-0,19
-0,22
-0,25
-0,24
0,11
-0,16
-0,13
0,16
0,27
-0,11
-0,16
0,13
0,2
-0,05
-0,06
0,24
0,04
-0,05
0,02
-0,11
-0,3
-0,15
0,21
-0,27
-0,11
0,2
-0,1499993
0,1900041
0,2300749
-0,03947067
-0,1594706
-0,2494704
0,2405296
0,2605292
-0,009470319
-0,07946298
0,2505586
-0,01942954
0,2905703
-0,08942968
0,2205732
0,04057278
-0,2094272
-0,06942628
-0,01942625
-0,139453
0,03053368
-0,2094779
0,2505217
-0,1094807
-0,1494925
-0,04949224
-0,01949292
-0,03951478
0,1105119
0,2605119
-0,14
-0,29
0,16
0,2
0,28
-0,01999999
0,22
1,2731E-08
-0,26
-0,21
0,1899999
0,2399999
0,26
-0,2899998
0,2800002
-0,2399999
-0,0399994
-0,1899994
-0,0300124
-0,0399373
-0,2399375
-0,02996414
0,05002407
-0,2699757
-0,1299757
-0,2499762
0,2400238
0,03002384
-0,1899627
0,1799622
0,06998868
-0,03001123
-0,1500113
0,02000049
-0,2399996
0,2400004
0,1100004
-0,2099996
-0,08000001
-0,07000002
0,11
0,07999998
-0,11
-0,11
-0,03
0,09
-0,18
0,23
-0,09
-0,22
0,29
-0,13
0,28
-0,16
0,2
0,19
-0,04
0,13
0,02
0,23
0,03
-0,12
-0,11
-0,14
0,01000001
-0,09
0,08000001
-0,0599999
0,2500001
-0,2599294
-0,05947422
-0,1294708
0,1805292
-0,2594712
0,1405292
-0,02947066
-0,2194706
-0,1394411
0,0605588
0,08057033
0,2305706
-0,2894297
-0,1794287
-0,279429
0,1905731
-0,09942622
-0,01942621
-0,2994267
0,1205737
-0,1294645
-0,02947767
0,280521
0,0605213
-0,009480568
0,1904857
-0,07951406
-0,1195147
-0,2695148
0,1705119
-0,2394881
-0,3
0,18
0,27
-0,13
0,14
0,12
-0,01999999
0,24
3,501057E-08
-0,07999997
0,09999994
-0,1999999
-0,2299999
0,2400001
-0,2999998
0,02000018
-0,2399995
-0,1299994
-0,04001243
-0,1899375
0,2200625
0,08003571
0,110024
0,08002423
0,06002433
-0,03997633
0,1100236
-0,1099765
-0,1599628
-0,09003799
-0,2100113
-0,2500116
-0,02001145
5,269861E-07
0,07000043
-0,2599996
-0,2699996
0,2400004
-0,13
-0,24
0,21
0,04
4,693219E-11
-0,11
0,06
-0,13
0,21
0,11
-0,01
-0,14
-0,14
-0,3
0,06
0,06
-0,17
-0,09
-0,23
-0,12
0,11
-0,12
-0,29
-0,21
0,1
-0,22
-0,17
0,05000001
0,1105257
0,06052577
-0,1394742
0,2505288
-0,01947094
-0,1794622
-0,2994626
-0,09946225
-0,1094405
-0,1194404
-0,2194412
-0,08944131
-0,2794414
-0,1194297
0,04057115
0,290571
0,2005732
0,2705727
-0,2494269
-0,2194261
-0,01942621
0,2105738
-0,1394262
-0,1494652
0,2705212
0,1505162
-0,1794838
0,2905161
-0,2495143
0,1204859
0,2304853
-0,08951483
-0,239475
-0,299475
0,05
-0,16
-0,05999998
0,03000001
0,18
-0,27
-0,3
-0,14
-0,13
0,2500002
-0,1699999
0,1500002
-0,1399999
-0,06999987
0,1300001
-0,2899997
-0,1099994
0,1300006
-0,2800125
-0,2499375
-0,2399494
0,1900239
-0,09997591
-0,2899759
0,2800241
0,1300236
0,2900368
-0,2999632
-0,1599628
0,05996202
-0,0600113
0,1600004
-0,1499996
-0,2899996
0,1200004
-0,09999956
0,04000005
-0,14
-0,21
-0,28
-0,23
-0,18
0,04
-0,09
-0,28
-0,19
-0,01
0,19
-0,15
-0,27
-0,07
-0,2
-0,11
-0,29
0,24
0,15
0,24
-0,07
0,04
-0,26
-0,2599994
0,2900006
-0,2899289
0,1000745
7,461609E-05
-0,03992543
0,0005291013
-0,1594708
0,1005377
-0,06944056
-0,02944052
-0,2794408
0,03055948
-0,2994408
0,2705592
0,2305596
-0,1494414
0,2905582
0,2805584
0,1605706
-0,1594293
-0,2094981
0,1505017
-0,1999522
-0,1698806
-0,1598806
-0,02942602
-0,169426
-0,2294394
0,2605212
-0,03948038
-0,1894923
0,1105075
-0,2594925
0,2704739
-0,229526
-0,1895266
0,2404733
0,2105131
0,05051311
0,11
-0,16
-0,21
0,21
0,06000001
-0,08999997
0,06000004
-0,1199998
-0,27
-0,3
-1,025328E-07
0,24
-0,05999985
0,1800001
0,2000001
0,2400002
-0,1599995
0,2000006
-0,03001239
-0,1499378
0,2900505
-0,139976
-0,2399759
0,1300241
0,2700241
-0,1499764
-0,09996321
-0,009963227
-0,2799629
0,189962
0,1199887
-0,09999957
-0,2199996
-0,06999957
-0,2499996
0,2900003
0,29
0,23
0,04000001
0,21
0,08
-0,22
-0,2
-0,23
-0,04
0,01
0,16
0,23
-0,16
-0,28
0,23
-0,1
-0,03
0,05
0,05
-0,06
-0,22
-0,04
0,24
-0,09999999
-0,2999963
-0,229996
-0,1499254
-0,1694709
-0,1294709
-0,1994622
0,1605378
-0,2894626
0,1205377
0,2005596
0,2405596
-0,08944056
-0,1394404
0,05055947
0,07055833
0,2105586
-0,2394414
0,2905699
-0,1395002
-0,03950046
-0,009954699
-0,0399529
-0,1599518
-0,2999516
0,2601189
-0,07988071
0,230574
0,02056238
0,170549
0,1005214
0,2105197
0,03050768
0,2804958
-0,1695045
0,2004738
0,01047416
0,2204734
0,2604028
0,1904425
-0,1395575
0,14
0,15
-0,19
-0,06999998
-0,23
0,01000003
-0,27
0,2200002
0,28
0,1399999
-0,1200001
-0,22
-0,21
-0,02000009
0,2099999
0,04000005
0,2199872
-0,1500128
-0,1300247
0,2500237
-0,1299762
-0,159976
-0,169976
-0,2799759
0,2900241
-0,08997648
-0,07996327
-0,2699632
0,1400371
-0,240026
0,2800006
-0,2099996
-0,2099996
-0,2999996
0,1200004
0,1300004
-0,15
0,2
0,22
-0,06
-0,12
-0,3
0,04
-0,27
-0,09
0,12
-0,06
0
-0,09
-0,14
0,08
0,06
0,08
0,24
0,29
-0,01
0,02000062
-0,2099994
-0,06999929
0,1600713
-0,2199253
-0,2999257
-0,2299253
0,2105291
0,1505292
-0,2194622
0,2905591
-0,2194404
0,1505596
-0,2294404
-0,1094406
-0,2894408
-0,06944055
0,2205596
0,07055832
-0,1395121
0,09048707
-0,209501
0,1004996
-0,1294983
0,2600469
0,2200473
0,1100479
-0,02995141
-0,01988062
-0,08988072
0,01057401
-0,1494376
-0,2894538
-0,1794803
-0,1894922
-0,2495043
-0,02950425
-0,2495043
-0,1395261
-0,1295258
0,2204734
0,1204027
-0,1295574
-0,1795574
0,13
-0,15
0,14
-0,17
0,27
0,06000022
-0,1799998
0,1600002
-0,1300001
0,1199999
0,1999999
-0,08000007
-0,01000011
-0,24
0,1899999
-0,1399999
-0,1100128
0,09998707
-0,07002487
-0,05997635
0,07002378
0,130024
-0,229976
0,03002414
0,2600241
-0,1699765
0,04003715
-0,1199629
0,06003717
-0,1100261
-0,06999938
0,2600004
0,2200004
-0,02999952
0,03000046
0,1100004
-0,23
-0,02999998
4,632987E-10
0,21
-0,22
0,14
0,27
-0,12
-0,09
0,19
0,06
-0,1
-0,15
0,29
0,28
-0,18
-0,11
0,2300007
0,05000072
0,2900007
-0,2199287
-0,1899253
-0,1299253
0,1300833
-0,2894626
0,2405378
-0,2094622
0,2705592
-0,1094406
0,2305596
0,0005595773
-0,2894408
0,02055948
-0,2194404
-0,2094404
0,2105596
-0,2094405
0,02055939
-0,1494415
0,2204879
0,1500329
0,1800452
-0,1899548
-0,229953
0,0600471
-0,1599527
-0,2699524
0,0705031
-0,08942614
-0,1994261
0,07057313
0,2805345
0,22052
0,04051981
0,02050769
0,2604958
-0,1995043
0,160496
0,1904742
-0,1595258
0,04048659
-0,2995841
0,2904425
-0,01955744
-0,11
0,04000003
0,18
-0,24
0,19
-0,2399998
-0,2699998
0,1600002
0,0799999
0,1199999
-0,17
-0,1000001
0,29
-0,2000001
-0,2400001
0,1699999
0,1999871
0,01998715
0,05997548
-0,2199761
-0,149976
0,01002422
-0,209976
0,2800241
0,06003725
-0,1699633
0,1100371
-0,07996286
0,1200638
-0,2999996
-0,1199996
0,1500004
0,1900004
0,1300004
0,1700004
-0,2799996
-0,03999999
0,26
0,17
-0,16
-0,23
0,21
-0,1
-0,21
-0,1
-0,18
0,26
0,29
0,09
-0,28
-0,06999939
-0,2799994
-0,05999936
0,2000007
-0,1699959
0,1700041
-0,05946229
0,1905596
0,0005594765
0,05055942
-0,04944055
0,1005594
-0,2594408
0,07055944
-0,05944053
-0,01944051
0,01055954
-0,1394404
-0,07944056
-0,2594408
-0,08944117
0,230559
0,1405589
-0,08944237
-0,2894455
-0,05951546
-0,1999698
-0,2999854
0,07001459
-0,05997485
-0,1299517
0,1100482
0,130048
0,1005031
0,06057391
-0,1494377
-0,09945166
0,2805214
-0,009480056
-0,2994835
0,07050428
0,06047402
-0,03952599
-0,1895258
0,1804742
-0,02952567
0,1604866
0,1204159
0,1504426
0,2204426
0,11
0,1
0,06000003
0,04000003
0,1
-0,009999767
-0,1299998
-0,2799998
0,1799999
0,19
0,06999993
-0,06000006
-0,1800001
-0,25
-0,1199997
0,1300002
0,2699872
-0,06001287
-0,2900245
-0,2199761
-0,229976
0,02002421
0,160024
-0,079976
-0,02996274
0,1500367
-0,02995087
0,03004913
0,02007582
0,04000043
0,0700004
-0,01999952
-0,1599996
0,1400004
0,1300004
0,06000044
-0,25
-0,22
0,29
-0,24
0,28
-0,12
-0,2
0,1
-0,08
-0,18
-0,06999999
-0,08999999
0,22
-0,2499966
-0,009995968
-0,07999602
0,110004
0,0705377
0,1505378
-0,2194622
0,2305378
-0,1594404
-0,2294404
0,2505592
-0,2794408
0,1405596
0,0005595842
-0,1594404
-0,1894404
-0,2094404
-0,1994404
-0,02944053
-0,07944056
0,1205562
0,08055547
0,1905556
-0,05951509
0,2400295
-0,2099792
0,1900215
-0,0899786
-0,2499748
0,290025
-0,1499747
-0,08995184
-0,2499518
0,1000479
-0,02949686
-0,2594267
-0,1594378
0,1605466
0,07051972
0,2905196
0,04051651
0,1205043
0,200474
-0,2995259
-0,2595257
-0,2595257
-0,1595258
0,1700321
0,2499614
-0,01999998
-0,17
-0,28
0,26
0,28
-0,1999998
-0,03999978
0,1000002
0,2700002
0,1600002
-0,03000011
0,26
0,17
0,17
-0,1600001
0,2099998
0,029987
0,2599871
-0,2700248
-0,2799496
-0,2099493
0,2700241
-0,07997596
0,02002421
-0,01997578
0,180024
0,2900371
0,1700367
0,1800491
-0,09995094
0,2000757
0,2500004
-0,2899996
-0,04999954
0,07000043
0,1500004
-0,17
-0,04999998
-0,23
-0,009999979
-0,29
-0,07
-0,14
-0,3
-0,2
-0,28
0,17
0,24
0,06000392
-0,2099959
4,051274E-06
-0,2299959
-0,1999167
0,1500833
0,1600833
0,01053773
0,2105596
-0,009440545
-0,02944053
-0,2094404
-0,1894404
0,08055944
0,2205596
0,07055944
0,2605592
0,01055955
0,2505591
-0,08944066
-0,1994445
-0,01944451
0,08055547
-0,219515
0,190485
0,04047512
-0,2995247
0,1500208
0,09999894
-0,0899887
-0,07998868
-0,04997486
-0,289975
-0,2599741
-0,1899519
0,09004801
0,200048
0,1205031
0,1405731
-0,1494385
0,09054638
-0,24948
0,2405199
0,1405165
0,2705044
0,2804741
-0,1195261
-0,06952581
0,01047441
0,0904741
-0,2699414
0,07998805
-0,23
-0,04999997
0,14
-0,23
2,613593E-08
-0,08999982
-0,1199998
0,05999991
0,1399999
-0,3
0,2099999
-0,01000012
-0,2400001
-0,28
-0,2300001
-0,2400002
-0,040013
-0,170013
0,1599485
-0,1699764
0,170024
0,100024
0,110024
-0,2599759
0,04003727
0,2400372
-0,1899628
0,2000367
-0,1499511
0,07004886
-0,1599245
-0,2999996
-0,1199996
0,1400004
-0,1199996
0,05000046
-0,09999999
-0,27
-0,22
-0,01999998
-0,06
-0,22
5,33032E-10
0,09
-0,16
-0,05999936
0,07000063
0,2500007
0,2000041
-0,1799873
0,2600124
-0,1299655
0,2301051
0,2001051
0,2101051
-0,02944053
0,1405596
0,09055944
0,03055948
0,06055946
-0,1994404
-0,02944051
-0,09944056
-0,2394405
0,1505595
0,2005589
-0,1894411
-0,08944993
0,1304763
0,0104763
0,1504763
-0,06952377
-0,2599782
-0,130001
0,179999
0,07999969
-0,2100002
-0,2799868
0,2000132
-0,2099737
-0,1399737
-0,1399737
-0,2999524
-0,2699524
0,1100472
0,260502
-0,2294288
-0,02944056
0,2305466
0,2105199
0,2105113
0,1005077
0,0004958353
0,02047404
-0,1195261
0,2704743
0,1804874
-0,06951272
0,2300587
-0,07001193
-0,17
-0,14
-0,19
-0,12
-0,04
0,03000023
-0,1699998
0,04999991
-0,29
-0,1800001
-0,1300001
0,1199999
0,1899999
-0,0600001
-0,1100001
0,2399997
-0,040013
-0,140013
-0,0500515
0,1800236
0,130024
0,130024
-0,02997581
0,220024
0,1000372
-0,2599632
0,2300372
0,02003719
0,2800489
0,2100489
0,1900755
0,1500004
-0,2199996
-0,03999954
0,2600004
-0,2999996
-0,26
0,12
0,06000001
-0,22
0,13
0,02000002
-0,04999936
0,1100006
0,03000072
-0,2199959
0,2100041
-0,2399959
-0,1699742
-0,05989506
0,0001050584
0,01010503
0,2805592
-0,2594408
0,1005594
-0,009440477
0,1805596
-0,1094406
0,07055944
-0,08944056
0,1005593
0,1105593
0,06055874
-0,1994411
-0,06951185
0,0204849
0,0304849
-0,06952377
-0,0299782
-0,1099783
0,1900218
0,14
0,09000005
-0,1400003
-0,2500002
-0,1899886
-0,1199887
0,1600132
-0,1199868
0,02002632
-0,1699737
0,1700263
-0,119952
0,04004804
-0,08995477
-0,1295109
0,1605596
-0,2694408
0,1605466
-0,02948012
-0,1894887
0,1405078
-0,2595042
-0,149526
-0,01952602
-0,2795258
0,2504873
-0,1495127
-0,1299413
-0,2900119
0,04000003
-0,01999998
0,08
0,2300002
0,05000019
0,1500002
0,2200002
0,1199999
0,29
-0,02000012
-0,1900001
-0,29
-0,29
-0,2500002
-0,2200002
0,2199998
-0,08001297
-0,2800128
0,1899485
-0,2499764
0,150024
2,423969E-05
0,06002411
0,2900241
-0,2299628
-0,2599632
0,1000491
-0,05995091
0,1800489
-0,2800262
-0,1499996
-0,2799996
-0,01999953
-0,1299996
0,2700004
0,1500004
-0,22
-0,04999996
0,29
0,05000003
-0,04999998
-0,26
-0,2599963
-0,129996
-0,1399959
-0,1999959
0,1300833
0,290083
-0,2394404
0,05055942
0,1005594
0,2305596
-0,03944054
-0,1794404
-0,1494404
-0,2594408
0,2105596
0,08055943
0,1605596
0,0005562725
-0,2494439
-0,02951448
0,2304849
0,2604848
-0,1795237
-0,2195237
0,02047627
0,1404763
-0,2299782
-0,06997825
0,1400218
0,2699991
-0,2800009
-0,1700003
0,08999968
0,1100132
-0,04998682
-0,1199868
0,1300132
0,2700259
-0,08997372
0,1100263
-0,1299519
-0,1798813
-0,07988419
-0,08944058
0,05055964
-0,1494402
-0,2894537
0,220508
0,2304993
-0,009503976
0,08049562
-0,01952598
0,0004740217
0,2804742
-0,1995126
-0,2295127
-0,2599413
-0,230012
0,07000001
0,29
0,21
0,1300002
0,2100002
0,1300002
0,2000002
-0,1700001
0,02999986
0,03999987
0,08999988
0,01999987
0,2399999
0,1899998
-0,2100134
-0,07002534
-0,2100249
0,1099751
0,02994907
0,210024
0,02002421
-0,139976
0,120024
-0,159976
-0,009962668
-0,1599632
-0,1199509
0,04007576
0,1200755
0,1000004
4,942214E-07
-0,1299996
-0,1599996
0,06000047
-0,1099996
-0,08999958
0,1900034
0,04000332
-0,08999609
0,09000392
3,949812E-06
-0,07999602
0,1200257
-0,02989505
-0,1698949
-0,08989508
0,05010497
0,1901051
-0,1094406
-0,2394404
0,1805596
-0,009440486
0,03055949
-0,1694404
0,04055946
-0,09944057
-0,1394438
0,06055617
-0,1595151
0,06048489
-0,0595151
-0,1395237
0,0004763106
0,2304763
-0,2695238
-0,08954548
-0,1195455
-0,1195455
-0,009999894
0,17
0,03000002
0,04999888
-0,1100011
0,2400015
-0,0999984
-0,1999868
0,04001647
-0,1499834
-0,2899827
-0,229952
0,09004799
-0,009951924
-0,1599521
0,05011646
0,2101167
-0,2894408
0,1305466
-0,2994537
-0,2894537
0,2905077
-0,2595009
-0,1695041
-0,1095044
0,150474
-0,1595261
-0,1695258
0,2204873
0,1904873
-0,05994137
0,219988
-0,27
-0,14
-0,11
0,01000021
0,0200002
-0,1699998
-0,2099998
0,08999988
0,2299999
-0,0600001
0,1499999
-0,2900002
0,04999971
-0,2400002
0,2699868
0,2499747
-0,2800515
0,2399485
-0,290051
-0,2899759
0,07002404
-0,1199759
-0,129976
2,418774E-05
0,1200492
-0,09995127
-0,139951
0,04007558
0,09007556
-0,2399996
-0,1299996
0,1500004
0,2100004
-0,2199962
-0,2599969
-0,06999601
-0,1999959
0,120004
-0,2699962
0,08009627
0,2101051
-0,2598953
-0,2398949
0,06010497
-0,1698949
-0,2694408
0,08055943
-0,1794404
0,1805596
-0,1094406
-0,1894404
0,2705592
0,1705596
-0,07944384
-0,1594438
0,1405555
0,2805554
0,1805556
0,1904763
-0,1795237
0,2704762
0,05047626
0,2904545
0,1604545
-0,2395455
0,29
-0,2
-0,03999997
-0,29
0,03000001
0,149999
-0,1100003
0,2099997
-0,0799984
-0,1999984
0,03001321
-0,1899834
0,1000165
-0,1299824
0,09004799
0,1100474
-0,2699529
0,1600479
-0,09989518
0,240105
-0,1094406
0,2805463
-0,009453443
0,2405432
-0,1094955
-0,05950425
-0,08950438
0,2304957
0,2004739
0,1104871
-0,1395126
-0,2595832
-0,1095833
1,548149E-08
-0,17
0,23
-0,18
-0,2
-0,1599998
0,0300002
0,2100002
-0,2399998
-0,05000012
-0,1800001
0,1099999
0,02999987
-0,1300002
0,00999966
-0,2100002
0,009986611
0,2299747
0,1899484
0,08994844
0,2199489
0,160024
-0,2899759
0,1000241
0,02003737
0,1200372
-0,2199509
-0,06995134
-0,0399511
-0,2899244
0,1000762
0,230001
-0,0199989
0,210001
-0,199999
-0,2699741
0,1600258
-0,009974187
0,2200259
0,02003439
0,1600345
-0,2698953
-0,1698949
0,02010494
-0,1394404
-0,1794404
0,1605596
-0,2294404
0,2005596
0,1305596
-0,1194406
0,1705596
-0,02944052
-0,04944054
-0,02944124
0,1305555
-0,1894445
-0,1794531
0,1005251
-0,01947489
-0,2495455
-0,1995455
-0,04954546
-0,2495455
0,14
-0,12
-0,18
0,12
-0,23
-0,02999998
-0,06999999
-0,2799993
-0,2900002
-0,1400003
0,2199997
0,1800016
0,0300016
-0,0199868
-0,06997375
-0,1099738
0,2500259
-0,2899524
0,03004749
0,1200474
0,1200477
0,220105
-0,03989496
-0,2694406
-0,0694536
-0,02945349
0,2105432
0,03050461
0,1804957
-0,06952608
-0,03952599
0,06047399
0,08048707
-0,2195134
0,180416
0,2804159
-0,3
-0,26
-0,3
-0,06999999
-0,1
-0,1399998
0,1600002
-0,1999998
0,0200002
0,08999988
-0,2000001
0,1199999
0,1799999
-0,09000026
0,01999968
-0,2700002
0,05998662
0,1199746
-0,0700516
0,2100236
0,210024
-0,219976
-0,119976
0,09002403
0,05003729
0,1900372
-0,1699509
0,07004866
0,1900489
-0,1499244
-0,1999238
-0,04999883
0,1000011
-0,04999553
-0,1199956
0,2100968
-0,2898953
-0,1998949
-0,07989506
-0,04989505
-0,2398949
-0,1398949
0,01010504
0,1401051
-0,1394404
-0,2194404
0,1505596
-0,02944053
0,2005596
-0,06944057
0,2905561
0,260556
0,1505561
0,270556
-0,2294531
0,2205469
0,1505469
-0,09952378
0,1704545
0,0004545928
-0,27
-0,22
-0,09999996
-0,14
-0,01999998
0,14
-0,28
-0,06999999
-0,28
0,11
-0,2900009
-0,04000037
-0,1100003
0,2699998
0,1500016
0,04001318
0,07001321
0,04001317
-0,07997375
-0,03997376
-0,2599741
0,1500473
0,1600475
-0,03995446
-0,1399539
-0,1598949
0,100105
0,1305598
-0,1294534
-0,03946213
-0,2394654
0,1104958
-0,07950436
0,2204739
-0,07952581
0,2704743
0,2604873
-0,1595134
-0,149584
0,02041593
-0,24
-0,07999999
-0,04999999
-0,21
-0,09
0,02
0,06
0,1699999
-0,1900001
0,01999986
-0,1500001
-0,1900001
0,27
-0,1000003
-0,04001344
-0,1300253
-0,09002535
0,2399749
-0,3000512
-0,1599762
-0,2599759
-0,109976
-0,249976
0,06002412
0,04003729
-0,09996274
-0,2599505
-0,02992357
0,05007619
0,1700762
0,08010124
-0,0799739
-0,1199033
0,2001055
-0,09989464
0,1201054
-0,09989505
0,07010496
-0,2598953
0,1301051
0,07055944
0,2205596
0,01055951
0,1505596
-0,1894404
0,2405596
0,1405596
-0,2894439
-0,03944383
-0,2594439
0,05055556
-0,2794532
-0,1594531
-0,2894532
-0,02952374
0,1704545
-0,1395455
0,19
0,04000005
-0,29
-0,01999998
-0,21
-0,18
-0,05999999
0,23
0,22
0,23
-0,24
0,29
0,13
0,2699991
0,1399997
0,1899997
-0,1300003
0,06000157
-0,1799868
0,1700132
-0,09998568
-0,05997376
0,1000264
0,06002647
-0,2799529
-0,2999529
3,422322E-05
-0,1795109
0,06055955
-0,2194403
-0,1394402
-0,0694536
0,03053787
-0,04946561
0,01049582
-0,2795042
-0,2795259
-0,1595258
-0,01952566
0,1004873
-0,2295134
0,2104159
-0,1195842
-0,29
0,07
-0,28
0,12
-0,24
0,2
-0,18
0,26
-0,05000012
-0,1500001
0,29
0,26
-0,06000009
0,2399998
-0,05001345
-0,04002539
-0,2200519
0,1099482
-0,1900513
-0,1299762
0,130024
0,07002403
0,120024
-0,03997587
-0,1199502
-0,03995013
0,1100503
0,1601016
-0,2798989
-0,219828
0,02017196
0,1000967
-0,01990318
-0,2398945
0,09010538
0,2801051
-0,2998953
-0,119895
-0,05989502
-0,08989505
-0,06944057
-0,1894404
0,2105596
-0,2194404
0,04055555
-0,01944443
-0,2394444
-0,2194445
0,07055546
0,1805556
-0,1094662
0,2804545
0,2504545
0,04045454
0,04045454
-0,05954546
0,2404545
0,05000002
-0,06999999
0,09000002
-0,22
-0,04999999
0,23
-0,14
0,13
-0,11
-0,02999999
-0,13
-0,15
-0,03999922
-0,05000037
0,1899997
-0,1299984
0,2000132
0,2300132
0,0200132
0,1500132
0,04001431
0,2100263
0,1900257
-0,1099743
0,03004556
-0,2099543
-0,1599658
0,1904891
0,03055956
0,1405465
0,2405466
0,01051997
-0,1494887
-0,2694923
-0,05950427
0,2504958
0,1404739
-0,1795258
0,2804741
-0,1195129
0,05048657
-0,05958404
-0,1495841
-0,29
0,18
0,23
-0,2
-0,08
-0,01
0,11
-0,2500002
0,09999973
-0,2800002
0,07999974
-0,1100003
0,1299998
0,03999973
-0,1100135
0,04997461
-0,150052
0,08994884
-0,03005053
-0,2099755
0,04002486
0,03004663
0,1600596
0,2901301
-0,06985784
-0,2898579
0,2401426
0,02017211
0,0700967
0,2500965
-0,1699032
-0,1998945
-0,2098945
0,06010541
0,1801051
0,000105127
0,100105
0,2905591
0,2105596
-0,1094406
0,220559
0,09055882
-0,169441
-0,01944124
0,06053374
0,1404632
0,1004632
-0,08953682
-0,05954546
0,07045452
0,1204545
0,08045452
-0,2295455
-0,1495455
0,1
-0,02999993
-0,28
0,23
0,17
-0,09
0,04
-0,22
-0,02999998
0,15
0,18
-0,02999999
-0,2
-0,24
0,15
0,1799997
0,2399997
-0,1400003
0,1700016
-0,2299868
-0,1299868
0,2500132
-0,1099868
-0,1299856
-0,06997357
0,08002377
-0,0999762
0,0300458
-0,2299542
-0,2999661
-0,1795109
0,05055957
-0,2794538
0,2405466
0,2605196
-0,09950089
-0,01950418
0,1704957
-0,1795043
0,0004738655
0,1404872
0,1304872
-0,1895128
-0,01951341
0,09044263
-0,2095575
0,04000001
0,03
0,05
0,06
0,12
-0,04
0,21
-0,3000002
0,2799998
0,1499998
-0,2200002
0,1399998
-3,317151E-07
-0,2200002
-0,3000133
-0,2900251
-0,2900517
-0,04005071
0,01994979
-0,1699753
-0,05990452
-0,1498829
-0,1998698
-0,0498697
-0,09985454
-0,2298545
-0,2698547
-0,139828
-0,07989464
0,03010545
0,1301055
0,2101055
0,08010536
-0,1698945
-0,2594408
0,1605596
0,2805592
0,01055946
-0,1194406
0,1605595
0,1305589
-0,2795151
0,2604848
-0,199515
-0,1895368
0,1304545
-0,1395455
-0,2595455
-0,009545418
0,1304545
0,1204545
0,1504545
0,2504545
-0,04954549
0,14
-0,12
-0,07
-0,2
-0,15
0,04
-0,08
0,04
0,07000001
-0,05999999
-0,28
-0,13
-0,24
-0,14
-0,2699993
-0,1600003
-0,2799985
-0,009998409
-0,2299985
0,1600132
1,321098E-05
-0,07998661
-0,1099866
-0,2999864
-0,1699743
0,06002379
0,2000239
0,2900456
0,1600458
0,08003406
0,2004891
0,2705593
0,2605462
-0,1794534
-0,009480239
0,1604992
-0,06950434
0,1704957
-0,1495043
0,1404738
-0,05951276
-0,2195128
-0,05951285
0,01003211
-0,2200119
0,239988
0,06000001
-0,3
-0,3
-0,15
0,1
-0,17
0,08000001
-0,2200003
0,2499997
-0,09000029
0,2799999
-0,07000016
0,2599868
0,08004529
0,1300459
-0,07995411
0,1800193
0,2900199
0,04004204
-0,2598829
-0,08988294
0,2401204
0,1601336
-0,1398664
0,2101456
-0,1598191
-0,169819
-0,0798195
-0,07989464
-0,08989464
0,2805596
0,18056
0,21056
-0,1194401
0,2905591
0,2005595
0,2805591
0,01055887
0,2704849
0,07048489
-0,1095151
0,1704632
-0,1395455
-0,2295455
0,1704545
-0,2995455
0,2104545
0,07045452
-0,2895455
-0,2895455
-0,09999999
-0,04999999
0,26
-0,26
0,03
0,12
-0,17
0,13
-0,06
-0,05
0,29
-0,15
0,16
0,04000001
-0,06999999
-0,2
0,01000002
0,08000003
0,0800027
0,2300016
-0,05999844
-0,1399868
-0,2899868
0,2700132
0,1500132
0,03001453
0,08001468
0,09001201
-0,009975958
0,2100241
-0,06997605
0,06003414
-0,08996595
-0,08996594
-0,2995113
0,02055958
0,2105465
0,1705466
0,1505198
-0,1295008
0,06049578
-0,1595043
-0,2295043
0,01047383
0,07048717
-0,2695129
-0,2895129
0,110032
0,1399881
0,05998805
-0,01999999
-0,18
0,28
-0,22
0,07
-0,26
-0,07
0,2899998
-0,1200003
0,2899998
-0,2599995
0,04000042
-0,1600127
0,02004101
-0,2799589
-0,06995909
0,2400411
-0,0499584
0,04004531
0,2001204
-0,1098797
0,1401204
0,2201542
-0,0898459
-0,1398453
-0,2098187
-0,209819
-0,009819392
-0,09989464
0,1201054
0,02055994
0,2605596
0,24056
0,22056
-0,07944118
-0,1994662
0,08053377
-0,1794662
0,1304632
0,2604545
-0,2095455
0,2104545
-0,01954546
0,1504545
-0,1695455
-0,2895455
-0,2995455
0,04045454
-0,009545476
-0,1595455
-0,22
0,06000001
-0,23
0,23
-0,14
0,13
-0,11
0,07
0,21
-0,02999999
0,24
0,24
0,09000001
0,06000001
-0,02999998
-0,23
0,09000001
-0,09000108
-0,1999985
0,2100017
0,1500017
0,1100134
0,1100134
0,07001357
0,1100136
-0,02998271
-0,1499828
-0,2299846
-0,2299759
-0,1599759
-0,2199759
0,05003417
0,2900339
-0,2499657
0,03047585
0,2605462
0,1805464
-0,2894539
0,06051962
0,0904989
0,2104956
-0,2995044
-0,09950459
-0,1495262
-0,2895128
-0,1595128
-0,1795129
0,2100321
-0,1299999
-0,24
-0,07999999
0,08
-0,06
0,08
-0,02
-0,04
0,24
-0,009999608
-0,1899995
0,1800005
-0,02990727
-0,1799191
-0,009932376
0,0700409
-0,1199591
-0,1099558
0,2400445
0,03004496
-0,2699549
0,01012926
-0,1198578
0,08014216
0,1501542
0,01015429
-0,2998458
0,1401813
-0,0898191
-0,04936498
0,06055988
-0,03944021
-0,1494407
-0,06944084
0,2005593
-0,2894659
0,2205338
0,000463306
-0,1995455
-0,08954547
0,06045456
-0,2395455
-0,2895455
-0,1195455
0,1904545
0,1704545
-0,1895455
0,0904545
0,0004545164
0,13
0,26
0,11
-0,09999999
0,09
0,18
0,16
0,17
0,13
0,23
0,23
0,08
0,14
-0,25
-0,01999999
0,23
0,14
0,03000001
-0,27
-0,08999922
-0,02000031
0,1400016
0,1800134
-0,2199866
0,03001364
0,2600136
0,2600145
-0,009985209
0,2900255
0,1800259
0,2800238
-0,1099761
-0,09998766
-0,1699869
0,07003471
-0,01996515
0,2400349
-0,2395242
0,0605462
0,05054621
-0,259457
-0,1694836
-0,2195043
0,07049544
-0,1295045
0,1204954
0,2204738
-0,2895128
0,02048723
-0,04951285
-0,2599679
-0,1699999
-0,23
-0,13
-0,28
0,28
-0,22
0,02
0,1699998
0,1199998
0,210071
-0,139929
0,1700711
0,2500928
0,2400808
0,03006765
-0,129959
4,112041E-05
-0,01995542
-0,2999555
0,2800447
0,08004517
0,2701288
-0,01985764
-0,1298577
-0,1598458
0,06015419
-0,1893909
0,2006357
0,2006354
-0,2593654
0,2505595
0,260489
0,04048862
0,1304888
0,1404888
-0,1795364
-0,2695369
-0,1895368
0,08045451
-0,09954549
-0,07954548
-0,1095455
0,2304545
0,1304545
0,1704545
-0,0395455
-0,18
0,12
0,14
-0,04999999
-0,09
0,02
0,02
-0,04
-0,04
-0,14
0,08
0,29
0,17
-0,08
0,26
0,11
0,26
0,08000001
0,26
-0,11
-0,1799993
-0,1799991
-0,2099973
-0,09999806
-0,1699981
-0,1099864
0,1900135
0,09001358
0,0600136
-0,1099861
-0,2599862
0,1500241
-0,009975961
0,1800241
-0,06997605
-0,009987554
-0,2399869
-0,0499652
0,1200345
-0,07996546
-0,05952435
-0,2294537
-0,1294537
-0,01945702
0,03051611
-0,2595044
-0,06950459
-0,1495045
-0,06950459
0,1004737
-0,07951283
-0,1595128
0,1704872
-0,0199679
-0,1699999
-0,3
0,02000001
-0,07
-0,19
-0,28
0,13
0,2300709
0,2000709
-0,2299072
-0,1799072
0,2300928
-0,009920416
0,2900678
0,2900678
-0,02994706
0,05005326
0,01005359
0,2600533
0,03005361
0,2500536
-0,249871
0,2405967
0,1105966
0,1706087
-0,2093647
0,2506347
0,04063502
-0,1494358
0,2505418
0,2604666
0,190467
0,2804635
-0,2895365
0,04046319
-0,07954546
0,2604544
0,1204545
-0,1695455
0,1004545
0,09045452
0,0004545168
-0,14
-0,21
-0,14
0,09000001
0,04000001
-0,06
-0,15
0,26
-0,25
0,21
-0,12
-0,17
0,02
-0,23
-0,24
0,21
0,06
-0,29
-0,24
-0,21
0,08000019
0,2400002
-0,1999998
-0,07999978
0,250001
-0,02999894
-0,05999707
0,07001356
0,01001365
0,2200135
-0,1299864
-0,1499864
0,2300136
-0,059986
0,1800139
0,1500241
-0,05997599
-0,2299875
0,04003412
0,01003417
-0,1199653
-0,1099653
0,2000347
-0,2499655
0,0004754568
0,1405462
-0,01946267
-0,03946586
-0,1394925
-0,2495044
-0,2395045
-0,1795045
0,03050865
0,0004869976
0,2204866
-0,08951347
0,2904865
0,2300321
0,1400001
-0,24
0,29
0,08
-0,05
-0,18
0,03
-0,2799785
-0,1099785
-0,2199073
-0,1099073
-0,09990734
-0,03990858
-0,01994715
-0,0399472
0,0400528
0,2100533
-0,1199467
-0,2699465
-0,2499461
0,2200539
-0,189871
0,2905371
0,2805371
-0,08946269
-0,03943591
0,1505427
-0,2494573
0,1205424
-0,06946127
0,02046358
-0,03953642
0,1604636
0,0004550442
-0,06954549
-0,01954546
0,02045453
0,1004545
0,2304545
0,0804545
0,01045453
-0,01954552
-0,05999999
-0,1
-0,23
0,25
0,08
0,08
0,15
0,28
0,09
0,03
-0,12
0,23
-0,29
0,03
-0,23
-0,29
-0,14
0,29
-0,03999976
-0,01999974
-0,09999979
0,2500002
0,05000027
0,2200002
0,04000103
0,2600028
-0,2499981
0,2800136
-0,2799864
-0,1999864
-0,04998637
-0,04998636
0,04001364
-0,05998598
0,1600121
0,08002395
0,2000241
-0,03998759
0,1700343
-0,2299659
-0,1099655
0,1300345
0,1400345
0,2800341
-0,2195244
0,2205462
-0,01946269
0,1905341
-0,09949263
0,01049555
-0,06950458
0,2404955
-0,1894913
-0,269513
-0,2295134
-0,009513339
0,1404865
-0,1599679
-0,0999999
0,12
0,02000001
0,17
0,26
-0,02
-0,22
0,2199997
-0,1100003
0,07003338
0,1700336
-0,01997855
-0,1999916
0,1999818
-0,1900182
-0,1100184
-0,2200179
0,06998211
-0,1900173
0,07043707
0,1304286
0,1205037
-0,02945766
-0,1494577
0,0705427
0,01054286
0,1705391
0,0005392188
-0,1594609
0,0005387627
-0,1395451
-0,1395451
0,2304549
0,06045496
-0,2395455
-0,2495455
0,04045453
0,02045453
0,1604545
-0,14
0,19
-0,14
0,03
0,21
-0,28
0,21
-0,09
0,03
0,13
0,21
0,24
-0,01
-0,13
-0,23
0,01
0,07
-0,16
-0,13
-0,21
-0,06
0,1100002
0,08000021
0,07000021
0,1800004
-0,08999886
3,212122E-06
0,05000313
0,04000313
0,1400019
-0,2499865
0,1400136
0,05001362
0,2000136
0,2500129
0,1700121
-0,02998786
-0,2199879
0,05002402
-0,1799759
0,1500123
-0,1999659
-0,1699659
0,1600347
-0,07996564
0,05002124
0,1600213
0,2904752
0,1505462
-0,2594895
-0,01949258
0,2005075
-0,1295045
-0,06952628
-0,07952628
0,05048693
-0,189513
0,08048657
0,1404866
0,000486603
0,02003209
-0,1399999
0,16
0,19
0,08
-0,24
-0,11
0,09
-0,07999163
-0,09999163
-0,2599667
-0,009966685
0,0800214
-0,2599917
-0,06001843
-0,1700182
-0,03001839
0,2204366
-0,1495632
-0,1795629
0,04043715
0,0104287
0,1905037
-0,009457613
-0,1494577
-0,1594573
-0,02945719
-0,1794609
-0,01946948
-0,09946954
0,06053006
0,1804549
-0,05954506
-0,2495451
0,1004549
-0,009545426
-0,06954549
-0,05999996
-0,23
-0,15
-0,14
-0,23
0,06
-0,05
-0,3
0,29
-0,19
-0,18
0,29
-0,22
-0,23
-0,11
-0,07
0,02
0,25
-0,29
-0,03999998
-0,13
0,03000001
-0,06999979
0,09000021
-0,2299998
-0,1899998
-0,2799998
0,1300004
-0,1499989
-0,249997
0,03000319
-0,06998531
0,2500136
0,2000136
-0,2799864
0,1400128
0,2900129
0,2500129
-0,02998789
0,240012
-0,06998798
-0,01998756
-0,1399875
-0,2799881
-0,1599659
-0,1699661
-0,1099657
-0,1799655
-0,1299787
-0,0599788
0,2104755
-0,1994539
0,09051058
-0,2795044
-0,2495044
0,2104955
0,1404738
0,06047377
-0,209513
0,260487
0,03048665
0,1104865
0,1504865
0,2400321
0,08000009
0,19
-0,26
-0,12
-0,25
0,04
-0,06
0,06000297
-0,01999704
-0,2399882
-0,2800016
0,18996
-0,14004
-0,09004018
-0,06004014
0,22996
0,2104148
0,200415
-0,03958461
0,2004274
-0,1695594
-0,06949308
0,1405337
0,2205303
0,1405307
-0,1894693
-0,2994696
-0,07946996
0,16053
0,0005301016
-0,09954509
0,1204549
0,1300004
-0,07999955
-0,05999996
-0,04999996
-0,21
-0,29
-0,23
0,12
-0,3
-0,15
0,11
0,03
0,29
-0,14
0,04
-0,07
-0,19
-0,15
-0,25
0,13
-0,16
0,24
0,1
-0,15
-0,25
-0,19
0,04000003
0,23
0,04000024
-0,2899996
0,1900004
0,2700004
0,1500012
-0,09999691
-0,2499981
0,2400136
0,2700136
0,2900136
0,1400136
0,1900128
0,1300128
0,1400129
0,2000121
0,2800121
0,110012
-0,1899875
0,2300125
-0,02998778
0,07003389
0,07003386
-0,1899653
3,465225E-05
-0,04997858
0,07002111
-0,02952464
0,1805461
0,1105106
-0,2195044
-0,09950458
0,2704956
-0,02952622
-0,1695262
-0,229513
0,280487
-0,04951339
0,1305132
0,1705251
0,08007065
-0,1999999
0,1
-0,04
-0,18
-4,499038E-09
-0,15
-0,3
2,937363E-06
-0,2599971
0,1200117
0,03999848
0,23996
-0,1295855
-0,2395855
-0,1395855
0,2704145
0,200415
-0,1095851
0,0204155
-0,2195726
0,2304372
-0,1394964
-0,1794697
0,1805303
0,08053079
0,1605307
-0,07946949
-0,009469902
0,06053006
0,2100755
0,02000048
0,2800004
-0,06999996
-0,16
-0,14
0,27
-0,19
0,28
0,29
-0,2
0,06
0,26
0,14
0,29
0,04
-0,04
0,09
-0,1
0,27
-0,2
-0,22
-0,24
-0,19
0,08000001
0,15
0,23
-0,01999997
0,07000002
0,03000002
0,1400002
0,2200002
2,509214E-07
0,2400009
-0,1799972
-0,1999972
0,06001453
1,345644E-05
-0,2699867
0,1900134
-0,1099864
0,1600136
0,2100128
-0,1099891
-0,08998909
0,01001212
0,2600035
0,02000378
-0,1799875
-0,1599875
-0,1799875
-0,2399658
-0,2899661
0,01003483
-0,04996525
0,1200215
-0,03997841
0,1604757
0,1405463
-0,01948937
-0,07950456
-0,01950449
0,0304955
-0,05951307
-0,1495131
-0,1195131
-0,2395131
-0,2795134
0,02051328
0,1905251
0,2800706
0,2600001
0,06
5,480356E-11
0,08
-0,07
-0,14
0,16
0,1899997
-0,2300003
0,1899912
-0,09002214
-0,1500487
-0,06959435
-0,08959435
0,07040565
0,200406
0,2904061
-0,0195969
-0,009583211
0,1304285
0,1904551
0,1505303
0,04053041
-0,02946956
0,2005307
-0,1794694
-0,02946948
-0,26947
-0,26947
-0,04992444
0,2300004
-0,2999996
-0,06999997
-0,15
-0,14
6,632138E-08
6,519156E-08
0,23
-0,29
-0,04
0,09
0,27
0,07
0,09
-0,3
-0,17
-0,2
-0,28
0,08
-0,02999999
-0,24
0,04000001
-0,28
-0,25
-0,21
-0,2
-0,29
-0,27
0,18
-0,1899998
0,1900009
0,1300009
0,150001
0,1100145
0,2500143
-0,0899855
0,2100134
-0,2299866
-0,2499866
-0,2399864
-0,1099871
-0,2399871
-0,0399879
-0,2699879
-0,2599879
0,2100038
-0,2299962
0,2500122
-0,03998756
0,06001241
-0,2799661
-0,05996587
-0,04996525
0,06003444
-0,1199788
-0,1099788
0,2704755
-0,1194539
-0,2394892
-0,2495044
-0,01950449
-0,0295045
-0,259513
0,200487
0,06048693
0,2604869
-0,1895134
0,2605132
0,1305251
0,09007066
-0,08999991
-0,28
0,27
0,009999997
-0,23
-0,3
-0,22
0,2799998
-0,2900002
-0,1295577
-0,2795708
-0,2395975
0,07040238
-0,1895975
-0,2195975
-0,05959736
-0,1195971
-0,209585
-0,07957145
0,06042862
-0,06954478
0,03053042
-0,2894697
-0,2994698
0,08053078
0,2205306
-0,2894697
0,05053005
-0,03946995
-0,2199245
0,1000004
-0,1899996
-0,19
0,17
-0,16
-0,3
-0,02999996
0,23
-0,01999998
-0,13
-0,2
0,29
-0,14
0,18
-0,28
-0,09
0,19
0,22
0,12
-0,18
0,07000002
-0,28
0,03000001
-0,23
-0,15
0,18
-0,29
0,27
0,23
-0,1599998
0,2900009
0,02000292
0,02000292
0,2300144
0,0700145
0,2100144
0,2500134
0,2000134
0,2600134
-0,2199866
0,270011
-0,04998927
0,1000118
-0,26
-0,04999981
-0,05999622
-0,1399962
-0,1799875
0,2700122
-0,1399875
-0,2699661
-0,2199658
0,2204893
-0,1595109
0,0004758526
0,07047568
0,0704724
-0,2694569
0,01050788
-0,0395041
0,2804958
-0,009504208
0,290487
-0,159513
-0,1195131
0,08048685
-0,02951343
-0,0694868
-0,1894749
-0,1999294
-0,03999991
0,29
0,26
0,04
-0,16
-0,18
-0,08
-0,01955779
0,1204423
0,2004423
0,01042911
0,1804025
0,2904026
0,07040238
-0,1895975
0,2004026
0,09040295
-0,129585
-0,06957146
0,2904285
-0,1695449
0,2205303
-0,1194692
0,0005309024
-0,2094695
-0,01946942
-0,049924
-0,04992444
0,1600755
0,1700755
0,2700004
0,2300004
-0,3
0,16
0,19
-0,27
-0,18
-0,12
-0,3
-0,13
-0,15
-0,22
-0,09
0,11
0,25
-0,2
-0,01
-0,09
-0,27
-0,02999999
0,28
-0,21
-0,3
-0,19
0,27
0,04000003
0,11
-0,03999997
-0,04999997
0,1500019
0,1700026
0,2600026
0,1200029
0,2500143
0,2300144
0,08001451
0,1800134
-0,1699866
0,1700116
-0,2299884
0,07001073
-0,08998927
-0,1399881
-0,24
0,14
-0,2599967
0,01000354
0,0600122
0,04001245
0,2900122
0,2800339
-0,2599661
-0,07952403
-0,1195243
0,1904759
0,1704759
0,2204725
0,1905431
0,1905078
-0,1495041
-0,07950424
0,1604959
0,2304873
-0,1595127
-0,009512824
-0,1095132
-0,03951346
-0,04948678
0,1805251
-0,1399294
-0,08999991
-0,14
0,03
0,25
0,19
0,06
0,22
0,2404423
-0,0295709
0,2204024
-0,2795974
-0,2595974
0,2104024
-0,04959758
0,1704025
0,1304026
0,03040272
-0,06959729
-0,2395836
-0,2495717
0,1604549
0,28053
-0,06992398
0,02007606
0,1500758
0,2100757
-0,02992428
-0,2799247
0,06007527
-0,04992473
0,08000015
-0,2499999
0,1799998
-0,1200003
0,06999974
0,1099997
-2,656858E-07
-0,02999998
-0,02
-0,18
0,25
0,28
-0,07999999
0,27
-0,18
-0,13
0,25
-0,03
-0,03
0,16
0,15
-0,28
-0,11
0,13
3,197538E-08
-0,08000025
0,2199998
-0,2900002
-0,2099995
0,2800022
-0,2099977
0,200014
-0,119986
-0,2899861
-0,169986
0,270013
-0,139987
0,02001292
0,1800104
-0,2399896
-0,1799896
-0,2500011
0,2499998
0,2299998
-0,2099915
0,1700119
0,06001167
-0,0399881
-0,1099879
-0,01998783
0,2500337
0,2900339
0,05047612
0,1904759
0,0905463
0,05054637
0,1505431
-0,2494569
0,1705078
-0,1595041
0,1804959
-0,01950407
-0,1195127
-0,009512227
-0,2695125
-0,2595127
0,09003203
-0,09994129
0,1300706
-0,1499294
-0,2899999
-0,08
0,09
-0,1
0,03
0,1
-0,23
-0,03955773
0,03042909
0,1204024
0,1604024
-0,03959757
0,1204024
0,1104024
-0,2695974
-0,2095973
-0,1495973
-0,01959722
-0,07958367
0,08042827
-0,1795451
-0,19947
0,140076
0,03007605
-0,1299242
0,1300757
0,1700757
-0,04992474
0,2000753
-0,2499247
-0,2200002
-0,1400003
0,1199997
-0,2700002
-0,04000027
0,01999972
-0,1000003
-0,1600002
-0,1500003
0,2899998
-0,03000032
-0,1100003
0,01999968
-0,2500002
-0,02000032
-0,08000027
0,1599997
0,0599997
-0,0400003
0,2399997
0,1899998
-0,1900002
0,2799998
-0,2500002
-0,2700002
0,1999998
0,06999975
-0,2499984
-0,2699978
0,190014
0,220014
0,1200141
0,05001402
-0,02998599
0,04001403
1,288507E-05
0,1300129
0,08001103
-0,1599896
1,018383E-05
0,1800104
-0,3000002
-0,1700002
-0,0700002
-0,1999915
0,2200119
0,08001174
0,09001191
-0,2499879
0,2500117
0,2700335
-0,1999657
0,2804759
0,2604756
-0,1494535
0,2605375
-0,1294922
0,07050768
-0,2994922
0,0604959
0,240509
-0,1594909
-0,1995127
-0,04951236
-0,2395125
0,1504875
0,1300322
-0,2599413
7,072129E-05
0,2800706
0,08000009
-0,22
-0,08
0,26
-0,25
0,18
0,28
0,04998777
0,2399746
-0,1995976
-0,1795976
0,2804026
0,2904026
-0,2195975
0,2204025
0,1104027
0,1304027
0,09040272
-0,1795837
0,06996185
-0,1800115
-0,2499364
0,07006409
0,08006409
0,05006391
0,04006386
0,2000637
0,1700634
-0,1399247
-0,04992469
-0,2200002
0,03999976
-0,2100002
-0,2300002
-0,1400002
0,1899998
0,1799998
-0,2800002
0,2099998
-0,04000029
0,2799998
0,1199997
0,1199997
0,1899998
-0,07000025
0,2599998
-0,1600002
-0,2800002
0,02999967
-0,0600003
-0,2900002
-0,2600002
0,2099998
0,2199998
0,1499998
0,0299997
-2,755959E-07
0,1400023
-0,09999754
0,01001403
0,2800139
-0,199986
-0,1199859
-0,009985983
-0,2799861
0,07001296
0,1900122
0,2200104
0,2100104
-0,2699894
0,2300104
0,1099998
0,1799998
0,1499998
0,08000845
-0,009988308
-0,07998826
0,1700119
-0,1599881
0,08001176
-0,1099665
0,1700339
-0,1695242
0,2104756
-0,06945389
-0,2694625
0,1205077
-0,1395041
-0,08950431
0,1304959
-0,119491
-0,2594909
0,1104873
-0,1095125
-0,01951235
0,1704875
-0,05996773
-0,1699411
0,1700708
0,1500707
-0,2299999
-0,08
-0,2
-6,75818E-10
0,01
-0,1
-0,14
-0,24
-0,1700132
-0,140052
-0,200052
0,1199479
-0,01005207
0,1199479
-0,180052
-0,1900518
0,2599615
-0,04003858
-0,2500115
0,2799885
0,2499885
0,02006374
6,418723E-05
-0,219936
0,140064
0,1900639
0,2900639
-0,0199364
-0,1299365
0,2100635
-0,2500121
-0,2100121
-0,3000121
-0,02001218
-1,217423E-05
0,2599879
0,06998782
0,1299998
-0,1000003
-0,2700002
0,1700002
0,06000013
-0,2799998
-0,2499998
0,03000012
0,06000015
0,04000015
0,2900002
-0,2299998
-0,1399998
0,2100002
0,2700002
-0,2199998
0,1900002
0,2000002
0,05000018
0,2100002
-0,2899974
0,1500027
0,1200145
-0,09998555
0,1800144
0,1800144
-0,07998554
-0,1999856
-0,2899866
0,1200122
-0,2899894
-0,1899896
-0,1500012
0,03999859
-0,1700002
-0,2500002
-0,2900002
-0,1899915
-0,1099883
1,165969E-05
-0,04998828
0,05001175
-0,2199881
-0,1599663
-0,2999665
-0,09952436
-0,2995248
0,2905458
-0,2294625
-0,2994926
-0,1895045
0,07049573
0,2504959
-0,2594918
0,05050791
0,2804864
0,08048642
0,1304865
0,2804866
0,1700433
0,08999933
0,2399992
0,01999898
0,2299991
0,02999888
0,179999
0,219999
0,12
0,07
0,21
-0,24
0,06998679
0,0099602
-0,2600397
-0,04005177
-0,04005177
0,05994822
-0,03005199
-0,1100518
-0,0200386
0,1799615
-0,08001147
-0,2700115
-0,3000115
0,01006374
-0,06993593
-0,1499361
-0,1999361
0,280064
-0,1599361
-0,02993642
-0,1299365
-0,1799365
0,01998783
0,1999878
0,009988284
-0,2700117
-0,1600118
0,09998822
-0,1800118
-0,03001175
-0,1300128
-0,09001289
-0,1400118
0,2399882
0,02998821
-0,2400118
0,2099882
0,07998823
-0,2200118
-0,09001176
-0,2000117
-0,06001178
1,666615E-07
0,2800002
-0,1399998
0,2100002
0,01000019
-0,07999901
-0,2000104
0,01998969
0,1100013
0,1300012
-0,06999871
-0,05999871
0,1800012
-0,04999985
0,2899996
-0,1600024
0,2499976
-0,08001409
-0,08001409
0,169986
-0,240014
-0,3000129
-1,344426E-05
-0,3000133
0,1599942
-0,2500025
0,2699975
-0,1400024
-0,05998914
0,02001098
0,2000329
0,2300329
-0,1395252
0,2304745
0,1205448
0,03053625
0,0305063
0,09049428
0,01049485
0,2204949
0,000508095
0,09050788
0,1604863
0,03048659
0,2804866
0,2205131
-0,24993
-0,2200006
-0,2300008
0,06999899
0,129999
0,159999
0,2899991
-0,07000111
-0,130001
-1,128022E-06
-0,02000112
-0,1500132
-0,2600131
-0,04003987
-0,06003987
0,2399601
-0,2200399
-0,2100397
0,2299604
-0,01003903
-0,2300392
0,2399608
0,1299875
-0,05002432
0,09997562
-0,1499493
0,2100511
-0,009948733
-0,129949
-0,02994875
-0,1599358
0,2600639
-0,2799361
0,2400638
0,2900639
0,1900638
-0,2199362
0,1600638
0,1800636
-0,2700115
0,2399874
0,2299874
0,05998735
-0,1900126
-0,2500125
-0,1200126
0,04998735
-0,2500125
-0,03001258
0,05998735
0,009987215
0,05998714
0,09998716
-0,0200128
0,1499741
-0,1900259
-0,050026
0,109974
0,269976
-0,03002326
0,2399883
-0,01001164
-0,2400117
0,1999883
-0,1400115
0,009988604
-0,1700115
-0,2000134
-0,04001417
0,03997421
0,1499743
-0,09002583
-0,09002582
0,1899743
0,04997422
-0,1700141
-0,1200109
0,009989155
-0,1000023
-0,0900023
0,09999731
0,1500193
-0,2899807
0,100019
0,2500193
0,07001906
-0,1395255
0,03046238
-0,2094668
0,1805245
-0,05950569
-0,02950566
0,1904945
-0,08950565
-0,2094919
-0,05949203
0,1704863
0,1604866
0,2504866
0,03051317
-0,2599299
-0,06000062
0,07999934
0,2299994
0,1999992
-0,2100009
-0,150001
0,199999
0,229999
0,009998872
0,219999
0,2299868
-0,1000132
0,04996014
0,1699602
-0,2200398
-0,03003985
-0,05003965
0,2399604
0,07996079
-0,1600392
0,09996084
-0,2900124
0,06997562
-0,2000244
-0,1199492
0,01005136
0,2900512
0,1000512
-0,1899489
-0,03993556
0,01006411
0,060064
0,1700639
-0,1299361
-0,1499361
-0,2299361
-0,2199361
0,2000637
0,1599875
-0,08001257
-0,04001258
0,09998742
0,06998742
0,2499876
0,009987539
-0,2400125
-0,1600125
0,0299875
-0,3000124
0,2599877
-0,08001256
0,2099875
-0,1400125
-0,1100257
-0,06002572
-0,07002575
-0,3000247
0,1299769
0,01997705
0,06998836
-0,1500117
-0,2100117
0,1199883
-0,2500114
-0,1000115
-0,1300122
0,02998598
-0,1200141
0,0199743
-0,2900255
-0,1100258
0,04997427
-0,2200257
-0,1500257
0,1699859
-0,3000108
-0,07001095
0,1099977
0,07999771
-0,1900025
-0,1299807
-0,03998092
0,100019
-0,1599807
-0,2699808
0,1004742
-0,109541
-0,02947035
0,2205212
0,2104945
-0,2395055
-0,04950568
-0,1295054
-0,2194919
-0,2294919
-0,1295137
0,2704867
0,02048654
0,05051314
-0,16993
0,01999943
0,2599995
-0,2900004
0,2799994
0,06999908
0,169999
0,129999
-0,2900009
0,01999888
-0,06000114
-0,3000398
-0,1100399
-0,2600397
-0,1000399
-0,1000399
0,1799602
-0,01003962
-0,03003955
-0,2900392
0,0999608
0,2699609
-0,2400125
-0,05001238
0,09998756
0,2500627
0,240063
-0,129937
-0,299937
-0,219937
6,32994E-05
-0,279937
0,2000511
-0,2399489
-0,05993715
0,08006274
-0,09993721
-0,04993709
0,1100628
0,07006279
-0,1399383
0,2600619
-0,1199383
0,2500619
-0,01993814
0,2100617
0,1700617
-0,08993834
0,2600619
0,1700617
-0,1199383
0,1699866
-1,32284E-05
-1,323256E-05
0,2399866
-0,1400127
-0,04001116
0,009989019
-0,1000112
-0,2700112
0,1299886
-0,01001127
0,1299885
0,2199885
-0,2900114
-0,0900134
-0,2100133
-0,1800133
0,08998661
0,1099866
0,2899869
-0,07001344
0,1699866
0,1999867
0,1499866
0,1299866
0,08998983
-0,20001
0,2599986
0,1899987
-0,2200013
0,0200203
-0,0899798
-0,1799795
0,1900201
0,120019
0,02047426
-0,1095294
-0,1794586
-0,2194672
-0,1794939
0,1904945
-0,2494923
0,08050755
0,2405081
0,1605091
-0,1695127
-0,04951233
0,2304876
-0,2294858
0,1200711
0,04000055
0,1100005
-0,1599995
0,1800003
0,2500002
-0,3
0,1
0,15
-0,2
0,06
-0,1500267
0,03996015
0,00996016
0,2499602
-0,2000398
-0,2200398
-3,952676E-05
-0,2700395
-0,1100392
0,1899609
0,1899627
-0,3000374
-3,707839E-05
-0,01003709
-0,2099622
-0,119935
-0,2099352
0,2500647
0,2800647
6,522644E-05
-0,1699352
-0,1299254
0,1900746
-0,2299254
0,03007492
0,2100746
-0,2399253
-0,05992514
0,2300747
0,1200747
0,2100627
0,04006289
-0,2899372
0,0100619
0,2600619
-0,1599387
0,03006142
0,1300613
0,1400613
0,08006126
0,1200613
-0,07993874
0,04006133
-0,1299369
0,2200638
0,04006402
-0,1899362
0,1400638
0,08006395
0,07006396
0,2000638
0,1400638
0,1699883
0,0999884
-0,07001352
0,2799868
0,1499882
-0,06001179
-0,09001182
-0,1200114
-0,2900113
-0,2400114
-0,2000115
0,06996188
0,269962
-0,1500082
0,2799917
0,2800003
0,03000047
0,2500005
0,1399967
-0,05000334
-0,1900033
-0,1000034
0,169996
0,2104507
0,120447
0,01054429
-0,1594644
0,2805089
0,09049733
-0,0894895
0,1504888
-0,149513
0,210487
-0,2295127
0,1604876
-0,08951246
-0,2194858
0,2700711
-0,01999942
-0,2099995
-0,08999953
-0,04999966
0,06000024
0,06000023
-0,1899998
0,27
-0,11
0,07
0,05997331
-0,1800267
-0,1900266
0,1299734
0,2299734
-0,05002662
0,0299734
-0,03003976
0,2199608
0,009960992
-0,1500373
-0,1700373
-0,2100373
-0,0800372
0,08003793
0,1000383
-0,09996168
0,2400382
0,1500382
0,200038
-0,01996173
0,07004803
0,200048
0,05004812
-0,03995188
0,04004812
-0,2599519
0,150048
0,130048
-0,1999524
0,0900476
0,1500476
-0,1799524
0,06004657
-0,07995351
-0,02995257
-0,2099527
-0,2799525
-0,07995277
-0,03995267
0,03004744
-0,1199528
-0,01995257
0,06003727
0,1200372
-0,1499628
0,2900372
0,2800373
0,1600372
0,2600372
-0,1399628
-0,1299628
-0,1900383
-0,02002499
-0,2200269
0,2799732
-0,08002514
0,05997487
-0,1300251
-0,1200251
-0,1000253
0,1799747
0,1299747
0,1199751
0,2199751
-2,157745E-05
-0,2900218
0,01998705
-0,3000132
-0,1900129
9,926784E-06
-0,1299901
0,02000994
-0,1100034
-0,1300032
-0,1995482
-0,2195518
-0,1694819
0,2205094
-0,189491
0,04049736
-0,2494895
0,2804887
0,170487
0,240487
-0,0795127
0,0404877
0,1304876
-0,01948563
-0,06992892
-0,2599995
0,03000056
0,1500005
-0,2699995
-0,2499996
0,1400002
0,05000023
0,16
0,14
-0,18
-0,1700266
-0,04002668
0,2799734
0,04997332
-0,05002668
0,2799734
0,1399734
0,2099602
-0,1900393
0,2799624
0,1899625
-0,2100375
0,1299625
-0,2500376
0,1299625
-0,1500371
0,190038
0,2600379
0,180038
-0,00996175
0,2500379
-0,1299503
-0,2599504
0,06004982
-0,2399503
0,2700496
0,02005063
-0,01994937
-0,1599496
0,0200502
0,04005016
-0,0799499
-0,009949791
0,1000501
0,2700499
-0,21995
-0,2299498
-0,0699497
-0,0899497
0,2500501
0,0700503
0,1300502
0,02005042
-0,009961502
0,03003851
0,2500382
0,1900382
0,09003837
-0,1099616
0,1900382
0,2500382
0,09003837
0,2700382
-0,1599486
-0,1399496
0,2500504
-0,07994998
-0,08994998
-0,01994989
-0,01994989
-0,03994997
-0,1500241
0,05997603
0,07997642
-0,07002363
-0,04002053
0,08997945
-0,2800122
-0,2200118
0,0499881
-0,2199901
-0,03999016
0,04000983
0,2199968
0,2199968
-0,1795481
0,1504482
0,04051803
-0,2794907
-0,199491
-0,2295027
0,2205105
-0,2095112
-0,05951109
0,0704889
0,2504886
-0,05951081
-0,1595126
-0,05948565
-0,279929
0,1500005
0,1500005
0,2400005
0,2200004
-0,01999955
-0,08999982
-0,2399998
0,23
-0,24
-0,24
-0,1500266
0,1599734
0,009973331
0,1399734
0,1099733
-0,02002666
-0,2600266
-0,2500249
-0,08002423
-0,2700238
-0,2000236
0,1699764
-0,1200235
-0,1300236
-0,09002348
0,03997697
-0,2400232
-0,1800364
-0,2900365
-0,03003613
-0,2800366
-0,0500362
0,07996373
-0,2500249
0,1899752
-0,08002508
0,02005015
0,1100501
-0,06994995
5,017256E-05
-0,23995
0,2100499
-0,01994985
0,2500499
0,2500499
-0,09994994
-0,09994974
-0,04994969
0,1300501
-0,2099499
0,2000501
-0,1099498
0,2200501
-0,09994975
0,2200501
0,2800501
-0,03994966
0,06006347
0,01006354
0,2400633
-0,1599367
0,2300633
0,2200633
0,08006346
-0,2599377
0,2000623
-0,2199377
-0,0499376
0,2400623
-0,1199376
0,2500623
-0,06993692
0,1100631
0,210063
0,2700715
-0,1199252
-0,1099252
-0,07992481
-0,08001155
-0,300012
-0,1699897
0,109997
-0,0200029
0,2099971
0,069997
0,1204521
0,03044858
-0,1294816
-0,1695022
0,2104978
0,2504975
0,2505103
-0,2095112
-0,009511041
-0,1495112
-0,1795112
0,2804888
0,1904874
0,2005142
-0,259929
-0,1799995
0,2500005
6,522513E-07
-0,05999945
-0,1699996
-0,02999974
0,07000019
-0,3
-0,07
0,03
0,07999998
-0,27
-0,1600266
0,009973321
0,09997331
0,02997333
-0,05002669
-0,2900266
-0,2900263
-0,08002359
-0,1300236
0,1999764
-0,1900236
-0,2800238
-0,08002353
-0,3000238
-0,1600237
-0,1800233
0,05997689
0,1499767
-0,1000231
-0,01002304
0,01997694
-0,1200119
0,179988
-0,1200119
-0,200012
-0,2600122
0,07998803
-0,210012
-0,2600122
0,0299881
0,2399879
0,09998806
-0,170012
0,219988
0,1099881
0,08006319
0,1800631
0,1200632
0,1700631
0,270063
0,1800631
-0,01993674
0,1700631
-0,08993682
0,1300631
-0,01993675
-0,289937
-0,1699367
-0,1699367
-0,04993652
-0,05993652
0,08006234
-0,1699377
-0,2099377
0,01006252
0,2600623
0,1200624
-0,07993758
-0,0799376
-0,09993691
-0,07993691
0,210063
-0,1299283
0,140075
0,2500747
0,01007492
0,1900632
6,324767E-05
-0,1199151
0,05007219
-0,06992787
0,2299971
0,2699967
-0,07954792
0,1004485
-0,2694818
0,0004977848
-0,03948911
0,0405109
0,1205109
-0,2795109
-0,05951104
0,2604887
0,08048885
-0,2194724
-0,139474
-0,03947372
-0,259929
-0,09999949
0,1500005
0,2500005
-0,03999943
-0,1099996
-0,03999957
0,04000041
0,27
-0,2
-0,27
-0,04000001
-0,19
0,08999999
-1,555258E-08
0,24
0,06999999
-0,28
7,69716E-07
0,1000012
0,2000011
-0,01999873
-0,0199987
-0,04999872
-0,1399988
0,1700012
0,09997455
-0,1300255
0,2699745
0,2399745
0,08997454
0,04997649
0,07997645
-0,2600242
0,149976
-0,200024
0,02997605
0,08997605
0,2699758
0,02997606
-2,392829E-05
0,179976
0,129976
0,219976
-0,03002394
0,2899758
-0,07002395
-0,2700242
0,02005121
5,11811E-05
-0,1199488
0,06005117
0,08005116
0,06005117
0,06006321
0,05006321
0,2200631
-0,09993683
0,08006317
0,08006317
0,09006318
-0,2199377
0,06006244
-0,2799495
0,01004973
-0,02995003
0,1700498
-0,2399501
0,2300499
-0,09995005
-0,08994894
0,2700491
-0,2499509
0,260049
-0,2099508
-0,2799422
0,1400609
0,05006079
0,2700606
-0,1399126
-0,05991282
0,07010888
0,1500959
-0,02944894
0,06047633
-0,2795239
0,2604767
-0,2795353
-0,01949218
-0,2095041
-0,119491
-0,1794909
-0,299491
-0,1195126
0,240487
-0,07951299
-0,189513
0,1105258
-0,08947401
0,2905261
-0,179929
-0,1399995
-0,2099995
-0,1899995
-0,2199995
-0,09999959
4,697883E-07
0,1100003
-0,03999978
0,03000024
0,21
-0,14
-0,08000001
-0,08000001
-0,17
-0,29
-0,06999926
-0,2199993
-0,03999925
-0,01999924
0,01000077
0,1500007
0,08000118
0,1400011
-0,2899989
-0,2199989
0,2599744
0,1599745
-0,2800256
0,1699741
0,1999741
-0,2800259
-0,1600258
0,2799741
-0,2600259
-0,2200259
-0,03002584
0,02997415
-0,1200259
-0,1500259
0,009974169
-0,1500259
0,04997414
0,2399741
-0,1300259
-0,2900259
0,1999741
0,0799741
-0,2600259
0,2199752
0,2799751
-0,2800242
-0,1500124
0,2199876
-0,02001235
-0,04001237
0,06998761
-0,05001238
-0,2100143
-0,3000142
-0,06001384
0,1399854
0,08997266
0,09004779
0,1300479
0,180048
-0,2799519
-0,059952
-0,129952
-0,2499519
0,0400492
0,1900491
0,1900491
-0,1999509
0,2600491
-0,1499421
-0,1999388
0,1300612
-0,03993878
-0,2999129
-0,1199128
-0,1198911
0,1100957
-0,2094496
0,1805508
0,1705508
0,1705514
-0,08946097
-0,009417018
0,07049581
0,0005090593
-0,2794909
-0,06949101
-0,1195126
0,200487
0,170487
0,0604869
0,2505257
-0,189474
-0,0194737
0,280071
-0,04999942
-0,09999949
0,2900005
-0,1199995
-0,2099996
-0,1699996
-0,2599996
0,2500002
-0,1699998
-0,14
0,24
0,29
-0,21
0,11
-0,25
-0,28
-0,01000001
0,2000007
0,2500007
-0,2899992
0,1100008
0,2500011
0,1000012
0,04000121
0,01000127
-0,04999879
0,01000127
-0,1099988
-0,2099993
0,09000078
-0,1599993
0,01000084
0,2700008
-0,2899992
0,2200008
0,2700008
0,1200008
0,2100008
0,08000079
0,04000004
0,12
-0,03999997
-0,14
-0,09999998
0,05000003
-0,27
-0,16
0,07000003
0,1500026
0,1400142
-0,2299858
-0,2599859
-0,1499858
-0,02998568
-0,1299858
1,432615E-05
0,1000143
-0,0599876
0,1600116
0,140012
0,120012
0,1399994
0,1599994
0,03999934
-0,2800005
-0,07000066
-0,2900005
-0,2300006
0,1899996
-0,2199243
-0,09992418
0,07007581
-0,1799243
-0,08992419
-0,1099155
-0,1499122
0,08008777
-0,1099122
0,2800871
-0,01991257
-0,1998909
0,2400958
0,04055028
-0,0594497
0,01055001
-0,2094489
-0,1494609
0,0005830035
0,140571
-0,08941588
-0,1294909
-0,1294909
-0,2495126
0,2304874
0,2204874
0,2700326
0,09007142
0,1200713
-0,1199285
-0,179929
-0,2899995
-0,2399995
0,1700005
0,06000056
-0,05999952
-0,009999502
0,2200004
0,2400002
-0,2299998
-0,28
0,21
-0,1
-0,05000002
-0,13
0,02999999
0,18
-0,21
-0,08999927
-0,2799993
0,2300007
-0,2299993
0,01000081
-0,06999924
-0,02999921
0,2100007
-0,2699993
0,0200008
-0,1199992
-0,009999182
-0,08999923
0,05000079
0,2600007
-0,2899992
0,1600008
-0,02999919
-0,2599992
-0,2399992
0,2800007
-0,2999993
-0,29
-0,14
-0,08999998
-0,07999998
0,12
5,203849E-08
0,26
0,21
0,17
-0,1099973
-0,2599859
0,1800142
-0,1199857
0,09001431
-0,05998571
-0,2499858
-0,009985677
0,1300142
-0,09998763
0,1500116
-0,08998839
0,2700118
0,0399989
-0,0500011
0,159999
-0,03000063
0,2399994
-0,1200007
0,08999934
0,1999994
-0,009999505
0,1100007
-0,1899994
-0,08999932
-0,2999994
0,06000937
0,1500127
-0,2099873
0,1100126
0,2700875
0,2400878
-0,1898909
0,1500958
0,28055
-0,05944975
0,03052326
-0,1394759
-0,129488
0,0705829
0,100571
0,2805842
-0,09949099
0,1605091
-0,1795126
0,09048738
-0,2595126
0,1100329
0,2600717
0,05007137
-0,1599287
0,05007094
0,07000051
-0,1899995
0,2600005
0,2000005
-0,07999959
0,06000046
0,2700004
0,0800002
0,1700002
-0,11
-0,1
-0,29
-0,08000001
0,2
-0,21
-0,18
0,05999998
-0,3
-0,17
-0,2
0,06999999
0,11
0,28
0,22
-0,22
0,25
0,28
0,12
0,26
0,24
0,19
0,03000001
-0,04
-0,09
-0,14
0,29
0,18
-0,22
-0,29
0,26
-0,11
0,08000001
0,19
-0,09
0,08000001
-0,11
-0,06999807
-0,07999729
-0,009997274
0,2100142
-0,2499858
0,2500141
-0,0799857
-0,2599859
0,2700141
0,2600124
-0,1699876
-0,2599876
0,1100116
-0,03
0,08000001
-0,160001
0,1199989
0,219999
-1,148042E-06
0,159999
0,04999886
-0,2900009
0,03000046
-0,2099996
-0,05999931
-0,01999927
0,2800006
-0,1399994
0,2000093
0,2900123
0,2200127
0,07001258
-0,1599122
0,1900746
0,02009636
0,05009613
-0,1794494
-0,2594497
0,190594
0,2305946
-0,1994175
-0,0894171
-0,05942899
-0,09941586
0,1605091
0,1305091
-0,03951257
0,04048742
-0,1195123
-0,2599669
0,2600717
0,2600713
0,2000714
0,2100709
0,1300005
-0,08999951
0,1800005
-0,1099995
-0,02999952
0,0700004
0,2700004
-0,2499998
-0,1699998
0,28
-0,27
0,04999999
0,2
0,21
0,24
-0,28
-0,29
0,06999999
-0,27
0,06999999
0,04999999
-0,17
0,05999998
-0,18
-0,07
0,1
-0,29
-0,07
0,28
0,15
-0,27
0,26
0,17
-0,08
-0,24
-0,2
0,17
0,23
0,05999999
-0,18
0,25
-0,25
-0,23
-0,04999999
-0,1399982
-0,1899982
0,2200018
0,0500143
0,1000143
-0,1399858
-0,2799859
-0,1199857
0,2200142
-0,1699876
-0,1499876
-0,009987577
0,1400116
0,06000003
0,26
0,17
0,04999888
0,02999889
-0,240001
-0,02000111
0,249999
-0,230001
0,169999
-0,03000112
0,1400004
0,1300004
-0,1499996
-0,2199996
-0,2999994
0,2000006
0,1100093
1,273537E-05
-0,2499873
-0,1899873
0,2500123
-0,1800005
0,1700212
-0,03990367
0,1305508
0,1205505
0,1205937
0,1405827
-0,2694294
0,04057101
-0,2294289
0,07058416
-0,04949097
-0,1994909
0,2704874
0,1904874
0,06048774
-0,08996684
0,2800717
0,09007137
7,15432E-05
-0,2099291
-0,06999951
-0,05999945
0,2000005
0,2600005
-0,2999996
0,2400004
-0,1299996
-0,2899996
0,01000047
0,14
-0,07000002
0,02999999
0,09999999
0,13
0,29
-0,21
0,2
-0,06000001
0,15
-0,2
-0,26
-0,17
-0,1
-0,23
-0,12
-0,26
-0,19
-0,2
-0,17
-0,11
0,02
-0,04
0,1
0,16
0,18
-0,07
0,05
0,16
0,11
0,18
-0,03999999
-0,29
-0,2799983
-0,07999807
-0,1699982
0,2100026
2,710445E-06
-0,1699858
0,2000142
-0,02998568
0,01001433
0,04001429
0,2400142
-0,09998763
-0,2499883
-0,2099884
-0,2599883
0,12
0,08000001
0,26
0,1199989
-0,240001
0,179999
-0,190001
-0,180001
0,2699991
0,219999
0,229999
0,24
0,06
0,04
-0,2599997
0,1200039
0,2600037
0,1300127
-0,2799877
-0,1899873
0,2800123
0,2400127
-0,04000053
0,03002121
0,280096
-0,09944929
0,1605508
0,1805945
0,2805827
0,01057103
-0,09941626
0,1105838
0,09058419
-0,119491
0,2205091
-0,2295126
0,1505141
-0,2494857
-0,09994016
-0,1699988
0,2000012
-0,2099988
-0,1399998
0,2800003
0,07000048
-0,1199995
-0,1599995
0,2300004
-0,03999954
0,2100004
0,2700004
0,06000046
-0,28
0,28
-0,24
0,18
-0,18
-0,08000001
0,14
0,16
-0,29
-0,07000002
-0,16
-0,05
0,02
-0,18
-0,15
-0,13
0,11
0,26
0,26
0,21
-0,07
0,19
-0,1
0,18
0,08
-0,03
0,26
0,09
-0,25
0,22
-0,07999999
-0,24
0,03000001
0,1300018
0,08000193
0,1100019
-0,1799974
-0,2699976
0,2500141
-0,07998569
-0,0999857
0,03001431
-0,1899876
-0,02998759
0,2500124
0,2000116
-0,03998837
-0,05998839
-0,28
0,26
-0,19
-0,01000113
0,239999
-0,240001
-0,170001
-0,170001
0,06999891
-0,13
-0,2
0,15
-0,03999999
-0,25
0,1
-0,2199965
-0,2899965
-0,2299875
0,2200127
0,1800127
0,03001269
0,04001263
-0,2600008
0,08002107
-0,289904
0,04055082
0,0005509696
0,1905945
0,07058281
0,230571
0,2205842
0,1705842
-0,2994162
0,01050868
0,06050906
-0,2095125
0,1105141
0,2205143
-0,1799402
-0,02999868
-0,009998672
-0,05999875
-0,2699999
0,2500003
0,2200004
-0,1999996
0,2500004
-0,1499996
0,2200004
-0,2699996
-0,04999954
0,1800004
0,28
0,06999999
0,2
-0,02000001
0,21
0,02999999
-0,02000001
-0,1
0,04999999
-0,07000002
0,06
0,14
-0,06
-0,08
0,14
0,25
-0,02000001
0,009999995
-0,03
-0,22
0,25
-0,06
-0,11
-0,22
-7,19702E-09
-0,21
0,15
0,2
0,08000001
-0,15
0,27
0,04000191
-0,02999809
-0,2599983
0,1900018
-0,06999805
0,1000143
-0,2199858
-0,1299858
-0,2299858
-0,05998571
0,2200124
0,2100124
-0,2399876
0,1800124
-0,1099884
3,768388E-08
-0,009999995
-0,03999999
-0,3
0,16
-0,0900011
0,04999888
-0,130001
0,219999
0,02999888
-0,1200011
0,12
0,27
0,12
0,18
0,07000001
0,11
-0,09999668
-0,03999666
-0,2899882
-0,1399877
-0,09998782
0,03001221
-0,08998741
-0,1600005
-0,09997895
-0,1599037
-0,1094493
0,1405509
-0,2694058
0,02058293
-0,179429
-0,09941591
-0,1894158
0,0905837
-0,1494913
-0,05949093
0,0804874
-0,01948587
0,05052636
0,2800717
-0,1999989
-0,1899989
-0,1499989
-0,2599998
0,2800003
-0,1899996
0,04000055
-0,1099995
0,1600004
-0,1999996
0,0100005
0,0900004
0,1600004
-0,28
-0,2
0,26
-0,26
0,16
-0,04000001
-0,24
-0,15
0,01999999
0,19
-0,3
-0,25
-0,09
0,15
-0,28
0,02
-0,18
-0,28
0,21
0,2
-0,27
-0,24
-0,22
-0,13
-0,14
-0,15
-0,21
0,09
-0,3
0,28
0,2200018
-0,2899983
0,03000191
0,03000191
-0,2199974
-0,009997278
-0,1099857
-0,1099857
0,2100142
-0,2799876
-0,01998759
0,1200124
0,07001238
-0,07998838
-0,1499884
0,2800117
0,06000001
-0,04999998
0,02000001
0,169999
0,02999889
-0,230001
0,08999891
0,189999
0,129999
0,2599991
-0,2800009
0,08000001
0,18
1,175459E-08
-0,13
-0,02999999
-0,15
0,04000334
0,2600031
0,2800118
0,02001199
0,1800121
0,07001219
0,03001266
-0,1695461
0,2304757
-0,1894492
0,1905508
-0,08945253
-0,09940891
-0,01942036
0,150571
-0,2794159
-0,1294158
0,0905837
0,1405088
-0,2294909
-0,1795125
-0,05948588
0,1405263
-0,07992823
0,1400011
0,1900011
-0,1899989
-0,0399998
0,1000003
0,01000059
-0,08999953
0,1400004
-0,2899996
-0,03999954
-0,2699996
-0,04999954
-0,1399996
-0,04
0,18
0,17
0,28
0,02999999
0,09999999
0,26
0,19
-0,03000001
-0,08000001
-0,02
-0,14
0,06
-1,283771E-10
0,21
0,02999999
-0,1
-0,27
-0,21
-0,18
0,05999999
0,18
0,28
-0,05
-0,24
0,02999999
-0,07999999
0,19
-0,25
-0,09999999
0,2300018
-0,05999809
-0,1099973
0,1500026
0,2100026
0,2100026
0,2600141
-0,2199858
0,0900143
0,1400124
0,1700124
0,03001164
-0,1399884
-0,03998837
0,1200116
-0,1999884
-0,27
-0,3
-9,066992E-09
-0,190001
0,1099989
-0,0700011
0,239999
-0,170001
0,09999891
0,07000002
0,19
-0,07999998
0,21
-0,3
-0,12
-0,23
0,14
-0,2299965
-0,01999665
-0,2599882
0,2700118
0,2100121
0,09001219
-0,299988
0,06045353
-0,1895243
-0,06944931
-0,05947524
-0,05947848
-0,2794083
0,01057989
0,01057126
0,1205843
0,2605841
-0,009415806
-0,08949095
-0,109491
0,2304875
0,0905141
0,0005265144
-0,009928049
-0,2399989
-0,2499989
-0,1599987
-0,2899992
0,04000083
-0,1399995
0,08000047
-0,03999947
0,1000004
0,1900004
-0,2099996
0,2800004
0,08000039
-0,17
-0,18
-0,09000002
-0,01000001
0,03999998
-0,01000001
0,29
-1,315672E-08
0,18
0,06999999
-0,25
-0,13
0,09
0,25
0,009999995
0,26
0,17
0,2
-0,03
0,28
0,04
0,2
0,16
-0,06
0,28
-0,28
0,24
0,15
0,2700017
0,1400018
-0,1699982
-0,07999807
0,03000268
-0,2599976
0,1300142
-0,1299858
0,2900141
0,1900142
-0,1199857
-0,2099876
1,244186E-05
0,2900117
-0,1299884
-0,02998836
-0,22
0,14
0,25
-0,08999999
-0,23
-1,140015E-06
0,219999
0,2799991
0,1099989
0,2899991
-0,2700009
-0,07999998
-0,04
0,26
0,009999999
0,01000001
0,04000001
-0,16
0,03000001
-0,2699969
-0,05999666
0,1300121
0,1300121
0,04001199
-0,1800009
-0,1700009
0,2604533
0,2804753
0,01055091
-0,1294752
-0,01947842
0,05059178
0,02057987
-0,1194289
-0,1394156
-0,1594158
-0,2294158
0,03050909
0,07053572
-0,02948585
0,2205141
-0,1594737
0,1000718
0,04000125
-0,2999989
-0,09999864
0,2100007
-0,2699993
-0,1299995
0,1700004
0,05000053
-0,1399996
-0,03999954
-0,1599996
-0,2699996
-0,05999954
-0,3
-0,1
-0,21
0,23
0,02999999
0,23
-0,03000001
-0,06000001
0,009999985
-0,02000001
0,19
-0,23
0,1
-0,13
-0,06
-0,3
0,05999999
-0,25
-0,19
-0,21
-0,27
-0,21
0,03999999
0,21
-0,07999999
0,23
0,1000019
0,1400018
0,1200019
-0,1899982
-0,2099982
-0,1199981
-0,1499974
0,2100026
-0,1699858
0,1700142
-0,05998571
0,1400124
0,2300124
0,2800124
0,1700124
-0,1399884
-0,2799883
0,02001161
0,01
0,14
-0,07999998
-0,3
-0,08000109
0,03999888
0,08999891
-0,1000011
-0,2800009
0,239999
-0,0900011
0,2
0,16
-0,12
0,009999999
0,09000001
-0,17
0,12
0,11
-0,1099967
-0,1199967
0,010012
0,2100121
0,1900121
-0,2700011
0,06999899
0,06045353
0,2204757
-0,1794494
-0,1794755
-0,08947887
0,1705918
-0,2394202
-0,2894289
-0,1094157
0,07058411
0,000584255
0,1005842
-0,08938956
-0,2298657
0,01005974
0,1900718
-0,1499289
-0,09999943
-0,009999315
-0,06999925
-0,2999993
-0,2399993
-0,1799995
-0,1699996
0,1500005
-0,2499996
0,04000046
0,1300004
-0,1699996
0,2900004
0,22
0,02999999
0,27
0,15
0,28
0,17
-0,23
0,2
0,02999999
0,03999998
0,14
0,14
0,28
0,23
-0,21
0,02999999
-0,1
0,02999999
0,17
-0,01
-0,15
0,009999992
-0,11
0,1
0,06000001
-0,009999992
0,09000193
0,2800017
-0,02999809
-0,1499982
-0,1799974
-0,0699973
0,1700026
-0,0999973
0,1500142
0,2700124
0,1200124
0,06001239
-0,2099876
0,1400116
0,1100116
-0,04998837
0,1700116
0,2500117
0,09
-0,14
-0,22
-0,12
-0,2600009
-0,180001
0,139999
-0,3000009
0,249999
0,139999
0,13
-0,08999999
-0,16
-0,13
-0,21
-0,01999999
-0,23
-0,21
-0,06999999
-0,1299965
-0,08999668
-0,09998802
0,2700118
0,08001198
-0,2300011
-0,1900011
0,2004536
0,1404753
-0,05952502
-0,2695509
0,1805212
0,2005918
0,1305798
-0,06942888
-0,2994157
-0,09941589
-0,08941591
-0,0894159
0,2406105
-0,1598657
0,01005972
-0,1899282
-0,02992875
-0,2799994
0,0600006
-0,05999918
0,1300007
-0,04999917
-0,02999937
0,1000005
0,06000053
0,02000048
-0,2799996
4,985293E-07
0,04000024
-0,1199998
-0,12
-0,01000001
-0,2
0,22
-0,08000001
-0,3
0,05999998
0,21
0,26
0,23
0,07
0,2
-0,14
0,18
-0,23
0,16
-0,16
-0,22
0,16
-0,21
0,23
0,24
-0,29
0,13
-0,01999809
-0,05999809
-0,1399982
0,1400018
-0,02999732
-0,1499974
0,1800026
-0,1699974
0,1900142
0,1200124
-0,2899876
0,2100124
-0,1999876
-0,2899876
0,2200116
1,164631E-05
0,05001163
0,05001163
-0,24
0,12
0,16
0,22
-0,21
0,08000001
0,02999888
0,189999
-0,130001
0,239999
0,129999
-0,06000113
-0,05999999
-0,05999999
-0,03
-0,03
-0,06
0,27
0,14
0,21
-0,05999999
0,1000033
-0,2499965
-0,05998801
-0,2999882
0,030012
0,1699989
-0,1500011
0,06045353
-0,1695247
-0,1495249
-0,1395506
0,04050925
-0,1294202
0,180593
-0,1094157
0,2605843
0,06058414
-0,1494158
0,0705841
-0,1893895
0,08013434
0,2800596
0,2400718
-0,009928449
-0,04999915
-0,1199993
0,06000081
-0,06999923
0,1300007
0,07000054
0,2500004
0,1600004
0,1300004
-0,1899996
-0,04999955
0,07000021
-0,07999979
0,21
0,05999998
0,2
-0,13
-0,17
-0,27
0,07999998
-0,03000001
0,2
-0,24
0,05999999
-0,22
-8,595981E-09
0,18
0,12
-0,24
0,1
0,15
0,11
-0,2
0,25
0,05000001
-0,1499982
-0,1999982
0,2100018
0,2200018
0,05000191
-0,09999807
-0,009997316
0,2000026
-0,2399858
-0,07998762
0,1100124
0,04001239
0,1400124
0,08001237
0,1700124
0,2300124
-0,04998836
0,2400116
-0,1499884
-0,2899883
0,04000001
-0,19
-0,3
-0,16
-0,180001
0,189999
-0,180001
0,08999891
-0,2700009
-0,05000113
0,129999
-0,04000113
-0,03
-0,14
-0,09
0,09
-0,05
-0,09999999
-0,01999999
-0,12
0,27
-0,2999969
0,2900031
-0,1599879
-0,029988
0,2600118
-0,2700011
-0,2700011
-0,1095465
0,1604754
-0,09952508
0,1704494
0,2505092
0,2305798
-0,2994071
-0,2694158
-0,1994156
0,06058414
0,1005841
0,1605842
-0,2293893
0,2001346
0,1600599
0,1100718
0,08007133
-0,1599993
-0,2299993
-0,02999916
-0,1299993
-0,2299993
-0,02999937
-0,2599995
-0,03999947
0,2700004
-0,2699996
0,04000045
-0,1899998
0,1600002
0,17
-0,15
0,15
-0,21
-0,1
-0,13
-0,26
0,26
0,00999998
0,02999998
-0,15
-0,13
-0,01000001
0,19
0,1
0,11
-0,2
-0,23
-0,16
-0,12
0,05000001
-0,1799982
0,1900018
0,05000191
0,1500018
-0,1799982
-0,1199981
-0,1399982
-0,0999973
0,2700024
0,1900142
-0,04998761
0,2100124
-0,05998761
0,1900124
-0,05998761
-0,2999876
0,2800124
-0,009988354
-0,009988354
0,06000001
0,11
0,13
0,03
-0,18
-0,3
0,06999891
0,0799989
-0,06000113
0,149999
0,159999
0,249999
-0,1000011
0,219999
-0,2
0,04
-0,04
-0,21
-0,07
-0,22
0,28
0,18
0,06000001
0,0300033
0,1300034
0,1900121
-0,04998802
-0,2599882
-0,3000011
-0,1500009
0,1004535
-0,1795513
0,08044823
0,1404494
0,1105092
0,2405798
-0,0094069
-0,1494157
-0,06941568
0,1505842
0,04058416
0,09058411
0,2106111
0,04013508
-0,1899401
0,2400718
-0,2499287
0,2800008
-0,1699993
-0,1599993
0,2700008
0,2100007
0,04000061
-0,08999953
6,00469E-07
0,1800004
-0,2599996
-0,2099996
0,2000002
-0,0799998
0,04
0,01999999
0,07999998
-0,22
-0,26
0,03999998
-0,13
0,04999998
-0,19
-0,14
-0,25
-0,2
0,15
0,08
0,02999999
-0,12
0,26
-0,29
-0,07999999
0,19
0,14
-0,03999809
0,2100018
0,1600018
-0,1299982
0,1900018
0,08000193
-0,1299974
-0,1599974
0,2200026
0,1900124
-0,1099876
-0,04998761
-0,2899876
-0,1999876
-0,2899876
-0,2899883
0,1300116
1,163856E-05
0,07001162
0,07
-0,009999995
0,17
0,27
-0,220001
0,169999
-0,2500009
0,249999
0,169999
-0,190001
0,219999
-0,2700009
0,17
-0,29
0,07
-0,23
0,11
0,22
0,2
-0,15
0,25
-0,3
-0,09999999
-0,1199967
-0,0299967
0,1500121
0,1500121
0,1400121
-0,02000095
0,01999905
-0,1295464
-0,1695513
0,01051894
0,14052
-0,1794202
-0,1594202
0,09059278
0,2405842
0,07058412
0,0005842084
0,1405842
0,1205841
-0,009388752
-0,2698531
-0,2999281
0,1600719
0,02007149
-0,05999913
-0,06999924
-0,2799993
-0,1099992
-0,2099993
0,2200005
-0,1499996
0,1100005
0,0700004
-0,2199998
-0,009999749
-0,009999754
-0,0699998
-0,29
-0,09000002
-0,04000001
-0,16
0,24
0,08999999
0,009999981
-0,28
0,19
-0,08000001
-0,02000001
0,17
-0,15
-0,1
0,009999991
-0,18
-5,176426E-09
-0,13
-0,12
0,11
-0,18
-0,08999807
-0,09999807
-0,04999809
-0,1799982
-0,2299974
-0,0999973
-0,1399974
-0,2699859
0,04001429
-0,2499876
-0,2099876
-0,05998761
-0,1699876
-0,009988355
-0,07998838
-0,1499884
-0,1499884
-0,22
-0,1
-0,16
-0,009999995
0,05000001
-0,29
0,02999889
0,01999889
0,229999
0,01999888
0,129999
-0,02000112
-0,240001
0,199999
-0,19
0,18
-0,2
0,1
-0,3
-0,3
-0,29
0,16
-0,12
-0,15
0,29
-0,1599966
-0,1399966
-0,109988
-0,069988
-0,2899882
0,1999991
-0,2200009
0,2604533
-0,1495512
-0,2094809
0,2705196
-0,03942018
0,1205798
0,1505928
-0,1094159
0,2205842
0,1005841
-0,1694158
0,1805843
0,02061147
0,05014725
-0,01992784
-0,1499281
0,2800713
0,05000086
-0,2799993
0,1800007
-0,08999924
-0,1599993
-0,1699995
-0,07999953
-0,2899995
0,2900004
2,532316E-07
-0,0899998
0,1400002
-0,1599998
-0,22
0,22
0,11
0,04999999
0,00999998
0,21
0,11
-0,17
-0,09000002
-0,02000002
0,24
0,11
-0,22
-0,09
0,01999999
-1,292443E-08
0,12
-0,07
0,16
-0,2899983
-0,08999807
0,1700018
0,2900017
-0,2799983
0,1600018
0,1200027
-0,2899859
0,1600142
0,2500124
-0,02998759
-0,1899876
-0,05998761
0,05001239
0,08001237
0,02001164
-0,08998838
-0,2299884
0,2700117
-0,27
0,06000001
0,03
0,14
-0,17
0,03999888
0,229999
0,09999891
-0,240001
0,209999
0,189999
0,009998866
-0,140001
-0,24
0,05
0,12
0,22
-0,1
0,22
0,08
0,18
0,19
0,19
0,24
-0,13
0,2400034
-0,1399966
1,201034E-05
-0,2400009
-8,938057E-07
0,1899991
-0,2000009
-0,07954652
0,1504488
-0,09948116
-0,20948
-0,01942014
0,07057977
0,04059279
-0,05941584
-0,2194158
-0,2394158
0,05061084
-0,2093891
0,2706113
-0,05985275
-0,189928
-0,259928
0,1900713
0,2200007
0,1500007
-0,1899993
-0,009999358
-0,01999937
-0,2199995
-0,1599995
0,1600004
0,08000039
-0,03999976
-0,1099998
-0,1199998
-0,06999981
0,03
0,05999998
-0,28
0,08999999
-0,21
-2,137103E-08
0,16
-0,05000002
-0,17
-0,15
0,16
-0,03000002
-1,324687E-08
0,12
-0,17
0,1
0,27
0,2300018
0,1300018
-0,1899982
0,1000019
-0,1699982
0,1400018
0,07000193
0,1100019
0,2300026
0,07001238
-0,2399876
-0,06998762
0,2000124
-0,1899876
-0,1599876
-0,2399876
0,1400124
0,03001164
0,2900117
-0,2399884
-0,1199884
-0,15
0,1
-0,12
-0,05999998
0,09000002
-1,139848E-06
-0,06000113
-0,2900009
0,2799991
-0,04000113
-0,3000009
-0,240001
0,09999891
0,02
0,06
-0,24
0,12
-0,11
0,21
-0,05
0,27
-0,15
0,23
0,1
-0,29
-0,06999672
-0,2599969
0,010012
-0,09954651
0,1504536
-0,2195464
-0,1595464
0,03045356
0,09044854
0,08051885
-0,2794804
0,2205798
-0,1394202
0,04059279
-0,1594158
-0,1694158
0,1005841
0,2506107
-0,1893891
-0,2493887
-0,1298529
-0,2099986
0,08000142
0,08000076
0,2900008
-0,2799993
-0,1699993
-0,2199995
0,1100005
-0,09999946
0,2900003
0,1600003
0,08000021
-0,0799998
-0,1499998
-0,03999997
0,23
0,1
-0,18
-0,13
0,16
0,01999998
-0,29
0,24
0,02999998
-0,16
-0,04000002
0,14
0,05999998
-0,18
-0,13
-0,11
0,12
0,04000001
0,1300018
-0,1599982
-0,04999809
0,2200018
-0,08999807
0,1300018
0,2500024
-0,2499974
0,2100026
-0,1099876
0,08001237
-0,1499876
-0,1599876
0,2300124
-0,1199876
0,1800116
-0,1099884
0,2900117
0,1200116
0,23
-0,11
0,14
-0,23
0,14
-0,25
0,15
0,04999888
-0,01000114
0,009998864
-0,01000113
-0,2800009
0,08999891
-0,2600009
-0,2600009
0,08
-0,29
-0,3
-0,3
-0,11
-0,01
-0,08
0,1
0,11
0,12
-0,15
-0,13
0,2900031
0,0200033
-0,04998802
0,1804536
0,2204536
-0,1195465
0,0704532
0,1804533
-0,1595515
0,2905188
-0,23948
0,1005798
0,1705799
0,0505928
-0,2294158
-0,03941584
0,04058436
-0,08938903
-0,1393889
0,2806113
-0,189853
-0,1999987
-0,1599987
-0,1299993
0,1700007
-0,1099992
0,1000008
-0,1699995
0,01000034
0,09000029
-0,2799997
-0,04999969
-0,009999755
0,1700002
0,1600002
-0,27
-0,27
0,13
0,06999999
0,14
-0,28
-0,15
0,19
0,08999999
0,24
-0,11
-0,17
0,14
-0,08000001
0,26
-0,24
-0,09999999
-0,03999809
-0,1399982
-0,2399982
0,1900018
-0,1299982
-0,2199982
-0,2999983
0,03000191
0,08000268
-0,05998761
-0,1299876
0,05001239
0,2600124
0,1100124
-0,1899876
0,2900124
0,1900124
-0,2599883
-0,07998838
0,21
0,13
0,01
0,26
0,25
-0,1
0,05000001
-0,0700011
-0,02000111
-0,2500009
0,2599991
0,199999
0,04999887
0,01999888
0,1199989
0,29
-0,18
0,11
0,26
0,15
0,25
0,12
-0,26
-0,24
0,08
0,28
-0,16
0,13
-0,18
-0,2299964
-0,1699964
0,2400123
-0,1295464
0,03045354
-0,1595464
0,06045323
0,2404533
-0,09955174
-0,1894809
-0,01948002
0,1205928
0,1505928
0,02059283
-0,02941558
0,1205844
0,03058448
0,1101573
-0,2798429
-0,1698432
0,1201471
0,2900014
-0,1199986
0,2200007
-0,1099992
-0,02999892
-0,2199991
0,09000055
-0,04999969
-0,1199997
0,2600003
-0,2399997
0,2200002
-0,1999998
-0,09999982
0,22
-0,29
0,03
-0,29
-0,13
-0,24
-0,26
0,22
-2,14747E-08
-0,03000002
-0,28
-0,2
-0,2
0,05999998
-0,06
-0,26
-0,13
-0,1899982
-0,009998095
1,905476E-06
-0,2199982
0,2500017
-0,2799983
0,2800024
-0,2499974
-0,2399974
0,2600124
-0,01998759
-0,2799876
-0,1599876
-0,07998762
0,2000124
0,04001162
-0,1899884
0,04001163
0,1000116
-0,3
0,1
0,14
-0,23
0,07
-0,24
0,18
-0,06000112
-0,140001
-0,130001
0,2799991
-0,2800009
-0,2900009
-0,170001
0,08999891
0,24
-0,08
0,09
-0,19
0,27
0,29
0,04
0,25
-0,19
-0,21
0,06
0,2
-0,15
-0,25
-0,1899963
0,05000357
0,280012
-0,2895467
0,1304536
-0,2595467
0,06042656
-0,02957343
-0,08955134
0,2205195
-0,2794803
-0,2394072
0,07059276
0,1105928
0,1805844
-0,2294156
0,2305844
-0,02984254
0,1801572
0,04015693
-0,02985274
-0,02999845
0,2500014
0,2900009
0,07000094
0,1100005
-0,0499994
0,1400005
0,02000032
0,2800003
-0,2899997
-0,1399997
0,02000024
-0,1099998
-0,2499998
0,12
0,29
-0,3
-0,13
-0,22
-0,28
-0,03000002
-0,29
0,16
-0,21
0,2
-0,09000002
0,23
-0,23
-0,26
-0,1499982
-0,2099982
-0,2899983
0,1000019
0,08000193
0,1300018
0,09000193
0,2800017
-0,0599973
-0,2899992
0,09000078
0,2200124
0,2400124
-0,06998762
0,2100124
0,1500124
0,04001239
-0,1199884
0,06001162
-0,2499883
-0,2299884
0,23
-0,21
0,1
0,02000001
0,29
-0,03999998
-0,220001
0,199999
0,169999
-0,1100011
0,01999888
0,05999887
-0,02000112
0,1199989
0,21
-0,16
0,21
0,1
-0,09
-0,28
-0,29
0,06
-0,15
-0,02
-0,21
0,03
0,07
0,25
-0,06999999
-0,1399963
-0,2699967
-0,1399877
-0,2795467
0,2604533
-0,07954652
0,2904264
-0,09957351
-0,2195511
0,08059441
-0,1394048
0,01059286
-0,2194072
0,07059277
0,1105843
-0,2293885
-0,1393885
-0,03984264
0,1001574
0,2901569
0,01014732
0,1200014
0,07000139
-0,1599991
-0,279999
-0,2399995
-0,1399997
0,2300003
-0,1899997
-0,07999972
-0,03999968
0,1900003
-0,1799998
-0,03999978
0,01000023
-0,14
-0,15
0,03
0,009999994
-0,1
0,21
0,23
0,13
-0,29
-0,26
0,009999978
0,22
0,29
0,02999999
-0,09
0,2200018
-0,2299982
0,2700017
0,2500017
0,2200018
0,03000191
-0,04999732
-0,2799976
0,2900024
0,1900124
-0,2399876
-0,2399876
-0,2199876
0,1500124
-0,1799876
-0,02998836
-0,1199884
0,1200116
-0,2499884
-0,04999999
0,22
0,13
0,24
-0,1
-0,22
0,07000002
0,29
0,04999888
-0,210001
0,009998864
-0,160001
-0,140001
-0,1100011
0,199999
-1,131328E-06
-0,11
0,21
-0,13
0,03
0,27
0,2
-0,17
0,03
0,11
-0,16
0,15
0,14
0,27
0,1900002
0,07000022
-0,1799964
-0,1999964
0,2300123
-0,2195464
-0,009546385
-0,2095464
-0,1795733
0,06042653
0,1704489
-0,1494056
0,0305949
0,1905962
0,2205964
-0,0194036
0,05058444
0,1906115
0,1606115
-0,1198427
-0,1498427
0,2301569
0,05014718
-0,2899986
-0,2199987
-0,2299993
0,04000084
0,09000029
-0,2099997
-0,1799997
-0,2399997
-0,07999972
0,2200003
-0,2899997
0,1600002
0,02000003
-0,11
-0,27
-0,08
-0,19
-0,09
-0,1
-0,24
-0,15
-2,759394E-08
-0,12
-0,06000003
-0,3
-0,1
-0,25
-0,2399982
-0,05999811
0,2800017
-0,0399981
0,1200019
0,2500017
-0,2899983
-0,1999982
-0,2899976
0,1500026
0,03000081
0,2000124
-0,2999876
-0,2999876
1,24401E-05
-0,05998761
-0,07998762
0,01001164
-0,2799883
-0,09998838
-0,2199884
0,01000001
-0,03999999
0,05000001
0,26
0,25
0,16
-0,1000011
0,00999887
0,199999
0,129999
0,02999888
-0,1200011
-0,2700009
-0,240001
0,11
-0,07
-0,04
-0,11
0,21
-1,437714E-09
-0,22
-0,28
0,07
0,07
0,01
-0,11
-0,24
0,14
-0,25
0,2500002
0,2200002
0,2700033
0,2900033
0,2600119
0,04045355
0,2804531
-0,0695468
-0,009572937
0,1704271
-0,2195512
0,1105942
0,09059478
-0,1894038
-0,279404
0,2905961
0,01058453
0,2606114
0,2306115
0,1801568
-0,2998431
0,260157
-0,1798528
-0,1899985
0,1900015
-0,2999993
-0,009999085
0,1900003
0,2700003
-0,04999969
0,05000031
0,1000003
0,05000032
-0,04999987
0,24
0,21
0,05000003
-0,11
-0,24
0,02
0,13
-0,3
0,26
0,01999998
0,12
0,19
-0,02000001
0,21
0,04999997
0,06999999
-0,2999983
-0,07999808
-0,1699982
0,2600017
-0,2599983
0,2900017
0,09000269
0,1600026
-0,2099974
0,2600024
-0,2599992
-0,2099876
-0,04998761
-0,2599876
-0,1899876
-0,01998759
-0,2499883
-0,1599884
-0,1399884
-0,1999884
-0,0699884
-0,18
0,19
-0,09
-0,25
-0,3
-0,3
0,09999891
-0,01000113
-0,3000009
0,01999889
0,0799989
-0,160001
-0,1000011
-0,05000113
-0,18
-0,03
0,09
-0,1
0,25
-0,19
0,19
-0,21
-0,2
-0,02999998
0,04000002
0,04000023
0,2100002
-0,09999979
-0,1699998
0,1300002
-0,1699998
0,05000356
-0,05999643
-0,1699877
0,170454
0,02045369
0,2104537
0,2004271
-0,2695734
0,2804483
0,2905942
-0,1394048
-0,2094035
-0,0694037
-0,03940323
0,2505848
-0,2493886
0,09061147
0,290157
-0,2899181
-0,03991793
0,2300721
-0,09999862
0,2800013
0,04000043
-0,2699997
0,09000028
0,2300003
0,01000034
-0,03999968
-0,2199998
-0,1099998
-0,15
-0,14
-0,12
-0,28
0,19
-0,24
0,07
0,09
0,04999999
0,1800001
-0,1299995
0,2700005
-0,1799999
0,02000006
0,2900001
0,1700001
-0,2999983
0,08000191
-0,0199981
-0,1799982
-0,08999809
-0,1799982
-0,1299982
-0,0999973
-0,1499974
-0,0499992
0,09001238
0,1400124
0,2300124
0,2800124
-0,1099876
0,07001238
0,2000124
0,09001163
-0,2899883
0,2300116
-0,25
-0,05999999
-0,25
0,29
-0,29
-0,11
-0,04999998
0,08000001
0,05999887
-0,0700011
0,159999
-0,2900009
-0,2600009
0,219999
0,229999
0,219999
0,27
0,25
0,28
-0,28
0,28
0,28
0,17
-0,06999999
-0,03999998
0,23
0,15
0,07000022
-0,01999976
0,09000022
-0,2399998
0,02000024
0,01000028
-0,2499997
0,1100002
0,06000891
0,03042736
-0,00957292
-0,1895728
-0,2894978
0,1705022
0,09052382
0,1305827
0,2205833
0,0905963
0,07059631
0,1005967
-0,2894152
-0,2593886
-0,02938839
0,100157
0,2500819
0,1100818
0,2800719
0,2400014
-0,2399986
0,06000036
0,1200003
0,02000032
-0,2199997
0,04000031
0,1800003
-0,2099998
0,2700002
-0,14
-0,16
-0,01
0,28
-0,2
-0,14
-0,11
-0,02999993
0,1300001
0,2600001
-0,1499995
-0,1099995
-0,1499999
0,2500001
0,1400001
0,1800001
-0,1699982
0,1300018
0,02000191
-0,2899983
0,2900017
-0,1999982
0,2000018
0,02000271
-0,1999974
0,05000079
0,2900124
0,2000124
0,2700124
-0,2699876
-0,02998759
0,2900124
-0,009987581
0,1500116
0,0500116
-0,0599884
-0,22
0,11
0,21
0,18
-0,22
-0,18
-0,19
0,139999
0,129999
0,04999887
0,209999
0,1099989
0,2699991
0,129999
0,25
0,2
-0,15
-0,22
0,28
-0,24
-0,07
0,26
0,17
0,05000002
-0,13
-0,01999976
2,57317E-07
0,1000002
-0,009999752
-0,1399998
0,2000002
-0,009999732
-0,1099998
-0,1099998
0,1000007
0,01000969
0,2204276
0,1405024
0,2305024
0,1605024
0,280502
-0,239476
0,1905827
0,05058319
0,1305965
-0,1194035
0,2305971
-0,1694147
-0,2193885
0,06061158
0,130157
-0,09991805
0,1700818
-0,01992797
-0,2899987
-0,1899987
0,2300003
-0,1399997
3,621341E-07
0,09000028
0,1100001
1,564033E-07
-0,15
-0,02999997
0,14
-0,07999998
-0,09
0,08
-0,28
-0,07
0,28
9,728273E-08
-0,1499995
-0,1899995
-0,2299995
-0,1299993
-0,2299994
-0,1899995
0,2100023
0,2800021
0,05000232
-0,1299978
0,02000191
0,2200018
0,02000192
-0,009997298
0,1100027
0,2000008
-0,1199992
-0,009999191
0,07001238
0,05001239
-0,1699876
-0,1699876
-0,2599876
-0,01998836
0,2000116
-0,0799884
0,2100116
-0,0899884
0,26
-0,16
-0,2
0,14
0,08
-0,18
-0,25
0,05999888
-0,0900011
0,129999
-0,2600009
0,1199989
-0,05000113
0,01999888
-0,26
-0,06
0,27
-0,08
0,24
-0,16
0,1000002
2,343373E-07
-0,0999998
0,02000024
0,1500002
-0,07999978
-0,1299998
-0,2899998
-0,2399998
0,09000063
-0,03999933
0,1400006
-0,09999936
7,991056E-07
-0,2799994
-0,09999049
-0,2395724
0,1805024
-0,1694978
-0,09949788
-0,06949788
-0,2594761
-0,009417116
0,04058341
-0,04940302
0,2505963
-0,1994033
0,1105848
-0,2193885
0,1006115
0,0001572965
-0,01990591
-0,01990615
0,06007198
0,1000009
-0,04999901
0,2400003
0,0700003
0,2800003
-0,1499997
0,2500001
-0,2599999
-0,009999975
0,11
-0,14
-0,11
-0,09
0,25
-0,01
0,13
-0,12
-0,2099995
-0,2199995
0,04000049
0,2100005
0,05000071
-0,2899994
0,1500005
-0,2299977
0,2000023
-0,1799977
0,0500024
0,2200022
-0,03999767
-0,209997
0,2800028
-0,1399971
0,1400011
0,1900128
0,07001277
-0,03998761
-0,01998759
0,1900124
0,2700117
-0,05998838
-0,1099884
0,05001161
0,1700116
-0,12
-0,24
0,04000001
-0,15
-0,18
-0,04999998
-0,08999999
-0,1000011
-0,1100011
0,239999
0,149999
-0,2600009
-0,0700011
-0,210001
-1,14079E-06
-0,22
-0,27
-0,11
-0,19
-0,27
0,02000002
-0,12
-0,2699998
0,06000023
-0,2499998
0,2100002
-0,1299998
0,2000002
-0,1099998
-0,1999998
-0,2099998
0,01000074
-0,2999995
-0,1699993
-0,02992402
-0,289924
-0,1399372
0,2700715
-0,06949738
-0,02949751
-0,259498
0,1805023
0,08050215
-0,089476
0,290583
0,1405839
-0,1694029
-0,1293767
0,270623
0,1106115
0,2406115
-0,2494638
-0,2199183
0,01009386
-0,1499067
0,2900714
-0,2799991
0,2700009
-0,2099997
-0,0999997
-0,2299997
0,01000034
-0,2899999
-0,2199999
0,14
-0,17
-0,26
-0,2
0,11
-0,01
0,21
-0,24
0,25
0,1300001
0,2900004
0,1300759
0,09007601
0,110076
0,07007603
-0,08992398
0,08007793
-0,2999224
0,2200025
0,07000241
-0,1399978
-0,2699979
-0,07999691
-0,009996861
0,2800145
-0,02998719
0,2800128
-0,1199872
0,1700128
-0,2699872
-0,09998722
0,02001206
0,170012
-0,009987926
0,07
0,15
0,1
-0,27
0,05000001
-0,02999999
0,2
0,18
-0,21
-0,06000112
0,009998865
0,01999888
-0,1100011
-0,1000011
-0,1100011
0,179999
0,1099989
-0,24
0,09
-0,07
0,2200002
0,1000002
0,2000002
0,04000023
-0,1799998
-0,1599998
2,534385E-07
0,02000023
-0,1199998
0,2200002
-0,0699997
-0,03992411
0,2500759
-0,1999241
-0,2599241
0,210076
0,1100761
0,04007595
-0,04993751
-0,05992886
0,1705023
-0,01949752
0,2305028
0,2805243
0,2705244
-0,03947547
-0,2194036
0,07059647
0,2805963
0,2906227
-0,08937705
-0,1694604
0,2305396
-0,05946052
0,06008169
0,2600936
0,2400933
-0,2499285
0,2100009
-0,09999911
0,2700001
-0,1299999
-0,00999987
-0,1299999
-0,2899999
-0,2499999
0,06
-0,21
-0,14
-0,03
-0,24
-0,23
0,11
-0,16
0,05
-0,05999957
0,1700008
0,220076
0,07007607
0,1500764
-0,2499218
0,2300778
0,04007802
-0,109922
2,912328E-06
-0,2099974
0,03000288
0,0100027
0,03001479
-0,2199872
0,2700129
0,0500128
0,1300128
-0,2599872
-0,02998718
1,2854E-05
0,2800128
0,06001202
0,2600121
0,220012
0,19
0,28
-0,09
5,040864E-09
0,22
-0,16
0,02000001
0,08000001
0,18
-0,180001
-0,210001
-0,2900009
-0,02000111
-0,2500009
-0,1600008
-0,2700007
0,1299992
-0,1999998
0,1600002
0,2100002
0,01000023
-0,2599998
0,05000021
-0,2299998
7,182355E-07
0,01000079
-0,0699991
0,06000096
0,1700008
-0,2499992
-0,04999904
-0,1999241
0,260076
0,140076
0,260076
-0,2299242
0,01007605
-0,2694696
-0,03948283
-0,1394743
0,07050231
0,2405024
0,1205027
-0,0994756
0,2905243
0,2505239
-0,2294041
0,0705962
0,1905964
-0,06937714
0,1706231
0,1805396
0,1905396
-0,2494604
-0,0999184
0,1400937
-0,07990678
-0,1699285
-0,2999993
-0,08999926
0,2000001
0,2500001
0,2100001
0,1200001
0,1600001
0,2800001
-0,25
0,13
-0,21
-0,23
0,01999999
0,09
0,13
-0,01
-0,16
0,07007557
-0,08992444
-0,1599244
-0,2199222
0,04007846
-0,05992154
0,1500778
0,1600778
-0,06992199
-0,1299222
0,07007799
-0,08999639
0,2000033
-0,05998518
-0,1899871
0,1400129
-0,1199872
-0,2799872
-0,2499872
-0,0399872
0,110012
-0,2699879
0,2900121
0,04001201
-0,2899879
0,2000004
-0,06999959
-0,01999957
0,1100004
0,2100004
-0,2299996
-0,25
-0,11
0,209999
0,1199989
-0,08000107
-0,220001
-0,2600009
-0,05000111
0,2699993
-0,2599998
-0,2099998
-0,02999976
-0,04999977
-0,2099998
0,06000027
-0,1599997
-0,1199246
0,2700754
-0,06992418
-0,1599242
0,07007609
0,07007607
-0,269924
0,02007622
0,04007614
-0,08992393
0,1000761
-0,229924
0,140076
-0,2999242
-0,1299238
-0,2494691
0,02051766
-0,1994739
0,02049962
-0,2895005
0,2904995
0,1105244
0,1805246
0,06052409
-0,1694041
0,0705962
-0,2194787
-0,08945227
0,02054784
0,05053947
0,04053947
-0,04946053
-0,05991873
0,05009329
-0,2499067
7,168327E-05
-0,1299993
0,07000072
1,684096E-07
-0,02999986
-0,1499999
-0,1199999
-0,2199999
-0,2999999
-0,03
0,27
0,1
0,26
0,17
-0,26
0,25
-0,16
0,06
0,0400754
-0,1499247
0,06007617
-0,2099222
0,1700778
-0,2999224
0,2900777
-0,01992186
0,120078
-0,299922
0,2800781
0,1600789
-0,1599229
0,1200888
-0,2099113
0,2400884
0,1600885
0,1700885
0,2400885
0,09008854
-0,2599124
0,1600874
0,1100872
0,02000049
0,1700004
-0,2199996
-0,1499996
0,2700004
-0,1899994
0,03000064
-0,01999936
0,09000106
-0,09999894
0,18
0,19
-0,1000001
-0,02
-0,09000004
-0,00999997
0,05999955
0,01007586
0,2800759
0,03007616
-0,1299241
-0,1999241
-0,169924
-0,179924
-0,159924
7,625146E-05
-0,289924
-0,289924
-0,139924
-0,289924
0,04007615
0,02007622
0,1800764
0,03007685
-0,2599235
-0,08992355
0,09007645
0,1500764
-0,2799236
-0,1294691
-0,2195092
0,02049965
-0,1195005
-0,03950044
-0,03950044
0,2205242
0,190524
-0,03947621
-0,04947952
-0,1294787
-0,1194789
-0,2194518
-0,2399062
-0,1799149
-0,06991553
-0,07991553
0,03005939
0,2500713
-0,2999287
-0,03992864
-0,2099993
0,02000075
-0,1899999
0,08000011
0,1500001
-0,1399999
-0,2899999
0,1600001
-0,06000001
0,29
0,2
0,21
-0,02000001
0,11
-0,06
0,15
0,21
0,1700004
0,1600023
-0,07992226
0,1100777
0,05007806
0,06007807
0,2900777
0,120078
-0,03992189
-0,04992189
0,06007621
-0,2099116
0,1100885
0,1800884
0,1300885
0,1400885
0,05008871
-0,2299111
0,06008913
-0,09991097
0,1000883
0,1000767
-0,2099234
0,2100766
-0,2799234
-0,2799234
-0,04992322
-0,03992322
-0,03992322
0,09007671
-0,05992319
0,1700756
0,08007558
7,577695E-05
0,1600756
-0,2099244
0,08007559
0,1500756
0,04007566
0,2600765
-0,1899234
0,2500765
-0,1099233
0,2000766
-0,0499232
0,0600768
0,1200767
-0,1899234
-0,2399234
-0,2399234
0,2300766
0,04007678
0,1800766
-0,05992321
-0,1899236
-0,2399236
0,07007647
7,672064E-05
0,08007647
0,03007665
-0,1999236
0,02007665
-0,1494691
0,1604904
-0,2995011
0,1804989
0,01042362
-0,1995763
-0,2895515
0,04044861
-0,2395511
0,2005207
0,02052112
0,09052107
-0,219452
0,1400932
-0,08991569
-0,1199157
-0,03991563
-0,03994064
-0,1099286
-0,1599287
-0,09992871
-0,09999928
0,1600007
0,2000001
0,2800001
-0,1699999
-0,1099999
0,09000009
0,02000008
-0,23
-0,23
-0,29
0,15
0,09
0,09
0,02999999
0,2
0,05999999
-0,25
0,01000197
-0,2099224
0,01007788
0,2900775
-0,2799225
-0,2899223
-0,2099222
-0,1499222
-0,02992105
0,1500768
-0,1199115
-0,2599116
-0,1799116
-0,1699115
0,2600886
-0,1799115
0,250089
0,2900882
-0,2099118
0,1900882
-0,1199233
0,2100766
-0,07992332
-0,2799234
0,2800766
0,1200767
0,01007695
0,2300766
-0,009924177
-0,2599244
0,1700756
-0,01992423
0,2000756
-0,09992441
0,1800756
-0,2599244
0,1800756
-0,09992442
0,1300766
0,1900766
0,1900766
0,2700765
0,2200766
0,2400766
-0,1699234
-0,2699235
0,2500765
0,1700766
0,1900764
-0,03992342
0,1400764
0,04007658
0,1000765
0,1600764
0,1600764
0,1000765
0,1700764
-0,00992329
-0,2899236
-0,09992352
-0,009923792
-0,1494695
0,1604904
-0,0795012
0,2704988
0,2004237
-0,1595763
0,2104488
-0,05955138
0,2204487
-0,0594797
0,0405209
-0,1494788
-0,09945215
-0,2999073
-0,0999157
0,2800841
-0,02991562
0,1900593
0,2500713
0,1700713
0,1300713
-0,2599993
-0,2799993
-0,1099999
-0,1699999
0,1800001
-0,2699999
0,04000008
-0,2299999
-0,13
-0,11
-0,11
-0,07
-0,1
0,03999999
-0,19
-0,01000001
0,26
-0,06999805
0,1900018
-0,2699979
-0,07999757
0,2700772
-0,2799228
-0,2099223
-0,109922
-0,109922
0,1600883
-0,03991144
0,1100885
-0,1099115
0,1000885
-0,2499115
0,02008885
0,1500885
-0,1999115
0,1300878
-0,2799122
0,1400878
-0,2899238
-0,1999238
-0,1299234
-0,1299234
0,0400768
-0,2499234
-0,1499234
0,2100766
0,2900756
-0,03992432
-0,2099244
-0,01992423
7,584046E-05
-0,04992433
-0,2399244
0,1400756
-0,09992331
-0,2299234
0,2900765
-0,1999234
0,2300766
-0,01992311
-0,1399234
-0,2199234
-0,03992322
0,2700765
0,08007667
-0,1699234
0,2100764
0,04007658
-0,06992352
-0,02992334
-0,03992341
-0,1799236
-0,08992352
0,08007648
0,1600764
-0,2499236
-0,07992354
0,2700761
0,2400007
-0,01954482
-0,09958502
-0,09957641
-0,1395763
-0,1795763
0,1904237
-0,1595511
0,2904486
0,1804487
-0,05948012
-0,279453
0,1405474
0,2205476
0,2000932
0,03008441
0,2300846
-0,2199154
0,2000594
0,07007133
-0,03992863
-0,2899287
0,2900007
-0,04999927
-0,2799999
0,1200001
-0,2799999
-0,1199999
-0,2699999
-0,01999992
0,27
-0,16
0,15
-0,29
-0,15
-0,05000001
-0,22
0,26
0,21
-0,1699982
-0,2199982
-0,05999804
-0,1599981
-0,269998
-0,2099978
-0,08992244
0,1200899
0,04008995
-0,07991201
0,1800881
0,1400883
0,0700884
-0,1499117
0,1400883
0,01008869
0,2200878
-0,01991194
0,2500878
-0,1199237
0,04007639
-0,1999238
7,652598E-05
-0,1899238
0,01007651
0,2000762
-0,2099238
-0,1399238
0,1200763
0,06007567
-0,05992433
-0,04992433
0,2700756
-0,1299244
0,06007567
-0,009924183
-0,2799244
0,1700766
0,2500765
-0,1499234
0,1000767
0,2900765
-0,0199231
0,2500764
-0,1499236
0,1300764
-0,1099235
0,2900763
-0,2899236
7,673029E-05
-0,06992351
0,2700764
-0,1699991
0,08000094
-0,1299991
-0,2699994
0,07000066
-0,1799993
0,1200006
-0,1799994
-0,2999994
-0,2600125
-0,2995581
0,2704151
0,2704237
-0,06957683
0,1704231
-0,09957697
0,08044804
-0,1495637
-0,009563856
-0,2594802
0,02054718
0,1005471
0,07054742
0,04009298
0,1200843
0,05008443
0,2500842
0,1700594
0,01007145
-0,1999287
-0,1499287
-0,1799993
-0,1699993
-0,02999986
-0,1799999
-0,1199999
0,2900001
0,03000008
0,2100001
0,19
-0,26
0,12
-0,16
0,05999999
0,29
-1,144364E-08
0,28
0,21
0,2600017
0,2800017
-0,08999805
0,1600018
-0,2999983
-0,1199981
-0,05999804
0,02000274
-0,2899976
0,1200124
-0,0999876
-0,2799876
-0,1399876
0,2500128
0,1100128
0,1900128
0,1900121
0,1700005
0,1300006
1,061247E-06
-0,189999
-0,01992353
-0,08992373
-0,2599238
-0,06992372
0,1000763
-0,2999238
0,1900762
-0,04992361
-0,2899247
0,05007523
-0,1899249
0,07007497
-0,2699249
0,2100749
0,03007509
0,1800756
-0,009924189
-0,1899244
0,240076
-0,279924
0,09007607
-0,129924
-0,139924
-0,179924
0,1900009
0,02000073
-0,2099993
-0,2899994
-0,04999936
0,1700006
-0,1899994
0,1700006
-0,02999935
0,1000006
-0,01999935
0,0700006
-0,1299998
-0,07999999
-0,1
-0,12
0,04000002
-0,2295455
-0,2995587
-0,23955
-0,2095767
-0,04957702
-0,1695769
-0,2595737
-0,2195855
-0,2895639
-0,1094801
0,06054655
0,1805468
-0,0194531
0,01009309
-0,1999155
-0,2599158
0,2100845
0,03005946
-0,2299287
0,2100713
0,1800713
-0,2999993
-0,1699993
-0,05999991
-0,05999991
-0,2099999
-0,06999991
-0,07999991
0,2600001
0,009999996
-0,24
0,21
0,05999999
-0,03
0,009999996
-0,13
-0,21
-0,27
-0,06
-0,1099981
-0,2499982
0,2300019
-0,06999805
-0,02999806
0,05000195
0,2800001
0,2800001
-0,2099876
-0,1199876
0,02001241
-0,0499876
0,1800127
-0,1799872
-0,0399871
0,1600121
-0,2299995
0,1600006
0,1200009
0,140001
-0,1499238
0,1900762
0,1100763
-0,1899238
-0,009923484
-0,1699238
0,1400762
-0,1899238
-0,2999238
-0,2999238
0,2200752
0,240075
0,170075
-0,2099251
0,1800749
0,1500756
0,2400756
0,06007573
0,160076
0,190076
-0,03992386
-0,189924
-0,159924
-0,259924
-0,0699991
-0,2499993
-0,1299993
0,08000064
-0,1999994
0,1000006
-0,0699994
0,01000067
-0,02999935
-0,1199994
-0,2099994
-0,009999336
-0,06999981
0,11
0,23
-0,16
0,2
0,16
0,2699869
-0,2200132
-0,03958536
0,07041433
0,07042298
0,090423
-0,05957701
0,110448
0,2204495
0,01047595
0,2904758
0,230547
-0,1199071
-0,2599159
0,05008435
0,07008428
0,1800593
-0,0699287
0,2500713
-0,2399287
-0,2899993
-0,0999993
0,06000009
-0,09999991
-0,02999991
-0,01
-0,3
-0,11
-0,09
-0,18
0,12
0,02
0,29
0,09
-0,17
-0,25
0,08
