0,17
-0,11
0,2099997
-0,1300003
0,06999968
0,13
0,17
-0,02
-0,07
0,01
0,23
-0,24
0,24
-0,28
0,04
-0,13
-0,18
-0,25
-0,17
-0,3
-0,02
-0,14
0,09
0,16
-0,08
0,1
-0,07
-0,29
-0,26
-0,29
-0,13
0,29
0,1
-0,2
-0,22
-0,01
-0,27
-0,26
0,22
0,14
-0,11
-0,06
-0,08
-0,08
-0,2
0,21
0,17
-0,2
0,2
0,29
0,13
-0,009999999
0,27
0,23
0,24
0,01
0,1
-0,25
0,25
0,26
-0,11
0,15
-0,07
-0,08
-0,16
0,23
-0,05
0,14
0,24
-0,26
-0,17
-0,23
-0,17
-0,01000001
0,1
-0,27
0,23
-0,14
0,04999999
-6,012898E-09
0,22
-0,17
-0,2
-0,25
-0,13
0,1699999
-0,2800001
0,1599999
-0,1500001
0,05999989
0,1899999
0,2799999
-0,22
0,249984
-0,06001609
0,03998391
-0,2900159
0,2899841
-0,23
-0,13
-0,05
-0,2700003
-0,140016
0,149984
0,149984
0,05998391
-0,140016
-0,03001608
-0,1800157
0,21
0,07
-0,07
-0,01
-0,05
-0,27
-0,25
0,05
-0,13
-0,26
-0,03
0,2
0,08
-0,01
-0,13
-0,15
-0,15
0,28
-0,12
-0,26
-0,25
-0,28
0,24
-0,22
-0,12
-0,26
0,19
0,27
-0,06
-0,1
0,11
0,01
0,04
0,04
-0,06
0,29
-0,05
-0,02
0,13
0,21
-0,12
0,29
0,13
0,25
0,1
-0,04
0,16
0,04
0,28
2,614395E-09
2,317715E-11
0,07
0,28
-0,07
-0,24
0,18
0,13
-0,15
-0,19
-0,09
-0,16
-0,22
-0,2
0,27
-0,08
0,25
-0,15
-0,26
-0,2500001
-0,1200001
0,1999999
0,1599999
-0,1500001
-0,04000011
0,1499999
-0,2400001
-0,1100001
0,2799999
-0,0300001
0,2199999
-0,1300004
-0,1500004
0,2799996
0,2399839
0,1999839
-0,2600159
0,0299839
-0,190016
-0,03001609
0,04998391
-0,15
-0,2000003
-0,130016
-0,09001606
0,06998394
-0,200016
0,179984
0,159984
0,01998392
0,149984
-0,200016
0,1199839
-0,02
0,09
0,09
0,13
-0,08
0,01
0,07
-0,3
-0,01
0,14
0,17
-0,11
-0,26
0,28
-0,21
-0,14
-0,23
-0,12
-0,08
-0,26
0,07
-0,01
-0,28
0,1
-0,01
0,23
0,18
0,05
-0,13
0,02
-0,04
0,12
0,11
0,05
0,16
-0,12
-0,16
-0,24
0,11
-0,29
0,04
-0,03
-0,24
0,01
-0,07
0,28
-0,13
0,08
-0,3
0,02
0,09
-0,16
-0,08
-0,24
-0,26
0,29
0,06999991
0,2899999
-0,1600001
-0,0100001
0,1299999
-0,2900001
0,1199999
0,2599999
-0,1200001
-0,2600001
0,06999991
-0,0100001
-0,1800001
0,2099999
-0,2900001
-0,3000001
0,05999989
-0,09000009
-0,0100001
-0,2000001
-0,08000041
0,009999556
-0,1300004
-4,473794E-07
0,0599838
-0,2000161
0,04998381
0,1499839
0,229984
-0,180016
-0,1000161
0,04998391
-1,610977E-05
0,159984
0,1099839
-0,150016
0,219984
-0,180016
-0,130016
0,02998392
0,139984
-0,200016
-0,170016
-0,1200161
-0,1000161
0,1799843
-0,04001575
-0,21
0,009999999
0,09
0,07
-0,29
0,06
0,24
0,06
-0,25
0,11
0,13
0,22
0,03
-0,05
0,26
-0,27
-0,25
0,13
-0,28
0,28
-0,05
-0,21
0,15
-0,23
-0,05999999
-0,27
0,26
-0,05
-0,18
-0,12
0,28
-0,21
0,18
0,14
-0,04
-0,16
-0,16
0,04
-0,11
0,28
0,05999999
-0,2
0,05999999
0,03
-0,21
-0,1100001
0,1399999
-0,2300001
0,1799999
-0,2300001
-0,2300001
0,0499999
-0,1200001
0,1899999
-0,3000001
0,2899999
0,1499999
0,009999897
-0,1700001
0,2699999
0,09999991
-0,0200001
-0,06000011
0,1599999
0,1299999
0,0299999
-0,2600001
0,1899999
0,2899999
0,1199999
0,1799999
0,009999897
-0,06000044
-0,2600003
-0,08000042
-0,1500004
0,01998381
-0,1900161
0,279984
-0,260016
-0,1200162
0,179984
0,06998394
-0,2500159
-0,190016
-0,07001606
0,209984
0,2799841
0,129984
-0,04001608
-0,01001609
0,1199839
-0,09001606
-0,09001606
-0,130016
-0,230016
0,149984
0,189984
0,1999843
0,04998425
-0,1500157
0,25
-0,22
-0,24
-0,12
0,06
-0,2
-0,16
-0,04
0,15
-0,04
0,03
0,02
-0,21
0,08
0,21
0,21
-0,12
0,05
-0,11
0,12
-0,25
-0,25
0,02
-0,17
-0,25
-0,2
-0,28
0,16
-0,15
-0,009999999
0,13
-0,09
-0,07
0,19
-0,07
0,1
-2,657338E-09
0,17
0,04
-0,1800001
0,0599999
0,009999909
0,2799999
0,2899999
0,2499999
-0,2000001
-0,1900001
0,1299999
-0,05000011
-0,1500001
-0,0400001
-0,1700001
0,0099999
0,2299999
-0,2100001
0,1899999
0,04999989
0,2299999
-0,1800001
-0,04000011
-0,2200001
-0,0300001
-0,1900001
-0,1500001
0,1299999
-0,1800001
-0,2100001
-0,1000001
-0,1500001
-0,1900001
-0,1000001
0,009999554
-0,3000004
-0,2400004
-0,250016
0,02998381
-0,2300161
0,01998381
-0,1300161
0,2499839
0,279984
-0,1100161
-0,1000161
0,2899841
-0,2800159
-1,609868E-05
0,189984
-0,01001609
0,08998395
0,02998392
-0,2600159
0,06998394
0,04998391
-0,220016
-0,2600159
-0,220016
-0,1000161
0,1199839
-0,140016
0,1299843
-0,2900156
0,2099843
-0,03
-0,16
0,24
0,25
-0,18
-0,05999999
0,18
0,05
0,12
-0,27
0,05
-0,14
-0,02
0,18
-0,23
-0,18
-0,18
-0,17
-0,08
0,09
0,1
0,12
-0,24
0,12
0,26
0,22
-0,29
0,26
-0,17
-0,06
-0,14
0,04
0,24
-0,24
0,21
-0,2400001
-0,2600001
-0,2300001
-0,1300001
-0,0500001
0,1099999
-0,2600001
0,2099999
-0,2900001
-0,2800001
-0,1200001
0,09999991
-0,1400001
-0,2900001
-0,2200001
-1,004383E-07
-0,2700001
-0,1000001
-0,09000009
-0,1900001
0,1499999
-0,2300001
-0,1900001
0,2799999
-0,1000001
-0,08000009
0,2099999
-0,0900001
-0,1300001
0,1699999
-0,2900001
-0,0800001
-0,0900001
0,2599996
-0,2900003
-0,2300161
-0,260016
0,2499839
0,269984
0,269984
0,04998381
0,2099839
-0,250016
0,09998385
0,07998393
-0,190016
0,149984
0,2399997
-0,2500003
0,239984
-0,180016
-0,170016
0,01998392
0,239984
-0,240016
0,2799841
0,229984
-0,220016
0,2699841
-0,2800159
0,199984
0,129984
0,02998392
-0,1600157
-0,3000157
0,2499843
-0,12
-0,11
-0,3
-0,29
-0,05
-0,23
-0,08
-0,05999999
0,06
0,24
-0,28
0,009999998
-0,1
-0,22
0,07
0,26
-0,14
-0,08
0,04
0,17
0,2
-0,03
0,2
-0,27
-0,17
0,25
0,27
0,25
-0,23
0,22
-0,13
0,21
0,09
0,1199999
0,2199999
-0,0400001
0,2399999
-0,2600001
-0,0100001
-0,2600001
0,1999999
-0,2300001
-0,1200001
-0,1800001
0,2599999
-0,08000009
0,1799999
0,1799999
-0,0600001
0,2299999
-0,0300001
-0,2000001
0,08999991
-0,1700001
-0,2500001
0,2099999
-0,0200001
0,2699999
0,1699999
-0,01000011
-0,2100001
-0,03000011
-0,1300001
0,1399999
0,05999988
-0,2000001
0,2099996
0,07999958
-0,1500004
-0,2000161
-0,280016
-0,1900161
0,2299839
-0,0100162
0,269984
0,1199838
-0,2100161
0,07998385
-0,2400161
0,209984
-0,2300003
-0,21
-3,819152E-11
-0,1700003
-0,05001608
-0,230016
-0,190016
-0,04001608
0,05998392
-0,2900159
0,2799841
0,2699841
-0,140016
-0,3000159
0,239984
-0,07001606
0,199984
0,02998392
0,04998425
0,1499843
-1,575668E-05
-0,21
0,03
-0,17
0,21
-0,15
-0,13
-0,2
-0,14
-0,07
0,12
0,19
0,2
0,25
-0,09
-0,3
0,26
-0,27
-0,12
-0,01
0,29
-0,05
-0,28
-0,16
-0,18
-0,26
0,25
0,23
0,04
0,03
0,21
0,05
-0,28
-0,09000009
-0,09000009
0,2699999
0,0499999
-0,1300001
-0,08000009
-0,2000001
0,1999999
-0,2900001
-0,2000001
-0,1800001
-0,1100001
-0,2200001
-0,2300001
-0,1000001
0,07999991
0,2299999
-0,0400001
0,1699999
-0,1500001
-0,2400001
0,1499999
-0,2500001
-0,2300001
-0,1100001
-0,3000001
0,1599999
-0,1100001
-0,0700001
0,04999988
0,1199999
0,01999989
-0,2400004
0,1599996
-0,02000045
0,0399838
-0,07001615
-0,0500162
0,08998385
0,09998385
-0,2200161
0,08998385
0,279984
-0,1600161
0,1899839
0,2399996
-0,2600003
0,27
0,03999998
-0,16
0,1
-0,2400003
-0,2700003
-0,1000003
0,2599997
0,05998392
-0,150016
0,199984
-0,140016
-0,140016
0,05998392
0,199984
-0,04001608
-0,05001608
-0,02001608
0,09998395
-0,180016
-0,09001574
0,07998426
0,15
-0,16
-0,02
0,17
-0,23
-0,24
-0,03
0,17
0,2
-0,12
-0,05999999
0,26
0,18
0,15
-0,21
0,25
0,05
-0,02
0,16
0,2
0,21
-0,11
0,03
-0,22
-0,07
-0,27
-0,12
-0,18
0,02
0,1599999
-0,2200001
0,1099999
0,1299999
-0,1200001
0,1799999
0,2899999
-0,1800001
-0,1100001
0,2499999
-0,1700001
-0,0100001
0,1899999
-0,0600001
0,0099999
0,2099999
-0,1100001
0,1699999
-0,2500001
-0,1300001
-1,007811E-07
0,2199999
-0,1900001
-0,0400001
-1,028345E-07
0,1599999
-0,04000011
0,1099999
-0,1100001
-0,06000011
-0,2700001
0,1799999
-0,1600001
-0,1600004
-0,2700004
-0,2000004
0,1299839
-0,1800161
-1,621183E-05
0,259984
-0,2100161
0,1199838
-0,1400161
0,02998381
0,01998381
-0,09001616
-0,2800001
0,2399999
-0,28
-0,13
-0,27
-0,14
-0,18
0,25
-0,28
0,24
0,2599997
-0,1500003
-0,1800003
0,009983907
-0,09001606
-0,1200161
0,219984
0,239984
0,219984
-0,05001608
-0,160016
0,03998392
-0,1000161
-0,1000161
-0,2200157
-0,2300157
-0,13
-0,22
-0,23
0,17
0,06
0,08
0,23
-0,21
0,14
0,02
0,08
-0,28
-0,09
0,17
0,05
-0,12
-0,19
-0,21
-0,16
-0,03
-0,3
0,28
0,04
0,2
0,2
-0,09
0,1
-0,24
-0,2400001
-0,02000009
0,02999991
0,1099999
-0,2200001
0,2599999
0,2799999
-0,2600001
0,1799999
-0,1500001
-0,1300001
-0,1300001
-0,09000009
-0,2700001
0,1699999
0,1899999
0,08999991
0,1999999
0,0299999
-0,2500001
0,1999999
0,2599999
-0,07000009
-0,1900001
-0,2400001
0,0999999
-0,2300001
-0,1100001
0,0299999
-0,1400001
0,2599999
-0,1600001
0,2799996
0,1599996
-0,2700004
-0,1500004
0,279984
0,269984
0,2299839
-0,0500162
0,1799839
-1,620813E-05
-1,620809E-05
0,259984
0,2099842
0,2599999
-0,2500001
0,2599999
-0,2000001
0,15
-0,2
-0,3
0,18
0,05
-0,14
-0,2
-0,26
-0,08
0,03999968
-0,02000033
0,1899997
0,08998395
-1,609685E-05
0,009983907
-0,1200161
-0,2700159
-0,1100161
0,04998392
-0,3000159
0,009983907
0,199984
0,1199843
0,2599843
-0,2300157
-0,13
-0,11
-0,05
-0,04
-0,11
-0,2
0,05
-0,2
-0,22
0,18
-0,24
0,26
-0,05
-0,08
-5,77621E-10
0,22
-0,19
0,06
-0,08
-0,05
0,06
-0,22
-0,3
0,29
0,08
0,18
0,06999991
-9,339884E-08
0,2599999
0,07999991
0,2499999
-0,02000009
-0,2700001
0,09999991
-0,1200001
0,2599999
0,1399999
0,07999991
-0,2800001
-0,0600001
0,2199999
0,07999991
-9,593384E-08
0,1199999
-0,0600001
-0,08000009
0,0699999
0,26
-0,25
-0,23
-0,1
-0,17
-0,11
0,00999999
0,00999999
-0,2200001
-0,1100001
-0,04000043
0,1799996
-4,512175E-07
0,02999956
-0,260016
-0,1700161
-1,621308E-05
0,2299839
0,06998385
0,2199839
0,1399842
-0,2600157
0,02998414
-0,2200158
0,02999989
0,02999989
0,2799999
0,01999989
0,27
0,06999999
-0,13
0,04
-0,15
-0,2
0,1
-0,05
0,19
-0,12
0,1099997
-0,2200003
0,01999967
-0,210016
-0,210016
0,06998394
-0,1200161
0,189984
0,01998392
0,199984
0,179984
-0,05001609
-0,3000159
0,1899843
0,1699843
-0,01001575
0,22
0,22
0,02
0,28
0,17
0,1
-0,09
0,29
0,03
2,656579E-09
-0,29
0,21
0,02
-0,1
0,22
0,09
-0,07
-0,18
-0,19
-0,01
-0,1
0,05
0,24
0,25
0,19
0,1299999
-0,2900001
-0,2300001
0,1399999
0,0199999
0,05999989
-0,02000009
0,1699999
0,1599999
-0,1300001
0,1799999
0,2299999
0,2
-1,305697E-09
-0,3
0,16
0,02
0,04999999
0,07999999
0,05999999
-0,04000001
-0,14
-0,19
0,28
-0,22
-0,29
0,18
0,06999999
-0,1300001
-0,2100001
-0,1300001
0,2699997
0,05999957
-0,2200004
-0,2700004
0,07998385
-0,1600161
-0,1500161
-0,290016
0,239984
0,01998423
-0,2600157
0,1599842
-0,2800157
-0,2600001
0,1599999
0,01999989
0,1099999
-0,1900001
0,1299999
0,17
0,29
-0,14
-0,12
-0,07
-0,03
0,19
-0,21
0,05
-3,388961E-07
0,1799997
0,1999997
-0,01000034
0,06999968
-0,3000003
0,209984
-0,140016
0,1099839
-0,04001608
-0,08001605
0,01998392
-0,130016
0,03998424
0,1399843
-0,2700157
-0,08001573
5,378539E-09
-0,21
0,23
-0,09
-0,02
-0,23
-0,04
0,04
-0,09
-0,12
0,11
-0,13
0,15
0,06
0,18
-0,25
0,09
0,009999996
-0,24
0,12
0,04
-0,21
-0,28
-0,17
-9,310695E-08
0,1999999
-0,1600001
0,1899999
-0,2000001
-0,01000009
-0,0500001
0,009999909
-0,1500001
-0,3
0,26
0,1
-0,15
-0,17
-0,29
0,09999999
-0,06
0,25
-0,15
0,11
-0,2
0,28
0,26
0,2
0,02999999
-0,04000001
0,06999999
-0,2800001
0,0799999
-0,0900001
0,1699999
-0,09000042
-0,2300004
0,09999958
0,2099839
0,06998385
0,2199839
0,06998385
-0,07001606
0,209984
0,2299843
-0,2100158
-0,2800157
0,1399999
0,0999999
-0,2200001
0,1899999
-0,05000012
-0,01000011
-0,05000012
-0,13
0,09
0,23
-0,1
-0,27
0,01
0,24
-0,05999999
-0,15
0,14
0,21
-0,08
0,2199997
0,2299997
-0,1800003
0,04998392
0,02998392
0,04998391
-0,08001605
-0,07001606
0,179984
0,169984
0,009983908
-0,07001574
0,1799843
-0,3000157
0,26
-0,19
-0,21
-0,06
0,07
-0,18
0,03
-0,17
-0,26
-0,22
-0,03
0,17
0,07
-0,1
0,13
-0,03
-0,09
0,09
-0,3
0,009999998
-0,14
-0,22
0,02
-0,26
0,05
-0,16
-0,2700001
-0,2500001
0,0599999
-8,919893E-08
-0,2300001
-8,724461E-08
0,009999997
-0,28
0,05
0,13
-0,16
0,2
-0,24
0,09
0,19
0,09
0,19
-0,26
-0,22
0,15
0,28
-0,28
0,09999999
-0,1
-0,0500001
0,2199999
-0,0700001
-0,1300001
0,1299996
0,1699996
0,08999959
-0,2500004
0,1899839
-0,07001615
-0,2200161
-0,0300161
0,0599839
0,02998423
-0,2900156
0,2599843
-0,1500158
0,03999988
0,1499999
0,2899999
-0,1800001
-1,109156E-07
0,01999989
-0,1000001
0,11
0,07
-0,12
-0,03
0,26
0,19
-0,15
-0,29
-0,05
-0,15
-0,26
-0,15
-0,23
-0,1700003
-0,1200003
0,1699997
-0,2700159
-0,210016
-0,2900159
0,129984
-1,609436E-05
-0,09001606
-0,2800159
-0,1500157
-0,2700157
-0,1900157
-0,01001575
-0,07
-0,13
0,1
-0,22
0,24
-0,11
-0,28
0,05
-0,24
-0,009999998
-0,19
-0,22
-0,3
-0,23
-0,23
-0,29
-0,1
-0,01
0,15
0,18
-0,29
-0,15
0,27
0,25
-0,27
-0,01
0,1899999
0,1899999
-0,1100001
0,0399999
-0,28
-0,06000001
0,14
-0,11
0,22
0,14
0,14
-0,23
-0,21
0,25
-0,26
0,07999999
-0,18
-0,13
0,22
-0,29
-0,29
0,05999999
-0,0700001
-0,1000001
0,1199999
0,1599999
-0,1300004
-0,08000041
-0,03000044
-0,2200004
-0,1100004
0,1399839
-0,250016
-0,0500161
-1,61213E-05
-0,1700157
-0,1500157
0,01998423
-0,04001577
0,1599842
-0,0700001
0,0999999
-0,1500001
-0,0700001
-0,1300001
-0,1700001
-0,1000001
0,19
0,14
-0,07
-0,27
0,09
-0,27
-0,29
-0,02
-0,17
-0,04
0,29
0,22
-0,14
-0,23
-0,08
0,2099997
0,1399997
-0,06001608
0,2899841
-0,2800159
0,139984
-0,05001609
0,209984
-0,08001605
0,09998427
0,2099843
-0,2400157
0,07
-0,1
-0,09
0,29
-0,28
-0,02
-0,04
-0,03
0,08
-0,26
-0,26
0,09
0,11
-0,27
0,26
-0,13
0,16
-0,15
0,1
-0,2
0,08
-0,29
0,18
-3,063068E-09
0,28
-0,12
-0,2
0,05999999
-0,07000001
0,22
-0,3
-0,08000001
0,18
0,27
-0,06
-0,22
0,21
-0,04
0,27
-0,07000001
0,2
0,09999999
0,13
0,17
0,09
0,15
-0,13
0,2899999
0,1699999
-0,2200001
-0,2600001
-0,2300004
-0,3000004
0,09999958
-0,03000044
0,05999956
0,01998382
0,1999839
-0,2900159
0,139984
-0,1300157
0,1999843
-0,2700157
0,1599843
-0,2700157
0,1099999
0,1999999
0,1399999
0,08999991
0,1799999
-0,05000012
-0,1000001
-0,1200001
-0,14
-0,1
0,28
-0,13
-0,29
0,21
-0,17
-0,3
-0,19
0,18
-0,15
0,17
0,23
-0,08
-0,22
6,55649E-10
0,1699997
0,04999967
-0,2900003
-0,05001609
-0,170016
-0,2500159
-0,3000159
0,05998391
0,2599841
0,1299843
0,2699844
0,2399843
0,03
-0,11
0,28
0,13
0,14
0,19
0,13
-0,1
-0,02
-0,12
-1,8375E-09
0,29
0,18
0,13
-0,25
-0,29
0,18
0,29
-0,2
-0,12
0,12
-0,17
0,21
-0,18
-0,07000001
0,25
-0,26
-0,19
-0,1
-0,08000001
-0,09000001
-0,13
0,23
-0,12
-0,04
0,22
0,19
0,00999999
-0,28
-0,26
0,09
0,18
-0,29
-0,01000001
-0,25
-0,2800001
0,0599999
-0,01000009
0,2899996
0,2799996
0,1799996
0,2699997
0,02999956
0,07999958
-0,1800004
-0,1100162
-0,0200161
0,159984
-0,1100161
0,1899843
0,1399843
0,01998424
0,2899843
-0,2400157
0,2699999
-0,1700001
-0,2500001
-0,01000011
-0,1400001
-0,1700001
-0,1900001
-0,1400001
0,2599999
-0,25
0,09
0,24
-0,18
-0,09
-0,23
-0,09
-0,12
0,04
-0,19
-0,09
0,03
-0,07
0,13
-0,15
-0,24
-0,2300003
-0,07000032
-0,2700003
-0,180016
-0,170016
-0,1100161
-0,230016
0,179984
0,249984
0,01998426
0,2099843
0,2699844
-0,23
-0,17
0,15
0,17
0,01
-0,29
-0,03
0,29
-0,13
-0,23
-0,23
0,08
0,28
0,01
-0,21
-0,09
0,07
0,02
0,04
-0,01
0,2
-0,07000001
-0,21
0,2
-0,22
-0,26
0,12
0,15
0,01999999
-0,25
-0,14
0,19
-0,15
-0,06
-0,2
-0,09000001
-0,05000001
0,03999999
-0,29
-0,09000001
-0,14
-0,15
0,18
0,2899999
-0,1400001
-0,06000042
-0,1700004
0,1099996
-0,2000004
0,1499996
-0,2000004
-0,08000042
0,2799996
-0,09001616
-0,240016
0,129984
-0,2700159
0,2499843
0,08998426
-0,03001576
-0,1200157
0,1099843
-0,04000002
-0,1800001
0,1999999
-0,1300001
-0,0800001
0,03999989
-0,1000001
0,1799999
0,2499999
-0,2700001
1,643894E-11
-0,18
-0,17
0,04
0,04
-0,21
0,04
0,13
0,2
-0,29
0,05
0,16
0,25
0,24
0,2
0,23
-0,13
-0,04000033
-0,1300003
-3,400903E-07
0,249984
0,02998392
-0,2800159
0,03998391
0,189984
0,05998392
-0,210016
0,2799841
-0,2800156
0,09
-0,09
-0,09
0,2
-0,23
0,21
0,15
-0,22
0,02
-0,21
0,24
-0,1
0,26
0,07
-0,13
-0,25
0,09
-0,14
0,26
-0,03000001
-0,02000001
-0,14
0,23
-1,170105E-08
-0,05000001
-0,22
0,27
-0,21
0,09
0,14
0,28
-0,3
0,05999999
0,09999999
-0,2
0,09
-0,16
0,26
0,18
-0,28
-0,25
0,15
0,1399999
-0,1300004
-0,07000041
-0,2100004
0,2899996
0,2599996
0,1499996
-0,02000044
-0,2100004
-0,1100162
-0,180016
0,009983887
0,0299839
-0,08001574
-0,03001576
0,1999843
-0,05001576
0,2799844
0,2399843
0,04999998
-0,02000011
0,1699999
-0,1900001
0,2299999
0,1399999
-0,1500001
-0,04000011
0,0699999
0,2099999
0,13
-0,02
0,23
-0,09
0,12
0,02
0,06
-0,23
-0,15
-0,22
-0,3
-0,06
-0,19
0,05
0,08
0,18
-0,25
-0,2400003
0,1799997
-0,1800003
-0,07000032
-1,6097E-05
0,189984
-0,230016
-0,01001609
-0,140016
0,2599841
-0,240016
-0,01001609
-0,06001575
0,13
-0,009999997
-0,23
0,06
-0,05
0,21
-0,12
-0,21
0,2
0,2
0,21
0,12
-0,21
0,2
0,23
-0,19
-0,13
-0,18
0,01999999
-0,25
0,09
-0,22
0,07999999
-0,05000001
-0,03000001
-0,18
0,09
0,15
0,22
-0,04
0,05
-0,01000001
0,07999999
0,2
-0,05000001
0,00999999
-0,13
0,03999999
-0,21
0,17
-0,01
0,2499996
-0,1400004
0,2699997
-0,1000004
0,09999958
-0,09000042
0,2899996
-0,1600004
-0,1200004
0,289984
0,139984
0,0399839
-0,06001577
0,1499843
0,04998423
0,2099843
0,1099843
-0,2200157
-0,18
-0,19
0,01999989
-0,1300001
-0,06000011
-0,1500001
-0,0900001
-0,2600001
-0,1200001
-0,05000011
-0,08000009
0,24
0,13
-0,28
0,15
0,06
0,13
0,22
0,1
-0,25
0,16
0,21
0,1
0,01
0,04
-0,03
0,2
0,25
-0,1700003
-0,2500003
0,1899997
0,08999968
0,04998391
-0,05001609
0,2599841
0,04998392
0,2599841
0,07998394
0,209984
0,1199839
0,2799844
0,06
-0,28
0,04
0,21
-0,07
-0,15
0,11
0,18
0,17
-0,28
0,12
-0,2
0,06
-0,08
-0,09
0,009999996
-0,29
0,12
0,27
-0,06000001
-0,04000001
0,2
-0,17
0,04999999
0,12
-0,12
-0,13
-0,25
-0,21
0,09
-0,26
-0,3
0,28
-0,24
-0,2
0,19
-0,24
0,1
-0,2
-0,19
-0,2200001
-0,2400004
-0,05000042
-0,2800004
-0,2300004
-0,01000044
0,2899996
-0,2700004
0,04999956
-0,270016
0,249984
0,249984
0,239984
-0,1200157
0,01998424
0,1499843
0,1799843
0,2899843
-0,2200157
-0,25
0,28
0,04999998
0,0799999
-0,2200001
0,2699999
0,1099999
-0,1800001
-0,01000011
-0,1900001
0,009999909
-0,05
-0,1
0,02
0,15
-0,15
-0,11
-0,05999999
-0,2
-0,03
-0,17
-0,11
-0,16
-0,009999999
-0,24
0,14
-0,21
-0,24
0,1
0,03999967
-0,05000033
-0,3000003
-0,2400003
0,01998392
-0,2500159
-0,170016
0,01998392
-0,03001608
-0,130016
-0,2500159
-0,05001608
-0,130016
-0,009999997
0,21
-0,26
0,08
0,05
-0,08
-0,22
-0,28
-0,18
-0,1
0,07
0,01
0,24
0,15
0,14
-0,24
0,01999999
-0,06000001
0,18
0,04999999
0,01999999
0,25
0,16
-1,426961E-08
-0,12
0,18
-0,03000001
0,01999999
0,12
0,21
-0,23
-0,25
-0,28
0,25
0,19
-0,08
-0,05
-0,03
-0,2100001
0,1599996
0,2799996
0,06999959
-0,09000041
-0,2600003
-0,07000042
0,04999956
0,06999958
-0,1100161
-0,01001611
-0,0400161
0,249984
0,2299843
-0,1300157
0,1999843
0,1499843
0,03998424
-0,25
0,03
-0,11
0,17
0,25
0,04999989
-0,1000001
-0,1000001
-0,1700001
0,01999989
-0,02000011
0,2899999
0,2499999
-0,09
0,1
-0,26
-0,15
-0,29
0,06
0,24
0,03
0,11
-0,23
0,12
-0,2
-0,22
-0,27
-0,15
0,26
-0,17
0,17
-0,19
-0,2000003
-0,1500003
-0,1400003
0,2199997
-0,220016
-0,08001605
0,209984
-0,08001605
-0,130016
-0,2900159
0,209984
0,209984
-0,240016
0,08
-0,07
-0,23
0,16
0,2
0,08
-0,15
-0,17
0,2
-0,29
-0,07
-0,05
0,06
0,05999999
0,16
0,009999988
-0,26
-0,06000001
0,29
0,14
-0,13
0,18
0,09999999
-0,26
0,18
0,26
0,23
-0,2
-0,17
0,07
0,02
0,2
-0,14
0,05999999
0,02
0,15
0,2599999
-0,01000043
-0,2400004
0,04999957
0,01999957
0,2699997
-0,1100004
-0,1600004
0,2299996
-0,04000035
0,009983887
0,149984
-0,2600159
0,2099843
-0,1700157
0,06998426
0,2199843
-0,2400157
0,1899843
0,19
0,12
-0,28
0,28
0,23
0,1499999
-0,2600001
-0,3000001
-0,1700001
-0,01000011
0,02999989
-0,2100001
-0,3000001
-0,26
-0,29
0,05
0,04
-0,13
-0,05999999
-0,18
-0,11
-0,01
-0,04
-0,19
-0,08
-0,06
-0,23
-0,24
-0,08
-0,06
0,24
0,28
-0,21
0,1599997
0,1199997
-0,2800003
0,229984
0,009983907
-0,180016
0,189984
-0,03001608
0,2699841
-0,240016
0,139984
-0,1100161
-0,1400003
0,009999667
0,11
-0,28
-0,15
0,08
-0,11
-0,03
0,24
9,903175E-10
-0,1
-0,15
0,21
0,04999999
-0,01000001
0,06999999
0,28
0,06999999
0,19
0,03999999
0,04999999
0,29
-0,17
-0,09000001
0,29
0,11
-0,27
-0,26
0,04
0,15
-0,09
-0,07
0,11
0,21
-0,25
0,2199996
-0,04000042
-0,2600003
-0,2300004
0,1499996
0,04999956
-4,45913E-07
-0,1500004
-0,1400004
-0,09000042
0,159984
-0,2800159
0,249984
0,1299843
-0,1900157
-0,02001575
-0,1000157
-0,1400157
-0,2000157
0,14
-0,14
-0,12
-0,11
-0,27
0,02999989
0,03999989
-0,1500001
0,2299999
-0,2100001
-0,2200001
0,2699999
0,03999989
0,2899999
-1,039213E-09
0,06
-0,19
0,24
-0,01
-0,27
0,29
-0,26
0,14
0,26
0,29
-0,18
0,09
-0,23
-0,1
-0,08
-0,14
-0,3
-0,24
0,01
-0,23
0,1799997
0,03999967
-0,2300003
-0,3000159
0,02998392
-0,190016
-0,1100161
0,05998392
-0,240016
-0,220016
-0,06001608
-0,180016
-0,2800003
-0,06000033
-0,2300003
-0,3
0,04
0,2
-0,17
-0,19
0,09
0,02
-0,09
-0,11
0,2
0,24
-0,04000001
0,24
-1,285938E-08
0,22
-0,23
0,21
-0,28
0,22
0,12
-0,29
-0,26
0,23
0,26
0,22
0,09
-0,02
0,08
0,1799999
0,0499999
-0,3000004
0,05999957
0,1299996
-0,1700004
-0,08000041
0,1099996
-0,2000004
0,2299996
-0,1000004
-0,03000044
-0,140016
-0,170016
0,179984
-0,2000157
0,08998426
0,1399843
-0,05001575
-0,2400157
-0,1700157
-0,3
0,03
-0,2
-0,2
0,12
-0,25
0,2599999
0,1099999
0,2399999
-0,1000001
0,009999888
-0,1900001
0,2299999
0,01999989
0,1299999
0,2
-0,13
0,13
0,11
-0,22
-0,2
0,27
0,28
0,11
-0,06
-0,05
0,17
-0,14
0,12
-0,14
-0,22
-0,16
-0,09
-0,05
0,18
-0,28
0,2
-0,05000033
-0,3000003
-0,2300003
-0,04001608
-0,3000159
-0,150016
0,01998392
0,179984
-0,140016
-0,08001605
0,1099839
-0,2600159
-0,1000003
-0,08000032
-0,3000003
0,1399997
0,27
-0,28
-0,27
0,05
-0,02
0,16
-0,14
-0,12
0,1
0,28
0,06999999
-0,18
-0,13
0,19
-0,02
0,13
0,11
-0,3
0,21
0,13
0,03
0,12
-0,2
0,11
-0,05
0,2299999
-0,2300004
-0,2700004
-0,2400004
-0,1900004
-0,08000041
0,2399996
-0,2300004
-0,01000044
-0,06000044
-0,07000042
0,1499996
-0,0400161
-0,08001606
0,08998426
0,1299843
0,1899843
0,1599843
-0,2900156
0,06998426
-0,1100157
0,01
-0,03
0,24
0,27
-0,08
-0,1
-2,308825E-08
-0,1300001
-0,2000001
-0,1500001
0,2099999
-0,0900001
-0,2100001
0,03999989
0,0799999
-0,1700001
-0,18
-0,02
0,06
0,13
-0,26
0,17
-0,05
-0,25
0,28
-0,16
0,07
-0,19
0,29
0,14
0,26
-0,21
-0,27
-0,24
-0,09
0,1
-0,22
-0,22
0,19
-0,28
-0,07000032
0,1999997
-0,1100161
-0,210016
0,009983908
-0,07001606
-0,130016
0,169984
-0,2900159
-1,609177E-05
0,06999968
-0,1300003
-0,05000033
0,2399997
-0,1500003
0,1299997
-0,28
0,19
0,28
-0,23
0,12
-0,12
-0,13
-0,05
-0,12
0,12
-0,12
-0,28
-0,18
0,27
-0,25
-0,27
0,08
0,03
-0,11
-0,17
-0,02
-0,1500001
0,02999958
0,04999958
0,2599996
0,1999996
-0,2000004
-0,02000043
-0,2300004
0,07999958
0,1399996
-0,2200004
0,2099996
0,07999958
0,07998393
-0,1200157
-0,2100157
0,1099843
-0,1000157
-0,2500156
0,01998426
0,2299843
0,1999843
0,1799843
-0,25
-0,16
0,04
-0,27
-0,05
0,02999999
0,09
0,2099999
0,04999989
-0,2900001
-0,1500001
0,1599999
-0,1400001
-0,0700001
-0,2000001
0,21
-0,23
0,18
-0,12
0,1
0,28
-0,21
-0,19
0,04
-0,11
0,16
0,23
0,27
-0,17
-0,17
0,1
0,04
-0,05
0,14
-9,684995E-10
0,12
-0,14
-0,23
-0,27
0,03
0,2899997
0,2299997
0,02998392
0,199984
-0,07001606
0,219984
-0,2800159
0,159984
-1,609211E-05
-0,02001607
0,2699841
0,1399997
0,04999967
-0,2100003
0,1999997
0,2599997
-0,27
0,29
0,14
0,08
0,1
0,11
0,07
-0,09
-0,1
0,1
-0,1
0,009999995
0,23
-0,02
0,04
0,29
0,14
0,14
0,11
-0,26
0,04999991
-0,09000009
-0,1900004
-0,04000043
0,1399996
-0,2400004
-0,04000043
0,1399996
-0,1400004
0,2599996
0,2899996
-0,1400004
0,2399996
0,0299839
0,07998393
-0,1400157
-0,07001574
-0,05001577
0,2299843
-0,1300157
-0,1500157
-0,1900157
-0,01001576
0,12
0,02
0,009999999
0,23
-0,29
0,24
0,27
0,29
0,1999999
-0,02000011
0,1499999
-0,1000001
0,1199999
0,1799999
-0,1300001
0,2399999
0,03
-0,15
0,22
-0,25
-0,07
0,11
-0,26
0,07
-0,11
0,2
-0,12
0,06
-0,11
0,21
-0,06
0,19
-0,07
0,21
-0,02
0,24
-0,18
-0,17
-0,06
0,2
-0,12
0,27
-0,2200003
0,1799997
-0,220016
-0,170016
0,2599841
-0,02001608
-0,240016
0,009983909
-0,1000161
-0,2900159
-0,07001606
-0,2400003
-0,2400003
-0,3000003
-0,02000033
0,2399997
0,03999967
-0,1900003
0,06
-0,09
0,09
0,28
-0,27
0,26
0,26
0,2
-0,11
-0,07
0,11
-0,1
0,21
-0,29
0,16
-0,05
0,02999991
-0,1400001
-0,02000042
-0,2500004
0,2299996
0,1899996
-4,325095E-07
0,1699996
0,009999565
-0,08000042
-0,04000044
-0,1300004
0,1399996
-0,0200161
-0,0500161
-0,1200157
0,07998426
-0,1800157
-0,1600157
0,2699844
-0,1300157
-0,2100157
0,1399843
-0,19
-0,14
-0,25
-0,22
0,12
0,2
-0,3
-0,2
-0,0900001
-0,1100001
0,0999999
-0,03000011
-0,1800001
-0,05000011
-0,01000011
-0,1200001
0,1599999
0,21
0,22
-0,03
0,11
2,668899E-10
0,09
-0,25
0,21
0,27
-0,08
0,11
0,08
0,17
0,19
-0,23
-0,07
0,01
-0,14
0,18
0,17
0,11
0,17
0,27
0,01
-0,19
-0,26
0,27
-0,26
-0,3000157
-0,170016
0,219984
-0,210016
0,239984
-0,02001608
-0,2500159
-0,05001608
0,1199839
-0,2800003
0,1099997
0,06999968
-0,3000003
-0,1300003
0,1499997
-0,03000033
-0,1200003
0,01999966
0,03999967
-0,01000034
0,02999966
-0,2600003
0,09999968
-0,2200003
0,09999968
-3,452625E-07
-0,2500003
-0,2700003
0,2399997
0,2599997
-0,01000042
-0,05000042
0,1099996
-0,2900003
0,1999996
0,1299996
-0,01000043
0,01999957
0,1299996
-0,1200004
0,1399996
0,1199996
0,09999958
-0,0100162
0,0499839
-0,200016
0,1699843
-0,07001574
-0,2800156
-1,576769E-05
-0,1800157
0,08998427
-1,575721E-05
-0,02001574
0,01
0,26
0,03
0,14
-0,02
-0,06
-0,07
-0,28
0,009999988
0,1599999
0,02999989
-0,1500001
0,2599999
0,2799999
-0,04000011
-0,2900001
0,2699999
0,1599999
0,18
-0,15
0,15
0,2
-0,07
-0,2
0,03
-0,01
0,12
0,11
-0,3
-0,06
0,13
0,19
0,24
-0,17
1,883628E-10
0,23
-0,2
0,15
-0,27
-0,11
0,25
0,11
-0,2
0,24
0,26
-0,11
-0,16
0,1899843
0,2699844
-0,2900159
0,01998392
-0,04001608
0,209984
-0,150016
0,1199839
0,09998395
0,02999967
-0,08000032
-0,2000003
0,2899997
0,1199997
0,1199997
-0,2900003
-0,2300003
-0,2800003
0,1299997
-0,09000032
0,1299997
-0,03000034
0,01999966
0,2099997
-0,1900003
0,1299997
-0,01000034
-0,1000003
-0,2700004
0,09999959
-0,02000042
-0,1600004
-0,1700004
-0,1600004
0,2199996
0,1399996
0,2899996
0,2099996
-0,1300004
0,2799996
0,08999959
-1,611483E-05
0,199984
-0,1000157
0,1699843
0,03998423
-0,2700157
0,05998424
-0,1700157
0,09998426
-0,2700157
0,2199843
-0,18
0,28
0,01
-0,09
-0,06
-0,2
-0,1
0,13
-0,08000001
0,25
0,08999991
0,2899999
-0,2600001
-0,2200001
0,2699999
0,1399999
0,1899999
0,2799999
-0,2800001
-0,15
0,15
0,15
0,12
-0,17
0,07
-0,18
-0,27
0,06
0,09
0,22
-0,23
-0,07
0,06
0,06
-0,29
-0,15
0,13
-3,059057E-10
-0,11
0,19
-6,36825E-10
0,04
0,05999999
0,13
0,2
0,2
-0,15
0,09
0,07
-0,1100157
0,1699843
-0,160016
0,06998394
0,179984
-0,230016
-0,03001608
-0,140016
-0,1200003
0,1399997
-0,1900003
-0,2400003
0,1299997
-0,2600003
-0,01000034
0,1799997
-0,150016
-0,07001606
-0,02001608
-0,240016
0,1199839
-0,3000159
-0,1100161
0,07998394
-0,180016
0,139984
-0,1900161
-0,2100161
0,279984
-0,08001614
0,1599839
0,259984
-0,06001619
0,289984
-0,1100161
-0,250016
0,2199839
0,1499996
0,1799839
-0,0200161
0,0399839
0,2899841
-0,05001577
0,1499843
-0,2300157
0,1299843
0,1699843
-0,01001576
-0,2400157
0,2499843
0,05
-0,03
0,17
0,03
0,25
-0,12
-0,02
0,05999999
-0,05
-0,27
0,26
-0,1200001
-0,1300001
0,2499999
0,2799999
-0,1500001
0,1099999
0,1399999
0,1399999
-0,06000001
0,25
-0,01
0,04
0,29
0,009999999
0,13
0,05
0,03
-3,78637E-10
-0,009999999
0,27
0,11
-0,28
-0,27
0,16
-0,12
-0,21
0,21
-0,26
-0,3
0,07
-0,15
-0,1
0,14
0,01999999
-0,15
0,11
-0,01
0,17
0,22
-0,2900156
-0,2800156
0,1499843
0,1199839
0,2899841
-0,240016
0,219984
0,169984
-0,2900159
-0,190016
0,1299997
0,239984
-0,2500159
0,249984
-0,240016
-0,150016
-0,150016
-0,160016
-0,210016
0,08998395
-0,240016
0,199984
0,08998395
0,129984
0,159984
0,08998395
-0,2100161
0,1999839
-0,03001617
-0,1500161
-0,290016
-0,2400161
0,1499839
0,07998385
-0,03001617
0,2399839
0,2499839
-0,1000162
-0,270016
0,09998394
-0,0500161
-0,09001607
0,199984
0,219984
-0,130016
0,1199839
-0,2000157
-0,06001575
0,06998426
-0,13
-0,3
-0,03
-0,1
-0,23
0,16
-0,19
-0,08
-0,29
0,25
-0,11
0,26
-0,2800001
-0,1000001
0,1499999
-0,2000001
0,0699999
-0,2100001
-0,03000011
-0,02000011
-0,19
-0,11
0,25
-0,2
-0,02
-0,16
0,14
-0,3
0,17
-0,04
-0,26
-0,01
0,14
-0,18
-0,21
-0,15
0,04
0,16
0,08
0,21
-0,14
0,01
0,23
-0,05
0,14
0,13
-0,07
-0,29
-0,26
0,12
0,1
0,03
0,1199839
0,2599841
-0,04001608
0,2699841
-0,2600159
-0,140016
0,209984
0,229984
-0,2900159
-0,190016
0,04998392
0,04998392
0,209984
0,189984
-0,180016
0,189984
-0,200016
-0,0100161
0,04998392
0,209984
-1,610402E-05
0,04998392
-0,190016
0,09998395
-0,05001618
-1,619436E-05
-0,04001618
0,1499839
0,1999839
0,1299839
0,2499839
-0,250016
0,1499839
-1,619467E-05
0,1699839
0,1799839
0,159984
-0,190016
-0,200016
-0,1200161
0,239984
0,139984
0,199984
-0,2500159
0,2599841
-0,1200161
0,03998392
0,2399997
0,01
0,03
0,2
0,04
-0,24
0,19
-0,28
-0,24
0,15
0,16
0,01999998
0,03999989
0,1899999
-0,2400001
-0,2800001
-0,1300001
-0,1500001
-1,10408E-07
0,1999999
-0,1000001
-0,28
-0,07
-0,27
0,29
-0,12
-0,13
0,26
0,15
0,15
-0,25
0,13
-0,23
0,26
0,02
-0,17
-0,13
0,23
-0,1
0,28
0,26
-0,02
0,11
-0,27
-0,3
0,09
0,05999999
-0,02000001
0,18
0,12
0,01999999
0,1999997
-0,05000033
-0,02000034
-0,170016
0,219984
-0,230016
-0,01001609
0,199984
-0,150016
0,189984
0,219984
-0,140016
-0,1000161
0,08998395
-0,2800159
-0,06001608
0,07998394
-0,130016
0,219984
0,149984
-0,06001608
0,249984
0,009983902
0,229984
0,209984
-0,09001615
-0,1000161
-0,270016
-0,1000161
0,1199839
0,1799839
-0,2300161
-0,270016
-0,1800161
-0,1500161
-0,1300161
0,08998394
0,1199839
0,09998394
-0,240016
0,169984
-0,2800159
-0,2600159
-0,210016
-0,2700159
-0,190016
-0,1000161
-0,07001606
0,2699841
-0,1600003
0,2799997
-0,1900003
0,26
0,27
-0,22
0,24
0,24
0,04
-0,08
0,009999988
0,16
-0,04000011
-1,045827E-07
0,0299999
-0,3000001
0,1499999
-0,1700001
-0,2300001
-0,07000009
0,1399999
0,15
0,25
0,06
0,16
0,27
-0,09
0,2
-0,08
0,2
0,1
-0,3
0,27
-0,25
-0,25
0,14
0,06
-0,19
-0,25
-0,26
-0,1
-0,07
-0,26
-0,1
-0,21
-0,11
-0,09
0,02
0,009999997
-0,21
-0,12
0,2799997
-0,1800003
0,2899997
-0,170016
-0,0100161
-0,2800159
0,03998391
-0,200016
-0,3000159
0,159984
-0,2600159
0,01998392
0,139984
0,1099839
-1,609799E-05
0,189984
-0,09001606
-0,06001608
0,189984
-0,07001606
0,02998392
-0,230016
-0,2700159
-0,2700159
-0,1000161
0,09998386
0,04998381
-0,03001617
-0,04001618
0,05998382
0,1799839
-0,1100161
-0,1800161
0,009983808
0,1199838
0,179984
0,2699841
0,209984
0,0599839
0,1099839
-0,2800159
-0,2900159
-0,2500159
-0,130016
-0,140016
0,209984
-0,1000161
0,07998394
0,07998394
-1,60968E-05
0,2899997
-0,2300003
0,11
0,15
0,14
0,2
-0,21
0,26
0,23
0,18
-0,04000001
-0,2300001
0,1299999
-0,06000011
0,2699999
0,1399999
-0,1100001
-0,1800001
0,2899999
0,1199999
0,21
-0,01000001
0,18
-0,23
-0,09
0,02
-0,29
0,15
0,16
-0,02
-0,1
0,27
0,18
0,26
0,06
0,11
0,07
-0,03
0,16
0,21
0,08
-0,29
0,28
0,17
-0,15
0,24
-0,13
0,11
-0,11
0,009999661
0,01999966
-0,2300003
0,07999968
0,2599841
0,07998394
-1,60989E-05
-0,1100161
0,03998391
-0,06001608
-0,180016
0,189984
-0,06001608
-0,210016
-0,06001608
-0,02001608
-0,02001608
-0,1100161
0,169984
0,169984
-0,140016
-0,240016
0,209984
-0,05001608
-0,2300161
-0,270016
0,1999839
0,009983804
-0,300016
0,2099839
-0,04001618
-0,1600161
-0,1100161
-0,05001619
-0,1600161
0,249984
-0,180016
-0,1200161
0,209984
-0,130016
-0,2500159
-0,09001607
-0,2700159
-0,2700159
0,03998391
-0,2800159
-0,160016
0,209984
0,02998392
-0,1100161
0,159984
0,04998392
-1,609719E-05
0,2299997
-0,2700003
-0,06
0,11
0,11
-5,62996E-09
0,23
0,18
0,2899999
-0,1100001
0,1199999
0,2699999
0,2699999
-0,01000011
0,2799999
0,2399999
-0,0200001
-0,14
-0,2
-0,03
4,760884E-10
0,12
0,24
-0,27
0,18
0,21
-0,25
0,18
0,28
0,27
0,11
-0,25
0,21
0,14
-0,04
-0,08
0,2
-0,16
-3,111957E-10
0,17
0,28
-0,02
-0,24
-0,28
-0,1000003
-0,2500003
0,05999966
0,02999966
-0,1400003
0,2699841
-0,2500159
-0,2800159
0,05998391
-0,230016
0,2899841
-0,190016
-0,220016
-0,09001606
0,219984
0,199984
-0,05001608
-0,2600159
0,199984
-0,2900159
0,06998394
0,06998394
-0,2500156
-0,1700157
-0,2800156
0,05998415
-0,2600157
-0,1700158
0,1599842
-0,08001582
-0,02001585
-0,290016
0,04998382
0,2199839
0,1299839
0,1199838
-0,160016
0,0199839
0,0199839
-0,3000159
0,219984
0,07998393
-0,0100161
0,129984
0,139984
-0,160016
-0,160016
-0,02001609
-0,08001605
0,08998395
-0,08001605
0,239984
0,07998394
-0,2600159
-0,06001608
0,129984
-0,3000159
-0,07000032
-3,391909E-07
0,09
0,22
0,21
-0,14
-0,17
0,08999991
0,2799999
0,05999989
-0,1400001
0,0799999
-0,2100001
0,05999989
0,2299999
0,009999902
0,19
-0,21
0,29
-0,22
-0,08
-0,02
0,18
-0,08
0,05
0,21
-0,24
-0,3
0,04
-0,07
-1,417576E-09
-0,03
-0,3
0,12
0,21
-0,29
0,23
-0,23
-0,29
-0,09
-0,15
-0,26
0,1599997
0,07999968
0,2699997
0,1999997
-0,1800003
-0,2700003
-0,02001608
-0,08001605
0,179984
0,239984
-0,05001609
0,03998391
0,07998394
0,239984
0,1099839
-0,130016
-0,130016
0,2899843
-0,2000157
-0,1800157
-0,2600156
0,03998424
-0,2500156
0,1799843
0,07998426
-0,03001584
0,1499842
0,2099842
0,07998417
0,1099842
-0,2200158
0,07998417
0,2199842
-0,1300158
0,1199842
-0,2000158
-0,06001577
0,1499843
0,07998426
-0,2700157
0,009983894
-0,180016
0,03998391
0,05998391
-0,2800159
-0,05001609
-0,2600159
0,2599841
-0,1100161
0,04998392
0,199984
-0,2900159
-0,190016
-0,2800159
-0,3000159
-0,190016
0,02998392
-0,220016
-0,1800003
0,1499997
-0,1300003
0,05999967
0,13
-0,24
0,16
0,1599999
0,1099999
-0,1000001
-0,1800001
0,009999891
0,2299999
0,009999894
-0,09000009
-0,2400001
0,11
0,21
0,29
-0,01
0,16
-0,18
-0,08
0,18
0,02
-0,27
0,21
-0,23
-0,03
0,19
-0,14
-1,417556E-09
0,06
-0,15
0,02
0,22
0,15
0,24
-0,02
-0,02
0,19
-0,1500003
0,1299997
0,1299997
0,1399997
0,1699997
0,1199997
-0,1200161
0,09998395
-0,2600159
-0,09001606
-0,220016
-0,190016
-0,2600159
-0,08001605
0,2899841
-0,07001574
-0,02001575
-0,2600156
0,09998427
-0,1500157
0,08998427
-0,1100157
0,2199843
-0,2700157
0,1099843
0,2399999
0,06999991
0,2799999
-0,0200001
-0,09000009
0,1599999
-0,07000009
0,009999897
0,08999991
0,00999989
-0,01000011
0,07999999
-0,26
0,14
-0,1
0,01998424
-0,03001576
-0,07001574
-0,03001575
-0,2200157
-0,1100157
0,01998391
0,229984
0,02998392
-0,01001609
-0,140016
0,199984
0,169984
-0,180016
-0,200016
0,249984
0,209984
0,08998395
-0,2700159
0,229984
-0,2600159
-0,1100003
-0,1900003
0,1199997
0,04999999
0,1499999
0,0999999
-0,06000011
0,1999999
-1,057743E-07
0,1399999
-0,0600001
-0,1000001
-0,1000001
0,12
-0,19
0,26
-0,06
0,25
-0,08
-0,09
0,14
-0,05
0,29
-0,26
0,26
0,05
-0,12
-0,02
0,06
0,07
0,28
-0,29
0,21
-0,15
-0,18
-0,15
0,1
0,22
-0,08000032
0,07999968
-0,2200003
-0,2800003
-0,2800003
0,139984
0,219984
-0,0100161
-0,03001609
-1,610249E-05
0,279984
0,279984
-0,04001618
0,1399839
0,09998427
0,009984236
-0,1000157
0,2399843
-0,1800157
0,07998426
0,08998427
-0,2000157
-0,09
0,25
-0,17
0,2199999
0,1499999
-0,08000009
-0,0200001
-0,2600001
-0,0100001
0,2599999
-0,1400001
0,0199999
0,0299999
0,1299999
-0,17
0,11
-0,08000001
-0,16
-0,19
-0,04000001
-0,23
0,18
-7,471157E-09
0,06999999
-0,19
-0,16
-0,1000157
-0,1000157
0,2399843
-0,1200161
-0,2700159
-0,2900159
-0,180016
-0,190016
-0,130016
-0,180016
0,189984
-0,210016
0,2899841
-0,01001609
-0,2900159
-0,07000032
-0,3000003
-0,2800004
0,1199999
0,2399999
-0,1900001
0,2699999
-0,1300001
0,08999991
0,009999893
0,2799999
-0,0400001
-0,17
-0,27
0,02999999
-0,05
0,06
0,11
-1,388771E-09
-0,28
-0,22
-0,21
-0,2
0,22
-0,16
-0,11
-0,09
-0,04
-0,29
0,22
-0,18
-0,16
0,11
-0,05
0,14
0,17
-0,03000033
0,2499997
-0,1400003
-0,2700003
-0,08000032
-0,2800159
-0,150016
0,169984
-0,2500159
0,04998391
0,289984
-0,2200161
0,1299839
0,1599842
-0,1800158
-0,02001584
-0,02001584
-0,03001575
0,2199843
-0,1700157
0,19
-0,21
-0,02
0,05
0,2
0,009999904
-0,1400001
0,1699999
-0,1200001
0,1299999
0,1399999
0,1699999
-0,1200001
0,1499999
0,2799999
0,0999999
-0,05000002
-0,03000001
0,09
-0,24
0,24
-0,07000001
0,17
0,09
-0,11
-0,18
0,12
-0,16
0,09
0,14
0,16
-0,16
0,01998425
-1,576003E-05
0,2699841
-0,130016
-0,03001608
0,09998395
-0,180016
0,209984
0,159984
-0,02001608
-0,01001609
-0,09001606
0,199984
-0,1800003
0,1899996
0,2799996
0,1799999
0,009999895
-0,2800001
-0,3000001
0,1699999
0,1599999
-0,1100001
-0,0400001
-0,08
0,18
-0,14
0,07
0,19
-0,29
-0,23
0,03
0,27
-3,33414E-09
-0,15
0,18
0,18
0,1
-0,17
0,14
-0,15
0,18
-0,11
-0,04
0,23
-0,04
0,19
-0,2300003
-0,08000032
0,1399997
-0,04000033
-0,2300003
0,1199839
0,149984
-0,03001608
0,159984
-0,190016
-1,618759E-05
0,2499839
0,07998417
-0,06001585
0,03998414
-0,2800157
0,1399842
-0,1000158
0,2499999
-0,06000001
-0,1
0,26
-0,29
-0,2
-0,23
-0,1200001
-0,1200001
0,1499999
0,2899999
-0,0400001
0,2299999
0,0199999
0,2499999
0,2899999
-0,2100001
-0,1500001
-0,26
0,04999999
-0,3
0,21
-0,18
-0,28
-0,02000001
0,06999999
-0,13
0,14
0,04999999
-0,11
0,1
0,15
0,05
-0,25
0,28
-0,29
-0,01
-0,2000157
-0,1000157
0,02998426
-0,1200161
0,189984
-0,07001606
0,2899841
-0,02001608
-0,1100161
-0,130016
0,2699841
0,2899841
0,07999958
-0,1500004
-0,1100004
0,2699999
-0,2100001
-0,1100001
-0,2600001
-0,1800001
-0,1300001
-0,03000001
-0,06
0,22
-0,08
0,12
0,28
-0,25
-0,17
0,21
0,17
0,04
0,24
-4,971821E-09
0,28
0,24
0,009999997
-0,14
-0,2
-0,03
-0,18
0,04
-0,21
-0,11
-0,11
0,1499997
0,2599997
-0,2600003
-0,09000032
0,169984
-0,05001609
0,159984
0,229984
0,189984
-0,190016
0,1199839
0,259984
0,1099842
0,2499842
-0,2400158
-0,05001586
0,2399999
-0,1600001
-0,0200001
-9,383969E-08
-0,07
-0,25
-0,22
-0,14
-0,06000001
-0,0400001
0,2199999
-0,2100001
0,05999989
0,2899999
0,1299999
-0,1200001
-0,2500001
0,02999989
0,0699999
0,16
0,23
0,14
-0,04000001
-0,05000002
-0,29
0,09999999
-0,26
-0,11
-0,14
0,28
0,19
-0,1
-0,26
-0,29
-0,13
-0,1
0,1
0,18
0,26
0,09
0,18
0,1699843
0,2599841
-0,09001606
0,01998392
0,06998394
-0,130016
0,199984
-0,02001609
-0,07001606
0,209984
-0,2300161
-0,1200004
-0,1000004
0,009999897
-0,2000001
0,1799999
-0,2800001
-0,01000011
0,12
-0,29
0,19
-0,3
-0,04
0,05999999
0,02
-0,26
0,04
0,12
-0,08
0,08
-0,14
0,07
0,28
0,28
-0,24
0,17
-0,26
0,22
-0,07
-0,07
-0,16
0,2
0,2299997
-0,2300003
0,1099997
-0,2800003
0,129984
-1,610364E-05
-0,230016
0,009983893
0,06998394
-0,1100161
-0,170016
0,07998385
0,2799843
0,1699842
-1,585286E-05
0,1399842
-0,3000001
0,0199999
0,1199999
-0,2200001
-0,2500001
0,15
0,03999999
-1,059997E-08
-0,1
-0,08
-0,05000011
-0,08000009
0,1299999
-0,2100001
-0,2500001
-0,1200001
0,1599999
0,2799999
-0,2300001
-0,1200001
0,24
-1,668916E-08
-0,09000001
-0,26
0,03999998
0,21
-0,3
0,27
-0,07000001
-0,11
0,29
-0,12
-0,13
-0,1
0,22
0,21
0,1
-0,24
0,15
-0,22
0,02
-0,19
0,11
-0,09001574
-0,2600156
0,139984
0,179984
-0,03001609
-0,160016
0,239984
0,209984
-0,3000159
0,09998385
-0,1900161
0,1899839
-0,01000044
-0,1900001
0,0799999
0,0299999
-0,1600001
0,14
0,07
-0,23
-0,3
-0,08
-0,23
-0,26
-0,07
-0,13
-0,17
0,07
0,1
-0,17
0,28
0,16
0,13
0,18
0,29
-0,3
0,19
-0,28
0,02
0,13
-0,02
-0,02000033
0,2899997
0,07999968
-0,240016
-1,610361E-05
-0,08001606
0,09998394
-0,2800159
0,01998391
-1,611201E-05
-0,07001574
0,2499842
-0,2700157
0,1099842
0,2799999
0,2699999
0,08999991
-0,0500001
-0,2000001
-0,3000001
-0,1300001
-0,2000001
0,16
0,11
-0,05000001
-0,2500001
0,1099999
-0,1900001
0,07999991
0,1299999
-0,1900001
-0,1900001
0,2399999
0,08999991
0,009999892
-0,07000001
-0,02000002
0,28
0,22
0,24
0,02999998
0,04999999
-0,23
0,12
0,04999999
0,2
0,1
-0,24
-0,3
-0,28
-0,2
0,07
-0,08
0,12
-0,19
-0,12
-0,18
0,26
0,11
-0,06
0,1099843
-0,02001574
-0,06001576
0,189984
-0,1200161
-0,190016
-0,3000159
-0,07001606
-0,200016
0,03998381
-0,02001618
0,1099996
0,0199999
-0,1400001
-0,03000002
0,12
-0,28
-0,26
-0,24
0,04
-0,05
0,04
-0,2
0,05
0,03
0,04
0,19
-0,19
-0,02
-0,17
-0,19
0,02
-0,13
-0,02
-0,17
-0,26
-0,2
-0,12
-0,07
-0,07000032
0,1899997
-0,1400003
0,2599997
-0,04001608
0,02998391
-0,02001609
-0,2600159
-0,240016
-0,150016
-0,01001577
-0,1500157
-0,2200157
0,1999842
-0,2400001
0,2799999
-0,2400001
-0,1200001
0,1899999
-0,1400001
0,1399999
-0,08000009
0,1899999
0,2499999
0,26
-0,07000009
0,2599999
-0,0600001
-0,2600001
-0,2700001
-0,08000009
0,009999895
0,1399999
0,0999999
0,1199999
0,14
-0,21
0,07999999
0,14
-0,29
-0,26
-1,15384E-08
0,13
0,26
0,29
0,27
-0,27
0,11
-0,2
-0,009999999
-0,24
0,16
-0,09
-0,28
0,09
-0,29
-0,3
-0,1
0,29
-0,28
0,07
-0,26
-0,3
-0,2700157
0,2199843
0,2699841
-1,610863E-05
-0,03001609
-0,230016
-0,08001606
0,189984
-0,02001618
0,02998382
0,1699996
-0,19
-0,16
0,07999999
0,22
0,26
0,28
-0,1
-0,15
-0,17
0,05
0,26
0,06
-0,2
0,12
-0,29
0,11
0,13
0,18
0,08
0,11
-0,05999999
-0,3
-0,01
0,1
-0,27
-0,28
-0,03000033
0,04999967
0,02999967
0,179984
0,08998395
0,07998393
-0,180016
0,0299839
0,1999843
-0,05001577
-0,08001574
-0,2300157
-0,06000002
-0,3
0,1199999
-0,0800001
0,1999999
-0,05000011
-0,2400001
-0,1500001
0,1599999
0,1799999
-0,0400001
-0,05000011
0,07999991
-0,2900001
0,1899999
0,2099999
-0,08000009
-0,2000001
0,1399999
0,2799999
0,1899999
0,2399999
0,009999982
0,14
0,11
-0,05000002
0,25
-0,12
-0,06000001
0,06999999
0,21
0,04999999
-0,11
0,05
-0,07
0,08
0,29
-0,28
-0,21
-0,26
0,03
0,17
-0,15
0,08
-0,21
-0,22
-0,21
0,07
0,18
-0,1
-0,2
0,09999999
0,09998426
-0,07001574
-0,1200161
-1,611206E-05
-0,01001611
0,2799841
0,09998394
-0,05001609
-0,01001611
0,179984
0,21
-0,21
0,26
0,2
-0,24
-0,28
0,08
-0,19
0,22
-0,1
-0,29
0,1
-0,06
-0,29
0,08
0,22
0,05
0,03
-0,15
-0,12
-0,01
-0,27
-0,04
-0,19
0,24
0,25
-0,1300003
0,2199997
-0,2100003
-0,3000159
-0,09001606
0,129984
0,03998391
0,149984
0,2499843
-0,2400157
0,1199843
-0,12
-0,29
-0,23
0,28
0,0699999
-0,02000009
0,1999999
0,07999991
-0,3000001
0,2899999
-0,1400001
0,2099999
0,05999989
-0,08000009
-0,2300001
-0,2000001
-0,1900001
-0,1200001
0,1799999
0,1199999
0,1499999
0,2499999
-0,2000001
0,15
0,15
-0,28
0,21
0,28
-0,13
-0,25
0,07999999
-0,24
0,02
-0,2
-0,13
0,01
-0,22
-0,11
0,22
0,04
0,06
0,02
0,24
0,26
-0,3
-0,29
0,02
0,08
-0,16
0,03
-0,07
-0,03
-0,23
-0,07001574
0,2599843
-0,08001606
0,209984
-0,09001607
-0,170016
0,03998391
0,05998391
0,209984
-0,1000161
0,249984
-0,1000003
-0,2
-0,11
-0,05
-0,25
0,05999999
-0,28
0,21
-0,04
-0,17
-0,24
-0,18
-0,29
-0,17
0,14
0,14
-0,01
-0,17
0,14
0,14
0,11
-0,19
0,28
-0,21
-0,1600003
0,2499997
0,08999968
0,159984
-0,240016
-0,130016
0,2699841
0,139984
-0,1800157
0,2799844
0,04998423
0,1999843
0,12
-0,23
0,01999998
0,07999999
-1,402492E-08
0,009999897
-0,3000001
0,2299999
-0,1400001
0,1299999
-0,1000001
0,06999991
0,06999991
-0,02000009
-0,2500001
-0,07000009
-0,2300001
0,0499999
-0,1700001
-0,2100001
-0,1900001
-0,21
-0,19
-0,2
0,26
-0,15
0,15
-0,22
-0,15
-0,08000001
-0,3
-0,27
0,08
0,24
-0,28
-0,08
0,1
-0,24
-0,17
-0,2
-0,2
-0,25
0,22
5,738313E-10
0,04
-0,28
-0,21
0,07
-0,18
0,04
0,06
0,06
0,15
-0,04
0,08998426
0,01998424
0,249984
-0,08001606
0,1099839
-0,150016
0,149984
0,209984
0,06998394
0,239984
0,1199997
-0,13
0,29
0,13
-0,04
0,12
0,12
-0,29
-0,09
-0,27
0,28
-0,24
-0,13
0,1
0,05
0,24
-0,24
-0,23
0,26
0,11
0,15
-0,05999999
-0,13
-0,18
-0,1600003
-3,418541E-07
-0,04000033
-0,1200161
-0,06001609
0,2799841
-0,06001609
-0,1200161
-0,03001575
0,2799844
0,1699843
-0,13
-0,27
-0,04000002
-0,19
-0,01000001
0,21
0,04999997
-0,1600001
0,1199999
-0,0300001
0,0299999
-0,1500001
-0,1600001
0,1599999
0,1699999
-0,2100001
0,06999991
0,2399999
0,2599999
-0,2200001
-0,1200001
0,29
0,16
-0,02000001
0,26
-0,15
-0,07000001
0,05999999
-0,07000001
0,07999999
0,09
0,08
-0,12
0,23
-0,12
0,21
0,09
0,26
-0,03
0,19
-0,2
-0,2
0,05
0,14
0,11
-0,16
-0,18
0,02
0,07
0,19
0,16
-0,07
-9,933185E-10
0,19
-0,01000001
-0,12
-0,1400157
0,2799844
-0,150016
-0,170016
-0,03001609
0,2799841
0,209984
-0,2700159
0,169984
0,239984
0,2599997
-0,09
-0,02000001
0,26
-0,01
0,11
-0,03
-0,24
0,28
-0,23
-0,07
-0,29
0,16
0,11
-0,27
0,21
0,29
0,03
0,21
-0,15
-0,23
-0,02
-0,05999999
0,2899997
0,03999968
0,1099839
0,1099839
-0,170016
-0,09001606
-0,190016
-0,1100161
0,01998425
0,2699844
0,1699843
-0,12
0,2
-0,26
0,09999999
-0,1
-0,25
0,26
-0,06000002
0,2099999
-0,09000009
0,2399999
-0,1600001
-0,1900001
0,0299999
-0,2000001
0,0599999
0,2899999
-0,1300001
-0,1900001
0,009999891
0,16
-0,03000001
0,27
-0,02000001
-0,09000001
0,18
-0,3
-0,16
0,14
0,16
0,18
0,21
-0,26
0,29
-0,08
-0,18
0,16
-0,12
-0,17
0,16
-0,11
0,13
0,07
-0,28
-0,25
-0,1
-0,009999999
-0,23
-0,27
0,15
-0,18
-0,29
-0,1
-0,05
-0,3
0,21
0,23
0,04998424
-0,1100161
0,01998391
-0,2600159
0,1099839
0,08998394
-0,2500159
0,02998391
-0,2800159
-0,2100003
-0,18
-0,2
0,27
0,19
0,1
-0,26
-0,06
-0,19
-0,28
0,2
0,24
-0,08
-0,3
-0,12
0,22
-0,19
0,29
0,04
0,16
0,009999998
0,08
0,28
0,00999966
-0,1200003
-0,190016
0,2899841
0,09998395
0,1099839
0,06998394
-0,2600159
0,009984237
-0,01001576
-0,28
-0,2
-0,13
0,26
-0,25
0,25
0,00999998
0,26
0,25
-0,1600001
0,2699999
-0,3000001
0,2899999
-0,1700001
-0,1200001
-0,1700001
-0,1800001
-1,089813E-07
0,0999999
-1,090434E-07
0,1599999
0,009999892
0,00999998
-0,17
0,09
0,07999999
0,07999999
0,11
-0,07000001
0,12
0,04
0,28
-0,12
-0,06
-0,1
0,2
-0,29
0,25
-0,25
-0,27
-0,27
0,2
0,05
-0,06
-0,29
6,464185E-10
-0,11
0,28
0,1
-0,03
-0,01
-0,24
-0,05999999
-0,3
0,13
0,00999999
0,09
-0,26
-0,1300157
-0,04001609
-0,130016
0,189984
0,01998391
-0,170016
0,08998395
0,2799841
0,1199839
0,04998391
0,22
-0,02000001
-0,18
-0,14
-0,05
0,05999999
-0,03
0,25
0,26
-0,24
-0,19
-0,22
-0,11
0,1
-0,29
0,26
-0,17
-0,03
0,04
-0,13
0,1
0,19
-0,2000003
0,2599997
0,07998394
0,07998394
0,159984
-0,160016
-0,130016
-0,08001573
0,1399843
-0,2800156
0,18
0,13
-0,25
-0,19
-0,16
-0,18
0,11
0,17
0,02999989
0,1699999
0,04999989
0,02999989
0,2199999
-0,2200001
-0,2400001
0,05999989
0,1699999
0,05999989
0,2899999
-0,1800001
-0,06000011
-0,06000011
0,2399999
-0,27
-0,12
-0,15
0,07999999
0,16
0,19
-0,17
0,08
0,03
-0,09
-0,21
-0,1
0,06
0,05
0,19
0,11
-0,3
0,15
0,16
0,14
0,22
-0,17
0,05999999
-0,26
-0,009999999
0,01
-0,2
-0,04
0,11
-0,08
0,009999997
0,08
-0,07
0,19
-0,29
0,23
0,2899841
0,03998391
0,239984
0,2799841
-0,1100161
-0,210016
-0,2900159
-0,190016
0,1199839
0,17
-4,160821E-09
-0,29
0,28
0,24
0,29
-0,03
0,07
0,1
-0,29
0,19
0,11
-0,19
-0,22
-0,15
0,09
0,17
0,27
-0,2
0,19
-5,213491E-09
0,27
0,1599997
0,02999966
0,249984
0,1199839
-0,04001609
0,199984
0,179984
-0,06001576
0,1299843
-0,18
-0,05
-0,09000001
0,12
-0,3
-0,21
-0,03000002
0,17
-0,07000001
-0,2600001
-0,2900001
0,1199999
0,1699999
-0,1900001
-0,1800001
0,1799999
-0,05000012
0,08999991
-0,1100001
0,01999989
-0,1800001
0,1999999
-0,0900001
-0,1900001
0,1999999
0,1399999
-0,0300001
-0,28
-0,19
0,02
0,05999999
0,18
-0,14
-0,13
0,07
-0,14
0,19
-0,04
-0,16
2,345541E-09
-0,11
-0,21
0,17
0,15
-0,009999998
-0,15
0,28
-0,08
0,13
0,24
-0,3
-0,19
-0,01
0,21
0,009999998
-0,09
-0,27
-0,21
0,21
-0,14
0,1099843
-0,06001609
0,04998391
0,209984
-0,02001608
-0,180016
-0,05001608
-0,0100161
0,03998391
0,2499843
0,28
0,29
-0,05
0,18
-0,18
-0,28
-0,27
0,06
0,12
0,05
0,15
-0,25
-0,11
-0,14
0,01
-0,05
-0,12
-0,06
0,16
-0,15
-0,18
0,08999968
0,03999966
0,2699841
0,179984
0,239984
0,03998391
0,249984
-0,1300157
-0,1400157
0,19
-0,01
0,17
0,17
0,26
-0,29
0,15
0,09999999
0,0799999
-0,01000011
-0,1200001
-0,03000011
-0,03000011
-0,1400001
0,009999889
0,05999988
-0,2500001
-0,1100001
-0,1100001
-0,2700001
0,2299999
-0,3000001
0,1299999
-0,1200001
0,1299999
-0,1100001
-0,05000009
-0,02000009
-0,3
-0,13
-0,02
-0,23
-0,12
-0,05
0,15
-0,14
-0,13
0,01
-0,1
2,345547E-09
0,09
0,08
0,15
-0,13
0,27
0,15
-0,18
-0,13
-0,05
-0,18
0,19
-0,16
0,06
-0,16
-0,07
0,18
0,15
-0,01
-0,26
0,06
0,05
-0,130016
0,09998395
-0,09001606
-0,3000159
-0,200016
-0,220016
-0,2900159
0,009983903
-0,1500157
-0,12
0,04
0,29
0,18
-0,07
-0,15
-0,16
-0,05
-0,09
0,27
-0,23
-0,23
-0,27
0,18
-0,02
-0,17
-5,091879E-09
-0,26
-0,28
0,27
-6,408206E-09
0,1799997
-0,04000033
0,129984
0,249984
-0,08001605
0,2699841
-0,06001609
-0,1400157
0,1699843
0,05999999
-0,2
0,16
-0,21
0,23
-0,15
-0,15
0,1799999
0,1999999
-0,2300001
0,02999989
-0,1100001
-0,2300001
-0,2400001
-0,01000011
-0,03000011
-0,1600001
0,2199999
0,2199999
0,1699999
0,08999991
-0,2600001
0,2899999
0,03999989
0,1499999
-9,842191E-08
-0,2300001
-0,1500001
0,2199999
-0,29
-0,13
0,2
-0,21
0,03
-0,1
0,26
-0,09
0,23
0,25
-0,17
0,28
0,12
-0,17
0,24
-0,07
-0,2
0,1
-0,1
-0,17
-0,03
-0,22
-0,25
0,009999998
-0,01
-0,23
0,02
-0,2
-0,18
-0,06
-0,08
-0,22
0,2899841
0,249984
0,189984
0,199984
0,129984
-0,200016
0,03998392
0,149984
0,01998425
-0,25
-0,1
0,26
0,09
0,18
0,27
0,2
-0,25
-0,2
0,04
0,2
0,17
-0,28
-0,05
0,23
-0,19
-0,12
0,1
-0,05
0,18
0,16
-0,2100003
-0,02000034
0,01998392
-0,2600159
0,2899841
0,159984
-0,06001609
-0,2600156
0,08998427
-0,3
-0,24
0,03999999
0,1
-0,09000001
0,17
-0,22
0,2099999
0,0999999
-0,2000001
0,1199999
-0,2600001
-0,2900001
0,1899999
0,0199999
-0,1000001
0,2699999
-1,118218E-07
0,2499999
0,0799999
-0,05000011
-1,082245E-07
-0,2200001
0,2699999
0,1599999
0,2599999
0,2099999
-0,06000009
0,0399999
0,19
-0,19
-0,05
-0,29
0,01
0,04
0,13
-0,17
-0,09
-0,27
-0,24
-0,28
-0,04
0,29
-0,15
-0,25
0,11
-0,22
0,09
-0,3
0,13
-0,28
-0,14
-0,02
-0,05
-0,16
-0,01
0,28
0,05999999
0,24
-0,05
0,25
0,1399997
-0,140016
0,209984
0,2899841
-0,140016
-0,2700159
-0,01001609
-0,160016
0,1799843
-0,23
0,05
-0,04
0,19
0,06
0,28
0,01
0,22
0,22
-0,25
0,17
-0,18
-0,06
0,21
0,16
0,25
0,27
0,05999999
-0,14
-0,25
0,15
0,05999966
-0,03001608
0,07998394
-0,200016
-0,130016
-0,210016
-0,230016
-0,1400157
0,1899843
0,07
0,08
-0,06000001
-0,19
0,05999999
-0,04000002
0,1899999
0,0799999
0,1799999
-0,1500001
0,2799999
-0,2500001
0,1299999
0,1899999
0,0799999
0,1199999
-0,1
-0,05000002
-0,2600001
-0,2700001
-0,1100001
-0,03000011
-0,1800001
-0,2100001
-0,2800001
0,009999899
-0,2300001
0,1699999
0,07999991
-0,1200001
0,19
-0,07
0,05
-0,27
-0,03
-0,22
0,18
-0,18
-0,16
-0,1
-0,25
-0,12
0,17
-0,29
-0,24
0,1
0,22
0,08
-0,3
-0,02
0,27
0,13
-0,28
-0,18
-0,01
-0,2
-0,05
-0,16
-0,21
-0,26
-0,12
-0,2800003
-0,3000159
-1,610357E-05
-0,04001608
0,03998391
-0,01001609
0,09998395
-0,09001606
-0,01001576
0,2399843
-0,22
-0,2
0,14
0,28
-0,3
0,1
-0,19
-0,27
-0,08
0,08
-0,01
0,17
-0,2
-0,09
-0,25
-0,1
-0,08
0,02999999
-0,14
0,12
0,02999966
-0,2800159
-0,200016
-0,2900159
-0,2700159
-0,1200161
-0,140016
0,04998425
0,00998424
-0,2
-0,18
-0,14
-6,95738E-09
0,02999999
0,1799999
0,01999991
-0,1200001
-0,1600001
-0,01000011
-0,01000011
-0,1600001
-0,1900001
0,1699999
-0,04000011
0,1899999
-0,16
0,19
-0,21
-0,0900001
-0,1600001
-0,2400001
-0,2300001
-0,2600001
0,1599999
-0,09000009
-0,2500001
-0,3000001
0,1299999
0,2399999
0,1199999
-0,07
0,06
0,01
-0,19
-0,04
-0,18
-0,14
0,07
0,02
0,02
-0,28
-0,22
-0,26
0,17
-0,02
-0,08
-0,15
0,13
-0,18
0,18
-0,01
-0,23
-0,17
-0,13
-0,27
-0,25
-0,19
0,14
-0,19
0,12
0,01999966
0,03998391
-0,1100161
0,169984
-0,240016
0,06998394
0,08998395
0,04998391
-0,3000157
0,05998424
0,28
-0,18
0,05999999
0,18
-0,19
0,28
-0,28
-0,13
-0,13
0,29
0,2
-0,13
0,009999997
-0,24
-0,18
-0,14
-0,08
-0,16
-0,23
-0,1
-0,3000003
0,009983904
-0,05001609
0,189984
-0,3000159
-0,03001608
0,179984
-0,1300157
0,1099843
0,21
0,12
0,09
0,12
0,0499999
0,1999999
-0,1300001
-9,335248E-08
-0,06000011
-0,2500001
-0,2500001
-0,2800001
0,2399999
-0,04000011
-0,1800001
0,22
-0,15
-0,27
-0,17
0,03999998
0,1899999
-0,1600001
-0,05000011
-0,0200001
0,08999991
0,0499999
-0,0400001
0,1599999
0,1599999
0,1799999
0,1299999
-0,2100001
0,15
0,06
-0,04
-0,14
-0,19
0,04
0,25
-0,15
0,25
0,15
0,27
-0,22
-0,28
-0,12
-0,24
-0,25
-0,18
0,27
0,15
-0,06
0,05
0,12
0,21
0,06
-0,13
-0,2
-0,27
-0,3
-0,06
-3,427361E-07
0,139984
0,05998391
-0,09001606
0,2599841
-0,140016
-0,130016
-0,3000159
0,2499843
0,09998427
0,1
-0,23
0,27
0,08
-0,26
-0,13
-0,14
-0,04
-0,1
-0,02
-0,09
0,03
0,18
-0,27
-0,11
0,03
-0,28
0,15
0,2
0,29
-0,3000003
0,009983904
0,249984
0,209984
-0,05001608
-0,3000159
-0,09001606
0,1599843
-0,24
-0,28
0,19
-0,26
-0,1300001
-0,1400001
-0,2600001
-0,1400001
0,0699999
-0,2600001
0,1599999
-0,1200001
-0,3000001
0,1399999
0,1199999
0,009999986
-0,28
0,26
0,25
0,01999998
-0,28
-0,08
-0,17
0,0199999
-0,2100001
0,2499999
0,09999991
-0,2100001
-0,1800001
-0,2400001
-0,1700001
-0,2700001
0,2499999
-0,01000009
-0,1
-0,12
0,09
-0,14
-0,14
0,02
0,29
-0,27
0,26
0,28
0,28
0,01
0,28
-0,15
0,18
-0,06
0,18
-0,02
-0,25
0,19
0,14
0,14
0,18
-0,14
0,24
-0,09
0,05999999
0,24
-0,2600003
0,009999662
0,1999997
0,1199839
-0,07001606
0,009983906
-0,06001608
-0,06001608
0,2099843
0,1599843
0,09998427
-0,07
0,02
0,29
-0,05
-0,15
0,03
0,08
0,27
-0,06
-0,09
0,17
-0,13
0,15
0,28
-0,24
0,15
0,05999999
-5,070765E-09
-0,08
-0,09000032
0,239984
0,249984
-0,2600159
0,2899841
-0,06001608
-0,230016
-0,1500157
-0,22
-0,03000001
0,21
-0,0600001
0,01999991
-0,2800001
0,1699999
0,1099999
-0,1400001
0,1499999
-0,1200001
0,0199999
0,1299999
-0,1400001
-0,06000001
-0,19
0,02999998
-0,14
-0,16
-0,25
0,14
-0,14
0,16
0,18
0,2299999
-0,0200001
-0,0600001
0,1499999
-0,0300001
-0,0200001
-0,3000001
-0,2900001
-0,2200001
-0,1300001
5,267649E-10
-0,01
0,03
0,26
-0,16
-0,15
0,27
-0,14
0,2
0,29
-0,13
0,27
0,09
-0,25
1,396072E-09
0,14
0,009999999
0,12
-0,2
-0,29
0,009999998
0,21
0,11
-0,27
-6,924654E-09
-0,26
0,07
-0,28
-0,1600003
0,1799997
0,1499997
-0,140016
-0,06001608
-0,05001609
0,149984
0,239984
0,07998426
0,05998424
-0,2900156
0,28
-0,22
-0,02
-0,04
0,16
-8,915555E-10
0,26
0,19
-0,12
-0,16
0,13
0,26
-0,13
0,2
-0,24
0,16
0,09
0,18
-0,01
-0,04000033
-0,200016
0,06998394
0,249984
-0,2800159
-0,2900159
-0,160016
-0,2900156
0,01999999
-0,17
-0,1100001
0,0599999
-0,2500001
0,2399999
0,1099999
-0,1900001
0,2299999
-0,2800001
-0,06000011
0,2399999
0,0299999
0,02999999
-0,16
-0,12
0,17
-1,660015E-08
0,21
-0,03000001
-0,05000002
-0,13
0,09
-0,24
-0,25
-0,2200001
-0,2000001
0,1999999
-0,09000009
-0,1800001
-0,0400001
-0,0500001
0,009999907
-0,01000009
-0,07
0,06
0,28
0,08
0,08
-0,28
0,05
0,09
-0,17
0,13
-0,16
0,24
0,26
0,22
0,25
-0,12
-0,23
0,009999999
-0,2
0,16
0,05
-0,15
0,03
-0,17
0,009999996
0,27
0,14
0,21
0,1899997
0,09999968
0,05999967
0,2899841
-0,08001605
-0,2700159
-0,200016
0,07998394
-0,1000157
-0,2100157
0,2199843
0,19
0,22
0,16
-0,27
0,26
0,21
-0,2
-0,19
-0,13
0,24
-0,27
-0,25
0,24
-0,15
0,15
0,24
-0,22
-0,28
0,15
-0,2400003
0,09998395
-0,130016
0,139984
0,189984
0,02998392
-0,240016
-0,1500157
0,00999999
0,2299999
0,1199999
-0,1300001
0,2799999
0,2799999
0,08999991
-0,1000001
0,2399999
0,1799999
-0,1900001
0,06999999
-0,09000001
-0,1
0,15
-0,04000001
0,26
0,16
0,04999999
0,11
0,14
0,06999999
-0,21
-0,29
0,05999999
0,03999999
-0,28
-0,1900001
0,0099999
-0,2300001
0,2599999
-9,452999E-08
0,1899999
0,05999999
0,09
-0,12
0,05
0,07
-0,26
-0,24
-0,15
0,24
0,21
-0,25
0,26
-0,06
-0,07
0,16
0,25
0,21
0,18
-0,28
0,27
-0,05
0,009999998
0,24
0,13
0,1
0,1
-0,07
0,25
-0,03
0,1899997
0,1599997
0,2099997
0,09998395
0,179984
0,149984
0,1099839
-0,03001608
0,1999843
-0,1200157
0,1199843
-0,02
-0,04
0,19
0,16
-0,26
-0,25
-0,18
-0,19
-0,14
-0,14
0,1
-0,11
0,24
0,02
-0,06000001
-0,26
0,14
0,05
0,25
0,2699997
0,09998395
-0,200016
0,179984
-0,2500159
-0,2600159
-0,170016
-0,1500157
0,0499999
0,06999991
-0,2500001
-0,0200001
-0,3000001
-0,01000011
-0,1000001
-0,0100001
0,2799999
0,1199999
-0,22
0,09
0,04999999
-0,02000001
-0,18
0,09
-0,19
-0,21
-0,04000001
0,27
-0,22
-0,06000001
0,11
0,26
0,22
0,25
-0,09
-0,29
-0,1300001
0,07999991
0,1399999
0,1099999
0,2
0,19
0,05999999
0,02999999
-0,19
0,18
0,09
0,2
0,03
-0,27
-0,05
-0,08
0,06
0,25
-0,11
-0,02
-0,02
0,01
0,05999999
0,26
0,07
-0,14
-0,23
-0,19
0,26
-0,22
0,05
-0,26
-0,23
-0,11
-0,1900003
-0,1000003
0,2699997
-0,04000033
0,189984
0,149984
0,209984
0,08998395
-0,03001574
-0,08001573
-0,01001576
0,06
-0,06
-0,26
0,29
-0,12
-0,11
0,26
0,05999999
0,22
0,03
0,16
-0,29
0,17
-0,27
0,02999999
0,11
-0,06
0,05999999
-0,28
-0,1800003
0,03998391
0,1199839
-0,160016
0,209984
-0,2600159
-0,06001609
-0,2100158
-0,2400001
0,03999989
0,0699999
0,1799999
-0,2700001
-0,1700001
-0,04000011
-0,2900001
0,2199999
-0,28
-0,18
0,06999999
0,18
0,09
-0,02
-0,15
0,16
-0,05000001
-0,11
-0,2
-0,08000001
-0,15
-0,27
-0,03000001
-0,28
-0,06000001
-0,2
0,25
0,23
-0,21
-0,18
0,24
0,24
-0,21
0,2
-0,29
-0,15
0,14
0,12
0,17
-0,09
-0,29
0,11
0,09
-0,18
0,28
-0,16
0,02
-0,25
-0,03
-0,02
-0,04
0,15
-0,16
0,17
0,2
-1,746623E-09
-0,21
0,16
0,09
-0,27
0,009999997
-0,2200003
0,1199997
0,1899997
-0,1300003
0,129984
0,07998394
0,189984
-0,04001608
0,2899843
-0,2900156
0,1299843
0,02
0,19
-0,1
0,04
-0,06
-0,16
-0,27
-0,2
0,07
0,19
-0,05
0,11
0,16
-0,21
0,1
-0,08
0,29
0,01
-0,25
0,2799997
-0,2800159
0,129984
0,189984
0,229984
0,2799841
0,189984
0,2399842
-0,1500001
0,04999989
0,1299999
0,0799999
-0,0200001
-0,04000011
0,1199999
-0,1800001
-0,06000001
-0,04000001
-0,14
-0,25
0,25
0,12
-0,02
-0,05
0,12
0,13
-0,29
-0,27
-0,22
-0,27
-0,15
0,19
0,25
0,23
-0,27
0,1
0,18
0,29
-0,03000001
0,04999999
0,04999999
-0,11
0,18
0,04
0,24
-0,2
0,26
-0,15
-0,27
0,26
-0,15
0,26
0,13
-0,04
-0,2
-0,15
0,04
-0,12
-0,23
-0,2
0,27
0,15
0,16
-0,19
-0,11
0,23
0,13
0,04
-0,08
-0,28
-0,06000033
-0,05000033
0,2799997
0,09999968
-0,01001609
0,04998391
0,229984
0,229984
-1,57572E-05
0,01998425
0,1599843
0,15
0,29
-0,19
0,18
-0,12
-0,24
-0,02
0,13
0,18
-0,25
-0,01
0,22
-0,14
0,08
0,19
0,02
0,07
-0,15
-0,3
-0,04000033
-0,08001605
0,229984
-0,2900159
0,01998391
0,1999839
0,279984
-0,2700157
0,2699999
0,03999989
-0,0800001
0,0999999
0,1699999
0,04999989
-0,0600001
-0,19
0,16
0,04999999
-0,07000001
-0,3
0,17
-0,15
0,21
0,04
0,26
0,24
0,01999999
0,11
-0,29
0,09
-0,28
-0,14
0,07999999
-0,01000001
-0,25
-0,07000001
0,22
0,28
0,09
0,27
-0,1
-0,28
0,009999993
-0,21
-0,05
-0,05
0,11
-0,13
0,22
-0,04
-0,27
0,27
-0,17
-0,16
-0,17
-0,19
0,01
-0,12
-0,26
0,07
-0,13
-0,14
-0,29
-0,13
0,009999999
-0,25
-0,28
-0,13
-0,009999999
-0,3
-0,1100003
0,1799997
0,2599997
-0,05000033
0,09998395
0,139984
0,129984
0,1199839
-0,2200157
0,009984245
-0,1800157
-0,16
0,19
0,05
0,05
-0,25
-0,28
-0,06
-0,14
0,24
0,22
0,03
0,23
-0,29
0,1
-0,26
-0,29
-0,17
0,07
-0,11
-0,08000032
-0,07001606
0,179984
0,219984
-0,230016
-0,1500161
-0,290016
0,1799839
0,02998415
-0,01000011
-0,0300001
0,1799999
-0,2000001
0,0299999
-0,0600001
-0,27
-0,03000001
-0,04000001
0,11
-0,04
-0,27
0,08
-0,29
0,04
-0,23
0,15
0,24
0,24
0,15
0,04999999
0,13
-0,01000001
-0,26
0,18
-0,22
0,19
-0,04000001
0,26
-0,03000001
-0,1
-0,27
-0,16
0,2
0,17
-0,03000001
-0,27
-0,07
-0,11
0,05999999
0,05999999
0,05999999
0,04
0,02
-0,2
-0,14
0,14
-0,08
-0,17
0,14
-0,09
-0,1
-0,23
-0,28
0,28
0,16
0,27
0,14
-0,09
-0,06
0,05
0,06999968
-3,359734E-07
0,2799997
-0,09000032
-0,07001606
0,179984
0,169984
-0,160016
-0,2300157
-0,2700157
-0,08001573
0,05
-0,13
-0,22
0,28
-0,22
0,27
0,23
0,02
-0,06
-0,04
-0,18
-0,18
-0,25
0,29
0,26
-0,18
0,22
-0,3
-3,493383E-09
-0,1100003
-0,2900159
0,239984
-0,2900159
0,289984
-0,2400161
0,05998381
-0,2000161
0,1699842
-0,0200001
0,2599999
-0,2300001
-0,2400001
0,0999999
0,29
0,15
0,19
0,23
0,29
0,08
0,29
0,2
0,19
-0,3
-0,22
-0,05
-0,12
0,22
-0,08000001
-0,03000001
0,05999999
0,25
-0,17
0,05999999
0,13
-0,09000001
0,09999999
-0,14
-0,21
0,22
0,01999999
0,17
-0,24
-0,27
-0,03000001
-0,11
-0,25
0,009999997
-0,24
-0,17
-0,24
-0,12
0,23
-0,08
2,991643E-09
-0,009999998
-0,19
0,24
0,22
0,03
0,18
0,13
0,17
-0,1
0,21
-0,29
0,23
1,67588E-09
0,27
0,07999968
-0,2500003
0,01999967
0,1299997
-0,2400003
-0,240016
-0,190016
0,129984
0,149984
0,01998426
0,1899843
-0,1100157
0,16
0,16
-0,21
-0,1
-0,13
-0,28
0,2
-0,24
-0,16
-0,21
0,15
-0,06
0,05
-0,26
0,18
0,29
0,16
-0,18
-0,04000001
-0,05000034
0,04998391
0,03998391
-0,02001617
-0,2300161
0,02998382
0,03998381
0,1599839
-0,1400161
-0,1200158
0,1599999
-0,04000011
-0,0900001
-0,28
-0,17
-0,29
0,27
0,08
0,29
0,04
0,28
-0,27
-0,06
0,13
-0,02
-0,1
-0,22
-0,22
-0,28
-0,13
-0,18
0,27
0,02999999
-0,24
-0,06000001
0,14
-0,18
-0,13
-0,29
0,17
0,13
-0,14
0,03999999
0,17
-0,02000001
0,13
-0,07
-0,08
-0,09
-0,28
0,21
-0,09
0,16
0,07
-0,03
-0,09
-0,19
0,21
0,29
0,16
-0,05
-0,04
0,13
0,29
-0,24
0,18
0,22
-0,15
0,07
-0,01000033
0,1799997
0,08999968
0,05999967
-0,1800003
0,199984
0,1199839
-0,02001607
0,05998392
-0,1500157
0,1499843
0,2599843
0,16
0,16
0,29
-0,05
0,2
-0,2
0,25
0,08
-0,28
0,03
-0,09
-0,13
-0,15
-0,08
-0,14
0,02
0,03999999
0,1
0,09
0,2
-0,2300003
0,139984
0,2199839
-0,1600161
-0,1900161
0,1499839
0,03998381
0,1699839
0,1499839
0,2299839
0,03999989
0,0499999
-0,16
0,19
0,08
0,1
0,14
0,03
-0,14
0,08
0,26
0,07
0,04
0,25
-0,04
-0,08
-0,09
0,19
0,03999999
-0,21
0,24
0,26
0,04999999
0,24
0,19
-0,29
0,23
0,15
-0,16
-0,25
0,04999999
-0,22
0,22
-0,21
0,29
0,15
-0,27
-0,05
0,13
0,05999999
0,18
-0,29
-0,06
-0,29
0,23
2,341322E-09
-0,2
0,27
0,17
0,19
-0,07
0,14
-0,17
0,05
0,29
0,07
-0,3
-0,11
-0,3000003
0,06999968
0,1599997
0,2799997
-0,1100003
-0,200016
-0,2800159
0,179984
0,139984
-0,06001575
0,2499843
0,1099843
-0,11
0,26
-0,24
0,27
-0,09
0,23
0,009999997
0,04
-0,3
-0,11
0,2
0,26
0,27
-0,06
0,11
0,2
0,25
-0,13
-0,2
-0,08
0,1499997
0,1299839
-0,06001619
-0,2400161
0,1899839
0,1899839
0,1099838
-0,1700161
0,279984
-0,250016
0,1499999
0,15
-0,29
-0,24
-3,310834E-09
-0,03
0,08
-0,15
-0,16
-0,25
-0,25
-0,05
-0,11
0,11
0,16
0,2
-0,29
0,24
-0,02
-0,18
0,22
-0,03000001
-0,17
0,02999999
0,25
0,04999999
0,009999988
-0,3
-0,22
0,00999999
-0,19
-0,12
0,05999999
0,25
0,02999999
-0,26
0,24
0,2
0,24
-0,16
-0,18
0,1
-0,27
-0,26
-0,14
-0,11
-0,06
0,12
-0,11
0,28
0,18
0,16
0,15
0,16
-0,18
-0,12
0,01
-0,02
-0,1900003
0,2399997
0,2499997
0,07999968
-0,2300003
0,1199839
0,239984
0,169984
0,1899843
-0,07001574
-0,2300157
0,1099843
0,26
-0,2
0,29
-0,17
-0,3
-0,18
-0,06
-0,21
-0,13
0,05
-0,19
0,18
0,1
-0,21
0,13
-0,06000001
0,01999999
0,2
0,12
-0,15
0,01999956
-0,05001619
0,08998385
-0,300016
-0,1100162
0,02998381
0,01998382
-0,1000162
-0,2000161
-0,02001617
-8,437852E-09
-0,3
0,05
0,08
-0,28
0,07
0,17
0,009999999
0,16
0,29
0,24
-0,08
-0,2
0,05
0,12
-0,24
0,27
0,28
0,29
-0,01
-0,15
0,28
0,11
0,22
-0,22
-1,04437E-08
0,00999999
0,29
0,24
-0,04000001
0,09
-0,27
0,28
0,18
-0,25
-0,19
-0,17
-0,28
-0,24
-0,25
0,07
-0,3
-0,26
0,12
-0,09
-0,2
-0,15
-0,26
-0,13
-0,18
0,05
0,04
-0,09
0,1
-0,17
0,01
-0,11
0,13
-0,01000033
0,009999667
-0,2400003
0,1699997
0,06999968
-0,1100161
-0,1000161
0,199984
-0,07001574
-0,08001573
-1,57559E-05
0,009984243
0,22
0,25
0,21
0,23
0,22
-0,16
0,24
0,28
-4,686113E-09
0,28
-0,15
-0,04
0,11
0,11
0,2
-0,25
0,12
-0,12
0,04999998
0,0299999
0,2099999
-4,424977E-07
0,02998381
0,03998381
0,279984
0,1999839
-0,07001615
0,1399839
-0,08001615
0,009983897
0,159984
0,22
0,03
0,15
-0,11
0,1
0,13
-0,03
0,18
0,28
0,07
-0,1
-0,18
-3,290943E-09
-0,14
0,09
-0,25
0,25
-0,01
-0,15
-0,22
-0,25
0,16
0,27
0,09999999
-0,08000001
-0,08000001
-0,14
0,24
-0,28
0,2
-0,2
0,05
0,29
-0,18
-0,08
0,23
0,25
-0,08
-0,21
-0,09
-0,16
-0,009999998
0,06
0,26
2,012994E-10
-0,13
-0,28
-0,12
-0,11
0,14
-0,02
-0,15
-0,23
-0,08
0,1
-0,24
0,05999967
-0,2500003
0,2699997
-0,1200003
-0,03000033
0,01998392
0,159984
-0,230016
-0,04001608
0,1399843
-0,1700157
-0,1200157
0,2299843
0,16
-0,21
0,02
-0,11
0,23
0,23
0,05
-0,2
-0,3
-0,21
-0,25
-0,11
0,27
0,05
-0,13
-0,08
0,24
-0,02000002
0,05999989
0,009999895
-0,1400001
-0,1400001
0,1899839
-0,05001619
0,2099839
0,2399839
0,1199838
0,1299839
-0,02001618
-0,01001609
0,149984
-0,26
0,13
-0,06
0,02
0,04
0,25
0,26
-0,17
-0,01
-0,26
0,25
0,05
0,26
0,22
0,28
-0,01
0,26
-0,02
0,15
0,02
-0,14
0,05999999
0,16
0,06999999
-0,01000001
-0,11
-0,23
-0,02000001
0,29
-0,19
0,22
0,11
0,01
-0,07
-0,3
0,06
0,02
-0,27
0,13
-0,03
0,28
-0,16
-0,23
-0,03
-0,1
0,11
0,23
0,02
0,22
-0,05
0,15
-0,16
0,13
0,26
-0,009999999
-0,03
0,2599997
0,1699997
-0,2700003
-0,1600003
0,1699997
-0,02001607
-0,160016
-0,130016
-0,180016
-0,1600157
-0,2700157
0,02998426
0,2099843
-0,08
0,26
0,23
0,15
-0,12
0,04
-0,29
-0,02
-0,11
-0,14
0,18
-0,04
0,04
0,05
0,03
-0,05000001
0,06999999
0,28
0,03999989
0,2399999
0,02999989
0,08999991
0,1499839
0,289984
-0,02001618
0,08998385
-1,619579E-05
0,289984
0,189984
-0,160016
-0,240016
0,06998394
-0,11
0,11
-0,009999999
-0,01
0,22
-0,01
-0,06
-0,08
-0,03
0,28
0,07
0,009999997
-0,15
0,18
-0,18
0,22
0,11
0,22
0,05
-0,15
-0,01
0,09
-0,12
0,12
-0,2
0,23
-0,13
0,08
-0,26
-0,28
0,09
-0,26
-0,21
-0,2
-0,24
0,23
-0,24
-0,26
0,03
-0,23
0,03
-0,19
-0,04
0,04
-0,28
-0,17
0,14
0,1
-0,03
0,07
-0,12
0,27
0,09
0,21
-0,2200003
0,09999968
-0,07000032
0,1599997
-0,1200161
0,2799841
-0,180016
0,159984
-0,1200161
-0,05001608
-0,1100157
0,01998426
-0,09001574
-0,2600156
0,11
-0,11
0,16
0,05999999
-0,11
-0,03
0,12
-0,13
-0,18
0,13
0,1
0,27
-0,22
0,07
-0,19
-0,04000001
0,13
0,1199999
-0,06000011
-0,1200001
-0,2800001
-0,05000012
-0,0100001
-0,1100162
0,1599839
0,03998381
0,2499839
0,169984
0,229984
-0,2900159
-0,150016
-1,609381E-05
0,21
0,1
0,28
-0,23
0,21
0,12
0,07
-0,18
-0,22
0,21
-0,03
0,1
-0,24
-0,1
0,19
0,04
0,04
0,22
0,11
0,07
-0,23
-0,27
-0,29
-0,15
0,19
-0,04
0,19
0,15
0,01
0,24
-0,06
-0,19
-0,03
-0,2
-0,25
-0,02
0,08
-0,27
0,04
-0,29
-0,26
-0,18
-0,21
-0,19
0,28
0,19
-0,17
-0,05
0,14
-0,1
-0,18
-0,3
-0,11
0,06999968
-0,08000032
0,1799997
0,07999968
0,1299997
-0,1200161
-0,05001608
0,219984
0,219984
0,1099843
-0,1700157
-0,03001574
-0,1400157
-0,1800157
0,26
-0,15
-0,09
0,26
-4,197484E-09
-0,13
0,1
0,02
0,25
0,23
0,2
-0,13
0,29
-0,17
-0,06000001
-0,3
-0,2
0,1199999
-0,0700001
0,2199999
0,1899999
0,1699999
-0,1300001
0,1899999
0,2499839
0,1499839
-0,2100161
-0,210016
-0,190016
0,009983907
0,249984
0,139984
0,1099839
0,06998426
-0,13
-0,2
-0,08
-0,06
0,11
0,12
0,08
-0,25
-0,03
0,24
0,18
-0,05
-0,12
-0,19
-0,02
0,22
-1,543348E-09
0,009999995
-0,27
-0,06
-0,08
-0,22
0,28
0,009999998
-0,3
0,15
-0,22
0,01
-0,09
-0,07
0,28
-0,25
0,05
-0,08
0,26
-0,17
0,07
0,15
-0,3
0,1
-0,17
0,14
-0,11
-0,08
-0,29
-0,01
-0,04
0,27
0,11
-0,11
-0,3
-0,06000033
0,09999968
-0,1300003
-0,1500003
-0,2200003
-0,180016
0,199984
-0,07001606
0,249984
0,03998392
-0,2300157
0,1299843
-0,2700157
0,2599843
0,1199843
0,19
0,26
-0,15
-0,16
-0,16
0,14
-4,238407E-09
-0,07
-0,19
0,07
0,19
0,04999999
-7,565646E-09
-1,798662E-08
-0,11
-0,2
0,1999999
-0,2900001
-0,0800001
0,03999988
-0,05000012
-0,1200001
-0,2300001
0,1699999
-0,2900001
0,159984
-0,08001605
-0,2600159
-0,240016
-0,2500159
-0,2900159
-0,150016
-0,04001608
-0,1100161
0,09998427
-0,009999999
0,12
-0,04
-0,25
-0,14
0,23
-0,13
-0,24
0,07
-0,11
0,06
-0,1
0,23
0,06
-0,07
-0,13
0,12
0,11
-0,08
-0,13
0,009999997
0,18
-0,03
-0,18
-0,02
-0,08
-0,04
-0,14
-0,25
0,06
0,03
-0,22
-0,19
0,2
0,19
-0,02
-0,07
0,26
-0,24
0,1
-0,23
-0,18
-0,01
-0,02
-0,06
-0,04
-0,02
-0,02
0,12
0,1799997
-0,1200003
0,03999967
-0,2600003
-0,2800003
-0,210016
0,09998395
-0,160016
-0,170016
0,05998392
0,2299843
-0,03001574
-0,3000157
-0,3000157
-0,2900156
0,15
-0,02
-0,22
-0,28
0,16
0,24
0,23
0,15
0,04
0,11
-0,21
-0,12
-0,11
0,28
0,18
-0,29
0,2299999
0,2699999
0,0299999
-0,1300001
-0,1300001
0,2899999
-0,2600001
-0,2100001
0,1099999
-0,2100001
-0,160016
-0,210016
-0,1100161
-0,180016
-0,170016
-0,240016
-0,180016
-0,02001608
0,129984
0,2599843
-0,13
-0,04
0,12
0,18
0,24
0,03
0,29
-0,07
0,22
0,2
-0,09
-0,15
-0,05
0,04
-0,3
-0,01
-0,04
0,12
0,14
0,16
-0,06
0,29
-0,09
0,07
0,1
0,14
-0,04
-0,09
-0,03
-0,28
-0,25
0,2
-0,15
0,21
0,14
-0,03
-0,15
0,15
-0,07
0,14
0,29
0,11
-0,14
0,2
0,17
0,28
0,13
0,14
-0,18
0,1399997
0,08999968
-3,365092E-07
0,1399997
0,2599841
0,01998392
-0,1200161
-0,2600159
-0,2500159
-0,230016
-0,2000157
-0,2400157
0,07998426
0,2499843
0,1999843
0,15
-5,444554E-10
0,29
0,04
0,2
0,02
-0,16
0,11
-0,12
0,29
0,17
0,13
0,12
0,009999984
0,19
0,12
-0,3000001
0,1099999
-0,2100001
0,1299999
-0,0800001
0,04999989
-0,2400001
-0,1100001
-0,1100001
-0,0400001
-0,08000032
-0,200016
0,07998394
-0,170016
0,06998394
-0,1000161
0,149984
-0,04001608
-0,2500159
-0,140016
0,2799844
-0,21
0,24
0,09
2,539345E-09
0,28
-0,19
0,14
-0,21
0,19
0,06
0,03
-0,15
-0,05
-0,2
-0,05
-0,02
-0,18
-0,03
-0,21
-0,06
0,1
-0,16
-0,06
-0,2
-0,26
-0,27
-0,25
-0,08
-0,04
0,27
-0,15
-0,04
0,02
0,13
0,2
0,17
1,076619E-09
-0,17
-0,07
-0,06
-0,09
-0,2
-0,01
0,19
0,19
0,24
-0,18
-0,2700003
-0,1800003
0,2199997
0,01999967
0,2899841
0,2599841
0,219984
-0,130016
0,239984
-0,01001609
-0,01001576
-0,05001575
0,2499843
-0,2500156
-0,08001573
0,12
0,21
-0,1
-0,23
0,12
0,11
-0,11
0,07
0,28
0,29
-0,27
0,14
-0,28
-1,787168E-08
0,14
0,03999998
-0,1
-0,2100001
0,1999999
-0,2800001
-0,2100001
0,03999989
-0,06000011
-0,1400001
-0,0100001
0,09999991
-0,05000001
0,25
-0,1300003
-0,3000159
0,169984
-0,02001608
-0,1200161
0,2899841
-0,03001608
0,07998394
-0,01001609
0,1099843
-0,19
2,55388E-09
0,13
0,04
0,23
0,03
0,25
-0,19
0,2
0,17
-0,2
0,24
-0,22
-0,14
-0,25
-0,27
-0,18
-0,22
-0,04
-0,26
0,07
-0,28
-0,14
-0,06
-0,11
0,27
-0,18
0,05
-0,05
-0,27
-0,28
-0,24
-0,25
0,08
0,27
-0,11
-0,12
0,05
0,1
0,21
-0,1
-0,12
0,2
0,08
0,15
-0,07000032
0,2199997
-3,378875E-07
-0,07000032
-0,150016
0,159984
-0,1100161
-0,190016
-0,05001608
-0,2600159
-0,210016
-0,1600157
-0,1100157
-0,1600157
0,2599843
-0,09001574
-0,1
0,15
0,16
0,14
-0,27
0,19
-0,01
-0,12
0,15
0,15
0,07
-0,02000001
0,04999999
0,13
-0,11
-0,19
0,06999999
0,0799999
0,2599999
-0,2500001
0,1099999
-0,1900001
-0,2000001
-0,1400001
0,1299999
0,2499999
0,1
0,04
0,17
-0,2600003
0,2899997
-0,1000161
0,139984
-1,609631E-05
-0,3000159
0,01998392
-0,2700159
0,229984
0,1199839
0,02998426
-0,08
-0,18
0,07
-0,009999999
-0,22
0,21
0,05
0,11
0,15
0,28
0,07
0,1
-0,13
0,2
0,09
-0,22
0,04
-0,01
-0,29
-0,23
-0,21
0,25
-3,939895E-09
0,11
0,16
-0,14
0,14
-0,25
0,12
0,16
-0,23
0,14
0,26
-0,07
0,13
-0,01
0,04
0,1
-0,22
0,22
-0,1
0,2799997
0,1799997
0,1899997
-0,03000033
-0,1200003
-0,2700159
0,229984
0,199984
0,209984
0,2699841
0,02998392
0,219984
0,03998392
-0,07001574
-0,03001574
0,1099843
0,2599843
0,1299843
0,22
-0,24
-0,01
0,28
0,29
0,2
0,22
0,13
0,24
-0,23
-0,2
0,03999999
0,23
-0,09
-0,22
0,17
-0,19
-0,2400001
0,1099999
-0,1700001
-0,0300001
-0,1700001
0,1999999
-0,1500001
0,2099999
0,1799999
0,03
0,22
-0,08
-0,3
-0,14
0,1699997
0,07999968
0,2699841
-0,150016
0,149984
0,199984
0,2899841
0,189984
0,2799841
0,03998392
0,03998424
-0,22
0,16
0,09
-0,13
-0,27
-0,18
0,13
0,17
-0,19
-0,1
0,29
0,12
-0,15
0,08
-0,14
-0,16
-0,23
-0,2
-0,14
-0,3
-0,09
0,24
0,21
-0,08
0,25
0,26
-0,25
-0,07
0,26
-0,18
-0,14
0,12
0,09
0,22
-0,26
-0,26
0,05
0,03
0,1399997
-0,09000032
-0,2200003
0,04999967
0,1799997
0,2499997
0,179984
0,2599841
0,1099839
0,06998394
-0,01001609
0,05998392
0,209984
0,08998395
0,1199843
0,03998424
-0,1700157
-0,1600157
0,2499843
-0,13
-0,09
-0,23
-0,24
-0,1
0,2
0,29
-0,27
-0,13
-0,27
-0,07
0,03999999
-0,18
0,09
0,03999998
-0,04000002
0,2399999
0,2199999
0,1599999
-0,2500001
0,2499999
0,03999988
0,2899999
-0,1600001
-0,02000009
0,2299999
-0,1
-0,09
0,07
-0,3
-0,26
0,09
0,1899997
-0,2100003
-0,130016
-0,190016
0,06998394
-0,150016
0,169984
0,139984
0,179984
0,209984
-1,609499E-05
0,229984
-0,12
-0,27
-0,14
0,27
-0,13
-0,17
0,17
0,12
-0,03
-0,22
0,29
0,13
-0,09
0,22
0,07
-0,04
-0,01
0,08
-0,04
-0,14
0,28
0,13
0,14
-0,27
-0,09
-0,08
0,18
0,09
-0,26
-0,29
-0,13
-0,26
-0,27
-0,24
0,26
-0,05000033
0,06999968
-0,07000032
-0,2700003
-0,06000033
-0,1800003
-0,08001605
-0,180016
0,1099839
-0,210016
0,03998392
0,199984
0,139984
0,06998394
-0,09001606
-0,1500157
-0,2000157
-0,05001575
-0,1700157
0,2399843
0,04
-0,11
-0,17
0,06
0,24
-0,06
-0,22
0,07
-0,05
0,21
0,25
0,09
-0,15
0,26
-0,18
0,19
-0,24
0,03999988
-0,2900001
-0,2600001
0,04999989
0,00999989
-0,2700001
0,2299999
0,1599999
0,01999991
-0,2700001
-0,28
0,13
0,16
-0,23
0,08
0,19
-0,19
-0,09000032
-0,2400003
-0,07001606
0,169984
-0,210016
-0,3000159
-0,2600159
0,149984
0,159984
0,189984
-0,160016
0,249984
0,03999967
0,18
-0,06
0,01
-0,21
0,05
-0,05999999
-0,21
-0,11
-0,28
-0,15
-0,11
0,19
-0,08
-0,1
-0,25
0,24
0,09
0,14
-0,14
0,19
-0,27
0,04
-0,24
-0,05
-0,12
-0,05
-0,3
0,29
0,19
0,15
-0,17
0,08999968
0,2099997
0,2699997
-0,1600003
0,06999968
-0,1900003
0,06999968
0,009983907
-0,160016
0,08998395
0,209984
-0,1100161
0,199984
-0,2700159
0,2699841
0,159984
0,08998427
0,2799844
0,1999843
-0,2300157
-0,2500156
0,2699844
-0,25
0,01
-0,16
-0,12
-0,25
0,2
-0,2
-0,07
-0,2
-0,01
-0,13
-0,28
0,1
0,28
-0,06000002
-0,25
-0,02000011
0,1199999
-0,2900001
-0,1700001
-0,2800001
-0,2100001
-0,1900001
-0,1500001
-0,1500001
-0,09000009
-0,1
0,08
-0,09
-0,3
0,29
0,08
-0,22
0,11
0,15
-0,05000033
-0,3000159
-0,1200161
-0,2500159
0,159984
-0,09001606
0,199984
-0,01001609
-0,08001605
-0,2900159
0,169984
-0,07000032
0,2899997
-0,08000032
0,03999967
-4,242637E-10
-0,22
-0,25
0,22
0,25
0,25
-0,1
0,29
-0,28
0,14
-0,01
0,009999998
-0,28
-0,21
-2,958562E-09
0,08
0,23
0,29
-0,17
0,29
-0,25
-0,21
0,07
-0,16
0,21
-0,19
0,09999968
0,1899997
-0,1700003
-0,03000033
0,2799997
-0,09000032
-0,1400003
0,1599997
-3,368625E-07
0,209984
0,01998392
-0,140016
0,149984
0,199984
-0,2500159
-0,3000159
-0,140016
-0,09001574
-0,1400157
0,1899843
0,1799843
-0,1000157
0,2099843
-0,07001574
0,23
-0,07
0,16
-0,08
-0,02
-0,1
-3,034844E-11
0,2
-0,3
0,13
-0,15
-5,757755E-09
0,16
0,03999998
0,15
-0,2200001
-0,1500001
-0,1500001
0,0799999
0,08999991
-0,2400001
0,0699999
-0,1700001
-0,08000009
0,2299999
-0,26
0,23
-0,15
0,28
-0,28
-0,08
-0,11
0,27
0,2
0,03
0,04999967
0,04999967
0,229984
-0,1200161
-0,210016
-0,1000161
0,1199839
-0,140016
-0,2900159
0,03998392
0,03998392
-0,170016
0,1099997
0,05999967
-0,2200003
0,03
0,03
0,12
-0,19
-0,14
-0,14
-0,21
-0,07
-0,01
-0,07
-0,03
-0,15
0,22
0,27
-0,1
0,26
0,02
0,26
-0,3
-0,21
0,03
-0,08
0,26
-0,009999998
-0,11
-0,07
-0,09000032
-0,1900003
0,1699997
-0,1200003
0,2099997
-0,1800003
0,08998395
0,189984
-0,01001609
0,189984
0,05998391
0,159984
0,02998392
-0,130016
-0,05001608
-0,190016
-0,07001606
0,2399843
0,1099843
-0,2600156
0,1899843
-0,12
0,1
0,08
-0,29
-0,13
0,1
-0,04
0,05
-0,19
0,06
-0,17
0,21
0,22
0,25
0,27
0,04999999
-0,2
0,01999989
-0,1500001
0,05999988
-0,2700001
-0,03000011
0,00999989
-0,1100001
0,1599999
-0,07000009
0,1299999
0,13
-0,09
0,28
-0,28
0,17
-0,15
0,03999999
-0,28
0,009999997
-0,21
-0,13
0,02999999
0,009999999
-0,180016
-0,170016
-0,1200161
-0,180016
-0,07001606
0,239984
0,09998395
-0,08001605
-0,02001608
0,05998391
-0,170016
-0,09001606
-0,04001608
-0,02000033
0,1599997
0,2099997
-0,2100003
-0,11
-0,15
0,23
0,26
0,12
-0,16
-0,18
0,04
-0,04
0,06
-0,12
0,22
-0,04
-0,04
0,23
0,28
0,13
-0,06
0,19
-0,2100003
-0,1100003
0,2499997
0,2099997
0,1199997
-0,1000003
-0,150016
0,139984
0,149984
0,09998395
-0,1000161
0,169984
0,169984
-0,190016
-0,09001606
0,189984
-0,2800159
0,08998395
0,04998425
-0,01001576
0,2899843
-0,2500156
0,07998426
0,27
-0,12
-0,09
-0,01
-0,28
-0,2
-0,11
-0,08
0,12
-0,27
0,27
0,11
0,2
-0,07
-0,07
-0,2
0,04999999
-0,03000011
-0,01000011
-0,03000011
0,2299999
-0,2500001
0,1899999
0,00999989
0,1099999
-0,2600001
0,0599999
0,2099999
-0,12
-0,22
0,24
0,19
-0,26
0,1
0,28
0,02999999
-0,09
0,2
-0,17
0,03999999
-0,05000001
-0,13
0,06998394
0,129984
0,189984
-1,610116E-05
0,009983904
-0,05001609
0,07998394
-0,0100161
0,2899841
-0,2800159
-1,610291E-05
0,06998394
0,139984
0,209984
-0,01000034
0,1999997
0,1799997
0,2699997
0,02999966
-0,02000034
-0,2700003
0,03999967
-0,2100003
-0,2200003
0,06
-0,21
-0,05
0,2
0,19
0,14
-0,1600003
0,2399997
-0,2800003
0,04999967
-0,03000033
-0,2400003
0,1099997
-0,190016
0,01998392
-0,200016
-0,180016
0,189984
-0,210016
0,219984
-0,1200161
-0,03001608
0,249984
-0,240016
-0,2600159
-1,609529E-05
-0,2800159
-0,150016
-0,3000157
0,2699844
-0,1700157
-0,2700157
0,03
0,11
0,24
-0,08
-0,3
0,18
0,09
-0,16
0,18
0,05
0,05
-0,21
-0,07
-0,07
-0,21
0,07
-0,06000001
-0,07000001
-0,1500001
-0,1600001
-0,05000011
-0,1300001
0,1899999
-0,2200001
-0,1700001
-0,1100001
0,1599999
-0,1100001
0,1199999
0,28
0,23
-0,26
-0,08
-0,06
0,02
0,29
-0,14
-0,2
-0,2
-0,06000001
-0,2
0,24
-0,26
0,13
0,22
0,159984
0,1199839
0,1099839
-0,1000161
-0,06001608
0,209984
0,06998394
0,1199839
0,2899841
0,07998394
-0,140016
0,219984
0,149984
-0,220016
0,09998395
-0,2800159
-0,1100161
0,009999661
0,1899997
0,1099997
-3,407819E-07
0,1599997
0,2899997
0,1999997
-0,2100003
-0,1000003
-0,1700003
-0,1800003
0,1999997
-0,2700159
-1,609719E-05
-0,170016
-0,2500159
-0,140016
-0,03001608
0,06998394
-0,2600159
0,2899841
-0,130016
-0,230016
-0,140016
-0,08001605
-0,08001605
0,159984
-0,140016
-0,230016
0,009983907
-0,2800159
-0,01001609
-0,08001573
0,2099843
-0,07001574
-0,1600157
-0,29
-0,09
0,29
0,13
0,2
-0,2
-0,26
0,07
-0,06
0,21
0,26
-0,23
-0,28
0,16
-0,01
0,11
-0,27
0,27
-0,1
-0,1600001
0,1199999
-0,05000011
-0,2300001
-0,06000011
-0,1800001
0,03999988
-0,2800001
0,1899999
-0,1900001
0,1299999
-0,02
-0,19
-0,23
0,29
-0,26
0,24
-0,03
0,23
-0,16
0,18
-0,17
-0,01
0,21
0,009999997
-0,05000001
0,08
-0,17
-0,09
-0,2900003
-0,1000161
-0,04001609
-0,06001609
0,009983904
-0,220016
0,01998392
0,05998392
-0,170016
0,04998392
-1,610107E-05
-0,140016
-0,220016
-0,160016
-0,05001608
0,1099839
-0,08001605
0,139984
-0,3000159
-0,2700159
0,1099839
0,03998391
-0,160016
-0,210016
0,1199839
0,009983907
-0,2900159
-0,180016
0,03998391
0,05998391
0,2799841
0,03998391
-0,1000161
0,09998395
0,169984
0,199984
-0,130016
-0,2700159
0,09998395
0,2799841
-0,04001608
-0,02001608
0,09998395
0,219984
-0,07001606
0,2799844
0,09998427
0,2799844
-0,2600156
-0,2100157
-0,22
0,1
0,07
-0,2
0,09
-0,04
-0,24
-0,14
0,12
-0,3
-0,23
-0,11
-0,29
0,07
0,06
0,26
0,25
-0,03
-0,03
0,05
-0,06000002
-0,1200001
-0,2600001
-0,2800001
0,05999989
-0,1700001
0,2399999
-0,0900001
0,1599999
0,1399999
0,1999999
-0,2800001
-0,22
-0,06
-0,03
-0,13
0,26
-0,21
-0,3
-0,1
0,13
-0,3
-0,09
0,09
0,2
-0,24
-0,04000001
-0,28
-0,15
-0,03000001
-0,28
-0,18
0,009983904
-0,02001608
0,149984
0,189984
0,05998391
0,03998391
0,02998392
-0,04001608
0,01998392
0,139984
-1,610371E-05
0,2699841
-0,210016
-0,2500159
-0,190016
0,06998394
-0,210016
-0,1200161
0,2899841
0,149984
-0,04001608
-0,240016
0,209984
-0,07001606
0,2699841
-0,06001608
-0,180016
-0,01001609
0,169984
0,209984
-0,240016
-0,1200161
0,1099839
0,07998394
0,009983907
0,08998395
0,08998395
0,07998394
0,1099839
-0,09001606
0,05998392
0,03998424
0,1799843
0,2799844
-1,575711E-05
-0,07001574
-1,575944E-05
0,15
0,25
0,19
0,23
0,27
-0,02
-0,14
0,15
-0,06
0,07
-0,09
0,22
-0,19
-0,08
-0,27
0,09
0,11
0,08
-0,19
-0,14
0,01
0,02999989
0,01999989
0,2699999
0,009999892
0,05999989
0,0699999
-0,2100001
0,2199999
-0,1200001
0,2199999
0,2299999
0,03
0,24
-0,04
0,04
0,27
0,28
-0,22
0,2
-0,06
0,22
-0,23
-0,29
-0,12
0,15
-0,01
0,28
0,01999999
0,25
-0,24
-0,1
-0,11
-0,23
0,2899843
-0,190016
-0,08001605
0,209984
-0,09001606
-0,1000161
0,199984
-0,230016
0,229984
-0,2500159
0,139984
-0,02001608
-0,1200161
-0,130016
0,249984
-0,01001609
0,1099839
0,1199839
-0,01001609
-0,1000161
0,209984
0,08998395
-0,04001608
-1,609711E-05
0,08998395
0,149984
-0,230016
0,08998395
0,06998394
0,2699841
-0,190016
0,01998392
0,02998392
-0,04001608
0,239984
-0,150016
-0,190016
-0,240016
0,05998424
0,1799843
-0,3000157
-0,1300157
0,2799844
-0,2900156
-0,1400157
0,2
-0,03
-0,18
-0,28
-0,28
-0,17
-0,07
0,2
0,28
-0,15
-0,1
0,15
0,22
-0,18
0,06
-0,17
-0,19
1,97007E-11
0,26
0,23
-0,18
0,24
0,2099999
-0,0800001
0,0999999
-0,1300001
0,04999989
-0,2400001
0,1099999
-0,1000001
0,0399999
0,09999991
-0,05
-0,17
0,19
-0,12
0,24
0,05999999
0,04
0,13
0,17
0,11
0,05
-0,2
0,04
-5,043956E-09
-0,11
0,24
-0,3
0,04999999
0,19
0,16
-0,28
-0,23
-0,26
0,25
0,04999999
0,1899843
-0,08001573
0,149984
0,07998394
-0,130016
-0,210016
0,07998394
0,09998395
0,08998395
-0,1100161
0,07998394
-0,07001606
-0,130016
-0,1200161
0,04998391
0,249984
-0,180016
-0,240016
-1,609725E-05
-0,1100161
0,1099839
0,169984
-0,200016
0,2699841
0,1099839
-0,240016
-0,2500159
-1,609963E-05
0,169984
0,07998394
-0,130016
-0,210016
0,229984
0,1199839
-0,2500156
-0,1700157
0,1799843
-0,2600156
-1,575763E-05
0,01998426
0,27
-2,854147E-10
0,25
-0,2
0,11
-1,371567E-10
0,12
-0,13
-0,16
0,2
0,19
-0,29
0,03
0,06
0,24
-0,29
-0,19
0,17
0,27
-0,19
-0,27
-0,23
0,23
-0,3
-0,28
-0,02000011
-0,01000011
0,04999989
-0,1700001
-0,0900001
-0,2300001
-0,2300001
0,04999989
0,2699999
-0,09
-0,19
0,22
-0,3
-0,14
-0,2
-0,07
0,18
-0,14
0,26
0,19
-0,14
0,05999999
-0,14
0,18
-0,27
-0,29
-0,29
-0,23
-0,11
-0,01
0,19
0,05999999
0,24
-0,23
-0,17
-0,3
-0,2300157
-0,2700159
0,219984
0,129984
0,1099839
-0,05001609
0,04998392
-0,160016
0,129984
-0,210016
-0,190016
0,009983907
0,169984
0,169984
-0,160016
0,199984
0,2599841
-0,190016
0,149984
0,219984
-0,170016
0,159984
-0,210016
-0,1100161
-0,2500159
-0,3000159
-0,140016
-0,02001608
0,01998392
0,03998392
0,2799841
0,219984
-0,2800159
-0,2100157
-0,1400157
0,1399843
-0,06
-0,18
-0,23
0,2
-0,3
-0,29
-0,25
0,24
0,2
-0,01
-0,1
0,01
-0,15
0,29
0,1
0,12
-0,09
-0,1
0,17
-0,1
0,24
0,03
0,08
0,1
-0,21
-0,23
0,12
-0,21
-0,19
-0,1200001
-0,02000011
0,0699999
0,009999892
-0,01000011
-0,04000011
0,13
-0,26
0,25
0,21
-0,18
0,11
-0,15
-0,02
0,05
0,1
0,14
-0,17
0,03
0,24
-0,15
-4,801453E-09
0,11
-0,09
0,25
0,2
0,2
0,03999999
-0,04000001
0,1
0,23
-0,12
0,25
0,13
0,01999999
-0,3
0,12
-0,3
0,1499843
0,01998391
0,2599841
0,07998394
-0,04001608
-0,01001609
0,04998391
0,08998395
0,08998395
-0,2600159
-0,2800159
-0,3000159
-0,06001608
0,239984
-0,210016
-0,150016
0,249984
0,169984
0,169984
-0,140016
0,04998391
0,08998395
0,04998392
-0,210016
0,06998394
-0,160016
0,2799841
0,2299843
0,1499843
0,01
0,26
0,04
0,27
0,14
-0,03
-0,3
0,27
0,07
-0,26
-0,18
0,16
-0,14
-0,19
0,16
0,02
-0,05
-0,15
0,29
-0,21
0,1
0,17
0,14
-0,17
-0,04
-0,06
-0,24
0,27
0,17
-0,29
-0,19
0
0,12
0,23
-0,2300001
-0,2300001
-0,03000011
-0,2700001
0,1
-0,04
-0,21
-0,13
-0,12
0,13
0,04
-0,01
-0,11
-0,02
0,18
0,06
-0,19
0,28
0,29
0,13
-0,26
0,13
-0,19
-0,09
0,009999997
-0,1
-0,09
-0,28
-0,21
0,04999999
0,22
0,11
-0,26
-0,08
-0,27
0,08
-0,25
-0,08
0,05
0,02
0,29
-0,07001574
-0,01001576
-0,2900156
0,08998427
0,2599843
-0,2600156
0,07998394
-0,220016
-0,200016
0,199984
-0,180016
0,009983907
0,2799841
0,179984
-0,07001606
0,2599841
-0,240016
0,01998392
-0,1
-0,26
-0,24
-0,23
0,12
0,2
0,23
-0,05
0,27
-0,06
-0,2
0,01
0,18
-0,07
-0,04
0,13
0,11
-0,16
-0,21
0,11
0,04
-0,15
0,13
0,24
0,29
0,15
0,09
-0,2
-0,25
0,03
0,1
0,12
0,28
0,2
-0,16
-0,03
0,23
-0,15
0,17
