0,26
0,16
0,15
0,26
0,22
0,07
0,1
0,1000035
0,1200035
0,02000453
0,1600045
-0,2499955
0,2100035
0,1200035
0,1800035
0,1800035
0,04000348
0,24
0,23
0,2
0,25
-0,01000001
0,09999999
-0,03000001
0,1200001
0,1000036
-0,1699964
-0,1399964
-0,1599964
0,2900035
-0,2899965
0,0300035
-0,1399965
0,1200034
-0,2699966
0,009999896
0,009999896
-0,230079
-0,2600789
-0,2600789
0,109921
-0,03007888
-0,2100789
-0,02007888
0,03992113
-0,08007886
0,02992112
0,0799212
0,0999212
-0,2600787
0,2499216
0,2499251
-0,2800749
-0,04007487
0,08992514
-0,03007487
-0,239996
-0,119996
-0,159996
-0,1799961
-0,06999958
-0,06999958
-0,0399996
0,1300004
4,287517E-08
-0,17
0,19
-0,22
0,09
-0,14
-0,14
-0,04
0,19
0,19
-0,21
-0,03
-0,11
-0,19
0,22
-0,11
-0,23
0,05
0,06
-0,21
-0,27
-0,24
0,01000002
0,2
-0,28
0,06000001
-0,05999998
-0,17
0,22
0,22
0,11
-0,13
-0,29
-0,04
0,28
-0,09
0,03000005
-0,05999995
0,29
-0,06999998
0,1799212
-0,0100788
-0,2500753
-0,1800753
-0,1300744
-0,1800744
-0,2300744
0,2499257
-0,05007429
0,2399247
-0,2499964
0,1700035
0,1700035
-0,1399965
0,09000348
-0,07000001
0,11
0,29
-0,25
-0,2799999
0,2200036
-0,2799965
0,0300036
0,2600035
-0,2199964
0,2100036
-0,03999651
0,2300035
-0,1700754
-7,53773E-05
0,1599246
0,1199246
0,04992456
-0,180079
-0,09007898
0,03992102
-0,3000789
-0,120079
0,02992112
0,1999211
-0,02007888
-0,01007886
0,1799212
0,2799247
0,169925
0,2299251
-7,492231E-05
0,1399251
0,1599251
0,03992508
0,09992498
0,02992498
-0,120075
0,2600038
0,0100039
0,1500039
0,2500038
-0,2099962
-0,2599997
-0,04999959
0,1600004
-0,1599996
0,1200004
0,2500004
-0,23
-0,07999996
-0,18
0,04000003
0,24
-0,25
-0,07999996
-0,07
-0,04
-0,16
0,04
-0,07
-0,16
0,05
-0,21
-0,15
-0,09999998
0,11
-0,24
0,08000002
0,2
-0,18
-0,05999998
0,08000002
0,11
0,06
0,08
0,21
-0,17
-0,23
-0,26
-0,17
0,16
0,22
0,2
-0,05007885
0,09992123
0,2599247
0,1899247
0,09992569
-0,1900744
-0,1300744
-0,2300745
-0,2700744
-0,08007442
-0,2200744
-7,537201E-05
-0,09999654
0,2900034
0,1900034
-0,2599967
-0,2599966
-0,22
-0,27
-0,2599965
0,2500035
0,2800035
0,0300036
0,2200036
-0,1199965
-0,0299965
0,009924623
-0,2100754
-0,1200754
-0,2000754
-0,1000754
0,05992462
-0,0900754
0,1499246
0,1299245
0,03992455
-0,06007897
0,209921
-0,05007902
-0,03007903
0,02992107
-0,2600788
-0,1000753
-0,1400749
0,02992508
-0,2500749
-0,1200749
0,2199251
-0,06007493
-0,280075
0,289925
-0,250075
0,129925
0,179925
0,249925
-0,0299961
-0,2299961
-0,2699962
0,0100039
-0,1699962
0,1000038
-0,2299997
0,1900004
0,2300004
-0,2899996
0,0100004
-0,2099996
0,05000003
-0,15
-0,15
0,1
-0,17
0,12
0,06000003
0,01000003
0,2
0,07000006
-0,13
-0,1199999
-0,18
-0,2099999
0,08000006
0,14
-0,14
-0,2
-0,16
0,23
0,03000002
0,2
-0,14
-0,02999998
-0,09
-0,11
-0,18
0,17
-0,05
-0,15
-0,03999994
-0,16
-0,2800788
0,2599213
0,1199247
0,05992475
-0,2100753
-0,0800744
0,1599256
-0,07007443
-0,2400744
-0,1400744
-0,2600744
0,1899256
0,1899246
0,1399246
-0,1200754
-0,2599966
-0,2899967
-0,06999664
0,02000352
0,1300036
0,1600036
0,08000357
0,0500036
0,1500036
0,2900034
0,1700035
-0,1200754
0,2399246
-7,537233E-05
0,1799246
-0,2400754
0,03992463
-0,1900754
-0,2700754
-0,1400754
-0,1400754
-0,04007544
-0,2800754
0,04992103
0,239921
-0,06007902
0,2099211
0,1599251
-0,1300749
0,1499251
-0,03007492
0,06992509
0,06992509
-0,290075
-0,230075
0,149925
-0,280075
0,129925
0,129925
-0,03007503
-0,06007499
-0,09007499
0,2700039
0,06000388
-0,08999612
-0,2699962
0,2200038
0,2300038
-0,1199997
-0,1999996
-0,009999595
0,08000042
0,1600004
-0,0299996
-0,28
0,08000006
0,28
0,17
0,08000006
-0,1199999
0,25
0,21
-0,1199999
0,29
0,01000005
-0,2
0,1100001
0,22
-0,07999994
-0,28
-0,26
0,21
-0,02999995
0,05000005
0,22
0,25
-0,01999998
-0,05
-0,16
0,21
0,02
0,28
-0,02
-0,24
-0,15
0,1899246
0,1999247
-0,2100754
0,2799246
-0,01007536
0,1699256
-0,1600744
-0,2500744
-0,06007438
0,009925607
0,01992561
-0,2800744
0,2799256
-0,2500754
-0,2000754
-0,08999653
0,2900033
0,01000338
-0,1499966
-0,2399964
0,08000357
-0,1999964
-0,1899964
0,04000349
-0,2299965
-0,2099965
0,01992462
0,02992463
0,1599246
0,1599246
0,2699246
-0,07007539
-0,1900754
0,1299246
0,1199246
-0,1000754
0,01992455
0,2399245
0,2199245
-0,150079
0,189921
0,159925
-0,270075
-0,2700749
-0,1000749
0,2199251
-7,493575E-05
-0,100075
-0,270075
-0,01007504
0,02992497
-0,04007503
-0,180075
-0,300075
0,06992498
0,07992498
0,08992502
0,04000388
0,2100039
-0,09999612
-0,1599961
0,1100038
-0,1199962
0,08000382
0,04000031
-0,2099996
0,2000004
-0,1599996
-0,07999956
0,2000004
0,1900004
-0,2499996
0,08000006
0,29
-0,14
0,22
-0,23
-0,23
-0,16
-0,159999
0,09000103
-0,179999
1,047282E-06
-0,13
-0,17
5,862427E-08
-0,2
-0,2
-0,2399999
-0,27
0,1000001
0,27
-0,28
0,02
-0,29
-0,22
-0,03
-0,06
-0,01000003
-0,2000754
-0,2900753
-0,1500754
0,2799246
-0,1700754
0,08992463
-0,02007437
0,1799256
-0,1800744
0,1399256
0,1499256
0,009925626
0,01992563
-0,1100744
0,06992462
0,0999246
-0,2800754
-0,1899965
-0,2999967
-0,05999656
-0,2599966
0,2800035
0,1000036
-0,2199965
-0,1199965
-0,2100754
0,2199246
-0,2800754
-0,2400754
0,2799246
-0,2200754
-0,06007537
0,1199246
0,06992461
-0,2700754
-0,1800754
-0,06007537
-0,1600754
-0,1400755
0,0799245
0,1499245
0,119925
0,269925
-0,04007502
-0,100075
0,01992508
-0,2200749
0,06992498
-0,05007503
0,209925
0,289925
0,269925
-0,03007502
-0,300075
-0,05007502
-0,180075
-0,090075
-0,230075
0,08992504
-0,2699962
0,1700039
-0,04999611
0,1100039
-0,1599962
0,05000383
-0,08999968
0,1900003
0,2400004
-0,1499996
-0,05999959
-0,1399996
0,1800004
0,2400004
-0,07999956
0,09000006
-0,08999994
-0,29
-0,17
0,17
0,16
-0,299999
-0,159999
0,07000103
-0,149999
0,29
-0,19
0,26
0,1200001
-0,18
0,21
0,21
-0,13
0,04000003
-0,17
0,2
-0,11
-0,29
0,13
0,21
0,2899212
0,1199247
-0,1600754
-0,09007542
-0,3000754
0,04992464
-0,2000754
-0,2800744
-0,2600744
-0,1000744
-0,2700744
-0,1900744
-0,2200744
-0,1100744
0,2299256
-0,2800744
0,01992462
0,1799246
-0,04007537
-0,1599965
-0,05999655
-0,05999655
-0,2299966
0,1100034
-0,05999651
0,02992462
0,2899246
-0,1700754
0,0999246
0,009924631
-0,1000754
-0,1000754
-0,1300754
-0,08007539
0,1699246
-0,2700754
0,1599246
0,2199246
0,05992462
0,08992461
0,1799245
-0,2200754
0,219925
-0,09007502
-0,220075
0,09992498
0,1299251
0,269925
0,109925
-0,200075
-0,120075
0,009924973
0,03992497
-0,02007502
-0,04007501
0,04992499
0,04992499
0,019925
0,269925
-0,03007501
0,04992502
0,2700039
-0,07999609
0,02000392
0,2900038
0,1300038
0,2300003
0,1500003
0,01000031
0,1900004
-0,1399996
0,09000044
-0,1899996
0,1600004
-0,04999959
-0,15
0,02000005
0,1500001
0,02000005
0,13
0,200001
-0,279999
0,02000104
1,051041E-06
-0,169999
0,190001
0,1500001
0,1800001
0,25
-0,18
-0,01999995
-0,16
0,24
-0,21
-0,26
0,21
0,16
-0,11
-0,07999996
-0,05
0,1599247
0,2699246
-0,05007541
0,2099246
0,2399246
0,07992458
-0,1100754
0,1799246
-0,2700745
-0,1900744
-0,2800744
0,1999256
0,2899256
-0,1600744
0,05992562
0,02992563
-0,06007437
0,2099246
-0,1200754
-0,2000754
0,2700034
-0,2599966
0,2000035
-0,1099965
-0,09007538
-0,2800754
0,1399246
-0,2900754
0,1099246
0,03992464
-0,01007534
-0,1800754
-0,07007537
-0,2400754
0,2599247
0,2199247
0,05992471
0,09992463
0,04992464
0,04992463
-0,010075
0,269925
0,149925
0,139925
-0,210075
0,079925
-0,160075
0,099925
0,01992499
-7,501142E-05
-0,04007501
0,239925
-0,300075
-0,190075
-0,020075
0,119925
-0,230075
-0,240075
-7,504871E-05
0,219925
0,229925
-0,1199961
-0,2399961
-0,01999608
0,1200039
0,2000039
-0,02999615
0,2200003
-0,1299997
0,1300003
0,2700004
0,1400004
-0,1399996
0,1300004
0,1100004
-0,2999996
-0,1099999
-0,2399999
-0,2099999
0,130001
0,170001
-0,259999
-0,00999891
-0,189999
-0,229999
0,04000107
-0,189999
-0,1899999
0,0800001
-0,1599999
0,1500001
-0,00999992
-0,1999999
0,1300001
0,1100001
-0,1899999
0,2000001
-0,1399999
-0,29
-0,11
-0,2000754
-0,09007541
-0,07007542
0,1799246
0,02992459
0,1199246
0,07992458
-0,1300754
-7,536031E-05
-0,02007437
-0,07007793
-0,3000779
0,2699222
0,1599221
-0,2600778
0,1899256
0,1799256
0,2499256
-0,1000754
-0,2300754
0,08000349
-0,1499965
-0,1599965
-0,2800754
0,2799246
-0,03007535
0,02992464
0,01992457
-0,2900789
-7,889136E-05
-0,2000789
-0,2800788
-0,2600754
0,1899247
0,0199247
-0,05007529
0,09992474
0,09992474
0,06992462
-0,04999614
0,2600038
0,2400039
0,1100039
-0,1999961
0,2100039
0,1400039
0,02000387
-0,06999613
0,079925
0,219925
-0,080075
0,2399249
0,2599249
0,239921
0,099921
0,249921
-0,230079
-0,1000788
0,1999247
-0,2400754
-0,2200754
-0,250075
-0,1499961
0,2900038
-0,1299961
-0,09999613
0,2600037
-0,2299997
-0,1599997
0,08000029
-0,2199997
-0,2199996
-0,1299996
0,2400004
-0,1999996
0,1300004
0,04000045
-0,27
-0,189999
-0,169999
0,240001
-0,199999
0,230001
-0,209999
-0,219999
-0,149999
-0,239999
-0,2099999
-0,2199999
0,0700001
-0,1199999
-0,1099999
0,2000001
0,01000008
-0,1299999
0,2100001
0,09000008
0,1100001
0,2200001
3,470028E-08
0,1799246
-0,05007542
-0,2200754
-0,3000754
0,1299246
-0,1600754
0,05992459
-0,2899966
0,1400034
0,2699999
-0,09999913
-0,2700779
-0,2100779
0,06992223
-0,1900778
0,2799256
-0,1900744
-0,2400744
0,2099256
-0,2800754
-0,1600754
0,1699246
0,2799246
0,06992459
-0,1000754
0,1899246
-0,1200754
0,1599211
0,06992105
-0,110079
-0,2600789
0,2199211
-0,1900789
0,1099212
-0,0600753
-0,009996374
-0,2899965
0,2300036
-0,0499964
0,230004
0,08000387
-0,2499962
-0,04999614
-0,1899961
-0,1399961
-0,1599961
-0,1999961
-0,1799961
-0,1099962
-0,1099962
0,09000024
0,02992098
0,189921
0,189921
-0,150079
-0,2900788
-0,04007889
0,009921091
0,0999247
0,2399247
0,2499247
0,1999246
-0,06999651
-0,0599965
0,2200039
-0,01999611
0,2200039
-0,02999619
-0,1799997
0,1200003
0,2600003
-0,1199996
0,1000004
0,2700004
-0,05999958
-0,2099996
-0,07999956
0,1600004
-0,08999898
-0,249999
0,08000103
-0,249999
-0,02999891
-0,1199989
0,1000011
0,01000109
-0,269999
-0,08999993
-0,04999992
-0,06999993
-0,2799999
-0,009999922
-0,1699999
8,474242E-08
0,2800001
0,1800001
0,1100001
-0,3
-0,1199999
0,1800001
-0,07999656
0,1199246
-0,3000754
0,05992458
-0,08007541
-0,1000754
0,2200035
0,2100035
-0,0500001
-0,2500001
0,08000098
0,09000099
-0,199999
0,03992219
-0,1400778
0,1999256
-0,0800744
-0,2500744
0,1399256
-0,09007441
-0,06007535
-7,534033E-05
-0,2800754
0,1799246
0,08992459
-0,04007888
-0,2500789
-0,2100789
0,2899211
0,04992104
-0,02007886
-0,08007884
-0,02000002
0,03000005
0,1200001
0,2500035
-0,2499964
0,2000036
0,2500039
-0,109996
0,08000387
-0,1899961
0,2600038
-0,1099961
0,1400039
-0,06999613
-0,1099961
0,08000387
-0,1599962
-0,2300001
-0,05000009
0,05999987
-0,1500001
0,2599211
-0,07007888
0,2199211
0,09992112
-0,1900789
0,2699212
0,2499247
-0,1500753
0,1199247
0,2099247
0,1900035
0,07000349
-0,1399965
-0,1899965
0,06000379
0,2200003
-0,08999972
0,1500003
0,02000029
-0,2099996
-0,04999958
0,1300004
-0,1799996
0,04000042
0,1300014
-0,2699986
-0,1399986
-0,229999
-0,03999896
0,250001
0,220001
-0,199999
0,210001
-0,24
0,01000005
-0,2099999
0,2000001
-0,1499999
0,2300001
0,2300001
0,2900001
-0,27
0,2500001
-0,1099999
-0,2399999
0,1100001
-0,02999992
-0,19
0,1199246
0,1599246
0,2299246
-0,09007544
0,2299246
-0,04000003
0,1899999
-0,17
-0,2
-0,12
0,270001
-0,229999
0,09992219
0,1799222
0,1899257
0,1699256
0,2899256
0,0899256
0,1599256
-0,2000754
0,08992463
-0,03007539
-0,2800754
-0,2500789
0,2199211
0,07992104
-0,2000789
-0,08007896
0,1699211
0,2199211
-0,03007886
-0,29
0,04999997
-0,2599999
-0,05999992
0,1000036
-0,2899965
3,987198E-06
-0,129996
-0,04999614
-0,1299961
-0,1199961
0,2900038
0,02000393
-0,1299961
0,1500039
-0,1799962
-0,2000001
-0,1700001
-0,2300001
-0,1000001
-0,03000012
0,2499211
-0,1300789
0,0199211
-0,1500789
0,1399211
0,1699211
-0,0100753
-0,1600753
-0,1400753
-0,03007527
-0,0499964
-0,1299965
0,2000035
0,2500034
0,01000344
0,05000342
-0,05999969
-0,2099997
0,1600003
-0,01999956
-0,07999956
-0,09999956
0,2200004
-0,08999959
-0,01999859
1,40334E-06
0,1800014
-0,2399986
-0,03999897
0,290001
-0,219999
0,100001
0,02000005
-0,3
-0,24
-0,1299999
0,02000008
-0,2199999
0,2500001
-0,1699999
-0,3
-0,2799999
-0,2099999
0,2000001
0,2200001
0,1100001
0,1100001
-0,08000012
-0,17
0,05992458
0,1599246
-0,2600754
-0,09000006
0,2199999
-0,25
0,04000002
-0,04999999
-0,2
0,17
-0,159999
0,2899221
-0,07007781
0,1799257
-0,1400744
-0,1200744
0,1499256
0,1499256
0,1999256
0,1899246
-0,1700754
-0,2700789
-0,1400789
-0,170079
0,01992104
-0,03007896
-0,110079
-0,1900789
-0,2800788
-0,02000003
0,16
0,18
-0,05
0,2200001
0,1900036
-0,1699961
-0,2699961
-0,109996
0,100004
0,2400039
0,01000393
0,2200039
-0,07999609
-0,09999613
0,1100038
-0,1599962
0,0699999
-0,1600001
0,2199999
0,00999992
-0,2300001
0,25
0,21
0,0199211
-0,3000788
0,0299211
-7,890653E-05
0,2099212
0,1799247
-0,06007526
0,1599247
-0,0699964
-0,07999651
0,1100035
-0,2999966
-0,04999651
0,03000347
0,009999925
0,2800003
-0,2699997
-0,1599997
-0,0499997
-0,2499996
0,2500004
-0,1199986
-0,09999862
0,1100014
0,2500014
0,0100014
-0,1199986
0,200001
-0,259999
-0,119999
4,918913E-08
-0,08999997
0,21
0,27
0,23
0,22
-0,14
0,1200001
-0,1799999
0,01000008
-0,1499999
-0,2199999
-0,2299999
8,534968E-08
0,1
-0,1100001
-0,1400001
0,09999994
-0,24
-0,15
0,1899999
-0,1400001
0,11
0,2
0,26
-0,17
0,09
0,21
0,040001
-0,1100779
-0,01007774
0,03992567
0,1099256
-0,2500744
0,2099256
-0,1000744
-0,2100744
-0,02007534
0,09992108
0,08992101
0,119921
-0,100079
-0,2800789
0,239921
0,19
0,16
-0,19
0,2
-0,3
0,05
-0,1499999
0,08000008
0,1300039
0,1900039
-0,009996014
-0,159996
0,09000391
-0,2899961
-0,2999962
0,09000388
-0,1799961
-0,05999655
-0,2200001
0,2299999
-0,2900001
0,1099999
-0,03000008
-0,2900001
0,07999998
-0,1
-0,2000789
0,1699211
0,2899212
-0,0300789
0,0299211
-0,02007529
-0,1600753
0,1699247
-0,2999965
-0,2099965
-0,2799966
0,1800035
0,2100035
0,2900034
-0,2600001
0,2099999
0,2000003
0,2200003
0,0600003
0,07000042
0,1000004
-0,2199986
-0,0299986
-0,2999986
-0,03999861
-0,1199986
-0,1799987
-0,219999
0,230001
-0,22
-0,12
-0,21
-0,18
0,1
-0,04999996
-0,02999995
0,08000004
-0,1399999
-0,1499999
-0,3
0,2900001
0,2200001
-0,3
0,21
0,06000004
-0,0600001
0,02999989
-0,2200001
0,1899999
-0,2100001
0,21
0,05000001
-0,04999999
-0,3
0,09
-0,29
-0,1
0,29
-0,289999
-0,1500779
-0,1400779
-0,2500743
0,2399256
0,2099255
0,1999256
0,2299256
0,05992562
-0,2000754
0,03992108
0,05992102
-0,170079
0,02992104
0,05992115
0,05000002
0,07000002
0,18
-0,23
0,06
-0,07000001
-0,29
0,14
-0,2699996
-0,109996
0,1300039
-0,129996
0,130004
0,1300039
-0,1899962
-0,2999962
-0,06999615
-0,2399962
0,08999988
-0,1500001
-0,3000001
0,1399999
0,2299999
0,2699999
-0,21
-0,3
0,13
0,18
-0,0800789
0,03992112
-0,1800789
0,2599212
-0,1300788
0,2899247
0,1999247
-0,07007527
0,2100036
0,2300035
0,1400035
0,05000353
0,2900034
3,469118E-06
-0,1800001
0,1499999
-0,2000001
0,0400003
-0,2299996
-0,2099996
-0,05999861
-0,1999986
-0,1999986
1,392928E-06
0,04000139
-0,1199986
0,05000134
0,2100009
0,13
0,2
0,28
0,05
0,1
-0,18
-0,08
-0,009999964
-0,23
0,16
-0,3
0,14
0,22
0,18
-0,21
-0,009999964
-0,08
-0,2700001
-0,1500001
-1,17829E-07
0,02
-0,22
0,17
0,04000001
0,22
0,04
-0,07
-0,18
-0,07
0,12
-0,08007789
0,2799222
-0,07007428
0,2899257
0,08992558
-0,3000744
0,2499256
-0,2200744
0,2499246
0,1599211
-0,220079
0,119921
0,07992115
-0,06999999
0,04000001
-0,06999999
-0,14
0,06000001
-0,3
0,09999999
-0,23
-3,329835E-08
-0,2799996
-0,2499996
-0,1199996
0,05000399
-0,2699961
-0,06999616
0,1200038
-0,2499962
0,1800039
-0,2099966
-0,2399966
-0,05000011
-0,0600001
-0,2900001
-0,1000001
0,2299999
-0,21
-0,21
0,03999997
-0,17
-0,2200789
-0,0200789
-0,08007888
0,1899211
-7,890402E-05
-0,0700753
-0,3000753
-0,01007526
-0,1299964
0,1700035
-0,1899965
0,1200035
0,04000353
0,2200034
0,25
-0,1200001
0,09999993
-0,2700001
0,2600004
0,0100014
-0,04999861
0,1900014
0,2700014
0,2800013
0,06000134
-0,1799987
0,2900013
0,02000036
-0,27
-0,07
-0,03
0,21
-0,24
0,23
-0,09
0,03000004
0,13
-0,009999966
-0,25
0,1
-0,06999996
-0,17
0,18
-0,29
0,28
-0,07
0,21
0,02000001
-0,25
-0,28
-0,17
-0,25
-0,18
-0,28
0,18
-0,11
0,009999999
-0,07
-0,169999
-0,1300779
-0,06007424
-0,03007423
-0,05007438
0,2399255
-0,1000744
-0,1000744
0,04992562
0,09992105
-7,902001E-05
-0,09007889
0,04999998
-0,2
0,27
-0,14
-0,22
-0,19
-0,3
0,26
-0,3
-0,18
-0,08999963
-0,03999958
-0,03999957
-0,2899961
-0,1999961
-0,08999604
0,08000385
-0,2599962
-0,2499962
-0,2899966
-0,2799966
-0,1100001
-0,1400001
0,1699999
-0,15
0,25
0,17
0,24
0,11
0,06999996
0,1699211
-0,2000789
-0,2900788
0,1299211
-0,04007888
-0,2800753
-0,2300753
0,2599247
0,2300036
0,06000365
-0,1199965
0,04000353
-0,0699965
-0,2999966
0,2599999
0,27
-0,2900001
-0,06000006
0,14
0,2800014
0,1100013
0,01000135
0,05000134
-0,009998652
-0,1099987
-0,1399987
0,2400013
-0,1999996
-0,3
-0,17
-0,07
-0,24
-0,15
-0,08
-0,06
-0,2
-0,05999997
0,12
0,04000003
-0,23
-0,17
0,12
-0,2
-0,01999996
0,12
-0,02
0,25
-0,15
0,2
-0,13
0,24
-0,08
-0,2
0,12
0,26
-0,14
0,04
0,02
-0,05999999
-0,2000779
-0,2300744
0,2699257
0,2499256
0,09992558
-0,1800745
-0,1800745
-0,1100744
-0,2900788
0,04992101
0,16
0,02999997
-0,12
0,2
0,06000001
0,14
0,29
-0,09000001
-0,23
0,16
0,2
-0,09999963
0,09000044
-0,1099996
0,1300039
-0,109996
-0,2999961
0,2600038
0,02000388
-0,03999614
-0,2199966
0,05000342
0,2099999
-0,1200001
-0,07000011
-0,3
-0,14
0,17
-0,01
-0,15
-4,315002E-08
-0,22
0,2399211
0,08992112
-0,2600788
0,1399211
0,04992471
0,01992476
0,0399248
0,2700036
0,2600035
0,2400035
-0,02999645
0,1600035
0,03000347
0,1899999
-0,02000006
0,07999992
-0,1900001
-0,08999915
-0,1899987
-0,1399987
0,1600013
0,04000134
-0,02999865
-0,1999987
0,1100013
-0,2999996
-0,03999964
0,05
-0,02000001
-0,19
0,21
0,21
-0,15
0,12
-0,03999997
0,29
-0,16
0,29
0,13
-0,01999997
-0,07999996
0,05000004
-0,01
-0,17
-0,22
-0,25
0,14
0,04
0,02
0,08
0,05
-0,22
-0,27
-0,17
-0,08
-0,11
-0,18
0,24
-0,2800778
0,04992572
-0,2500743
0,2799256
-0,01007437
0,1499256
-0,2700744
0,04992561
-7,888926E-05
0,209921
-0,07000002
-0,02000003
-0,07000002
-0,18
0,07000002
0,13
0,24
-0,19
-0,25
-0,1699996
-0,2899996
0,05000035
-0,1499996
0,2200004
-0,2699961
0,2000039
0,06000397
0,1200038
0,1700038
-0,2799966
-0,0999966
-0,2399966
0,1699999
-0,1000001
0,26
-0,23
-0,08
-0,07
-0,25
0,14
-0,2
0,01999996
0,03992112
0,2199211
-0,2000789
-0,2700788
-0,1600789
-0,07007526
0,009924816
-0,09999637
-0,1099964
-0,1999965
-0,1599965
0,2800035
0,2200034
-0,03000007
-0,1100001
-0,1700001
0,2499999
0,09000086
-0,2099987
-0,09999865
0,1800012
-0,01999876
0,01000124
-0,1399988
0,1100012
-0,2699997
-0,1399997
-0,01000012
-0,09000012
-1,268205E-07
-0,2500001
-0,1
-0,27
-0,009999971
-0,29
-0,06999996
0,11
0,29
0,05000003
-0,17
-0,19
-0,02999997
0,12
-0,21
0,21
0,18
-0,03
-0,009999998
0,17
-0,21
-0,02
-0,04
0,05
0,2
0,14
-0,24
-0,09
0,23
-0,08007886
-0,1900744
-0,2400743
-0,2900744
0,2899256
0,1799256
-0,2500744
0,2399255
0,2499221
-0,07007899
-0,04000002
0,26
0,009999966
0,26
-0,27
0,26
-0,22
-0,1
0,15
-0,08999963
-0,04999964
0,2200004
0,05000035
0,1700004
0,1100004
-0,1899961
-0,2799961
0,08000385
0,1500039
-0,1799965
0,1400034
0,2400034
-0,2800001
0,1799999
0,06
-0,05999999
-0,24
-0,21
-0,02
0,24
-0,26
0,27
0,2199211
-0,2600788
-0,2700788
0,2099211
0,06992116
0,009924764
-0,08007525
0,09000364
0,1100036
-0,05999646
-0,0999965
0,2900034
-0,01999646
3,538087E-06
0,04999993
-0,1100001
-0,1099991
0,1700009
0,1500009
-0,03999876
-0,2199988
0,1200012
0,08000124
0,01000124
0,2400012
0,1300003
-0,09999973
0,09000027
0,1900003
0,2799999
0,2099999
0,2099999
-0,1300001
-0,02999997
-0,3
0,01000003
0,14
0,2
0,04000003
0,01000003
-0,14
-0,24
0,009999997
-0,1
0,04
-0,28
-0,11
-0,24
0,18
0,16
0,2
0,11
-0,22
0,08
0,18
-0,21
-0,05
0,01
0,2599212
0,2399256
-0,1900743
0,1199256
0,1899256
0,1199256
0,01992562
-0,01007438
0,1199221
-0,3000001
-1,418739E-07
-0,27
0,04999997
-0,01000003
-0,18
-0,16
-0,21
-0,28
-0,19
-0,1299996
0,2700004
0,2100004
-0,06999963
-0,1699996
0,2100004
-0,2799961
-0,2199961
-0,1999962
0,1300038
0,08000347
0,08000347
0,2000034
-0,2400001
-0,1800001
0,23
0,09
-0,11
0,03
-0,14
0,19
0,18
-0,26
-0,1000789
-0,1200789
0,05992111
0,1399211
-0,1900789
-0,1000753
-0,02007524
0,2299247
-0,02007521
0,1600036
0,2800035
-0,2299965
0,04000348
-0,2499965
0,009999872
0,2699999
0,2100009
0,1600009
0,03000087
-0,07999876
0,1600012
-0,2699988
-0,07999876
0,09000124
0,2700003
-0,07999973
0,05000025
0,03000026
0,2500003
0,05999989
0,1499999
-0,09000008
-0,01000008
0,2199999
-8,832721E-08
-0,26
0,07000004
-0,24
0,2
0,17
0,11
0,19
-0,21
0,22
0,21
0,28
0,08
0,18
-0,22
-0,09
0,11
-0,009999997
-0,15
-0,04
-0,12
-0,13
0,26
0,26
0,1699211
0,1899256
0,1499257
0,2499256
0,2799256
0,2199256
-0,3000744
0,05992561
0,07992207
0,1199999
0,03999986
-0,04000003
-0,11
0,14
0,25
0,15
0,1
0,26
0,23
-0,00999965
0,1800004
0,2900004
0,1400004
0,1600004
-0,04999956
0,03000398
0,2400039
-0,1399962
-0,2399965
-0,2799966
0,03000351
-0,1699966
-0,2199966
0,1099999
-0,11
-0,29
-0,28
0,16
0,2
-0,13
0,22
-0,16
-0,1100789
0,2599212
-0,1600789
0,1099212
-0,2900788
0,2599247
0,02992476
-0,0100752
0,1599247
-0,07999636
-0,05999647
-0,03999652
-0,2299965
0,1700035
-0,2500001
0,2800009
8,694295E-07
-0,04999913
0,2700009
0,1400009
1,238266E-06
0,06000124
-0,2199988
-0,08999877
-0,1199997
0,08000027
-0,04999974
0,2400003
0,1300003
0,2400003
-0,2500001
0,04999992
0,06999993
0,02999992
0,08999993
0,1799999
0,02000003
0,13
0,01000003
0,27
0,12
0,05999999
-0,14
-0,19
0,19
0,11
0,03
0,01
0,26
-0,26
-0,14
-0,05
-0,11
-0,22
0,14
0,13
0,17
0,22
-0,07007886
-0,07007534
0,00992578
0,08992573
0,1599256
0,2099255
-0,1400744
0,1799256
0,1899256
0,03999986
-0,2300001
-0,13
-0,05000003
0,16
0,23
0,29
-0,29
0,24
-0,11
0,2700004
0,0200004
0,0600004
-0,2599996
0,2300004
0,2800004
0,09000397
0,07000396
0,1000039
-0,1399965
-0,009996485
0,1800035
0,2600034
-0,2999966
0,09999989
-0,1
-0,23
-0,04
-0,28
0,19
-0,05999999
0,25
-0,3
0,2199211
0,2799212
-0,07007884
0,08992116
0,07992116
-0,01007877
0,01992122
-0,1000752
-0,2400753
0,2000036
-0,0699965
0,2000035
-0,09999654
0,1600035
-0,1200001
0,07000086
0,1000009
-0,2299991
-0,1599991
0,05000087
0,02000125
-0,1099988
0,1500012
-0,1899997
-0,1399997
0,1500003
-0,03999974
0,1500003
0,03000027
0,2800003
-0,2600001
0,2499999
-0,2800001
0,009999919
0,1399999
-0,2500001
-0,01000008
-0,11
-0,3
-0,22
-0,22
0,25
-0,07
0,28
0,03
-0,21
-0,11
0,03
0,19
0,18
-0,08
0,12
-0,2
-0,11
-0,02
0,02
-0,17
-0,1800789
-0,08007886
0,2299246
-0,2800743
0,1599257
0,1599256
-0,2300745
0,1599256
-0,03007438
0,1799256
0,18
-0,2900001
-0,17
-0,23
-0,09000003
-0,24
-0,25
-0,03
0,05999999
0,26
0,1700004
0,07000041
-0,2399996
-0,0499996
0,2200004
0,2600004
0,1400039
0,06000397
-0,08999615
0,1400035
0,1200035
-0,2799966
-0,1899966
0,2200034
-0,1300001
0,26
-0,23
-0,25
-0,09
-0,21
-0,15
-0,18
-0,25
-0,09000004
0,009921094
0,009921146
0,04992116
0,1099212
-0,3000788
0,04992123
-0,2600753
0,2099247
0,2200036
0,06000348
-0,03999652
0,05000348
-0,1399965
-0,02000012
-0,2099991
0,1900009
-0,2799991
8,764412E-07
-0,05999913
0,1200009
-0,2499988
0,1600012
0,2000003
-0,09999973
0,2000003
-0,05999974
0,2900003
0,2900003
-0,2499997
-0,04000008
0,09999993
0,03999992
0,01999993
0,1499999
0,2399999
-0,09000008
-0,1000001
-0,2700001
0,05
0,15
0,09
0,21
-0,21
0,04
-0,04
0,12
0,1
0,08
0,25
0,01
-0,23
0,15
0,18
-0,08
-0,15
0,14
0,1099211
-0,1500789
0,1999246
0,05992576
0,05992576
-0,2500744
0,1499256
-0,05007439
0,2599256
0,2099256
-0,2699991
-1,417973E-07
0,03999997
0,18
-0,01000004
0,28
0,24
0,08000001
-0,27
-0,16
0,0600004
-0,1499996
0,2400004
-0,2199996
0,1300004
-0,09999955
-0,2599995
0,03000398
-0,1099961
0,2400038
0,1600035
-0,2099965
-0,009996555
-0,2099966
0,08999988
-0,25
-0,17
0,29
-0,21
0,04
-0,25
0,14
0,08
0,03999996
0,07992116
-0,2100789
-0,2600788
-0,2400789
-0,2800788
-0,2200788
0,1999247
-0,2100753
-0,1099964
-0,2899966
-0,2199965
-0,04999652
-0,09999654
0,1200009
0,2200009
-0,1499991
-0,2999991
-0,1799991
-0,2399991
-0,2899991
-0,2499988
0,2300012
-0,2899997
-0,05999974
-0,2099997
-0,06999973
0,1500003
0,2500003
-0,009999705
-0,02000007
-0,2200001
0,2199999
0,06999993
-0,1000001
-0,01000008
0,02999992
-0,1400001
0,27
0,009999881
-0,2
-0,26
0,05999999
0,19
-0,02
-0,29
-0,17
0,14
0,01
-0,24
0,23
0,04
0,23
0,07
0,06
-0,02
0,15
-0,2200789
0,09992114
0,2699212
0,07992566
-0,07007428
0,2399255
0,08992558
0,2099255
0,2199256
-0,1400744
0,1800009
-0,3000001
-0,18
-0,12
0,29
-0,27
0,1
0,25
0,26
-0,009999972
-0,2699996
0,0300004
-0,06999959
0,2500004
0,09000038
-0,1599996
0,1900004
0,05000397
0,2400038
-0,1499962
-0,1599965
-0,2999966
0,2100035
0,1400034
-0,05000011
0,06
-0,3
0,22
0,17
-0,21
0,26
0,28
0,05
0,14
-0,05007884
0,1299211
-0,1200788
0,1699211
0,2399211
-7,876877E-05
-0,1800753
0,1199247
0,0900036
0,2900034
0,1100035
0,04000348
-0,1399965
-0,2899991
0,2900009
-0,2199991
-0,2499992
-0,2699991
0,2700009
0,07000086
-0,2899987
0,1800003
-0,2099996
-0,01999963
0,2300004
-0,06999962
-0,2699996
0,1800004
-0,2299997
0,1700003
0,01999993
-0,2500001
0,27
0,07999992
-8,75742E-08
0,2499999
0,2499999
-0,2900001
0,1099999
-0,07000011
-0,28
0,01999999
-0,1
0,22
-0,28
0,2
-0,11
0,28
0,23
0,08
-0,26
0,22
-0,3
0,28
0,13
0,06
0,03992113
0,1999211
0,2399211
0,009925704
-0,03007423
-0,06007439
0,03992561
0,2199256
-0,03007438
0,04992562
0,06000091
0,06999987
0,009999971
-0,27
-0,18
-0,26
-0,07999998
0,03
0,04000003
-0,01999997
-0,0199996
-0,1399996
-0,0499996
-0,2799996
-0,2699996
-0,2599995
0,2500004
-0,009996009
0,1300038
0,09000386
-0,2599966
0,2900034
0,2500034
0,2300034
-0,09000012
-0,25
-0,24
-0,21
0,25
0,08
0,28
-0,03
-0,05
-0,03
-0,1700789
0,1099212
-0,04007884
0,1899211
-0,05007884
0,2899213
-7,522186E-05
-0,04007526
-0,06999644
-0,1599965
-0,2199965
-0,1299965
-0,05999653
0,2200009
-0,01999912
-0,07999914
-0,01999912
-0,2499992
-0,2099991
0,1700009
0,01000136
0,07000038
0,1200004
0,08000038
0,1200004
-0,2299996
0,2800004
-0,1699996
0,08000042
0,2600003
-7,866491E-08
-0,3000001
0,2099999
0,2799999
0,1799999
-0,09000008
0,06999989
-0,2500001
-0,2700001
0,1299999
-0,2100001
0,07
0,06
0,1
0,14
-0,27
0,1
-0,17
0,11
0,03
-0,21
0,22
-0,13
0,07
0,25
0,06
0,2899212
0,1799211
-0,2300789
-0,1200753
-0,2900743
-0,1400744
0,1799256
-0,03007438
0,1399256
-0,2200744
-0,03999909
-0,04000013
-0,27
-0,24
0,14
-0,07000002
-0,29
-0,03999999
0,08000003
0,23
-0,3
-0,28
0,2300004
0,08000042
-0,03999959
0,1400004
0,01000046
-0,2599961
0,1600038
0,07000385
0,1200035
-0,1599965
-0,2799966
-0,1799966
-0,08000012
0,19
0,28
0,14
0,11
0,22
0,18
-0,21
0,26
0,06000004
0,06992116
-0,1600789
-0,2000789
0,03992116
0,1799212
0,1599211
0,1999247
0,2099247
0,2800035
-0,2799966
0,06000347
0,2600034
0,2500044
-0,01999906
0,2100009
-0,1299991
0,1500009
0,1400009
0,100001
-0,239999
-0,05
-0,19
-0,05999963
0,2100004
0,1400004
0,2500004
-0,04999963
-0,1299996
0,1400004
0,1600004
-0,26
0,2099999
-0,2400001
-0,1300001
-0,2900001
-0,1800001
0,03999988
0,2699999
-0,1400001
-0,3000001
0,1599999
0,21
-0,15
-0,3
0,05
-0,05
0,23
-0,009999997
0,22
-0,05999999
-0,23
-0,26
-0,01
0,19
-0,2
-0,05
0,1999211
-0,1200789
0,1899211
0,2199247
-0,1000743
0,02992566
-0,2400744
-0,1800745
0,2699256
0,1499256
0,2000009
0,08000084
-0,04000003
0,08999998
0,12
0,17
-0,03000003
0,09000002
-0,11
0,04000003
0,26
-0,06999997
-0,1499996
-0,1099996
-0,2799996
0,2500004
-0,05999952
-0,09999603
0,09000386
-0,2999962
-0,08999653
-0,1399965
-0,2399965
0,06000342
-0,09000012
-0,14
-0,22
-0,05999999
0,09
-0,18
0,14
-0,27
-0,28
0,2
0,03992116
-0,1500789
-0,2700788
-0,1700789
0,1099212
-0,1100788
0,06992475
0,1899247
-7,530672E-05
0,06000347
-0,009996511
-0,03999652
-0,2799956
-0,009999062
0,1900009
-0,04999913
-0,2099991
0,160001
0,03000099
0,270001
-0,07
0,04000001
0,02000037
0,2000004
-0,1299996
-0,03999963
0,09000038
-0,2799996
0,2900004
-0,2399996
0,2
0,23
-0,09000008
-0,06000007
0,1399999
0,1599999
0,2199999
-0,1900001
0,07999989
-0,1100001
-0,08000011
0,01999989
0,15
-0,01
-0,24
0,25
-0,17
0,08
0,04
-0,16
-0,27
0,27
-6,656589E-09
-0,26
-0,03
-0,3
0,1299211
-0,1800789
0,2499211
-0,1600753
0,09992573
0,03992565
0,1899256
-0,06007439
0,1599256
0,04992563
-0,2599991
0,07000084
0,15
-0,28
0,01999997
0,28
-0,22
-0,17
0,05000003
0,2
0,18
-0,28
0,1300004
-0,07999958
-0,1699996
-0,2899996
-0,01999951
0,1500039
-0,2799962
0,2200038
-0,06999615
-0,1299965
0,2700034
0,1300034
-0,2700001
0,1
-0,15
-0,07
0,09
0,17
0,12
-0,09
0,13
5,085067E-08
0,1999211
0,04992116
0,2199211
0,009921145
0,1099212
-0,2600788
0,1899247
-0,1400753
-0,01007531
0,06000347
-0,1799965
0,1000035
-0,01999552
0,02000094
-0,2899991
0,09000086
-0,2399991
-0,2699991
-0,08999904
0,230001
-0,18
0,17
0,1000004
-0,2899996
0,2900004
0,2200004
0,1200004
0,1400004
0,0400004
0,1700004
-0,22
-0,03999997
-0,11
-0,1800001
0,009999924
0,06999993
-0,2200001
0,2599999
-0,2600001
0,2799999
-0,2700001
-0,2400001
0,17
-0,1
0,01
-0,07
-0,19
0,13
-0,08
-0,3
0,11
0,08
-0,3
0,19
-0,12
-0,27
0,2499211
0,2099211
0,01992112
0,1799247
-0,08007427
-0,2500744
0,1199256
0,1199256
-0,02007438
0,1499256
-0,08999906
-0,1499992
-0,29
-0,07000002
-3,890318E-08
-0,21
0,29
-0,06999999
0,2
-0,24
-0,3
-0,11
4,035313E-07
0,05000041
0,1000004
0,2900004
-0,08999952
0,04000401
-0,2499962
-0,009996117
-0,03999614
-0,009996485
0,2400035
-0,01999657
0,1199999
-0,13
-0,06
-0,15
0,05
0,28
-0,06
-0,25
0,21
0,15
-0,28
0,2599212
0,1199212
0,2899212
-0,01007885
0,00992115
0,08992471
0,05992471
0,2899247
-0,1799965
-0,2699966
0,05000348
-0,09999557
0,2600009
-0,2299991
-0,07999914
0,1300009
-0,219999
0,06000099
0,29
-0,12
0,21
-0,09999962
0,02000037
0,1100004
-0,1699996
0,1500004
0,1400004
0,1700004
0,2100004
0,11
0,24
-0,02999996
0,1499999
0,02999993
0,1399999
-0,1300001
-0,08000011
-0,2600001
0,03999989
0,1899999
0,1899999
2,985598E-11
0,12
-0,05
-0,24
0,26
-0,03
-0,23
-0,18
-0,16
-0,15
-0,02
0,22
-0,04
-0,19
0,05
-0,2100789
-0,1200789
-0,1500754
0,1499247
0,2399256
0,1899256
-0,2300745
-7,437421E-05
-0,2200744
-0,2199991
0,05000085
-0,07000002
-0,07000002
-0,25
-0,09000003
-0,27
-0,29
-0,21
-0,01999997
-0,09999997
0,08000003
-0,2299996
0,04000041
-0,1399996
-0,1199996
0,06000048
0,04000401
0,07000385
-0,03999614
-0,03999614
0,0500035
-0,1199965
-0,07999659
-0,2100001
-0,23
-0,26
0,19
0,18
0,25
-0,3
-0,06999996
-0,18
-0,13
0,28
-0,09007885
-0,2700788
0,1399211
-0,2300789
0,2299211
-0,1800753
-0,04007529
0,1199247
0,2700034
0,2000035
0,2700034
-0,2899956
0,1300009
0,2800009
-0,03999913
-0,1199991
-0,1499991
9,956846E-07
-0,26
0,12
0,02
-0,1299996
-0,2899996
-0,1699996
0,2700004
-0,1299996
-0,1599996
-0,1799996
-0,1599996
-0,01999996
0,27
-0,03999997
0,2
0,05999992
0,2499999
-0,1500001
0,2199999
-0,04000011
0,1399999
-0,1700001
0,2899999
0,22
-0,1
0,01
-0,18
-0,24
-0,1
0,2
-0,08
0,07
0,14
0,22
-0,22
0,05
-0,05
-0,26
-0,28
-7,888151E-05
-0,2100754
0,04992478
0,2799256
-0,1600744
-0,03007438
-0,01007438
0,2299256
9,738974E-07
-0,1899991
-0,24
-0,27
-0,19
-0,04000003
0,18
0,16
0,2
0,13
0,09000003
0,26
-0,00999996
-0,2899996
0,2100004
0,2600004
-0,06999952
0,200004
0,07000385
0,1400038
-0,2599962
-0,1199961
-0,1599965
-0,1999966
0,2099999
-0,18
-0,09
-0,13
-0,22
-0,15
0,14
-0,04999996
0,21
0,08000004
0,1100001
0,2399211
-0,1600789
0,1699211
-0,2000789
-0,2000789
0,2499246
-0,2400753
-0,1300753
0,2200035
0,1500035
-0,2299965
0,02000448
-0,009999064
-0,1199991
0,08000086
0,04000088
-0,06999903
0,200001
0,14
0,18
-0,18
0,2600004
0,2500004
-0,1899996
0,2800004
-0,2599996
0,0100004
0,07000042
0,0400004
0,28
-0,16
-0,26
0,21
-0,1000001
0,2699999
0,1199999
0,05999989
0,09999989
-0,04000011
0,1799999
0,2699999
-0,3
-0,08
-0,05999999
0,13
0,1
0,22
0,29
-0,009999997
0,11
-0,09
0,05
-0,24
0,2
-0,02000001
0,27
-0,12
0,04992114
-0,1900754
-0,2400753
-0,06007434
-0,01007438
0,1299255
0,2399255
0,009925637
-0,2799991
0,1100009
-0,22
-0,1
0,26
0,27
0,12
-0,06999999
0,26
0,2
-0,18
0,04000003
4,278393E-08
-0,01999959
-0,1199996
-0,1799996
0,02000049
-0,229996
0,2300038
0,06000386
0,09000386
0,2800038
-0,2999966
0,2100034
0,2899999
-0,07
-0,29
-0,02
-0,1
-0,07
-0,01999995
-0,14
-0,01999995
0,23
0,1
0,2799212
0,1299211
0,07992116
0,02992115
0,1399211
0,07992464
-0,1900753
-0,2000753
0,2900034
-0,1399965
-0,06999557
0,1700044
-0,2299991
0,2200009
0,2300009
0,2200009
-0,08999904
0,200001
-0,13
0,21
-0,26
0,1000004
-0,1399996
-0,09999962
0,02000037
0,2500004
-0,1599996
-0,2799996
0,02000041
-0,08999997
0,25
-0,25
0,07000004
0,1699999
-0,1100001
-0,02000011
0,2299999
0,03999989
-0,2100001
0,2699999
-0,03000011
0,17
-0,29
0,05
0,06
0,05
0,24
0,05
-0,04
0,01
-0,23
-0,04
-0,19
-0,28
0,05999999
-0,12
-0,04
-0,1300789
-0,3000754
0,1799247
-0,06007434
-0,2200744
0,06992558
0,07992557
-0,1000744
-0,1299991
-0,1999991
-0,11
0,02999997
-0,06000003
0,28
0,16
0,1
-0,11
-0,07000001
-0,14
0,09000003
0,11
0,1400004
0,2600004
-0,2999996
0,08000048
0,05000401
-0,2899961
-0,1599962
-0,01999612
0,2400038
0,05000349
-0,1999966
-0,2900001
-0,28
0,06
0,04
-0,1
0,03000005
-0,11
-0,2
-0,07999996
-0,16
-0,12
-0,05007886
0,03992116
-0,2800788
-0,2800788
0,0299211
-0,1000754
0,1599247
0,2099247
0,08000349
-0,1099965
0,09000444
0,1500044
0,03000094
-0,2699991
0,1700009
0,1600009
0,03000099
0,06000099
-0,05999999
0,22
-0,07
0,05000037
-0,2099996
0,02000037
-0,07999962
-0,07999958
-0,1799996
-0,09999958
0,1600004
-0,26
-0,24
-0,14
-0,02999996
-0,05000011
0,009999888
-0,04000011
0,04999989
0,02999989
-0,03000011
0,2299999
0,1199999
-0,27
0,26
0,21
-0,09
-0,13
-0,28
1,424424E-09
0,03
0,17
0,15
0,04
0,28
-0,08
0,25
0,19
-0,05
-7,888152E-05
0,09992465
-0,2000753
-0,2300744
-0,05007435
-0,2600744
0,02992562
-0,1700744
-0,07999906
-0,1199991
-0,22
0,01000002
-0,09000003
-0,2
0,29
-0,22
-7,531721E-09
-0,21
-0,09999997
0,08000003
-0,13
-0,2
-0,2499996
-0,09999958
0,1200005
0,170004
0,2900038
-0,1199961
0,02000388
-0,1299962
-0,2599966
-0,009996566
0,1199999
-0,3
-0,25
0,23
-0,13
0,15
-0,14
0,28
-0,06999996
0,08000004
0,28
0,2799212
0,2299211
0,2799212
-0,1900789
0,05992111
0,1599246
-0,05007529
-0,0200753
-0,1799965
0,05000348
-0,1999956
-0,2199956
-0,09999909
0,04000092
0,2000009
-0,04999912
0,08000097
-0,249999
-0,15
0,11
-0,25
-0,1699996
0,09000038
0,1900004
-0,09999962
-0,2499996
-0,2399996
0,2100004
0,1500004
0,23
-0,08999997
-0,15
0,09000004
-0,1900001
-0,2400001
-0,04000011
0,1299999
0,04999989
-0,08000011
0,01999989
-0,2400001
0,19
0,22
0,23
0,01
0,22
0,14
-0,12
-0,04
-0,11
0,07
0,23
-0,23
0,26
0,23
0,15
-0,16
-0,2100789
0,1999246
0,009924742
0,08992562
0,03992565
0,1199256
-0,1200744
-0,1700744
0,2400009
-0,0199991
-0,21
-0,01999998
-0,05999999
0,12
-0,27
0,12
0,12
0,03999999
-0,15
-0,09999997
0,15
-0,13
-0,01999958
-0,09999958
0,1800005
-0,05999599
-0,0499961
-0,1499961
-0,01999612
-0,2299962
0,1200038
-0,1299962
-0,1000001
-0,1900001
0,03
0,14
0,21
0,22
0,01000004
-0,24
0,03000004
0,1
0,06000004
-0,06007886
0,04992115
0,1899211
-0,2800788
0,06992112
0,03992464
-0,2000753
-0,05007531
-0,07999651
0,07000346
-0,04999555
-0,0100744
0,209922
-0,08007795
-0,200078
0,209922
-0,2100779
-0,1300789
-0,2700788
0,1399211
0,1699211
0,1499215
0,2099215
-0,2199996
-0,1799996
-0,2199996
-0,1199996
0,2100004
0,1900004
-0,28
-0,21
0,16
-0,25
0,1099999
-0,2600001
0,1499999
0,2799999
-0,08000011
0,1699999
0,09999989
-0,1200001
0,12
-0,1
0,1
0,25
0,12
0,11
-0,08
0,1
-0,29
-0,09
0,19
-8,553629E-09
0,25
0,19
0,08
0,14
0,09992114
0,1899246
-0,01007526
-0,1400744
-0,1200744
0,04992561
-0,1100744
-0,02007437
0,08000094
-0,05999911
-0,199999
-0,13
-0,04999999
0,22
0,17
-0,009999989
-0,07000001
-0,04000001
-0,26
-0,04999997
-0,2
-0,17
-0,009999583
-0,03999958
0,2500005
-0,199996
0,1700039
0,1100039
-0,1099961
-0,1399962
-0,2099961
0,2100038
-0,04000007
-0,3000001
-0,13
0,02000005
-0,12
-0,06999996
0,29
-0,24
-0,29
-0,19
-0,14
-0,1200789
0,009921093
-0,2500788
-0,1500789
-0,2100789
0,03992464
-0,1100753
-0,2400753
-0,01999649
0,1399246
-0,1800745
0,0299256
-0,03007793
-0,100078
-0,2800779
-0,100078
-0,2200779
0,1699211
0,07992113
-0,2200789
-0,09007888
-0,1600785
-0,1200785
0,2099215
-0,06007847
0,04000039
-0,1599996
-0,1899996
0,2900004
-0,03999998
0,27
-0,05999997
0,28
0,2599999
-0,2000001
0,2499999
0,1999999
0,2499999
0,07999989
-0,2400001
0,2899999
-0,2
0,1
-0,24
-0,17
-0,04
0,2
-0,18
-0,15
-0,28
0,21
-0,12
-0,08
-0,28
0,25
-0,26
-0,18
-0,1700789
0,1999246
0,03992474
-0,1100744
-0,2200744
-0,2300745
-0,2900744
0,1599256
0,1800009
0,04000089
0,01000101
-0,2
-0,23
6,117605E-08
-0,17
-0,2099999
0,01000004
-0,21
-0,19
0,03000003
-0,18
0,07000004
0,28
0,1400004
-0,2799995
0,2500039
0,2600038
0,0500039
0,08000389
-0,2899961
0,2600038
-0,2899961
-0,2400001
0,1199999
0,06000004
-0,26
-0,27
0,17
0,21
-0,28
0,08000004
-0,09999996
-0,04999996
0,2099211
-0,1200789
-0,2800788
-0,2200789
0,0199211
0,07992464
-0,2100753
0,2099247
0,2299246
0,1299246
-7,440589E-05
-0,3000744
0,04992206
0,2199221
0,199922
-0,140078
-0,1700779
-0,1900789
-0,04007887
-0,2300789
0,1599211
0,07992151
-7,853026E-05
-0,2600784
-0,06007847
0,2299215
-0,2200785
-0,2499996
0,1400004
-0,12
-0,22
0,24
0,22
-0,1800001
-0,2400001
-0,05000011
-0,3000001
0,1699999
-0,07000011
0,2699999
-0,01000012
-0,2
-0,28
-0,13
0,05
0,12
-0,3
-0,18
-0,18
-7,257139E-10
0,07
0,21
-0,18
-0,18
0,08
-0,18
0,18
0,2699212
0,1299246
0,07992472
-0,01007537
-0,2600744
-0,2400744
0,04992561
0,03992562
0,06000096
-0,2199991
-0,06999901
0,15
-0,04999999
-0,15
-0,04999995
0,17
-0,01999996
0,08000003
0,06000004
0,06000004
-0,1699999
-0,01999996
0,11
0,2200004
0,2500004
0,220004
-0,169996
0,1000039
-0,1299961
0,1200039
0,09000389
0,0400039
0,2299999
0,05999994
-0,28
-0,27
0,14
-0,02999995
-0,05999995
-0,26
-0,03999996
0,12
0,29
0,03992109
0,06992112
-0,04007889
0,1699211
-0,1500789
-0,1800754
-0,2600753
0,1299247
0,02992463
-0,2800754
0,05992559
0,04992559
-0,01007794
-0,2900779
0,159922
0,039922
-0,1900779
0,2199211
0,2499211
-0,1300789
0,2299211
-0,02007851
0,1799215
0,2199215
0,1899215
-0,1800785
-0,09007846
-0,2800784
-0,2900784
-0,1700788
0,02000003
-0,21
-9,600479E-09
-0,01000012
-0,2400001
-0,1600001
-0,01000012
-0,2500001
0,2799999
-0,03000011
-0,1700001
0,28
-0,24
0,01
-0,14
-0,29
0,03
-0,29
0,28
0,23
-0,18
-0,19
0,009999993
-0,06
-0,25
-0,24
0,19
0,03992114
0,2799247
-0,2800753
0,1999246
-0,2800744
0,1199255
-0,1100744
-7,435938E-05
-0,03999904
-0,2599991
0,2900009
0,24
0,01000001
-0,26
-0,2399999
0,23
-0,02999996
-0,26
0,25
-0,08999997
-0,1399999
0,05000008
0,1700001
0,08000045
-0,09999955
-0,269996
-0,229996
-0,2899961
-0,09999608
0,08000389
-0,2399961
-0,0599961
-0,2999997
-0,05000006
0,25
-0,23
0,26
0,07000004
-0,19
-0,15
0,16
-0,29
0,2
0,2599212
0,03992111
-0,2400789
-0,0300789
0,1799211
-0,2400754
-0,1300753
-0,2700753
-0,1000754
-0,2100754
0,1399256
0,0199256
0,2799221
-0,200078
-0,07007802
-7,801624E-05
0,2799222
0,04992113
-0,1200789
-0,2100789
0,1699211
0,2799216
0,03992153
0,2399215
-0,2500784
-0,2100785
0,2799216
0,2699216
0,1899215
0,2299212
0,1
0,04000002
-0,15
0,1499999
0,1999999
-0,2600001
-0,1700001
0,05999989
-0,1200001
0,2399999
-0,2700001
0,05
0,16
-0,16
-0,15
0,23
0,26
0,27
0,03
-0,23
-0,18
0,1
-0,02000001
0,22
-0,28
0,28
0,29
-0,1800789
-0,09007535
0,07992472
-0,2200754
-0,1100744
-0,1700745
-0,04007443
-0,01007436
-0,2099991
-0,1399991
-0,169999
-0,11
-0,12
-0,14
-0,08999995
-0,14
-0,05999996
-0,24
-0,18
-0,18
-0,09999996
0,08000007
-0,1799999
-0,1699996
-0,2899995
-0,05999595
0,120004
0,1000039
0,2900039
-0,2399961
-0,06999611
0,1200039
0,2200003
-0,2500001
-0,3
-0,15
0,09000004
0,16
0,13
-0,08999997
-0,11
0,15
-0,25
0,05992109
0,1299211
0,06992112
-0,1600789
0,1999211
0,1999246
-0,06007528
-0,2600753
0,1599246
0,1999246
0,1599256
0,08992557
0,02992206
-0,2100779
-0,05007801
-0,240078
0,2499221
0,00992111
0,1499211
-7,889359E-05
-0,2700788
0,2299215
0,009921514
-0,03007848
-0,1700785
-0,1400785
-0,2400785
0,05992152
0,06992155
-0,08007845
0,2099212
0,2199212
0,04992112
0,01999988
0,04999989
-0,01000012
-0,07000011
-0,2100001
0,2099999
0,1999999
0,04999989
-0,29
0,07
0,21
-0,25
-0,05
-0,04
-0,24
-0,16
0,09
0,17
0,19
0,02999999
-0,15
-0,28
0,12
-0,19
-0,2000789
-0,3000754
0,03992474
0,1399246
0,1799256
-0,04007443
-0,07007446
0,2899255
0,229922
-0,2599991
-0,2999991
0,03000002
0,25
0,13
0,1500001
0,1000001
0,25
0,24
-0,29
-0,14
0,09000004
-0,08999993
0,1700001
0,1900004
-0,2999996
-0,07999595
0,280004
0,04000394
-0,2899961
-0,1099961
-0,09999611
3,92126E-06
0,2200003
-0,1300001
-0,18
-0,21
-0,14
-0,25
0,17
0,05000004
-0,17
0,22
-0,18
-0,09007891
-0,05007889
0,0199211
-0,1200789
0,2599212
-0,2800754
-0,2200753
0,0699247
-0,1000754
-0,3000754
-0,05007441
0,0199256
0,189922
-0,1700779
0,139922
0,129922
-0,04007789
-0,02007888
0,1799211
0,2699212
0,03992113
0,1399215
-7,849307E-05
0,09992155
0,06992155
-7,849671E-05
0,05992152
-0,07007845
0,1899215
-0,2300785
-0,04007888
-0,2700788
0,1599211
-0,220079
-0,05007899
-0,07000011
-0,03000011
-0,2700001
-0,2900001
0,01999989
0,2199999
0,11
0,29
9,91168E-07
-0,03999902
0,150001
-0,06999903
0,2600009
0,01000099
-0,07999903
-0,08999904
-0,239999
-0,05999902
0,2400009
0,08000097
0,07000097
0,250001
0,2199221
0,09992562
-0,04007428
-0,05007439
0,1499256
0,1699255
-0,1800745
0,02992558
-0,08007444
0,1600009
0,100001
0,170001
-0,08999901
-0,149999
-0,07999898
-0,03999897
-0,139999
-0,249999
0,220001
0,140001
0,290001
-0,169999
0,220001
-0,239999
0,1000014
0,2200049
-0,02999495
0,1600049
-0,1099951
0,08000489
0,2100048
4,912992E-06
0,1800013
-0,01999907
0,05000103
-0,06999899
0,05000102
-0,229999
-0,229999
0,230001
0,170001
0,260001
-0,259999
0,2899221
0,1199221
-0,2200779
-0,2000779
-0,2400779
0,2799256
0,09992568
-0,2200744
0,1899256
0,1499256
0,2299256
0,2499256
0,08992205
0,1699221
-0,110078
0,139922
0,2299221
-0,1000779
-0,04007789
-0,1700779
0,1399221
0,2399221
-0,2000775
0,2899226
0,2299225
0,09992252
0,2799226
0,2099225
-0,2100775
0,2699226
0,2799222
0,2599221
-0,2700779
-0,210078
0,229922
-0,060078
0,01000087
0,1100009
-0,08999915
0,1700009
0,09000086
-0,01
-0,279999
0,140001
0,2400009
0,02000099
0,2600009
0,05000098
-0,1499991
-0,07999903
-0,159999
0,03000098
-0,08999904
0,1300009
-0,109999
-0,249999
0,02000098
-0,209999
-0,1300744
-0,05007428
-0,3000744
0,1799256
0,2899255
0,2099255
0,1599255
0,2599256
0,2200009
-0,009998991
0,240001
0,250001
-0,169999
-0,189999
0,290001
0,080001
0,03000103
-0,159999
0,210001
-0,04999897
-0,259999
-0,09999896
0,140001
-0,07999858
0,06000503
0,1700049
0,1300049
-0,04999508
0,05000492
-0,09999511
0,1900049
0,1800013
0,2200013
-0,089999
-0,05999897
0,250001
0,170001
0,210001
1,038757E-06
-0,199999
0,280001
0,270001
0,09992211
-0,04007788
0,1099221
-0,1000779
-0,2200779
-0,2800744
0,0399257
0,1199257
-0,2100744
-0,2600744
-0,1700744
-0,2400744
-0,2500779
0,2699221
0,1000008
0,07000085
-0,1799991
-0,1799991
-0,2299991
-0,1000779
-0,1000779
0,01992214
0,08992252
-0,2400775
-0,2800774
0,2099225
0,1699225
-0,2700774
0,1999225
0,1199225
0,1399221
0,0999221
-0,03007801
-0,240078
0,08992199
-0,120078
0,109922
-0,1499991
0,08000086
0,1000009
0,2100009
0,230001
-0,199999
0,150001
0,04000098
0,160001
-0,139999
-0,02999901
-0,159999
-0,199999
0,09000097
-0,129999
-0,279999
0,07000097
0,07000097
-0,219999
0,160001
0,05000099
-0,1300744
-0,1300744
-0,1500745
-7,43683E-05
0,2099255
-0,04007443
-0,1100744
0,01992563
0,09000088
0,280001
-0,129999
-0,07999901
0,260001
0,260001
0,03000105
-0,02999897
-0,009998973
-0,02999897
-0,08999901
0,240001
0,01000104
-0,139999
0,04000107
-0,09999858
0,180005
0,1000049
-0,2699952
-0,03999508
0,0700049
0,1900049
-0,009995054
0,01000129
0,0100013
-0,249999
0,270001
-0,099999
-0,05999897
-0,089999
-0,289999
0,130001
-0,04999898
-0,289999
-0,2400779
-0,1200779
-0,2000779
0,2199221
-0,1600779
0,1199256
0,1399256
0,04992568
-0,2200744
-0,2100744
0,1599256
0,2099255
-0,2599991
-0,2899991
0,1200008
0,2500009
0,110001
-0,189999
-0,06999904
0,230001
0,2400009
0,190001
-0,02007749
0,1499225
0,1999225
0,1999225
0,2799226
-0,1800775
-0,2800774
-0,2200775
-0,0500779
0,0699221
-0,01007802
-0,01007802
-0,210078
-0,140078
-0,210078
0,2599221
-0,03999913
-0,09999914
0,120001
-0,279999
0,110001
-0,09999903
0,150001
0,100001
-0,289999
0,2600009
0,08000097
-0,00999901
0,09000097
0,200001
-0,09999903
0,02000098
-0,239999
-0,129999
0,190001
-0,05999901
-0,2900778
-0,07007442
0,1299255
0,009925626
0,02992558
0,2899256
0,1299256
-0,2100744
-0,07999912
0,040001
0,210001
-0,049999
0,150001
0,140001
0,150001
-0,269999
-0,199999
0,220001
-0,229999
-0,219999
-0,299999
-0,199999
0,180001
-0,2799986
0,04000503
0,02000494
-0,01999505
0,05000492
-0,1299951
0,2700048
-0,0799951
0,2200013
-0,0299987
0,140001
0,250001
-0,279999
0,06000102
-0,189999
-0,009998968
0,120001
0,06000102
0,05000103
-0,1200779
-0,03007789
-0,2600778
-0,1800779
0,1299221
0,2399256
-0,2600743
-0,1400744
-0,09007441
-0,1600744
-0,2000744
0,1000044
-0,05999907
0,2100009
0,04000086
0,1100008
0,2600009
-0,2999991
0,01000098
-0,2299991
0,2100009
-0,04999862
-0,1899986
0,2900014
0,2799226
-0,3000774
0,1799225
0,1299225
-0,03007749
0,2799225
-0,0700779
-0,050078
0,01992199
-0,060078
0,219922
-0,09007802
0,2699221
-0,09007802
0,189922
0,03000088
0,01000099
-0,2999991
0,05000098
-0,219999
0,120001
0,160001
-0,09999903
-0,259999
-0,02999901
0,2400009
-0,1499991
-0,01999902
-0,189999
-0,01999902
0,140001
0,230001
-0,1499991
-0,249999
-0,1600779
0,1199256
-0,2400744
-0,09007443
0,1899256
-0,07007442
0,1999256
0,1399256
-0,2199991
-0,2999991
0,280001
-0,169999
0,130001
0,05000103
-0,199999
0,270001
0,06000102
0,210001
0,190001
-0,269999
-0,139999
-0,189999
0,100001
0,140001
-0,1499954
0,02000494
0,1300049
0,2400049
-0,1599951
-0,2699952
0,0900049
0,2900013
-0,2399987
0,220001
-0,239999
-0,239999
-0,02999897
-0,199999
-0,199999
-0,179999
-0,129999
0,270001
0,0799221
-0,1100779
-0,2500779
-0,1600779
-0,1900779
0,08992565
-0,1200743
-0,1700745
0,2199256
0,2299256
-0,2700744
-0,1799956
0,1800009
-0,2699991
-0,2899991
-0,08999915
-0,249999
-0,129999
0,09000096
0,2600009
9,876096E-07
-0,2599986
-0,09999862
0,2900014
-0,2300775
0,2099225
-0,02007749
-0,2700774
-0,0100775
-0,04007753
0,0999221
0,06992199
0,149922
-0,110078
0,02992199
-0,09007802
0,07992198
-0,2900779
-0,09007802
-0,2699991
0,06000098
-0,3
-0,189999
0,160001
0,250001
0,230001
-0,259999
-0,2699991
-0,249999
-0,239999
-0,259999
0,230001
0,02000098
-0,08999904
-0,02999902
0,03000098
0,280001
-0,249999
-0,2300779
-0,1100744
-0,1900744
-0,1600744
0,1299255
-0,05007438
-0,1700744
-0,05007437
-0,02999899
-0,01999899
-0,009998992
0,100001
0,120001
-0,269999
0,260001
0,05000102
-0,109999
-0,009998974
0,230001
0,04000102
-0,259999
-0,169999
0,170001
-0,05999893
0,2800045
-0,06999511
-0,08999511
0,1600049
-0,2599952
-0,05999513
0,2200048
-0,2999987
-0,06999865
0,03000099
0,240001
-0,289999
0,220001
-0,07999899
-0,139999
0,160001
0,03000103
-0,009998964
-0,04007787
0,04992213
0,02992214
-0,06007785
-0,07007787
-0,3000744
0,2699257
0,2699256
-0,2900744
0,2699256
0,09000444
-0,05999554
-0,2899991
0,2300009
0,02000087
0,1600009
-0,1499991
-0,09999904
-0,2699991
-0,03999902
-0,08999904
-0,2799986
0,06000134
-0,009998659
-0,1299987
-0,2099987
-0,2099987
0,2499225
0,1299224
0,2699222
-0,1700779
-0,230078
-0,3000779
0,039922
0,169922
-0,190078
0,209922
0,039922
-0,3000779
-0,100078
0,190001
-0,23
-0,08
0,250001
-0,09999903
0,2900009
0,01000099
-0,2999991
-0,01999901
-0,249999
-0,2299991
0,2600009
0,120001
-0,2299991
-0,219999
-0,06999903
0,280001
-0,259999
-0,2300779
-0,1700744
0,2099256
-0,2900744
-0,1600744
-0,2700744
0,1399256
0,01992601
-0,06999863
-0,02999862
-0,2399987
-0,09999863
0,2500014
0,1100014
-0,1099986
0,1200014
0,06000138
-0,1699986
0,1000014
0,1100014
-0,2099986
-0,119999
0,080001
-0,219999
-0,03999538
0,07000486
0,2000048
-0,1399952
-0,05999513
0,2300048
-0,04999514
-0,06999873
-0,1699986
0,160001
-0,03999902
0,170001
-0,009999014
0,170001
0,230001
-0,119999
-0,199999
0,170001
0,04992213
-0,2600778
0,2399221
-0,2200779
-0,2000779
-0,05007432
0,06992572
0,2899256
-7,437792E-05
0,2399256
0,1300044
-0,1299956
0,2400009
0,1900009
0,05000086
0,1200008
0,05000098
0,06000097
-0,1699991
-0,02999906
-0,2299991
-0,009998658
-0,2899987
0,1200013
-0,2299987
-0,2199987
-0,1599987
0,02000135
-0,1699987
0,1800009
-0,100078
-0,09007802
-7,803272E-05
-0,09007802
0,119922
0,02992199
-0,160078
-0,120078
-0,03007801
-0,06007789
0,09000097
-0,05
-0,07
0,01
0,1
0,26
0,21
0,06
-0,18
0,16
-0,18
-0,14
-0,25
0,13
0,09
-0,25
-0,27
-0,19
-0,3000788
-0,2900754
-0,1900754
-0,260074
0,1599259
0,109926
0,03992599
-0,09007403
0,1600013
0,03000138
-0,2299996
-0,2899996
-0,01999957
-0,1299996
-0,2099996
0,1800004
0,1800004
0,1200004
-0,2399996
3,638359E-07
-0,2899996
-0,1899996
-0,13
0,07
-0,09999637
-0,0399961
0,0600039
-0,2599961
-0,1399961
0,1700039
0,1200039
0,06000029
3,963907E-07
-0,2799996
-0,13
-0,04
-0,17
0,04
0,08
0,11
0,26
-0,11
-0,2100789
-0,1200789
-0,01007885
-0,2000789
-0,1300789
0,2399246
-0,2300753
-0,1400754
0,2399246
0,2600044
0,2900044
0,03000448
-0,2099991
0,1900009
0,1400009
0,03000098
0,14
-0,11
-0,26
-5,42936E-08
-0,25
0,2900004
0,2000004
3,441054E-07
3,448855E-07
-0,03999965
-0,2999996
0,1300004
0,05000035
-0,16
-0,2700001
-0,05007902
0,029921
0,119921
-0,2800789
0,2799211
-0,220079
-0,210079
-0,220079
0,1199211
0,27
0,29
0,22
0,15
0,07
0,27
0,22
-0,03
0,11
0,1
0,19
-0,11
0,06
-0,04
-0,17
-0,21
-0,03
0,28
0,09992114
0,2099246
0,2399246
-0,07007401
0,109926
0,09992596
0,2199259
0,039926
-0,2999987
-0,02999862
0,1700004
0,1500004
-0,05999958
0,05000042
-0,1999996
-0,07999963
0,02000036
-0,2499996
-0,2399996
-0,2499996
0,2300004
0,03000038
0,03000001
0,02000001
-0,2899964
0,2400039
-0,0599961
0,1400039
0,1800039
-0,2399961
-0,01999609
0,2200003
3,963908E-07
-0,2099996
-0,02
-0,13
0,18
0,03
-0,12
-0,18
0,22
-0,27
0,2599212
-0,05007885
0,08992116
0,2599212
-0,1500789
-0,1600754
-0,2200753
-0,1600754
0,2399246
-0,2199955
-0,2799956
-0,07999554
-0,2499991
-0,2399991
-0,1199992
-0,08999904
-0,08000004
0,16
-0,14
-0,22
0,16
0,2400004
0,2800004
0,2500004
-0,1499996
-0,1599996
-0,2399996
0,2300004
0,04000035
0,2899999
0,1699999
0,2399999
-0,180079
0,199921
0,05992101
-0,220079
0,229921
-0,2500789
0,07992113
-0,2100789
0,04992113
0,03
-0,18
-0,1
0,19
-0,22
-0,26
-0,08
0,29
-0,04
-0,2
0,009999993
0,26
0,14
-0,13
-0,28
-0,04
0,14
0,09992117
-0,2900749
-0,220075
-0,150074
0,09992596
0,2399259
-0,09007403
-0,2300741
-0,2099987
-0,1599987
3,847386E-07
-0,2099996
-0,02999962
-0,1299996
-0,2299996
-0,2399996
0,02000036
-0,1799996
0,1100004
0,08000038
-0,2499996
-0,2299996
-0,2099996
0,1400004
0,240004
-0,2299961
0,1800039
-0,1499961
0,2800038
-0,02999609
0,03000391
0,0300003
0,1100004
-0,2199996
-0,06
0,07
-0,29
-0,11
0,23
-0,13
0,28
0,12
0,2799212
0,1999211
0,2099211
0,1899211
0,2799212
0,2299246
-0,07007525
0,1899246
-0,1800754
-0,2599956
-0,09999554
0,1800045
0,09000095
0,03000094
0,2100009
-0,05999907
-0,09000004
0,02999996
-0,25
-0,25
-0,21
0,1200004
0,1100004
0,2600004
-0,02999964
-0,1199996
0,2300004
-0,009999654
-0,2499996
-0,1800001
-0,1100001
-0,06000015
0,08992099
-0,07007898
-0,210079
-0,110079
0,219921
-0,2600789
-0,2200789
0,2499211
0,2099211
-0,21
-0,15
-0,02
-0,18
0,23
-0,01
0,2
0,16
0,07
0,28
-0,11
-0,19
0,22
0,02
-0,1399996
-0,2099996
0,2500004
-0,09007845
0,09992503
-0,300075
0,229926
0,1399259
0,289926
0,1399259
0,259926
-0,2199987
-0,1399987
-0,05999966
0,01000034
0,01000038
-0,1399996
-0,05999963
-0,1999996
-0,1599996
-0,2999996
-0,03999965
-0,1799996
0,1300004
0,03000038
0,1900004
-0,2799996
0,1300039
-0,02999609
-0,1599961
0,2900038
-0,1799961
0,1600039
0,2000039
0,2300003
-0,1999996
0,2600004
0,13
-0,02
0,24
0,27
-0,06
-0,14
0,14
-0,14
0,1499211
-0,1700789
-0,04007888
-0,1500789
-0,2500788
0,1099247
0,2499247
-0,2900754
0,07992462
0,02000454
0,1900045
0,2700044
-0,189999
0,170001
0,2000008
0,2800009
-0,2
-0,14
0,15
0,1500003
0,1300004
-0,08999962
-0,03999964
0,01000035
-0,09999962
0,04000035
0,03000035
0,2600004
-0,1499998
-0,1300001
0,04999985
-0,2000001
-0,03007904
-0,03007905
0,179921
0,04992102
0,04992102
-0,030079
-0,08007887
0,01992111
-0,2600788
-0,19
-0,22
-0,13
-0,27
-0,17
0,15
0,25
0,07
0,26
0,16
-0,22
-6,055964E-09
0,2900004
0,0200004
-0,06999958
0,1700004
0,2500004
0,2399216
-7,491103E-05
-0,230075
0,279926
0,149926
-0,09007401
0,269926
0,08992602
-0,009998626
0,1400013
0,2900004
-0,1499996
-0,07999957
0,1200004
0,2300004
-0,1799996
0,1000004
0,02000036
-0,1699996
-0,2199996
-0,02999963
-0,2299996
0,1900004
0,08000039
-0,119996
-0,1199961
3,911698E-06
-0,03999611
0,09000389
-0,01999609
0,2400039
-0,04999972
0,1700004
0,1000004
0,03
0,21
-0,05
-0,25
-0,04
0,17
-0,11
-0,07
0,1399211
-0,3000788
0,2599212
-0,08007887
0,03992116
-0,2700754
-0,1600753
-0,1300754
-0,1200754
-0,2999956
-0,2099955
0,08000446
-0,02999901
0,1600009
0,1100008
-0,009999074
0,09999996
-0,04000004
0,2
3,109606E-07
0,2900004
-0,2999996
0,1900004
0,03000036
-0,02999964
0,1100004
-0,2099996
-0,2799996
0,1700003
0,04999985
-0,2400001
-0,04000015
0,179921
-0,2600789
-0,07007902
0,179921
0,109921
0,2599212
0,1399211
-0,04007887
-0,1800789
-0,09
-0,2
0,24
-0,15
-0,21
-0,17
0,16
-0,21
0,25
-0,05
0,29
0,2600004
0,1900004
-0,06999958
0,1300004
-0,1999996
-0,07999954
0,2399216
0,229925
0,239925
-0,190074
-0,01007397
0,119926
0,239926
0,119926
0,1900013
-0,06999863
-0,0699996
0,2200004
0,1700004
0,1300004
0,1200004
-0,06999959
-0,1299996
0,08000037
0,1900004
0,2500004
-0,1199996
-0,1199996
-0,01999962
-0,06999961
0,2200039
0,2200039
-0,1999961
-0,2399961
3,912267E-06
0,2900038
0,1000039
0,0900003
0,07000041
-0,1099996
-0,29
0,21
0,02
-0,3
0,22
-0,03
-0,3
0,02
-0,1100789
0,1899211
-0,08007888
-0,1300789
-0,2200789
0,1099247
-0,1300753
0,01992465
0,009924637
0,1500045
0,2400045
-0,1499956
-0,2599991
0,06000093
-0,05999913
9,767386E-07
-0,12
0,06999996
0,01999996
0,1700003
-0,1799996
0,2000004
0,1300004
0,1300004
-0,1599996
-0,01999964
0,1100004
0,2000003
0,2099999
-0,1300001
0,1499999
-0,08000015
0,2499999
0,149921
0,2799211
0,07992098
-0,3000789
0,04992113
0,1299211
-0,02007889
0,1799211
0,27
-0,03
0,24
0,15
-0,08
-0,15
-0,06
-0,04
-0,2899996
0,1100004
-0,1599996
0,2400004
-0,1799996
-0,1099996
-0,0199996
-0,2399996
0,08000046
-0,2800783
0,09992506
0,2899251
-0,04007394
0,109926
-0,160074
0,289926
0,019926
-0,09999863
-0,1199986
0,0700004
0,1500004
4,070845E-07
0,1300004
0,2300004
-0,2599996
0,2900004
-0,1599996
-0,07999959
0,1800004
0,2800004
0,2200004
-0,1799996
-0,1299996
-0,05999603
0,1900038
0,05000389
0,01000391
-0,02999609
0,1300039
-0,04999612
2,821809E-07
0,02000041
-0,08999959
0,03
-0,27
-0,02
-0,09
-0,14
-0,17
0,24
-0,17
-0,28
0,2699212
0,1599211
0,09992113
0,009921108
0,2799246
-0,1000753
0,1999246
-0,1800754
-0,2499955
-0,2499955
-0,1299955
0,1000009
-0,2099991
-0,02999913
0,120001
-0,28
0,21
0,07999996
-0,01999967
-0,2599996
0,06000036
0,2200004
-0,2299996
-0,1699996
-0,2099996
-0,2099996
0,2000003
0,04999985
0,06999985
0,2699999
-0,2100001
0,239921
0,149921
0,199921
-0,1500789
-7,895038E-05
0,1299211
-0,1200789
0,06992113
-0,2000789
0,06
1,56876E-11
-0,1
-0,06
-0,15
0,1
-0,07
0,0600004
0,1500004
-0,1099996
-0,0599996
0,04000039
-0,0399996
-0,2199996
-0,04999956
-0,2599995
0,09000047
-0,03007834
-0,09007494
0,179925
-7,39168E-05
-0,160074
0,04992602
-0,2300741
0,259926
-0,06999863
0,2400013
-0,11
-0,19
-0,18
-0,1199999
0,03000004
-0,29
-0,13
-0,0199996
-0,2399996
0,0100004
0,1300004
0,2700004
-0,01999959
0,1500004
-0,1699961
0,1900038
-0,1299961
0,03000391
0,04000389
-0,02999609
0,07000388
-0,05999971
-0,1999996
0,2000004
-0,1499996
0,26
0,18
0,1
-0,08
0,25
-0,17
-0,02
0,21
0,1599211
-0,2600788
-0,06007887
0,02992111
-0,2900754
0,2099247
0,01992465
-0,2200754
0,09992563
-0,1199955
0,03000449
0,2600009
-0,009999067
0,2200009
-0,2699991
-0,14
-0,06000004
-0,1299997
0,04000032
-0,08999962
0,2500004
-0,1299996
0,2400004
-0,2899996
-0,08999962
-0,2799997
0,06000024
-0,1700001
0,06999985
-0,2500001
-0,1900001
-0,120079
-0,150079
-0,240079
0,1199211
0,1099211
0,1899211
-0,1400789
-0,1400789
0,1199211
-0,29
-0,11
0,27
-0,25
0,07
0,24
0,1600004
-0,2699996
0,1400004
-0,06999958
0,2700004
0,07000042
0,09000042
-0,2399996
0,2600004
-0,01999955
-0,2099996
-0,08007834
-0,190075
0,2799251
-0,160074
-0,110074
-7,401773E-05
0,03992598
-0,2300745
-0,149999
0,110001
-0,06999998
-0,2
-0,07999995
-0,03999995
-0,22
-0,3
0,21
-0,11
0,06000002
-0,09999958
0,1800004
-0,05999959
-0,02999959
-0,1399996
0,02000402
-0,009996089
-0,1599961
-0,2199961
0,03000391
0,09000389
-0,2199961
-0,2099997
-0,1599996
0,0100004
-0,03999963
-0,26
-0,12
-0,02
0,12
0,18
-0,08
0,28
-0,08
-0,1700789
-0,08007888
0,2299211
-0,08007887
0,2599246
0,1899247
0,06992459
0,1699246
0,1599256
-0,09999555
-0,2299956
-0,09999909
0,2800009
0,1400009
0,1100009
0,11
0,2
-0,1399997
-0,04999968
0,03000036
0,05000036
0,0200004
-0,1699996
0,2500004
0,2000004
-0,2999997
-0,2699997
0,1199998
-0,07000015
0,05999985
0,1699999
0,2699211
0,199921
-0,2900788
-0,1700789
0,2399211
0,08992109
-0,2400789
-0,1300789
-0,1200789
0,26
0,22
-0,08
0,19
-0,24
-0,2
-0,02999959
-0,1099996
0,0600004
0,1600004
0,2200004
0,0200004
0,2600004
-0,05999956
0,1600004
0,1000005
-0,2199996
0,2699217
0,009925087
0,2599251
0,1499256
0,2399255
-0,07007442
-0,2100744
0,01992555
-0,209999
1,002784E-06
0,26
3,926112E-09
0,17
-0,28
0,13
0,28
-0,23
0,07000003
0,13
-0,2
-0,0599996
0,1900004
0,1000004
0,02000041
0,130004
-0,2499961
0,07000389
0,1400039
-0,1599961
-0,2899961
-0,04999613
-0,1499997
0,03000041
0,1500004
0,1100004
0,05
-0,09
0,03
-0,29
-0,02
-0,18
-0,14
0,27
0,0899211
0,009921083
0,1899211
0,1799211
0,1399246
-0,2100753
0,0399246
0,1899246
0,1699256
-0,2799956
4,495706E-06
0,1400009
-0,2199991
0,2000009
-0,05999912
-0,289999
0,18
0,1600004
-0,0499996
-0,1199996
-0,2199996
-0,2499996
0,1100004
0,2700003
-0,2799997
-0,0999997
-0,2200001
0,05999989
0,02999984
0,04999985
-0,1500001
0,2699211
-0,230079
0,2199211
-0,2900788
-0,2900788
0,2399211
-0,1300789
0,2199211
0,04
0,1
-0,19
0,07
-0,18
-0,28
-0,2999996
0,03000041
0,1400004
0,2700004
0,0100004
-0,1799996
0,1100004
0,1600004
0,2800004
0,1800004
0,03000045
0,1900004
0,2099216
0,1499247
-0,07007532
-0,3000744
0,2699256
-0,1400744
-0,1800744
0,1699255
0,020001
0,07000099
-0,14
0,19
-0,06999995
-0,23
0,01000004
0,24
0,2
0,07000003
0,27
-0,01999997
-0,0199996
0,2400004
-0,2799996
0,1700004
-0,069996
0,09000389
-0,2799962
-0,07999611
0,03000391
-0,1999961
-0,2199961
-0,2699997
-0,02999959
-0,1899996
-0,2799996
0,009999997
-0,02
0,04
0,13
0,25
-0,06
-0,05
6,536292E-10
-0,07000004
-0,1400789
0,2399246
0,03992465
-0,07007536
0,1099247
0,1699247
0,2599246
-0,09007445
0,2100044
-0,2499956
-0,09999909
0,2600009
0,1300009
0,06000087
0,06000099
-0,1299996
-0,1699996
0,2000004
-0,1699996
-0,08999959
-0,0199996
-0,1799996
-0,07999969
-0,1899997
-0,2599997
-0,3000001
-0,05000011
-0,1400001
0,2299999
-0,2900001
-0,2700789
-0,2700788
-0,06007892
0,08992109
-7,895035E-05
-0,01007894
-0,2500788
0,07992109
0,11
0,15
-0,16
0,16
-0,1799996
-0,08999959
0,2000004
-0,2499996
0,1700004
0,2200004
0,2700004
-0,04999961
0,1100004
0,04000044
-0,1899996
-0,2199996
0,2400001
-0,26
0,009921251
-0,08007535
-0,1100754
0,1099255
-0,08007446
0,09992556
-0,03007441
0,1899255
-0,2799991
-0,1299991
0,02000001
-0,26
-0,25
-0,23
-0,18
0,05000003
-0,21
-0,01999997
-0,23
0,11
-0,3
-0,2899996
-0,09999958
0,2800004
-0,179996
0,02000391
-0,1099961
-0,02999609
-0,1099961
-0,01999609
0,2200039
-0,1499997
0,1400004
-0,0399996
0,2700004
0,12
-0,12
0,29
-0,07
0,04
-0,11
-0,08
-0,12
0,02999996
0,02992108
0,1199246
0,1599246
0,1899246
-0,1700753
-0,2400753
-0,05007541
0,1299255
-0,2899956
-0,1799956
-0,2599991
9,342718E-07
-0,2799991
-0,09999914
-0,01999901
0,1900004
-0,09999958
0,2900004
-0,009999603
0,0300004
-0,0599996
-0,1299997
-0,1099997
0,09000031
-0,1999997
-1,258935E-07
-0,1400001
-0,2100001
-0,2600001
0,01999985
-0,08007901
0,07992109
0,1199211
0,1599211
-0,05007892
-0,01007894
0,1599211
-0,01007894
-0,16
-0,17
-0,28
-0,21
-0,1699996
0,02000041
-0,08999959
-0,0399996
0,1000004
0,2800004
0,0100004
0,04000039
-0,1699996
-0,1099995
0,2200004
0,1500004
-0,21
-0,15
-0,08007876
-0,2400754
0,08992562
0,1199255
0,1899255
-0,1400745
0,07992555
-0,01007448
0,1900009
-0,03999904
0,18
-0,15
0,24
0,28
-0,27
0,2
0,14
-0,14
2,415118E-08
-0,15
-0,26
0,1700004
-0,1299996
0,1300004
0,200004
-0,1199961
0,07000389
3,912523E-06
-0,1099961
-0,2699962
0,1500039
0,2700004
0,07000042
-0,1999996
-0,2399996
0,09
0,2
0,02
-0,07
0,16
0,009999998
0,14
0,13
0,25
0,0799211
-0,06007535
-0,2700754
0,01992464
-7,528528E-05
-0,08007529
0,03992459
0,05992459
-0,1599956
0,2300044
-0,1899991
0,05000093
0,1900009
0,2500009
0,220001
0,01000042
0,08000042
-0,2299996
-0,2099996
0,1500004
0,1000004
0,2000003
0,07000031
0,1400003
0,2100003
-0,07000011
-0,3000001
-0,1800001
0,2199999
0,139921
0,1399211
-0,1100789
-0,2700788
-0,08007891
-0,2600788
-0,05007892
-0,1600789
-0,2500788
0,29
0,26
-0,01
-0,21
0,1300004
0,1300004
0,2800004
0,0100004
0,2000004
0,2500004
0,09000042
0,2200004
-0,2299996
-0,06999955
0,04000004
0,27
-0,15
0,18
0,1699212
-0,1200754
0,09992558
-0,2300745
-0,08007446
-0,09007444
0,1299255
-7,447869E-05
-0,2099991
0,2100009
0,01999997
-0,03999998
0,2
-0,02999999
-0,13
0,02999999
-0,22
-0,17
-0,14
0,01000003
-0,23
0,23
0,1600004
-0,09999607
0,03000402
-0,2599961
0,03000391
-0,2999962
0,06000389
-0,09999611
0,1500039
-0,2499996
-0,2299996
-0,1399996
0,08000042
0,25
-0,06
0,22
0,04
-0,23
-0,05
-0,18
0,04
-0,24
0,2799212
-0,07007536
-0,2600754
-0,1900754
0,04992471
0,03992471
-0,1600754
-0,1000754
0,1099255
0,1400009
0,1000009
0,2300009
0,02000087
-0,1099991
0,03000103
-0,1299996
0,1700004
0,1300004
0,2300004
0,1800004
-0,2499996
-0,03999971
-0,1099997
0,03999992
0,1899999
-0,09000012
-0,2200001
-0,1500001
0,08999989
-0,220079
-0,2500788
0,2399211
-0,1100789
0,08992109
-0,08007891
-0,2000789
-0,3000788
-0,08007891
-0,06000004
-0,29
-0,25
-0,0599996
-0,0599996
-0,06999958
0,0600004
0,1400004
-0,06999958
-0,2599996
-0,1199996
-0,1399996
-0,09999958
0,1100004
-0,11
0,15
-0,3
0,02000005
-0,2700787
-7,531505E-05
-0,08007442
-0,1700745
-0,04007443
0,2899255
0,1099256
0,01992552
0,08000095
0,1500009
0,02999997
0,23
0,27
-0,07000001
-0,13
-0,05
-0,12
0,22
0,12
0,1
-0,29
0,26
0,27
-0,2599965
0,2800035
-0,2699962
0,2700039
-0,07999611
0,1800039
-0,06999611
0,05000388
0,04000035
0,08000042
0,1900004
-0,2399996
-4,710592E-09
-0,3
-0,19
0,05
-0,24
0,13
0,22
0,14
0,2
-0,1900789
-0,01007535
-0,2400754
0,2499246
0,2899247
0,2399247
-0,08007541
-0,03007541
-0,2800744
-0,09999911
8,853866E-07
-0,2299991
0,02000087
-0,1299991
-0,1599986
-0,07999958
-0,2899995
-0,1099995
0,1300004
-0,1599996
-0,1999997
0,2900003
-0,1599997
-0,2200001
-0,1300001
0,1599999
-0,05000011
-0,2300001
-0,140079
0,04992102
0,2699212
-0,2100789
-0,1900789
-0,2300789
0,2299211
-0,02007893
0,2599212
-0,2800788
-0,07000004
0,24
-0,3
-0,2199996
0,0100004
-0,1199996
-0,1199996
0,2900004
0,2700004
0,1200004
0,2600004
-0,1799996
-0,2599996
-0,05999996
-0,22
-0,009999954
0,1
-0,19
-0,1500753
0,2799246
0,06992558
-0,1800745
-0,02007442
-0,1500745
-0,2000745
-0,04007448
-0,07999904
-0,09000002
0,25
-0,04999998
-0,06999999
0,16
-0,05000001
0,29
0,25
0,19
-0,16
-0,29
-0,03
0,26
0,19
-0,1199964
0,1800035
0,1200035
-0,1999961
-0,2699962
0,01000391
0,03000391
-0,2999996
0,1200004
-0,0399996
0,1100004
-0,1699996
0,27
-0,06
-0,2
-0,05
0,15
0,27
-0,25
0,26
0,27
-0,27
0,01992464
-0,1100754
-0,2000754
0,1699247
-0,2600753
-0,02007541
-0,1200754
-0,1500745
0,07992203
0,1400009
-0,1199991
-0,2099991
-0,1099991
-0,05999861
0,1500004
-0,2599995
-0,2399996
0,2500004
0,1800003
-0,0999997
-0,1799997
0,2800003
0,1099999
0,01999993
-0,03000011
0,04999989
0,149921
-0,06007898
-0,01007889
-0,2600788
-0,09007891
-0,3000788
0,2199211
-0,1600789
-0,1400789
-0,08007891
-0,3
-0,14
-0,04
-0,25
0,1200004
-0,0399996
0,1800004
0,2700004
0,2400004
0,1800004
-0,2599996
0,1600004
0,09000038
0,1000004
0,21
-0,2
-0,23
0,06000004
0,21
0,03992478
0,07992557
0,06992558
-0,1100745
-0,01007442
0,1199256
0,2399255
0,1599255
0,04000097
-0,07000002
-0,12
-0,14
-0,25
-0,22
-0,07000001
-0,27
0,2
-0,01000001
0,13
0,08
0,16
-0,2
0,14
0,08000351
0,09000352
3,547613E-06
0,2900038
0,1400039
0,1800039
-0,1799961
-0,1899996
0,2300004
-0,1399996
-0,06999958
0,1100004
0,14
-0,07
0,26
0,26
-0,08
0,18
0,1
-0,17
0,04000001
0,04999997
0,009924645
0,2899246
0,07992464
-0,1400753
0,05992471
-0,2900754
0,09992459
-0,07007445
0,2699221
-0,2600779
-0,06999913
0,2400009
0,2900013
0,1000014
0,2800004
0,1300004
-0,2099996
0,2700005
-0,08999966
-0,1899997
-0,04999971
-0,3000001
0,1199999
-0,04000011
0,07999989
0,09992103
0,229921
0,01992111
-0,1000789
0,1999211
-0,2500788
0,2599212
-0,2100789
-0,2800788
-0,2300789
0,009921061
-0,09000004
-0,02000005
-0,19
-0,1899996
4,001772E-07
-0,009999597
-0,1199996
-0,1199996
-0,1199996
0,1900004
-0,0599996
-0,1399996
0,2800004
0,09000004
0,09000004
0,12
0,21
-0,07999996
-0,21
0,009924789
-0,1300744
-0,1800745
0,06992554
0,2599255
-0,2200745
-0,2200745
-0,2800745
-0,2299991
0,28
-0,04000003
0,14
0,26
0,02999999
-0,03
-0,09000001
0,09999999
0,16
-0,2
0,1
0,26
0,11
-0,07
-0,2299965
0,1900035
-0,1399965
0,06000353
0,04000389
0,1100039
-0,1899961
-0,06999963
-0,2499996
0,1700004
0,2200004
0,06000039
-0,16
-0,21
0,21
-0,15
-0,27
-0,08
-0,04
-0,19
-0,11
0,21
-0,2600754
-0,03007536
0,1299246
0,009924714
-0,1300753
0,2799246
0,2599246
0,1099255
0,109922
-0,170078
0,189922
0,2299221
-0,2599987
0,1800013
0,1000004
0,01000044
0,03000045
-0,08999966
0,2600003
0,05000029
-0,0899997
0,27
-0,2600001
0,2599211
-0,180079
-0,180079
0,189921
-7,889469E-05
-0,2300789
-0,1200789
-0,01007894
-7,894829E-05
-0,2600788
-0,1400789
0,1399211
0,18
0,23
-0,27
-0,06999996
-0,1799996
-0,02999959
-0,06999958
-0,2499996
0,08000042
0,1700004
-0,09999958
-0,2599996
-0,2699996
0,04000036
0,01000005
0,18
-0,25
-0,15
0,14
-0,009999949
-0,2300753
-0,07007442
0,1599256
-0,1200745
-0,2600744
-0,2200745
-0,05007441
0,02992198
-0,06999905
0,14
-0,12
0,19
0,17
-0,27
0,21
0,06999999
-1,095337E-08
0,28
0,13
-0,23
0,27
0,21
-0,04999999
-0,2099965
0,2200035
-0,2199965
0,1600039
0,2500038
0,05000389
-0,009996096
-0,05999964
-0,1499996
-0,09999958
0,1600004
0,06000039
-0,06
-0,23
0,14
-0,12
-0,27
-0,28
0,2
0,12
0,24
-0,009999989
0,009924645
-0,1400754
0,2899246
0,1299247
0,2399247
-0,1300754
-0,2400754
0,009925565
0,05992204
0,01992202
-0,140078
0,2799221
0,07000127
-0,03999872
0,2600004
-0,07999954
-0,009999667
0,2800004
0,2300003
-0,0999997
-0,2799997
-0,02000007
-0,2900001
-0,04007898
-0,03007899
-7,900858E-05
0,1599211
0,09992113
0,08992109
-0,2500788
-0,2300789
-0,2200789
0,009921061
0,09992109
-0,1000789
0,21
0,16
-0,18
0,11
-0,1799996
-0,1299996
0,1300004
0,1400004
-0,1599996
-0,09999958
-0,0399996
3,659963E-07
-0,1199996
-0,08999962
0,11
0,02000004
0,22
0,19
0,03000004
-0,03999995
-0,2800753
-0,1500745
0,01992562
-0,1500745
-0,07007444
0,009925598
-0,04007441
0,219922
9,783697E-07
-0,06000002
-0,23
-0,02999999
0,26
-0,25
-0,25
0,05
-0,14
-0,14
0,11
-0,27
-0,12
0,14
0,17
-0,2399965
-0,2999966
-0,2999966
-0,02999609
-0,1199961
0,2700039
0,02000391
-0,1499996
-0,1099996
0,2700004
-0,1699996
-0,1299996
0,05000003
-0,16
0,27
-0,13
0,1
0,2
0,21
-0,17
0,19
-0,18
0,2900034
0,02992463
-0,1800754
-0,1500754
-0,2400753
-0,1400754
0,04992459
-0,2300745
-7,798035E-05
-0,230078
-0,130078
-0,02007756
-0,04007759
-0,1500776
-0,07007845
-0,2700784
-0,2300785
0,2399215
0,2699216
-0,2100785
0,1799211
-0,01007897
0,1199211
0,179921
-0,010079
-0,09007899
-0,1100789
0,2799212
-0,3000788
-0,1800789
-0,03007893
-7,894637E-05
0,2699212
0,2299211
-0,2900788
-0,03000004
-0,15
-0,27
0,21
-0,1399996
0,09000042
-0,1899996
-0,0399996
-0,2399996
0,2900004
-0,2299996
0,1700004
0,12
0,24
0,06000004
0,12
0,27
-0,14
0,1
-0,05999995
-0,01007521
0,1999256
-0,06007439
0,1599255
0,1399255
0,2699256
0,06992557
-0,230078
-0,12
0,09999999
0,17
0,01000001
0,01999999
-0,17
0,25
0,18
-0,26
-0,28
0,11
2,925098E-09
0,06000001
-0,27
0,06000001
0,1800035
-0,08999649
0,0300035
0,07000389
-0,2699962
-0,06999611
-0,009996096
3,598501E-07
-0,1599996
-0,1399996
-0,009999597
0,02000041
0,07000004
0,21
-0,13
-0,23
-0,12
-0,28
-0,26
-0,22
-0,04
-0,18
0,06000356
-0,1600754
-0,02007537
0,2899246
0,1799247
0,0799247
0,2399246
0,03992557
-0,200078
0,169922
-0,05007798
-0,1700776
0,05992241
-0,06007759
-0,1900775
-0,1000785
0,02992146
0,1299215
0,1799215
-0,2100785
0,01992104
-0,1600789
-0,2700789
0,09992108
-0,1200789
0,2699212
0,1699211
0,2499211
-0,08007891
-0,03007893
0,01992107
0,2499211
-0,2000789
0,0499211
0,15
-0,12
-0,22
-0,26
0,05000003
0,2100004
0,0500004
0,09000042
-0,2399996
0,1200004
-0,2399996
-0,06999958
-0,1599996
0,23
0,25
0,28
-0,01999995
-0,09999996
-0,11
-0,14
0,1
-0,09007525
-0,1900744
0,1699256
0,09992554
0,2099255
0,1999255
0,2799256
-0,190078
0,1199211
-0,16
-3,422895E-08
-0,27
-0,3
0,07999999
0,22
-0,19
-0,01000001
-0,22
0,27
0,04000001
0,22
-0,22
-0,09
0,03000354
0,2500034
0,1200035
0,2400039
0,2900038
-0,05999611
0,2900038
-0,1899996
0,05000036
0,2300004
0,2400004
-0,06999958
-0,23
-0,1
-0,07
0,13
-0,3
0,06
-0,02
-0,07
-0,03
0,06000001
-0,1100753
-0,1700754
-0,1600754
-0,2700754
0,1599247
0,2899247
-0,1800754
-0,09007446
0,119922
0,1799224
-0,1700776
0,1999224
-0,1700776
0,1499224
-0,2200776
0,2599216
0,2899216
0,1699215
0,1299215
-0,2700788
0,2399211
-0,2000789
-0,2400789
-0,1500789
0,1399212
0,2099212
-0,2500788
-0,06007892
0,2699212
0,2699212
-0,06007891
0,1499211
0,2399211
0,27
0,04999996
-0,02000004
0,09999996
0,25
0,08000042
-0,2999996
0,2800004
-0,1599996
-0,1999996
-0,2399996
-0,1999996
-0,1299996
-0,2399996
0,08
0,04
-0,27
0,07000004
0,1
0,1
-0,06999996
0,11
-0,2100753
-0,2300744
0,2899256
-0,1100745
0,2499255
0,2299255
0,1799255
-0,07007802
0,1499211
-0,07000002
-0,02000003
0,26
-0,14
-0,21
0,09999999
-0,14
-0,27
-0,21
0,12
-0,26
0,1
0,29
0,29
-0,2599965
-0,03999646
0,1400035
-0,03999611
0,1900039
0,2400039
-0,1099961
0,1300004
-0,2599996
4,026859E-07
-0,1399996
-0,0399996
-0,09999996
0,1
0,06
0,13
-0,24
-0,2
0,2
-0,05
0,12
0,11
-0,09007532
0,1999246
-0,02007537
0,2399246
0,1699247
0,03992471
0,009924591
0,2699256
-0,110078
-0,3000775
-0,2100776
-0,2200776
0,2399223
0,2199224
-0,2000776
-0,04007858
0,2799216
-0,01007856
-0,05007854
0,09992109
-0,07007895
-0,05007899
0,2899212
0,119921
-0,1100788
0,04992115
-0,04007885
-0,04007892
0,05992108
0,2299211
0,2
0,03999996
-0,14
-0,08000004
-0,25
0,24
0,27
0,25
-0,2299996
0,1500004
-0,1899996
-0,2299996
-0,1999996
-0,1399996
-0,1299996
-0,1799996
0,1600004
0,14
0,02
0,09
-0,19
-0,09999996
0,29
-0,28
-0,12
0,2499257
0,1999256
0,1599256
0,03992557
-0,1900745
-0,2300745
-0,2500744
-0,09007803
-0,0500789
-0,21
0,04999997
0,21
0,009999997
0,16
-0,15
-0,02
-0,27
-0,08000001
0,1
-0,02
-0,14
-0,15
0,13
-0,04999646
-0,2299965
0,1900035
0,1200039
0,2300039
0,2600038
0,1200039
-0,009999638
0,04000036
-0,1699996
-0,2599996
-0,2099996
-0,26
-0,19
-0,1
0,25
0,08
-0,24
0,16
0,14
-0,24
0,1099211
-0,1000753
-0,1500754
0,2699246
-0,1300754
-0,2000753
-0,2300753
0,2799246
-0,1100754
0,03992204
-0,2800775
0,09992239
-0,2400776
-0,1000777
-0,0300776
-0,0800776
-0,05007858
-0,1800786
-0,06007858
0,1299214
0,09992106
-0,2900789
0,06992108
-0,04007892
0,06992115
-0,1900788
-0,1300788
0,1299212
-0,04007884
-0,2900788
-0,08000004
-4,616343E-08
-4,785414E-08
0,06999996
0,13
0,16
0,03
0,14
0,06
0,1600004
0,0400004
0,0100004
-0,1599996
0,09000042
-0,2799996
-0,009999597
0,2700004
0,2100004
0,23
0,03
-0,17
0,23
-0,08999997
-0,29
-0,03999995
0,1
0,1200046
0,1799256
-0,1000744
-0,2500744
0,2299255
-0,06007442
0,0099256
-0,120078
-0,19
0,01999997
-0,21
-0,009999983
0,07
0,1
0,18
0,09999999
0,05
0,08
-0,22
-0,22
0,16
0,28
-0,05999998
-0,2299965
-0,1599965
-0,0399965
0,1900039
0,2300039
0,1800039
-0,01999609
-0,2199996
-0,01999962
-0,1899996
-0,2699996
-0,27
0,15
-0,05999999
-2,739059E-10
0,22
-0,21
-0,3
0,26
-0,02
6,957553E-10
-0,1100789
-0,03007532
-0,1700754
-0,1700754
0,1399246
0,0199247
-0,1300753
0,1299247
0,2199246
-0,130078
0,2299224
0,1399224
-0,06007761
-0,1800776
0,1999224
-0,0300776
0,0499224
0,06992143
-0,01007861
0,1199214
-0,07007895
0,09992101
-0,1300788
0,02992118
0,05992115
-0,2700788
-0,1500788
-0,2600788
0,1499212
0,28
-0,23
0,2
-0,01000004
0,24
0,18
0,16
-0,18
0,06
-0,22
-0,1499996
-0,1999996
-0,0499996
0,0500004
0,2300004
-0,2099996
-0,1199996
-0,09999958
-0,1799996
0,1
-0,06
0,04
-0,07999996
-0,03999995
0,15
-0,24
0,08000003
-0,1999955
0,1000045
0,05992565
0,09992554
-0,1300745
-0,1700745
0,2699256
0,2399999
-0,21
-0,28
-0,15
-0,009999984
-0,05999999
-0,26
-0,15
0,28
-0,02
-0,17
0,02
0,28
-0,25
-0,05999998
-0,05999998
-0,1299965
0,1200035
-0,2799962
-0,05999611
-0,08999611
-0,05999611
0,1500039
-0,06999964
0,1400004
0,1800003
-0,2099996
0,06
0,02
-0,3
-0,02
0,28
0,27
-0,03
0,11
0,13
-0,2400789
-0,2700788
0,2099246
0,1799246
0,04992464
-0,2100754
0,0599247
0,2299247
-0,1700753
-0,1700754
-0,2299991
0,02992239
0,1499224
-0,1500776
-0,1200776
0,2699225
-0,1600776
0,1799224
0,05992142
-7,861992E-05
-0,06007895
0,07992105
-7,890757E-05
0,1099212
-0,1600788
-0,03007885
0,1299212
0,2799212
-0,3
-0,15
0,04000003
3,394035E-08
-0,06999998
0,1
-0,13
-0,16
0,21
-0,16
0,19
-0,19
0,1700004
0,2100004
-0,1999996
4,001789E-07
0,1000004
0,0500004
0,2000004
-0,1399996
0,1200004
5,022788E-09
0,13
-0,21
0,21
-0,19
-0,11
-0,01999996
0,02000004
-0,2099954
0,03000454
-0,2300744
-0,05007444
0,07992556
0,2299255
0,2699256
0,08999988
0,06999999
-0,2
-0,26
0,28
-0,26
-0,24
-0,3
0,29
-0,05999999
0,12
0,03
-0,02
-0,3
-0,29
0,08
0,07000352
-0,02999646
-0,1499961
3,915741E-06
0,01000392
-0,05999611
0,09000389
-0,1899996
-0,08999963
0,1900003
0,1100004
0,11
0,1
0,11
0,15
-0,21
0,28
-0,18
0,21
-0,27
-0,05007887
0,1499211
-0,1300754
0,07992464
-0,07007536
0,1299246
-0,2000754
-0,03007529
-0,01007531
0,1499246
0,2900043
0,01992241
-0,2200776
0,2399224
-7,763199E-05
0,2799225
-0,0800776
-0,0800776
-0,05007858
-0,1600786
0,2799211
0,2799211
0,1299211
-0,2100788
-0,08007884
-0,05007884
-0,1100788
-0,1300788
0,08000002
0,02000004
0,04000004
-0,15
-0,22
0,27
-0,1799999
0,21
-0,21
0,07
-0,24
0,18
-0,1599996
-0,1899996
0,1200004
0,0500004
0,1900004
-0,2199996
0,02000041
0,1500004
-0,1999996
0,17
0,17
0,05
0,16
0,07000004
-0,25
-0,02999996
-0,28
-0,2199955
-0,1499956
0,2800044
-0,05999557
0,2200044
0,1800044
0,2600043
-0,1900001
0,14
-0,07000002
-0,2
0,12
0,09
0,18
0,14
-0,14
0,07
0,29
0,16
-0,14
-0,23
-0,11
-0,16
0,2200035
0,03000354
-0,2399961
0,2000039
0,1500039
0,2900038
-0,01999609
0,01000036
0,2200004
0,1500003
0,1800004
-0,29
-0,08
-0,22
-0,05999999
-0,09
-0,08
0,15
-0,05999999
-0,2600788
0,1399211
-0,09007891
-0,2700754
0,009924642
0,2799246
-0,2700754
-0,1100754
-0,2100753
0,0699247
-0,1199964
-0,1899965
0,2500013
0,1800013
-0,2899987
-0,2399987
0,2000013
0,1600013
0,2800013
-0,1899987
-0,1799997
-0,1400001
0,22
-0,12
0,26
0,2
0,17
-0,08999998
-0,22
-0,17
0,07000003
-0,06999997
9,469638E-08
0,1300001
-0,1499999
-0,009999922
8,463287E-08
-0,009999919
0,05
0,22
0,12
0,09000004
-0,1199996
0,2300004
0,0400004
0,0400004
0,2300004
-0,1799996
-0,08999959
-0,2899996
0,03
0,05
-0,06
0,04
-0,18
0,18
0,22
-0,27
-0,2299955
0,1000045
-0,1899955
0,1100044
-0,1899956
0,2600043
0,2900043
0,2499999
0,11
-0,19
0,01999998
0,01000002
0,05
-0,1
-0,2
-0,25
-0,02
0,02
0,27
0,29
0,13
-0,08
0,27
0,04000391
-0,2999961
-0,239996
0,09000389
-0,2799962
0,2800038
0,2500038
3,607029E-07
-0,02999962
0,07000031
-0,02999996
-0,08
0,25
0,1
-0,29
-0,02
-0,08
0,23
0,08
0,2299211
0,1099211
0,0899211
0,1899246
-0,04007536
-0,1800754
-0,05007536
-0,1100754
-0,2400753
0,0899247
0,2000035
0,2200035
-0,1099987
0,1400013
0,1300013
0,06000127
0,1100013
-0,2499987
-0,1399987
0,2700013
0,2600003
0,15
0,11
-0,25
0,24
-0,23
0,28
-0,1499965
-0,05999643
-0,02999643
-0,2599965
0,05000361
-0,2499999
-0,2499999
-0,009999917
-0,1499996
0,2400004
-0,1999996
0,09000045
-0,02999999
0,07
0,09000004
0,1900004
0,2000004
0,07000042
0,1400004
-0,2299996
0,07000042
-0,1799996
-0,2599996
-0,1099996
-0,06999962
-0,24
0,26
0,12
-0,23
-0,3
0,04000102
0,2400045
-0,1199955
-0,1599955
-0,2099955
0,2400044
0,08000443
0,05000446
-0,1500001
0,17
-0,16
-0,15
-0,02999998
0,12
5,158433E-09
-0,05
0,19
-0,1
-0,13
0,25
0,2
-0,01999999
-0,2
-0,3
-0,0899961
-0,2699961
-0,09999599
-0,2299961
0,1100039
-0,01999609
-0,2099961
-0,07999963
-0,08999963
-0,1499997
-0,1
-0,14
-0,1
-0,18
-0,03
0,15
-0,19
-0,15
-0,09007887
0,2699212
0,2199211
-0,09007891
0,1399246
-0,09007537
0,1899246
0,2699246
-0,1400754
0,0499247
-0,04999643
-0,1899965
-0,1999965
-0,2499987
0,1400013
-0,1199987
0,2300013
-0,2399987
0,03000137
1,278773E-06
0,2400013
0,1600003
0,07000004
0,21
0,24
-0,18
-0,08000003
-0,1599965
-0,2499965
0,06000357
0,2200036
0,01000363
0,1400036
0,04000361
-0,2399999
-0,1799996
-0,2299996
0,2900004
-0,1199996
0,2800004
-0,1199996
0,14
-0,18
0,03000041
0,2700004
-0,2099996
-0,2499996
-0,1599996
0,01000041
-0,2799996
-0,1099996
-0,08999962
-0,1899996
0,1
-0,1
0,05
-0,11
-0,29
-0,02999908
0,02000454
0,2900044
0,05000452
0,2100044
0,1000044
0,1300044
0,2300044
-0,04000005
0,04999998
0,29
0,01000002
-0,19
0,23
0,17
0,04
-0,18
-0,2
0,03
-0,27
0,23
0,14
-0,24
-0,2299965
0,1200039
-0,2699961
-0,139996
0,01000392
-0,0999961
-0,2599961
-0,1699961
3,600998E-07
0,2200004
-0,2399997
0,02
0,16
0,28
0,13
0,22
0,02
0,2
-0,26
0,1199211
-0,01007888
-0,1600789
-0,3000788
0,2099246
-0,04007536
0,02992462
0,05992463
-0,03007538
-0,1999965
-0,2899966
-0,1399965
-0,2299965
0,1200039
-0,04999873
0,2100013
0,2200013
0,1800013
-0,06999866
-0,1899987
0,03000137
-0,07999872
-0,09000008
-0,01999996
0,08
-0,26
-0,08999652
-0,2899966
0,06000357
-0,009996418
-0,1199964
-0,2899965
-0,1699964
0,1900036
-0,2799961
0,06000045
0,2300004
0,1200004
-0,1899996
0,2000004
0,2800004
0,1300004
0,07000004
-0,2699996
-0,01999959
0,0600004
0,2800004
0,1900004
-0,09999958
-0,2399996
0,2000004
-0,2699996
-0,2199996
0,09
0,009999996
-0,1
-0,22
0,16
-0,0899991
0,1600045
-0,2599956
0,02000455
-0,2999956
0,2800044
0,2200044
-0,2999966
-0,2800001
-0,12
0,1
0,18
0,28
-0,2
0,07
0,02
-0,17
0,19
0,14
-0,12
0,29
-0,29
-0,24
0,01000396
0,1100039
-0,009995968
0,08000401
-0,1499961
0,2200039
0,04000391
-0,1299961
0,1100004
-0,0199996
-0,2400001
-0,09999998
-0,04999998
0,16
-0,03999998
0,12
0,09000003
-0,19
-0,02007886
0,03992115
0,09992112
-0,2100789
0,009921086
-0,2200754
0,08992463
-0,04007537
0,05992463
-0,05007537
0,1100034
0,05000339
0,2000035
0,1600035
-0,09999615
0,1000048
0,03000134
0,2000013
0,01000137
-0,1099987
0,07000133
-0,2299987
-0,01999863
-0,2999996
0,2800001
-0,09999993
0,21
0,2000035
-0,1899965
0,1500035
0,1700036
-0,2299964
-0,2499964
-0,2399964
3,644961E-06
-0,02999601
-0,04999603
-0,08999956
-0,2099996
-0,08999956
0,2900004
0,1800004
-0,1499996
-0,22
0,06000003
-0,2499996
0,08000042
-0,09999958
0,2900004
0,1500004
-0,1699996
0,05000037
-0,1899996
-0,1099996
0,03000037
-0,09
-0,25
0,1
-0,199999
-0,1899991
-0,1399955
0,1900045
-0,1599955
0,2000045
0,08000451
0,0400045
-0,009996456
0,13
-0,15
0,22
-0,16
-0,19
0,11
-0,2
-0,1
0,18
0,21
-0,1
-0,05999999
0,23
0,12
0,01000007
0,2000039
-0,03999604
0,02000404
-0,189996
0,2600038
0,1600039
0,02000393
-0,2099961
-0,0799996
0,1500004
-0,2000001
0,28
-0,26
-0,21
0,04000002
-0,04999998
-0,009999977
-0,28
0,04992115
0,2399211
-0,2600788
-0,2400789
0,009921086
-0,2900788
0,2399211
-0,2900754
0,2899246
0,1500034
-0,009996601
0,1400034
-0,1499965
-0,1299965
-0,0199961
0,1400048
0,2800013
0,1800013
-0,1299986
-0,03999861
0,08000137
0,1300014
-0,1999986
-0,2399987
-5,177509E-08
-0,01999994
-0,3
0,1200036
-0,2499964
-0,1999964
-0,1599964
-0,03999639
0,2000036
-0,07999603
-0,1299961
0,1700039
-0,02999601
0,1400039
0,2400004
0,01000046
-0,1299996
0,2400004
0,1600004
0,17
0,09000004
0,07000042
-0,009999594
0,2300004
4,024518E-07
-0,09999958
-0,1999996
0,1500004
-0,2299996
-0,2799996
-0,06999962
0,2200004
0,13
0,28
0,05000102
-0,2799991
-0,289999
-0,1899955
0,2500044
0,1900045
0,01000458
-0,2699956
0,23
0,2299999
-0,3
0,1
-0,13
-0,16
0,23
0,16
-0,22
0,13
0,27
-0,06999998
-0,03999998
0,23
0,28
-0,2299996
-0,1799961
0,1400039
0,2900039
-0,01999596
-0,119996
0,1700039
0,2800038
-0,04999962
-0,2599996
-0,01999964
-0,22
0,22
2,468373E-08
-0,25
0,29
0,26
-0,15
0,05000002
0,1299211
0,0599211
0,2199211
0,1899211
-0,2700788
0,2599212
0,2099211
-0,1000754
0,2399245
0,1000034
0,2400034
-0,09999657
0,01000345
0,1200034
-0,2699962
0,2300039
0,2900048
-0,1899987
0,1900014
-0,2699986
0,1400014
-0,2399986
0,2500014
0,05000141
0,06000038
0,1800004
-0,2399999
-0,2899999
-0,1399964
-0,2699965
0,1400036
-0,2999961
-0,2199961
0,2000039
-0,1999961
-0,07999603
-0,1599961
-0,06999604
0,110004
-0,2699961
0,06000044
0,2800004
0,2300004
-0,13
3,868618E-08
0,1300004
0,2600004
-0,0399996
0,1800004
0,0600004
-0,2499996
0,1700004
-0,2299996
-0,1799996
0,2100004
0,07000038
0,1
-0,13
-0,179999
-0,159999
0,190001
0,2000045
-0,2699956
0,2100044
0,2600044
0,2400035
-0,1800001
0,1099999
0,01000002
0,11
0,09000003
0,06000001
-0,009999976
0,16
-0,04
0,16
-0,18
0,08000002
-0,25
0,23
0,21
0,1000004
-0,1699961
0,100004
0,2700039
0,2600039
0,230004
0,2500039
0,2900038
0,03000037
0,1100004
0,2600004
-0,2
-0,02999998
-0,17
0,16
0,24
-0,28
-0,09999998
0,04992115
0,009921088
-0,1500789
0,2399211
-0,2400789
0,2599212
-0,01007893
-0,1200789
-0,1000754
0,1599245
-0,2599967
-0,05999656
-0,2799966
-0,1799966
-0,1099966
-0,07999619
-0,2099961
0,0600049
-0,06999864
0,2300014
-0,2999986
-0,2999986
-0,1399986
0,1100014
0,2800014
0,2900013
0,1300004
-0,04999989
-0,2799999
0,03000361
0,09000358
0,2100036
-0,2099961
-0,119996
-0,009995997
-0,08999604
0,06000397
0,1600039
-0,2399961
0,1400039
-0,02999601
0,07000045
0,03000046
-0,2099996
0,24
-0,22
0,09000004
0,1300004
0,2100004
-0,2599996
-0,2699996
-0,1999996
0,0100004
-0,2199996
-0,1099996
0,05000037
-0,1499996
0,03000037
0,250001
-0,2299991
-0,169999
-0,269999
-0,149999
0,1600045
-0,2399955
-0,1699955
-0,15
0,14
0,13
0,27
0,16
-0,06999998
-0,009999978
0,09000003
-0,03999998
-0,07999998
-0,02999998
-0,23
0,17
0,2
-0,1099999
0,29
0,03000043
0,2700039
-0,009996024
-0,009996024
-0,09999597
-0,2999961
0,2800039
0,230004
-0,2399995
-0,2799996
0,2
0,29
2,46639E-08
-0,06999998
-0,08999998
0,16
-0,28
0,1099212
0,2199211
0,2499211
-0,3000788
0,2299211
-0,1200789
0,09992111
0,09992111
0,2099211
0,1200034
0,2600033
-0,2299966
-0,2299966
0,1600034
-0,2599966
0,1700034
-0,1699965
-0,009996414
-0,1199961
-0,1299951
0,07000492
0,2200014
-0,1599986
0,1500014
0,1900014
0,2100013
0,1400013
0,02000139
4,00893E-07
-0,2199996
-0,2799961
-0,2999961
0,110004
-0,2499961
-0,239996
0,2700039
-0,05999602
0,2900039
0,09000397
0,09000397
0,1900039
0,1900039
-0,01999601
-0,1199996
-0,2899995
0,16
0,28
-0,15
0,1500004
-0,1799996
-0,1299996
0,2400004
-0,2699996
-0,0199996
-0,04999964
0,1800004
0,08000038
-0,2099996
-0,1999996
-0,2799987
0,04000098
-0,229999
-0,209999
0,130001
0,1000011
0,250001
-0,049999
-0,2800001
0,1000001
-0,23
-0,07999998
-0,16
0,2
0,08000002
-0,02999998
0,17
-0,05999995
0,26
0,14
-0,28
0,22
-0,01999995
0,17
-0,1199996
0,2100039
-0,2199961
0,2700039
-0,1799961
0,100004
-0,119996
-0,109996
-0,1599995
0,1800004
0,07000002
-0,25
0,11
0,09000003
0,14
0,07000002
-0,2500788
-0,09007885
0,2599212
0,04992111
0,07992112
0,1899211
-0,2800788
-0,2600788
-0,0600789
-0,3000001
0,07000338
-0,06999662
0,1100034
-0,04999657
-0,2299965
-0,2099965
-0,2399965
-0,09999653
0,2100035
0,220004
0,02000504
0,2800049
-0,1799951
-0,07999508
-0,07999508
0,1700048
-0,2199952
-0,0399951
-0,1799952
0,03000394
0,1600039
-0,2199961
0,09000399
-0,109996
0,08000398
0,110004
0,2600039
0,2200039
-0,2199961
-0,00999598
0,180004
-0,2599961
0,02000401
-0,1899961
-0,2799961
0,2400001
0,08
0,19
0,1
-0,01999996
0,29
-0,09999958
0,1800004
0,2200004
-0,2499996
-0,2299996
-0,2199996
0,04000036
-0,1699996
0,2100004
0,1100013
0,06000134
0,2100013
0,200001
-0,159999
-0,009998937
0,140001
-0,07999896
0,17
-0,03999994
-0,17
-0,17
-0,18
-0,07999998
-0,26
-0,01999994
-0,04999995
-0,3
-0,1099999
-0,02999994
-0,22
-0,1099999
0,1500001
0,1400004
0,04000042
-0,04999605
-0,109996
0,1700039
-0,1699961
3,968212E-06
0,02000393
-0,07999607
0,08000003
-0,13
0,17
-0,19
-0,18
0,11
0,2699212
0,02992114
-0,2100789
-0,1400789
-0,2900788
-0,1600789
-0,1500789
0,1499211
-0,2200789
-0,05007901
0,169921
0,05999985
0,1199999
-0,2200001
-0,16
0,1500035
0,1200035
-0,08999653
0,2100035
-0,2299965
-0,1399965
0,1800036
-0,2099951
0,2600049
-0,2199951
-0,1399951
0,2300049
0,2100048
0,0500049
0,2400048
0,04000489
0,2200039
-0,1499961
0,1300039
-0,2699961
0,150004
-0,119996
0,2200039
-0,129996
4,029519E-06
-0,009995977
0,1900039
-0,1399961
0,230004
0,2900039
0,07000399
0,1800036
-0,05999639
-0,23
0,22
0,05000004
-0,03999996
-0,09999996
-0,25
-0,0499996
-0,2199996
-0,0599996
-0,1699996
-0,2199996
0,1400004
-0,08999962
-0,05999865
-0,2099987
-0,1599987
0,2100013
0,2500014
-0,09999897
0,280001
-0,249999
-0,009999925
-0,02999993
0,19
-0,26
-0,08999991
0,07000006
-0,02999994
0,01000006
-0,15
0,26
0,01000006
-0,01999994
-0,01999994
0,13
0,1200001
-0,1099996
-0,2199996
0,02000042
-0,1999996
-0,1299961
0,2400039
-0,09999604
-0,2599961
0,1400039
0,02000039
-0,22
-0,25
0,09000003
-0,2800788
-0,2800788
-0,2600788
-0,1400789
0,1899211
-0,1100789
0,06992112
-0,06007889
0,1599211
-0,09007889
0,2899212
-0,03007892
0,2799211
0,06999987
-0,2100001
-0,1400001
0,05999994
-0,14
0,2300035
0,1000035
-0,0299965
0,2500034
0,1300035
-0,07999641
-0,1999965
0,1000036
-0,1999951
-0,2199952
-0,07999508
-0,2599952
0,02000492
-0,1799952
0,02000492
0,1800049
-0,01999606
-0,1799961
0,2100039
-0,1499961
0,09000399
-0,2199961
-0,239996
-0,129996
0,03000401
0,170004
0,03000401
0,1300039
-0,109996
-0,1399964
-0,1899964
0,1800036
-0,2299965
-0,14
-0,15
-0,04999996
-0,18
-0,23
-0,11
0,12
-0,2499996
-0,2199996
-0,2199996
-0,009999601
-0,2799996
0,1100004
0,1900013
0,1700013
0,2400013
-0,2099987
-0,2199987
0,2600014
-0,05999859
-0,08999897
0,06000006
0,14
0,0300001
-0,2099999
-0,0799999
0,2600001
0,19
-0,03999995
-0,08999994
0,24
0,26
0,04000005
0,27
-0,14
0,26
-0,2299996
0,06000041
-0,08999956
0,2300004
-0,2099996
-0,2099961
3,930933E-06
0,2900038
0,07000041
-0,1500789
0,2099211
0,2799212
0,1599211
0,1799211
-0,2100789
-0,2200789
-0,1500789
-0,0700789
0,1499211
0,0899211
0,009921066
0,2099211
-0,2800788
0,1499211
-0,07007902
0,2199999
0,07999984
0,1699999
-0,1600001
0,01999995
-0,03000005
0,14
0,03000349
0,2000035
0,1700035
0,0300036
0,1600035
-0,2799965
-0,1499965
-0,1799965
-0,2499951
0,1400048
0,2600047
0,2300048
4,930084E-06
0,2800048
-0,2699952
0,07000484
-0,1899961
0,1500039
0,1100039
-0,189996
-0,189996
0,06000399
-0,05999601
-0,1499961
0,03000401
0,06000398
4,024572E-06
-0,1399964
3,661208E-06
0,1300036
0,1500035
-0,2499965
0,18
-0,23
-0,04999996
0,25
-0,29
0,05000003
-0,08999997
-0,18
-0,2299996
0,0300004
0,03000042
0,1700004
0,2500014
-0,2099986
-0,1599987
-0,04999864
0,1900013
-0,2899987
0,05000141
-0,009998573
0,2000014
-0,1499996
0,02000047
0,2600001
-0,03999991
0,0100001
-0,3
-0,1999999
0,02000006
0,28
0,1200001
-0,07999994
0,29
0,21
-0,2599996
-0,07999956
0,03000043
-0,2199996
0,06000041
0,05000041
-0,06999958
-0,009999624
-0,2699996
0,07000039
-0,2699996
0,06992114
-0,1000789
-0,07007886
-0,09007891
-0,2500788
-0,03007893
-0,01007893
-0,2300789
-0,1400789
-0,1500789
0,01992107
0,04992109
-0,02007893
-0,02007893
-7,895583E-05
0,04992097
-0,1900001
0,08999992
-0,2200001
0,2099999
-0,1900001
0,1799999
-0,2600001
-0,2600001
0,2200034
0,2100035
0,1000036
-0,05999641
-0,2999965
-0,2499965
-0,09999642
-0,1799955
0,2400048
0,2300048
0,1900048
-0,1999952
0,07000478
0,1900048
-0,02999519
0,0100039
-0,1699961
-0,1599961
0,120004
0,06000399
0,02000401
0,170004
-0,2599961
0,09000399
-0,2499964
-0,2999965
-0,1799964
0,1900036
0,2400035
0,1600035
0,2200035
0,18
-0,14
-0,12
-0,01999997
-0,17
0,16
-0,26
-0,23
-0,2
0,2400004
-0,09999956
0,1000004
0,05000139
0,09000141
-0,1099986
0,2800013
-0,08999863
-0,1799987
0,07000137
0,07000141
0,2600004
-0,2499996
-0,02999953
0,02000047
-0,2499996
0,1700001
-0,2899999
-0,1099999
-0,3
0,2300001
1,144952E-07
-0,13
-0,22
-0,2999996
-0,2999996
0,2400004
-0,1199996
-0,09999958
-0,1699996
0,1400004
-0,2199996
-0,2299997
0,02000033
0,1099215
-0,1900789
-0,2300789
-0,02007892
-0,3000788
0,1599211
-0,2900788
0,1999211
0,0699211
-0,1400789
-0,2200789
0,2499211
0,1299211
0,1799211
0,1499211
-0,07007887
-0,05007898
0,1499999
0,1499999
-0,2300001
-0,1300001
-0,07000008
-0,2800001
0,01999994
0,03999994
0,07999992
-0,04999996
0,09000356
-0,2999965
0,2900035
0,2300035
-0,009996414
0,1900035
0,02000353
0,1600045
-0,09999559
0,2700044
-0,1199952
-0,2999953
0,0200048
0,2800047
-0,2799962
0,2300039
-0,2999962
0,2900038
-0,2499961
-0,1399961
-0,2499961
0,020004
0,2700035
0,1700036
0,2800035
-0,06999639
-0,2999965
-0,1499965
-0,1299965
-0,2099965
0,05
0,24
-0,08999997
-0,09999996
-0,07999996
0,19
0,08000006
-0,06999994
0,09000006
-0,2399999
-0,2
-0,2799986
-0,05999861
-0,0499986
-0,2299986
0,1500014
-0,1799986
-0,2199986
-0,1599986
1,414889E-06
-0,2799996
0,02000047
-0,009999528
-0,08999953
-0,1099995
-0,2399995
-0,2699996
-0,1899996
0,2400004
-0,2499996
0,1900004
-0,1299996
-0,01999954
-0,1899996
-0,07999958
-0,0599996
0,08000042
-0,1799996
0,0500004
-0,1799996
-0,1499996
0,06000032
-0,1100785
0,2799216
-0,2400789
-0,2700788
-0,2300789
0,009921075
0,0999211
-0,1700789
-0,1900789
0,2099211
-0,3000788
0,1699211
-0,2400789
-0,2800788
-0,05007887
-0,3000788
-0,2900789
-0,1500001
0,1599999
-0,04000007
-0,01000008
0,03999992
-0,1300001
0,2199999
0,02999994
-0,1700001
-0,28
0,12
-0,24
-0,3
0,02000005
-0,2899965
-0,1599965
-0,04999647
-0,1699965
4,535819E-06
-0,1499956
-0,1399956
0,2800043
0,01000442
4,860016E-06
0,1000048
0,2400048
0,2700038
-0,1299961
0,1000039
-0,2599965
-0,0999964
0,2900035
0,0800036
-0,1999964
-0,0999964
-0,03999638
0,1800036
-0,2299965
0,1500035
0,1100035
-0,17
-0,01
0,24
-0,01
0,28
-0,24
-0,2
-0,1199999
0,28
0,03000005
0,1100001
0,180001
0,240001
0,1400014
0,1400014
-0,1399986
-0,1599986
0,2600014
0,1800014
0,09000141
-0,1099996
0,05000041
0,2300005
-0,2199996
0,1200005
0,1300004
-0,01999955
0,1900004
-0,1799996
0,04000044
-0,03999956
-0,1299996
-0,01999954
0,1800004
-0,2799996
0,1600004
-0,2699996
-0,2799996
0,02000041
0,03000041
0,1300004
0,09000035
-0,1200785
-0,2300785
-0,0700789
0,009921075
-0,2600788
0,2299211
-0,0400789
-0,2700788
-0,1800789
0,2099211
-0,1200789
-0,2500788
-0,08007887
0,06992113
0,05992113
0,1599211
0,1599211
-0,1600001
0,07999988
-0,09000012
-0,2500001
-0,07000008
-0,2400001
-0,07000007
-0,1000001
-0,2400001
0,1199999
0,28
-0,17
-0,19
-0,06
-0,15
0,26
0,09
-0,13
0,15
0,140001
-0,199999
0,08000086
0,05000088
-0,06999908
-0,2099991
-0,07999907
0,04000095
0,29
-0,06999653
-0,0499965
-0,0599965
-0,1999964
-0,1299964
-0,1499964
-0,1299964
0,2500035
-0,08999641
0,04000354
0,2400035
-0,2999966
0,29
-0,19
0,28
-0,19
-0,03
0,2
-0,29
-0,02999995
-0,27
-0,2099999
0,1200001
-0,09999994
0,200001
-0,289999
0,06000103
0,06000139
-0,2799986
0,2800014
0,2500014
-0,2899986
0,02000141
-0,05999959
0,2700004
0,1000004
-0,1299996
0,1700004
0,2500004
0,2500004
-0,2399996
-0,1099995
0,04000044
-0,2499996
-0,07999954
0,1500004
0,1500004
0,2800004
0,1000005
-0,06999955
0,2500004
-0,1099995
-0,09999958
-0,2399996
0,2500004
-0,1600785
0,1199215
-0,2600788
-0,1000789
-0,1500789
0,08992114
0,1099211
0,2199211
-0,07007887
0,07992113
0,2199211
-0,02007888
0,04992113
-0,1600789
-0,1200789
0,2399211
0,09999999
0,2399999
-0,2500001
-0,1000001
0,1399999
0,03999993
0,06999993
0,2799999
-0,2500001
-0,1400001
0,08000004
0,25
0,09
-0,27
0,06
0,1
-0,05
-0,02
0,12
0,27
-0,1799991
-0,02999901
0,100001
-0,1399991
-0,04999905
-0,03999905
-0,1999991
-0,02999903
-0,009996482
-0,1399965
-0,2099965
0,1300035
-0,07999653
-0,009996377
-0,1599964
-0,04999639
-0,1499964
0,1600035
-0,1899965
0,09000352
-0,25
-0,24
-0,16
0,28
-0,29
0,15
-0,17
-0,1
-0,29
-0,18
-0,28
-0,2399999
0,01000104
-0,09999897
0,110001
-0,169999
-0,1699986
0,1900014
0,2500014
-0,1199986
-0,05999861
-0,1999996
-0,01999957
0,1800004
-0,2399996
0,2400004
0,03000045
-0,1999996
0,1800004
-0,1899996
-0,04999956
0,08000045
-0,1399996
-0,2699996
0,2200004
-0,2399996
-0,1799996
0,1200005
-0,1599996
0,09000046
-0,1799996
0,2000004
-0,04999963
-0,1299996
-0,1600785
-0,2800784
-0,1900789
-0,2900788
0,1699211
-0,2900788
-0,1900789
-0,05007886
0,2099211
0,2299211
-0,1500789
0,2499211
0,06992113
-0,04007887
0,21
-0,24
-0,18
-0,2700001
0,01999994
0,1999999
0,1599999
-0,07000007
0,1999999
-0,02000006
-0,02000006
0,05000005
-0,3
0,01
0,04
-0,15
-0,25
0,03
0,14
-0,19
0,04
-0,27
0,12
0,01000099
-0,07999903
0,1600009
0,2900009
-0,2999991
0,1700009
-0,07000005
0,1800035
0,2700034
-0,009996484
0,1500035
0,2000035
-0,2199964
-0,02999638
-0,2099964
-0,1199965
0,05000353
3,532746E-06
0,2000035
-0,18
0,13
0,03
-0,18
-0,3
0,1
0,2
0,05999999
0,18
0,11
-0,2
-0,04999995
0,220001
0,170001
-0,05999897
0,100001
0,100001
0,150001
0,2000014
0,1500014
0,06000139
-0,0399996
0,09000042
0,0100004
-0,2499996
-0,1599996
0,1000004
-0,03999956
0,1700004
0,2500004
-0,1499996
-0,2099996
0,1000005
0,1300004
0,2100004
0,2800004
0,2800004
-0,1999996
0,1500004
-0,1099995
-0,2099996
-0,1899996
0,05000037
-0,2299996
0,1599215
-0,2700788
0,2299211
-0,2800788
0,1399211
0,1699211
-0,01007888
0,02992112
0,1499211
0,1399211
-0,1600789
0,1599211
-0,26
-0,28
-0,24
0,16
0,29
-0,06999997
0,1799999
0,2199999
-0,05000006
-0,2900001
0,1399999
-0,2200001
0,26
-0,05
0,12
-0,01
0,29
0,01
0,06
-0,05
0,21
0,01
0,14
-0,28
-0,09
0,08000097
0,120001
-0,299999
-0,03999905
0,1200009
-0,05999904
0,26
-0,009996478
-0,2499965
0,2400035
0,2600034
-0,2599966
0,2900035
-0,1099964
0,1500035
-0,07999648
0,1200035
0,1200035
0,15
-0,11
0,15
-0,25
-0,12
-0,26
0,29
0,03
-0,16
-0,22
0,18
0,24
0,02000005
-0,129999
-0,259999
-0,05999897
-0,08999898
0,110001
0,170001
-0,03999897
0,120001
0,06000003
0,1800004
0,08000042
0,2100004
4,000976E-07
0,1600004
-0,0499996
0,2900004
-0,1899996
0,2000004
-0,2799996
-0,2199996
0,1900004
0,2800004
0,1200005
0,06000044
0,02000045
-0,06999955
0,2500004
-0,03999959
-0,2099996
-0,1999996
0,1700004
0,1
-0,2000789
-0,09007887
0,07992113
0,2899212
0,03992113
0,2699212
-0,2600788
0,04992114
-0,1400789
0,2899212
-0,2200789
-7,889187E-05
-0,24
-0,16
0,17
-0,12
0,03000004
0,03000004
-0,28
-0,1200001
0,1599999
0,1499999
0,1199999
-0,11
-0,09
0,18
0,19
-0,13
0,22
0,29
0,03
-0,04
-0,29
0,27
0,11
-0,21
-0,23
-0,05
-0,05999902
-0,169999
0,150001
-0,02999903
0,22
0,2
0,1900035
-0,1799965
-0,009996484
-0,1299965
0,0500035
0,06000361
0,2300036
0,05000353
-0,2299965
-0,01999647
0,24
-0,06
0,08
-0,12
0,08
0,16
-0,22
0,16
0,12
-0,13
-0,05
0,12
-0,00999998
-0,22
0,03000002
0,08000103
-0,189999
-0,219999
-0,209999
0,180001
0,03000102
-0,11
0,23
0,22
-0,009999597
-0,2099996
-0,1199996
0,0100004
0,1200004
-0,1499996
-0,2399996
0,2800004
-0,1099995
0,02000045
-0,2699996
-0,1399996
4,531679E-07
0,1800004
0,1700004
0,08000045
-0,2599996
0,2800004
0,1400004
0,04000004
-0,05999995
-0,23
0,12
-0,1000789
0,1399211
0,2599212
-0,05007887
0,1499211
-0,04007886
-0,12
0,25
0,04
-6,572158E-09
0,16
0,19
-0,01000001
-0,03
0,07000003
-0,26
-0,02999995
-0,19
-0,03
-0,08
0,27
-0,25
-0,14
-0,22
-0,08
-0,1
1,277225E-09
0,13
0,04
0,05
-0,11
-0,03
-0,09
-0,04
0,28
0,16
0,15
0,19
-0,1
0,02000007
-0,3
0,05999997
-0,01000002
0,16
0,1400035
0,2900034
-0,1299965
-0,1899965
-0,02999646
0,2400035
-0,1299965
-0,06999648
0,27
0,14
0,15
-0,15
-0,02
0,18
-0,27
-0,06
0,25
0,04
-0,09
0,29
-0,19
-0,12
-0,02999998
-0,27
-0,00999998
0,200001
-0,119999
0,07000097
0,200001
0,24
-0,08
-0,1
0,06
-1,894939E-10
-0,07
-0,07999962
-0,2699996
-0,1099996
-0,1399996
0,09000042
-0,1199996
0,2600004
4,000581E-07
0,06000044
0,1000005
0,1200005
-0,1199995
0,2600004
0,1600004
0,2600004
0,07000042
-0,03999995
-0,15
-0,00999995
0,05000005
-0,04
0,01
-0,1600789
0,1199211
0,06992114
0,05
0,09
0,02
-0,28
-0,08
-0,05
0,09000003
0,27
-0,04999996
0,1
-0,1
0,06
-0,12
0,11
0,11
-0,16
0,17
0,2
-0,08
0,16
0,02
-0,08
0,21
0,23
-0,13
0,26
-0,26
-0,24
0,25
0,27
0,2
0,18
0,07
0,09
-0,26
0,08
-0,06999994
-0,02999992
-0,1699999
-0,15
-0,27
-0,0999966
0,01000355
-0,2499965
0,05000353
-0,2899965
-0,23
0,04
0,18
-0,1
0,08
0,1
0,22
0,25
